{
  "agent": {
    "action_size": 4,
    "cue_exploration_bias": 0.0,
    "cue_regularization": 0.025,
    "epsilon": 0.05,
    "state_size": 6,
    "target_weights": [
      [
        0.09241682101445468,
        0.0827844554117608,
        0.01523355957317709,
        0.002427843536971607,
        -9.4e-323,
        -9.4e-323,
        0.15480130323200775
      ],
      [
        0.2848743371936392,
        0.21778931515707461,
        -0.05701835235101111,
        0.026834394695200225,
        -9.4e-323,
        -9.4e-323,
        0.20288415075735144
      ],
      [
        0.10049314837705503,
        0.13478012882234305,
        0.030617969957683865,
        0.037779439318778564,
        9.4e-323,
        -9.4e-323,
        0.117102886891271
      ],
      [
        0.21865949168802937,
        0.2692488375460638,
        0.01790559554427297,
        -0.024864460323633483,
        -9.4e-323,
        9.4e-323,
        0.21796973699902206
      ]
    ],
    "weights": [
      [
        0.09379355206132906,
        0.0843613124486542,
        0.015938092745595742,
        0.0029322507193712288,
        -9.4e-323,
        -9.4e-323,
        0.15688256745130078
      ],
      [
        0.2893232348344858,
        0.2215149274096973,
        -0.05737888021993177,
        0.027197152214503466,
        -9.4e-323,
        -9.4e-323,
        0.20697252052927745
      ],
      [
        0.101951577345652,
        0.13618440782146674,
        0.031158594907063308,
        0.03837421423763127,
        9.4e-323,
        -9.4e-323,
        0.11910194080924738
      ],
      [
        0.2194355568669505,
        0.27024622244247637,
        0.018367865995823147,
        -0.02462350958957424,
        -9.4e-323,
        9.4e-323,
        0.2192080726294936
      ]
    ]
  },
  "cues": [],
  "env": {
    "delay": 0,
    "grid_size": 10,
    "max_steps": 200,
    "noise": 0.0,
    "num_cues": 0,
    "reward_sparse_prob": 1.0
  },
  "seed": 4
}