{
  "agent": {
    "action_size": 4,
    "cue_exploration_bias": 0.0,
    "cue_regularization": 0.025,
    "epsilon": 0.05,
    "state_size": 6,
    "target_weights": [
      [
        0.053315613914655904,
        0.0798102286283155,
        -0.006898061179838179,
        0.019651365438724838,
        -9.4e-323,
        -9.4e-323,
        0.07492888110254349
      ],
      [
        0.2738319299039646,
        0.18088717178614266,
        -0.05410282254409486,
        0.00026064392998718754,
        9.4e-323,
        -9.4e-323,
        0.18256408555958267
      ],
      [
        0.09203978649109276,
        0.05691737854580849,
        -0.021270467696505792,
        0.013878852981611279,
        9.4e-323,
        -9.4e-323,
        0.0641373540465788
      ],
      [
        0.21199320770787589,
        0.22798162263598354,
        0.019664478980748877,
        -0.05798730104611976,
        -9.4e-323,
        -9.4e-323,
        0.19498114788242973
      ]
    ],
    "weights": [
      [
        0.05452053753434373,
        0.08076745849099873,
        -0.006536003149292322,
        0.020261117226275296,
        -9.4e-323,
        -9.4e-323,
        0.07649586275277717
      ],
      [
        0.28008479538407055,
        0.18593954973856783,
        -0.05426216849407107,
        0.001301785507691764,
        9.4e-323,
        -9.4e-323,
        0.1886576050897126
      ],
      [
        0.09290883917936736,
        0.0575771506127956,
        -0.02106687939545228,
        0.014291721903952285,
        9.4e-323,
        -9.4e-323,
        0.06520999503590692
      ],
      [
        0.21480731270453213,
        0.23153927681983683,
        0.020391863192745205,
        -0.0580034660213206,
        -9.4e-323,
        -9.4e-323,
        0.1985226370910823
      ]
    ]
  },
  "cues": [],
  "env": {
    "delay": 0,
    "grid_size": 10,
    "max_steps": 200,
    "noise": 0.0,
    "num_cues": 0,
    "reward_sparse_prob": 1.0
  },
  "seed": 14
}