{
  "agent": {
    "action_size": 4,
    "cue_exploration_bias": 0.0,
    "cue_regularization": 0.025,
    "epsilon": 0.05,
    "state_size": 6,
    "target_weights": [
      [
        0.07287837749641526,
        0.07611195090834293,
        -0.01614678861602562,
        -0.04255011377714781,
        9.4e-323,
        9.4e-323,
        0.03746585127163739
      ],
      [
        0.18858943118272378,
        0.151949258311765,
        -0.0592086976771579,
        -0.005828595516475127,
        -9.4e-323,
        9.4e-323,
        0.14876684973061902
      ],
      [
        0.06046539259654538,
        0.08940009645530925,
        -0.040532930506062194,
        -0.027724303951657054,
        -9.4e-323,
        9.4e-323,
        0.027576327455834777
      ],
      [
        0.1310231515358701,
        0.21856779235134036,
        -0.029890224004235206,
        -0.06037791708143537,
        -9.4e-323,
        9.4e-323,
        0.14149185300725795
      ]
    ],
    "weights": [
      [
        0.07287837749641526,
        0.07611195090834293,
        -0.01614678861602562,
        -0.04255011377714781,
        9.4e-323,
        9.4e-323,
        0.03746585127163739
      ],
      [
        0.1920692463030281,
        0.15468830895674554,
        -0.05925628390428258,
        -0.005135417268276042,
        -9.4e-323,
        9.4e-323,
        0.1521990786237987
      ],
      [
        0.06229008549121669,
        0.09118974223404541,
        -0.040173850934219824,
        -0.02733017726387955,
        -9.4e-323,
        9.4e-323,
        0.029760099922348453
      ],
      [
        0.13211482788378243,
        0.22004417841995313,
        -0.029362097967451317,
        -0.06023450076535192,
        -9.4e-323,
        9.4e-323,
        0.1431116553919542
      ]
    ]
  },
  "cues": [],
  "env": {
    "delay": 0,
    "grid_size": 10,
    "max_steps": 200,
    "noise": 0.0,
    "num_cues": 0,
    "reward_sparse_prob": 1.0
  },
  "seed": 17
}