{
  "agent": {
    "action_size": 4,
    "cue_exploration_bias": 0.0,
    "cue_regularization": 0.025,
    "epsilon": 0.05,
    "state_size": 6,
    "target_weights": [
      [
        0.06652746093734568,
        0.07483183355855293,
        0.0017898196108681592,
        -0.02140188975769677,
        9.4e-323,
        -9.4e-323,
        0.06944558994894694
      ],
      [
        0.22325056573457644,
        0.2018893012665163,
        -0.04361314260821595,
        0.00762902628866752,
        9.4e-323,
        -9.4e-323,
        0.20178398944375645
      ],
      [
        0.07898454233782738,
        0.07846214527765798,
        0.020955059118573545,
        0.0037880500641342832,
        9.4e-323,
        9.4e-323,
        0.05686154045694678
      ],
      [
        0.18543246145167364,
        0.26277843154852654,
        0.014441529668457876,
        -0.06547452103368581,
        -9.4e-323,
        -9.4e-323,
        0.18169826871622577
      ]
    ],
    "weights": [
      [
        0.06675392390018219,
        0.07505829652138943,
        0.0020728983144137937,
        -0.021118811054151136,
        9.4e-323,
        -9.4e-323,
        0.06995513161532908
      ],
      [
        0.22491614548855787,
        0.20312098098704387,
        -0.04368828119551436,
        0.007987787734822994,
        9.4e-323,
        -9.4e-323,
        0.20337443061043947
      ],
      [
        0.08053630603074616,
        0.08020787943219161,
        0.021149029580188394,
        0.0037880500641342832,
        9.4e-323,
        9.4e-323,
        0.0586072746114804
      ],
      [
        0.1884456093727304,
        0.26635030233993573,
        0.015244323267925788,
        -0.06523045030457018,
        -9.4e-323,
        -9.4e-323,
        0.1855142102367504
      ]
    ]
  },
  "cues": [],
  "env": {
    "delay": 0,
    "grid_size": 10,
    "max_steps": 200,
    "noise": 0.0,
    "num_cues": 0,
    "reward_sparse_prob": 1.0
  },
  "seed": 0
}