{
  "agent": {
    "action_size": 4,
    "cue_exploration_bias": 0.0,
    "cue_regularization": 0.025,
    "epsilon": 0.05,
    "state_size": 6,
    "target_weights": [
      [
        0.0455475809183162,
        0.015072011431621578,
        -0.017038126106788527,
        -0.01743295316067945,
        9.4e-323,
        9.4e-323,
        0.028748173096135317
      ],
      [
        0.19384837937879365,
        0.14059158077877024,
        -0.08355734083593075,
        -0.013340722144782125,
        9.4e-323,
        9.4e-323,
        0.11368427940143419
      ],
      [
        0.046630669913673116,
        0.043157422337337714,
        -0.014411393516706025,
        -0.032235637600201275,
        9.4e-323,
        -9.4e-323,
        0.0288649441331176
      ],
      [
        0.16376258142351935,
        0.1739870194840933,
        -0.005400214518280195,
        -0.03448221699523073,
        9.4e-323,
        9.4e-323,
        0.10523695683733574
      ]
    ],
    "weights": [
      [
        0.046094907968966335,
        0.01577571763960033,
        -0.016881746949459916,
        -0.01743295316067945,
        9.4e-323,
        9.4e-323,
        0.029451879304114068
      ],
      [
        0.1962264781524089,
        0.1424067105671216,
        -0.08402724182609825,
        -0.013247654149685673,
        9.4e-323,
        9.4e-323,
        0.11559247718488191
      ],
      [
        0.0467817619971479,
        0.043157422337337714,
        -0.014290519849926202,
        -0.031963671849946675,
        9.4e-323,
        -9.4e-323,
        0.029136909883372204
      ],
      [
        0.16608403403637334,
        0.17686743301815241,
        -0.004864699681248879,
        -0.034505663079404364,
        9.4e-323,
        9.4e-323,
        0.10809392428722102
      ]
    ]
  },
  "cues": [],
  "env": {
    "delay": 0,
    "grid_size": 10,
    "max_steps": 200,
    "noise": 0.0,
    "num_cues": 0,
    "reward_sparse_prob": 1.0
  },
  "seed": 10
}