{
  "agent": {
    "action_size": 4,
    "cue_exploration_bias": 0.0,
    "cue_regularization": 0.025,
    "epsilon": 0.05,
    "state_size": 6,
    "target_weights": [
      [
        0.053727037324175164,
        0.07146836187781293,
        0.004122298276557456,
        0.02187119840029266,
        -9.4e-323,
        -9.4e-323,
        0.040093506106942324
      ],
      [
        0.21986311494904517,
        0.2016628791067334,
        -0.055535314658691444,
        0.01726266492789524,
        -9.4e-323,
        -9.4e-323,
        0.1989000624945754
      ],
      [
        0.058830140118399016,
        0.06342824655758972,
        0.00883781553017089,
        0.006168714991863282,
        -9.4e-323,
        9.4e-323,
        0.09512699811331031
      ],
      [
        0.18785866582990424,
        0.2579195420163743,
        0.0032534431134266587,
        -0.05331392710726334,
        9.4e-323,
        -9.4e-323,
        0.17906063026004335
      ]
    ],
    "weights": [
      [
        0.053727037324175164,
        0.07148852979934835,
        0.004303809570376178,
        0.02203254177257597,
        -9.4e-323,
        -9.4e-323,
        0.040275017400761046
      ],
      [
        0.22105049514863542,
        0.20271729444472616,
        -0.055249822342673977,
        0.017681122105510188,
        -9.4e-323,
        -9.4e-323,
        0.20037293501018313
      ],
      [
        0.059023821155131835,
        0.0637405268629873,
        0.009290453854531583,
        0.006502754047559213,
        -9.4e-323,
        9.4e-323,
        0.09577331747440382
      ],
      [
        0.191205299701551,
        0.2619381996435621,
        0.0038495752468796617,
        -0.05338981872935146,
        9.4e-323,
        -9.4e-323,
        0.18300339626514311
      ]
    ]
  },
  "cues": [],
  "env": {
    "delay": 0,
    "grid_size": 10,
    "max_steps": 200,
    "noise": 0.0,
    "num_cues": 0,
    "reward_sparse_prob": 1.0
  },
  "seed": 13
}