{
  "agent": {
    "action_size": 4,
    "cue_exploration_bias": 0.0,
    "cue_regularization": 0.025,
    "epsilon": 0.05,
    "state_size": 6,
    "target_weights": [
      [
        0.11584751321963428,
        0.14209485909506003,
        0.009786457754917086,
        -0.004199054145250403,
        -9.4e-323,
        -9.4e-323,
        0.14084121755257634
      ],
      [
        0.304178061428775,
        0.22482934717362127,
        -0.06700313620463845,
        0.019098809832709264,
        -9.4e-323,
        9.4e-323,
        0.21827703876575097
      ],
      [
        0.10025587043721443,
        0.1058174867482806,
        -0.0007300533323921425,
        0.05326800911070865,
        9.4e-323,
        -9.4e-323,
        0.09060360384491473
      ],
      [
        0.22655803673796507,
        0.2930635283831378,
        0.014903618492417916,
        -0.03761396218711078,
        -9.4e-323,
        -9.4e-323,
        0.22940615257786143
      ]
    ],
    "weights": [
      [
        0.11900412906676361,
        0.14487186562591983,
        0.01056159710107904,
        -0.0030443054828189512,
        -9.4e-323,
        -9.4e-323,
        0.1447729727458676
      ],
      [
        0.3065030056177585,
        0.2269227771386345,
        -0.06636715398360507,
        0.01996630627771291,
        -9.4e-323,
        9.4e-323,
        0.2212379651757681
      ],
      [
        0.10159603589909498,
        0.1069102687581663,
        -0.0003652141347471842,
        0.05388023176034847,
        9.4e-323,
        -9.4e-323,
        0.09230860850444024
      ],
      [
        0.22757393381891614,
        0.2944571885419002,
        0.01565619627355393,
        -0.0372391474837862,
        -9.4e-323,
        -9.4e-323,
        0.2311746274399487
      ]
    ]
  },
  "cues": [],
  "env": {
    "delay": 0,
    "grid_size": 10,
    "max_steps": 200,
    "noise": 0.0,
    "num_cues": 0,
    "reward_sparse_prob": 1.0
  },
  "seed": 1
}