{
  "agent": {
    "action_size": 4,
    "cue_exploration_bias": 0.0,
    "cue_regularization": 0.025,
    "epsilon": 0.05,
    "state_size": 6,
    "target_weights": [
      [
        0.06942378345228663,
        0.08066928589658032,
        0.0008209621724621962,
        -0.0009941172642387282,
        -9.4e-323,
        -9.4e-323,
        0.08042048844085849
      ],
      [
        0.22459242044575453,
        0.19797410393324402,
        -0.08075017927810434,
        0.02216711767943688,
        -9.4e-323,
        9.4e-323,
        0.19512431777536307
      ],
      [
        0.08420885893515477,
        0.08017344454593124,
        0.019120230427364444,
        -0.0021095059731307685,
        9.4e-323,
        9.4e-323,
        0.06836744069184836
      ],
      [
        0.17304830999768858,
        0.26022493727008045,
        -0.005815267452087948,
        -0.03210145402394445,
        9.4e-323,
        9.4e-323,
        0.18483441530157585
      ]
    ],
    "weights": [
      [
        0.07033769354172588,
        0.0814931854660918,
        0.0010285929926408949,
        -0.000696475924132262,
        -9.4e-323,
        -9.4e-323,
        0.08154202935047644
      ],
      [
        0.2268004897538945,
        0.1996948953839662,
        -0.08041686811238764,
        0.022987706702571498,
        -9.4e-323,
        9.4e-323,
        0.19766569824921976
      ],
      [
        0.08590041792256599,
        0.08164563474946583,
        0.019808307027580317,
        -0.0012020605890382752,
        9.4e-323,
        9.4e-323,
        0.07074707627947545
      ],
      [
        0.17713307162905537,
        0.26528551579478776,
        -0.004982418045866195,
        -0.03224442151106321,
        9.4e-323,
        9.4e-323,
        0.18975202633916435
      ]
    ]
  },
  "cues": [],
  "env": {
    "delay": 0,
    "grid_size": 10,
    "max_steps": 200,
    "noise": 0.0,
    "num_cues": 0,
    "reward_sparse_prob": 1.0
  },
  "seed": 22
}