{
  "agent": {
    "action_size": 4,
    "cue_exploration_bias": 0.0,
    "cue_regularization": 0.025,
    "epsilon": 0.05,
    "state_size": 6,
    "target_weights": [
      [
        0.08835363874958599,
        0.09380106581365669,
        0.0334033988969078,
        0.04392449258777993,
        9.4e-323,
        9.4e-323,
        0.06841163571618661
      ],
      [
        0.2795104109579019,
        0.2279930019213785,
        -0.058359194081457,
        0.036937815029100186,
        -9.4e-323,
        -9.4e-323,
        0.1990697543827322
      ],
      [
        0.0947245195676635,
        0.09569545678371973,
        0.003137164110911571,
        0.016193983268882363,
        -9.4e-323,
        9.4e-323,
        0.14039270784683366
      ],
      [
        0.18834375186529345,
        0.2794705210718381,
        -0.01189355749463238,
        -0.036046653832754356,
        -9.4e-323,
        -9.4e-323,
        0.2408321812087003
      ]
    ],
    "weights": [
      [
        0.08954110735201994,
        0.09480263145334454,
        0.03413916246266898,
        0.04484615911628722,
        9.4e-323,
        9.4e-323,
        0.07033486788438173
      ],
      [
        0.27964191464340327,
        0.22782956636214258,
        -0.058183152787442086,
        0.0374087955678522,
        -9.4e-323,
        -9.4e-323,
        0.19937729936224835
      ],
      [
        0.0978384796560439,
        0.09883749124336949,
        0.003516044542037244,
        0.01654478932873867,
        -9.4e-323,
        9.4e-323,
        0.14388554836633974
      ],
      [
        0.19085074228400245,
        0.28235674575719777,
        -0.011243431545713854,
        -0.035775762150486806,
        -9.4e-323,
        -9.4e-323,
        0.24398929757632767
      ]
    ]
  },
  "cues": [],
  "env": {
    "delay": 0,
    "grid_size": 10,
    "max_steps": 200,
    "noise": 0.0,
    "num_cues": 0,
    "reward_sparse_prob": 1.0
  },
  "seed": 5
}