{
  "agent": {
    "action_size": 4,
    "cue_exploration_bias": 0.0,
    "cue_regularization": 0.025,
    "epsilon": 0.05,
    "state_size": 6,
    "target_weights": [
      [
        0.01653904045220268,
        0.04711720403433446,
        -0.021117804702529608,
        0.004892881058241808,
        -9.4e-323,
        9.4e-323,
        -0.022767659935660964
      ],
      [
        0.20670086990711758,
        0.13207103551539154,
        -0.0527304538332828,
        -0.013413744494701861,
        9.4e-323,
        -9.4e-323,
        0.1480586595161227
      ],
      [
        0.066219858999404,
        0.05076679524614648,
        -0.00022400650236319318,
        -0.010633872399210074,
        9.4e-323,
        -9.4e-323,
        0.023983705798773295
      ],
      [
        0.17700539275611274,
        0.18816956248979239,
        0.010046319000566418,
        -0.04823069201907395,
        -9.4e-323,
        -9.4e-323,
        0.1325579729677721
      ]
    ],
    "weights": [
      [
        0.01796327787340486,
        0.048705854648574534,
        -0.02075481018271171,
        0.005091462385021817,
        -9.4e-323,
        9.4e-323,
        -0.020980427994640886
      ],
      [
        0.21066954347332661,
        0.13553550288728297,
        -0.05195428880581563,
        -0.012133373272916899,
        9.4e-323,
        -9.4e-323,
        0.15280349810979899
      ],
      [
        0.06648681909203318,
        0.05092207760275812,
        0.0002868341872858716,
        -0.010011353973543469,
        9.4e-323,
        -9.4e-323,
        0.02476150658105154
      ],
      [
        0.17530026204949728,
        0.18687415477140987,
        0.01031852101295652,
        -0.04836821299491672,
        -9.4e-323,
        -9.4e-323,
        0.13112504427354676
      ]
    ]
  },
  "cues": [],
  "env": {
    "delay": 0,
    "grid_size": 10,
    "max_steps": 200,
    "noise": 0.0,
    "num_cues": 0,
    "reward_sparse_prob": 1.0
  },
  "seed": 24
}