{
  "agent": {
    "action_size": 4,
    "cue_exploration_bias": 0.0,
    "cue_regularization": 0.025,
    "epsilon": 0.05,
    "state_size": 6,
    "target_weights": [
      [
        0.10992311460699551,
        0.15507269921066524,
        0.03549001748700398,
        0.010953168052756878,
        -9.4e-323,
        -9.4e-323,
        0.1732500105128446
      ],
      [
        0.30434524482549175,
        0.22918305852011703,
        -0.05552767808432716,
        0.034291209396037345,
        -9.4e-323,
        9.4e-323,
        0.28332009596960367
      ],
      [
        0.15737394859462533,
        0.18371578722570392,
        0.039337181359820825,
        0.01785064658627648,
        9.4e-323,
        9.4e-323,
        0.17279309507652213
      ],
      [
        0.247063926418396,
        0.3002272516564205,
        0.0262489774430487,
        -0.05235704933423841,
        -9.4e-323,
        -9.4e-323,
        0.27105019681575754
      ]
    ],
    "weights": [
      [
        0.10992311460699551,
        0.15507269921066524,
        0.03554478520234762,
        0.011007935768100517,
        -9.4e-323,
        -9.4e-323,
        0.17330477822818824
      ],
      [
        0.30517477892497646,
        0.22990653534798505,
        -0.0555438983243587,
        0.034381046427622464,
        -9.4e-323,
        9.4e-323,
        0.2841334098290569
      ],
      [
        0.1574402641721958,
        0.18380420799579786,
        0.03949886091288035,
        0.017990220946812522,
        9.4e-323,
        9.4e-323,
        0.17302109020715215
      ],
      [
        0.24731743603622938,
        0.3005811593360636,
        0.0265084770671127,
        -0.05219794777198413,
        -9.4e-323,
        -9.4e-323,
        0.27156320605765494
      ]
    ]
  },
  "cues": [],
  "env": {
    "delay": 0,
    "grid_size": 10,
    "max_steps": 200,
    "noise": 0.0,
    "num_cues": 0,
    "reward_sparse_prob": 1.0
  },
  "seed": 18
}