{
  "agent": {
    "action_size": 4,
    "cue_exploration_bias": 0.0,
    "cue_regularization": 0.025,
    "epsilon": 0.05,
    "state_size": 11,
    "target_weights": [
      [
        0.10133540081548101,
        0.08216732505298678,
        0.027183792729031913,
        0.023913786852626795,
        -1.7762328649918115e-05,
        -7.629046251481601e-06,
        1.934233677735045e-83,
        7.352281323892424e-179,
        3.184941414328789e-176,
        3.7531685381317535e-19,
        9.739070443980631e-205,
        0.137193772210113
      ],
      [
        0.2667670214318418,
        0.20835703841585376,
        -0.07722743275609976,
        0.019978187979608323,
        2.6042297417399823e-05,
        0.00018809788611960009,
        1.5375079684420074e-10,
        -9.4e-323,
        -2.6285138303642233e-106,
        8.736448976034674e-07,
        3.1937693547871774e-297,
        0.24759459244336698
      ],
      [
        0.12780968107589297,
        0.06436385740931089,
        0.027097722349007928,
        0.046894570459808806,
        -4.659369026672905e-05,
        -0.0004410164119902022,
        6.817184238716542e-58,
        -9.4e-323,
        2.2111814699690265e-171,
        1.391376433820688e-08,
        9.4e-323,
        0.11376798969443556
      ],
      [
        0.23967563298313924,
        0.2843049301144536,
        0.03963939267574396,
        -0.027236502818606834,
        -1.9516922465257027e-05,
        -0.0003971686612140301,
        -1.5851360330727134e-05,
        -9.4e-323,
        1.5613642440456826e-175,
        5.341661005750118e-05,
        9.4e-323,
        0.20443808204560934
      ]
    ],
    "weights": [
      [
        0.10203370539677513,
        0.08276375354857556,
        0.02778679679770598,
        0.02461866700700621,
        -8.630988978855583e-07,
        2.1157205904142976e-06,
        8.788446495276197e-87,
        3.3406062451001415e-182,
        1.4471202488416213e-179,
        1.7053017567013518e-22,
        4.425075444393855e-208,
        0.1384950808600812
      ],
      [
        0.27296977993210003,
        0.21369241204471048,
        -0.07740403630284245,
        0.020668969304266947,
        -0.00011642161855291256,
        -0.0001685892696438102,
        2.122754403568956e-06,
        -9.4e-323,
        -1.1943000179430134e-109,
        4.9513643522657266e-05,
        1.4511313403283997e-300,
        0.2536207473968826
      ],
      [
        0.1300204221906239,
        0.06638662498624669,
        0.027528379738919424,
        0.04751320138751545,
        -0.0001784840331232225,
        -0.0004774609517239303,
        3.0974778083978413e-61,
        -9.4e-323,
        1.0046795412498708e-174,
        6.321902820831941e-12,
        9.4e-323,
        0.11640938819907799
      ],
      [
        0.2392828659313145,
        0.28408502832193444,
        0.040180780383494416,
        -0.026867980370162078,
        -7.081746753151638e-06,
        -4.7968923118273234e-05,
        -2.08852797356798e-05,
        -9.4e-323,
        7.094264915550966e-179,
        1.8752824555659356e-05,
        9.4e-323,
        0.20458670270153492
      ]
    ]
  },
  "cues": [
    [
      3,
      4
    ],
    [
      1,
      6
    ],
    [
      7,
      2
    ],
    [
      1,
      1
    ],
    [
      0,
      6
    ]
  ],
  "env": {
    "delay": 0,
    "grid_size": 10,
    "max_steps": 200,
    "noise": 0.0,
    "num_cues": 5,
    "reward_sparse_prob": 1.0
  },
  "seed": 4
}