{
  "agent": {
    "action_size": 4,
    "cue_exploration_bias": 0.0,
    "cue_regularization": 0.025,
    "epsilon": 0.05,
    "state_size": 11,
    "target_weights": [
      [
        0.06825543938215095,
        0.038548784870780756,
        -0.0343023845291726,
        -0.009370215848457852,
        -9.360949299669024e-05,
        1.994069724285982e-05,
        8.241789445089143e-52,
        9.4e-323,
        3.7445392116367263e-39,
        1.2808204939969954e-47,
        1.2627168513772266e-104,
        0.026039353203136523
      ],
      [
        0.22387577935491304,
        0.17053402802378922,
        -0.08658175425087995,
        -0.018698151971677228,
        -0.0004943233001149552,
        0.0001846678645280835,
        -2.951371065531511e-08,
        9.69668476918903e-145,
        -4.8690900764303e-17,
        1.0788662101026922e-05,
        2.085696738151208e-90,
        0.16828248218498978
      ],
      [
        0.07945421694866203,
        0.028496933253770063,
        -0.03232010907695731,
        -0.023732059830999647,
        -0.00011881422505990965,
        1.3816278985994677e-05,
        1.1724471486391334e-32,
        9.4e-323,
        1.2292318774055543e-190,
        4.019427309503536e-11,
        3.457496766803196e-91,
        0.05651543562021857
      ],
      [
        0.1702826736778944,
        0.19397220717239827,
        -0.007180918169235837,
        -0.05875948668350845,
        -0.0005984617930436116,
        -5.449869423727282e-05,
        4.1355800852922327e-08,
        -4.0297643584414416e-19,
        2.7427698015139233e-27,
        2.5078549717682025e-06,
        -3.8921871948676038e-90,
        0.19061965688643542
      ]
    ],
    "weights": [
      [
        0.06924874581724592,
        0.03935335753525129,
        -0.03401897710582135,
        -0.008898074654482164,
        5.151056477397737e-06,
        -1.2055670427482097e-05,
        3.744766022702863e-55,
        9.4e-323,
        1.70138090809527e-42,
        5.819577288472653e-51,
        5.737320994228125e-108,
        0.02731606706158275
      ],
      [
        0.22518536540591763,
        0.17117616430372706,
        -0.08644535524386732,
        -0.017894303193597486,
        -5.008402423627139e-05,
        7.122486289133892e-05,
        1.0974127468129584e-07,
        4.405816952549753e-148,
        -2.212335464425185e-20,
        5.3907806408031006e-05,
        9.476638939550541e-94,
        0.1697284672430074
      ],
      [
        0.08130433543415157,
        0.030016303140609834,
        -0.031568832178616106,
        -0.02265003433400868,
        -0.0002879538106992091,
        -9.958914496371057e-06,
        5.327168662692269e-36,
        9.4e-323,
        5.585177586979454e-194,
        1.82627995044467e-14,
        1.5709593774740722e-94,
        0.05911683100404931
      ],
      [
        0.17167939575146499,
        0.1956174993568174,
        -0.006492642654845367,
        -0.05831978127996662,
        -0.0001641278163263856,
        -3.0458954510586668e-05,
        1.879055500113116e-11,
        -1.8309767253253702e-22,
        1.246213729340635e-30,
        2.3944420656924543e-05,
        -1.7684667217534952e-93,
        0.19270465447439653
      ]
    ]
  },
  "cues": [
    [
      6,
      0
    ],
    [
      3,
      4
    ],
    [
      7,
      0
    ],
    [
      4,
      0
    ],
    [
      4,
      9
    ]
  ],
  "env": {
    "delay": 0,
    "grid_size": 10,
    "max_steps": 200,
    "noise": 0.0,
    "num_cues": 5,
    "reward_sparse_prob": 1.0
  },
  "seed": 25
}