{
  "agent": {
    "action_size": 4,
    "cue_exploration_bias": 0.0,
    "cue_regularization": 0.025,
    "epsilon": 0.05,
    "state_size": 11,
    "target_weights": [
      [
        0.07538573938576719,
        0.1204602915792603,
        0.018643375971415316,
        0.026612865110144695,
        2.5693524362212994e-06,
        -0.00014796971545331185,
        3.1743594847795876e-225,
        5.280092331259939e-207,
        1.0883478007646475e-27,
        1.8125736036686079e-267,
        2.0588329724646015e-268,
        0.1251478771496332
      ],
      [
        0.2677996452336451,
        0.1934823680922622,
        -0.038973147374995826,
        0.009030298153691883,
        -0.00010165190764966802,
        -0.00044576260555478003,
        9.620233316716253e-145,
        -1.6998396419099633e-12,
        -8.538578882442112e-06,
        -9.936913899515391e-10,
        -4.641678205713881e-34,
        0.23673663599960895
      ],
      [
        0.07284955306058935,
        0.08356697254369895,
        0.019348249620343542,
        0.02874604458028609,
        -4.918916996475905e-06,
        -5.449009937179839e-05,
        6.00967192731104e-237,
        1.059348145856385e-200,
        2.4134469069254024e-10,
        2.3688623677615575e-261,
        9.4e-323,
        0.11651562903092208
      ],
      [
        0.2124414376525968,
        0.2788770860592052,
        0.009326178840245253,
        -0.059622289657165255,
        1.7815170018261874e-05,
        -0.00022467087779919905,
        -3.766394741279816e-144,
        7.759802739094275e-200,
        1.2805638248828896e-08,
        2.3773570346477005e-257,
        4.182124765577843e-18,
        0.21169636582419127
      ]
    ],
    "weights": [
      [
        0.07814052842052224,
        0.12329425166285901,
        0.019168033650982592,
        0.027058351740868302,
        9.764656311783947e-06,
        -1.0297166004432682e-05,
        2.8533476205445564e-229,
        4.746135074459655e-211,
        9.782869969600588e-32,
        1.6292743792528552e-271,
        1.8506304000060142e-272,
        0.12842732386395553
      ],
      [
        0.2711417234117845,
        0.19642742623565845,
        -0.038581164633811706,
        0.009819300929619043,
        -0.00010687897844224887,
        -0.0005239255459595975,
        8.647372792827123e-149,
        -1.5279408084708056e-16,
        -7.336344175660734e-06,
        -8.93202857669002e-14,
        -4.1722815349398986e-38,
        0.24047069691893241
      ],
      [
        0.0741267528908001,
        0.08546114374767019,
        0.020617036653007882,
        0.029397860239189944,
        3.182219221929707e-05,
        -0.00028042349878016926,
        5.40193483953724e-241,
        9.522199756520276e-205,
        2.1693834684461883e-14,
        2.1293076076792528e-265,
        9.4e-323,
        0.11906161589379718
      ],
      [
        0.21427284033839952,
        0.2813718988727299,
        0.009769953163388988,
        -0.05984192546174349,
        5.372228167688732e-05,
        -0.0005305807195334573,
        -3.3855124237160836e-148,
        6.975081047894341e-204,
        1.420494784598356e-06,
        2.136943238635077e-261,
        3.7592011257384603e-22,
        0.21397154283313788
      ]
    ]
  },
  "cues": [
    [
      1,
      9
    ],
    [
      8,
      3
    ],
    [
      4,
      4
    ],
    [
      4,
      1
    ],
    [
      7,
      4
    ]
  ],
  "env": {
    "delay": 0,
    "grid_size": 10,
    "max_steps": 200,
    "noise": 0.0,
    "num_cues": 5,
    "reward_sparse_prob": 1.0
  },
  "seed": 14
}