{
  "agent": {
    "action_size": 4,
    "cue_exploration_bias": 0.0,
    "cue_regularization": 0.025,
    "epsilon": 0.05,
    "state_size": 11,
    "target_weights": [
      [
        0.074163045559398,
        0.1322948908344794,
        0.04704419119441691,
        0.009525081088758098,
        -9.22221524201326e-05,
        -4.742131142344279e-05,
        -1.7195146619120485e-160,
        -9.4e-323,
        1.2939441571413921e-200,
        1.7836181743463046e-05,
        8.08246868861314e-148,
        0.13972405138494648
      ],
      [
        0.27340358865639236,
        0.223160214726854,
        -0.031180914859533854,
        0.030488649024205505,
        -0.0002991544615810183,
        -9.867576100618961e-05,
        -2.459652865882162e-30,
        -4.1249130468368405e-07,
        -1.588695698841781e-10,
        -0.0001496483340335057,
        4.888249540047396e-128,
        0.22992389196860727
      ],
      [
        0.07733554614668711,
        0.14582351136938093,
        0.03352676141180965,
        0.028150995321866504,
        -3.477982295622607e-07,
        -1.6497496161527613e-05,
        6.413685835403176e-14,
        9.4e-323,
        7.136805475972296e-31,
        2.111736440999771e-11,
        1.9103181318633567e-65,
        0.14568809219380907
      ],
      [
        0.20749011766780245,
        0.2811166428911463,
        0.019019643333446305,
        -0.07951746436592513,
        7.842706268883215e-06,
        -1.4600763362284716e-05,
        2.975780178637001e-156,
        5.183289851248489e-06,
        4.715793096871158e-35,
        -6.454658890455432e-06,
        -1.7347168818270412e-07,
        0.22306319519065373
      ]
    ],
    "weights": [
      [
        0.07425911741698506,
        0.13253507047844706,
        0.04738044269597162,
        0.009717224803932216,
        -5.4119305212711605e-06,
        3.667401707507263e-05,
        -1.0090735941816457e-161,
        -9.4e-323,
        7.593333806558664e-202,
        1.0466918611987903e-06,
        4.743085889369772e-149,
        0.14015637474408824
      ],
      [
        0.272334335048855,
        0.222026356608052,
        -0.03125405198077044,
        0.03048011641423327,
        2.6627095883642136e-05,
        6.231926513863519e-05,
        -1.4434135473174863e-31,
        -2.4206486435131742e-08,
        -9.323042800394536e-12,
        -3.0776175108307653e-05,
        2.8686021944980082e-129,
        0.2287815012398331
      ],
      [
        0.07862567850907462,
        0.14711042510473563,
        0.03360094757175625,
        0.028228400108845916,
        -0.00011857745123236892,
        -0.0001558431210965302,
        3.763783561278656e-15,
        9.4e-323,
        4.1881364039121923e-32,
        1.2392435654573019e-12,
        1.1210439934290728e-66,
        0.14705241071614317
      ],
      [
        0.2081847639518196,
        0.2820060782991553,
        0.019461175496385798,
        -0.07927072132697748,
        2.2053919929173152e-05,
        -2.505954522952994e-05,
        1.7462957815158936e-157,
        3.041742554302272e-07,
        2.767398496262527e-36,
        7.092856678584803e-05,
        -2.334748032685245e-06,
        0.22419937363761042
      ]
    ]
  },
  "cues": [
    [
      2,
      1
    ],
    [
      7,
      5
    ],
    [
      3,
      3
    ],
    [
      7,
      7
    ],
    [
      2,
      7
    ]
  ],
  "env": {
    "delay": 0,
    "grid_size": 10,
    "max_steps": 200,
    "noise": 0.0,
    "num_cues": 5,
    "reward_sparse_prob": 1.0
  },
  "seed": 18
}