{
  "agent": {
    "action_size": 4,
    "cue_exploration_bias": 0.0,
    "cue_regularization": 0.025,
    "epsilon": 0.05,
    "state_size": 11,
    "target_weights": [
      [
        0.07785306168333968,
        0.0760762956359722,
        -0.0015130896123911025,
        0.0014705069911093603,
        -3.8221562575199417e-05,
        1.2479961728902306e-06,
        1.7261443842378332e-65,
        1.0204084651084995e-269,
        2.049073789017173e-308,
        1.7315507080907295e-105,
        4.4396439909131793e-104,
        0.055087805909273646
      ],
      [
        0.2559366221184426,
        0.19316553369743727,
        -0.06300796537148538,
        0.013843302747103577,
        0.0001230544052535685,
        -1.5281131302635097e-05,
        5.3360879511544485e-06,
        5.5509448382814106e-160,
        7.868518079894764e-70,
        1.5559811010120595e-41,
        1.932207316159702e-98,
        0.17281566112645388
      ],
      [
        0.07611388538750438,
        0.10230617301814389,
        0.0005722787891139213,
        0.00717191882695738,
        -4.043106994231704e-05,
        1.4074180346479518e-05,
        1.7627085171921515e-30,
        1.4756641631337214e-234,
        2.7286689948925258e-235,
        6.461763744669323e-86,
        2.2887977653358166e-205,
        0.06325071252320273
      ],
      [
        0.19153431352812889,
        0.24749149427065842,
        0.009922156250264422,
        -0.04151220392173105,
        -0.00013016376397535898,
        -5.647791682458299e-05,
        -1.952826188861198e-05,
        -2.7301997929350175e-91,
        -1.0229847954942885e-05,
        -2.671467114410381e-33,
        -9.316800017149982e-106,
        0.17668712996402178
      ]
    ],
    "weights": [
      [
        0.07785306168333968,
        0.0760762956359722,
        -0.0015130896123911025,
        0.0014705069911093603,
        -2.2429799743671997e-06,
        7.323694363285964e-08,
        1.0129641557941109e-66,
        5.988127116493735e-271,
        1.20247084763311e-309,
        1.0161367827931074e-106,
        2.6053441811401415e-105,
        0.055087805909273646
      ],
      [
        0.2588956344261014,
        0.19562743788674558,
        -0.0629482602685976,
        0.014400115968341965,
        -0.0009731854513479022,
        0.00022582881440722533,
        3.131410023426834e-07,
        3.257495840622953e-161,
        4.617531909227067e-71,
        9.131061670221815e-43,
        1.1338893609975331e-99,
        0.17583437853700057
      ],
      [
        0.07611388538750438,
        0.10230617301814389,
        0.0005722787891139213,
        0.00717191882695738,
        -2.3726418836078626e-06,
        8.259239692431993e-07,
        1.0344213156983606e-31,
        8.659732736693337e-236,
        1.6012819727553183e-236,
        3.791997422886548e-87,
        1.3431495750400652e-206,
        0.06325071252320273
      ],
      [
        0.19305226114160579,
        0.24917758970222054,
        0.010346759973216048,
        -0.041255748016864664,
        -0.0001823570798825967,
        -1.2537067067075482e-05,
        -2.1286874082094116e-06,
        -1.6021803005898628e-92,
        -6.945006157025475e-06,
        -1.5677138337852896e-34,
        -5.467436299218964e-107,
        0.17862968130045032
      ]
    ]
  },
  "cues": [
    [
      0,
      1
    ],
    [
      1,
      5
    ],
    [
      2,
      4
    ],
    [
      4,
      9
    ],
    [
      3,
      9
    ]
  ],
  "env": {
    "delay": 0,
    "grid_size": 10,
    "max_steps": 200,
    "noise": 0.0,
    "num_cues": 5,
    "reward_sparse_prob": 1.0
  },
  "seed": 2
}