{
  "agent": {
    "action_size": 4,
    "cue_exploration_bias": 0.0,
    "cue_regularization": 0.025,
    "epsilon": 0.05,
    "state_size": 11,
    "target_weights": [
      [
        0.03743008546097067,
        0.019775566040649242,
        -0.026711385647785208,
        -0.03992726276804988,
        -1.2897475492805315e-05,
        -4.4694974702249996e-06,
        2.6693933737007803e-170,
        3.482787645655671e-12,
        4.57314343973854e-264,
        -9.4e-323,
        -9.4e-323,
        0.028918080612477078
      ],
      [
        0.18601504634334504,
        0.13125537990767686,
        -0.019365907428823267,
        -0.03714450317758157,
        -0.00010828270849890926,
        2.585132570831676e-06,
        -3.783904335660639e-89,
        -2.056979949226525e-05,
        4.7649594102052985e-05,
        -1.039280502184183e-24,
        1.9996212327112367e-09,
        0.1313163259616174
      ],
      [
        0.07257269357775294,
        0.06787001698294931,
        0.004598496742360778,
        -0.025624303240136842,
        -1.5948876689791097e-06,
        -5.339950044151132e-07,
        4.625433e-318,
        1.1968945510497047e-17,
        6.493455199033644e-134,
        3.703922392566369e-181,
        1.7347e-320,
        0.044365717187384565
      ],
      [
        0.1358065174295669,
        0.1897607889751166,
        -0.014759576200436242,
        -0.07540475431822388,
        -0.0001479013020895135,
        -0.0002727757132758827,
        3.6198048359218546e-73,
        -3.65148906443639e-05,
        -9.361855433890877e-06,
        1.8139043156572842e-11,
        3.0691939183275326e-38,
        0.12182133436873442
      ]
    ],
    "weights": [
      [
        0.03813655840172053,
        0.02024654800114915,
        -0.026711385647785208,
        -0.03969177178779992,
        -0.00017804874156243975,
        5.350158700589085e-05,
        1.7802722783806378e-170,
        2.3227413232285816e-12,
        3.0499215930613126e-264,
        -9.4e-323,
        -9.4e-323,
        0.029624553553226938
      ],
      [
        0.18599349264467882,
        0.13127057879621512,
        -0.0192707068121492,
        -0.03708605514811198,
        -5.244762328108869e-05,
        1.5360415189310628e-05,
        -2.5235621168422202e-89,
        -1.3718414141846427e-05,
        7.487243363777263e-05,
        -6.931171275573126e-25,
        1.333587729305635e-09,
        0.1313899728796252
      ],
      [
        0.07257269357775294,
        0.06787001698294931,
        0.004598496742360778,
        -0.025624303240136842,
        -1.0636627528142253e-06,
        -3.5613203828254264e-07,
        3.084793e-318,
        7.982331155728248e-18,
        4.3306162349985764e-134,
        2.4702205458828446e-181,
        1.157e-320,
        0.044365717187384565
      ],
      [
        0.1358017717766721,
        0.18973766972689535,
        -0.014764681956617141,
        -0.07539148647907831,
        -9.661898346170983e-05,
        -0.00018355178931703998,
        2.414120850838001e-73,
        -2.2576113931957305e-05,
        -6.24361020273937e-06,
        1.2097293717046737e-11,
        2.0469073249394483e-38,
        0.12181148295965873
      ]
    ]
  },
  "cues": [
    [
      9,
      0
    ],
    [
      6,
      7
    ],
    [
      3,
      7
    ],
    [
      7,
      4
    ],
    [
      2,
      0
    ]
  ],
  "env": {
    "delay": 0,
    "grid_size": 10,
    "max_steps": 200,
    "noise": 0.0,
    "num_cues": 5,
    "reward_sparse_prob": 1.0
  },
  "seed": 10
}