{
  "agent": {
    "action_size": 4,
    "cue_exploration_bias": 0.0,
    "cue_regularization": 0.025,
    "epsilon": 0.05,
    "state_size": 11,
    "target_weights": [
      [
        0.11957736616735871,
        0.12666222194681329,
        0.041017593798778486,
        0.04990125877426668,
        6.311149487123714e-05,
        2.0743630119549775e-09,
        -9.4e-323,
        3.3275351993143836e-104,
        9.4e-323,
        3.6362852200100635e-07,
        1.3797660704441245e-23,
        0.11230160221800196
      ],
      [
        0.30725867874365054,
        0.23483718949843038,
        -0.04054465259447311,
        0.0203378834625392,
        -2.1428148081055595e-05,
        -0.0003709700137190438,
        -2.6356020583079592e-132,
        1.197024690613226e-09,
        9.4e-323,
        -1.1185988790072687e-05,
        1.4335589794147648e-06,
        0.24427027683202773
      ],
      [
        0.13121473294594937,
        0.11926114939470105,
        0.004384030292872846,
        0.03907020952047504,
        -3.3663220116845875e-06,
        0.00010886673150855907,
        9.4e-323,
        1.6873469676202102e-132,
        -9.4e-323,
        1.2948212642233073e-12,
        8.469862610683369e-07,
        0.16911494891373827
      ],
      [
        0.21771246824615292,
        0.3242641054468949,
        0.020004498335878168,
        -0.025820007398993136,
        -0.0002912682639499363,
        -6.124220813811856e-05,
        1.5820865370489855e-118,
        -2.2311128265645586e-19,
        -9.4e-323,
        1.1816686137073117e-12,
        4.129864192218051e-06,
        0.2501782790880492
      ]
    ],
    "weights": [
      [
        0.12015439293917243,
        0.127239248718627,
        0.041298887501882584,
        0.05018255247737078,
        -1.815780433014909e-06,
        -1.1635217356231126e-05,
        -9.4e-323,
        1.7182356419742275e-106,
        9.4e-323,
        1.8776645460257625e-09,
        0.00011435456110872892,
        0.11315992269291977
      ],
      [
        0.3077261506625704,
        0.23514709654095273,
        -0.04028269469504124,
        0.020757406238368605,
        3.493940152374e-05,
        -7.99156965914352e-06,
        -1.3609428971866204e-134,
        7.152269971085662e-07,
        9.4e-323,
        -6.055024328122457e-06,
        9.07400197797784e-07,
        0.24499970665037937
      ],
      [
        0.1317889225708132,
        0.12000022889042605,
        0.004745093329507005,
        0.03926638268624801,
        -5.145669518852659e-05,
        -3.4159913660604364e-05,
        9.4e-323,
        8.712934729404381e-135,
        -9.4e-323,
        6.686054129894768e-15,
        4.373573515706054e-09,
        0.17005020157523623
      ],
      [
        0.21870208909294034,
        0.32554243920669274,
        0.020317183431485388,
        -0.02579603521639633,
        -8.215751876569536e-05,
        5.1921597298835365e-05,
        8.169402617304416e-121,
        -1.1520772434380185e-21,
        -9.4e-323,
        6.101769049633277e-15,
        3.840890946772159e-05,
        0.251480585030444
      ]
    ]
  },
  "cues": [
    [
      9,
      4
    ],
    [
      5,
      8
    ],
    [
      0,
      7
    ],
    [
      3,
      0
    ],
    [
      2,
      1
    ]
  ],
  "env": {
    "delay": 0,
    "grid_size": 10,
    "max_steps": 200,
    "noise": 0.0,
    "num_cues": 5,
    "reward_sparse_prob": 1.0
  },
  "seed": 5
}