{
  "agent": {
    "action_size": 4,
    "cue_exploration_bias": 0.0,
    "cue_regularization": 0.025,
    "epsilon": 0.05,
    "state_size": 11,
    "target_weights": [
      [
        0.0033179403323766593,
        0.036384881733446374,
        -0.03145664036709564,
        -0.007934732425262134,
        -3.731994910020292e-06,
        9.017221909586174e-07,
        3.820162637077697e-23,
        3.4016441163819395e-33,
        9.4e-323,
        2.6403873200305734e-28,
        2.877899056482077e-89,
        -0.005878225586106011
      ],
      [
        0.19895055357926889,
        0.1484749540128929,
        -0.040455289918860195,
        -0.016854923266754817,
        -9.764239549435456e-05,
        6.200608508539094e-05,
        -0.00020283334675068443,
        -9.69385204693372e-06,
        2.798621563419329e-10,
        -2.4613384133766725e-06,
        3.333294180244703e-76,
        0.14837141824006478
      ],
      [
        0.06458396337718056,
        0.04823497576193504,
        -0.0032972570445614423,
        -0.029372268656557832,
        -4.283109390067777e-05,
        2.292094777791469e-05,
        2.3134763101450142e-18,
        1.576752242857735e-265,
        -9.4e-323,
        5.797918963188845e-13,
        5.1590059503059514e-49,
        0.026893484749123727
      ],
      [
        0.15790510810238242,
        0.23290593047741368,
        -0.0025832618703122783,
        -0.059177982244435524,
        -0.0002903652945940353,
        -2.747001470890164e-05,
        -6.995610027202726e-05,
        4.1752458412164184e-11,
        3.23149354896161e-214,
        5.0498669218427236e-06,
        -1.858515825782931e-45,
        0.1048510275992671
      ]
    ],
    "weights": [
      [
        0.0033179403323766593,
        0.036384881733446374,
        -0.03145664036709564,
        -0.007934732425262134,
        -4.332647988835117e-08,
        1.0468515984989943e-08,
        4.43500603983079e-25,
        3.9491282530969187e-35,
        9.4e-323,
        3.06534952155495e-30,
        3.3410880399806777e-91,
        -0.005878225586106011
      ],
      [
        0.20075936755731766,
        0.1500594526919601,
        -0.0401426591688188,
        -0.016317977217732055,
        -0.00028970058220713195,
        0.00011265391792248731,
        -2.4734381378593603e-05,
        3.119526459607109e-07,
        3.249051078741537e-12,
        3.0078601429915065e-05,
        3.869777605391888e-78,
        0.15049286296815478
      ],
      [
        0.06528676675936379,
        0.04917823267554216,
        -0.0026913130783215978,
        -0.02900677822174187,
        -0.00010643893601851672,
        -5.760317312931185e-07,
        2.685823192163194e-20,
        1.8305256568186691e-267,
        -9.4e-323,
        6.731076151213875e-15,
        5.989332058027906e-51,
        0.028202232097546808
      ],
      [
        0.16302459658186633,
        0.23886452712760942,
        -0.001917103079641292,
        -0.05935093162447637,
        -0.0005027159228284309,
        -4.330922137216647e-05,
        -9.462414050452825e-05,
        4.847238791314472e-13,
        3.751592476251808e-216,
        -2.8647749998316746e-05,
        -2.1576382200244955e-47,
        0.11063667486942202
      ]
    ]
  },
  "cues": [
    [
      6,
      9
    ],
    [
      2,
      3
    ],
    [
      2,
      1
    ],
    [
      2,
      4
    ],
    [
      0,
      7
    ]
  ],
  "env": {
    "delay": 0,
    "grid_size": 10,
    "max_steps": 200,
    "noise": 0.0,
    "num_cues": 5,
    "reward_sparse_prob": 1.0
  },
  "seed": 24
}