{
  "agent": {
    "action_size": 4,
    "cue_exploration_bias": 0.6333333333333333,
    "cue_regularization": 0.009166666666666668,
    "epsilon": 0.05,
    "state_size": 11,
    "target_weights": [
      [
        -0.07415800950900779,
        -0.033941622247338286,
        -0.0708972365846479,
        -0.03226911180587191,
        -3.96418060522606e-06,
        3.6697168262684595e-06,
        -8.073575256808153e-07,
        -8.76259464713624e-25,
        -3.0428831880524654e-05,
        -1.2211918148891716e-05,
        2.67e-322,
        -0.10653848994221916
      ],
      [
        -0.08443714201302151,
        -0.059288131594759604,
        -0.07257980263334156,
        -0.0507543470052405,
        -4.240454353904645e-06,
        -4.033301456274652e-06,
        6.712629417306528e-23,
        3.549830839729686e-61,
        -5.315973465385316e-06,
        -1.0954224986431765e-05,
        -2.67e-322,
        -0.08442858876309595
      ],
      [
        -0.06054414091561423,
        -0.0386332198616515,
        -0.062213807243125155,
        -0.03368168918075526,
        6.421554060302823e-07,
        -1.3984488398484954e-07,
        2.9163743104359093e-06,
        -5.818247242951e-06,
        -6.684597306863017e-07,
        3.5256773619815417e-06,
        -2.67e-322,
        -0.11531316722237074
      ],
      [
        -0.058797666148103465,
        -0.050379993915267735,
        -0.05611732720710397,
        -0.04684665604473802,
        3.7385011961487396e-07,
        2.694873086769091e-08,
        8.298746846118927e-07,
        1.9001767023132475e-07,
        -2.944578408388621e-07,
        2.0024787070020467e-07,
        2.67e-322,
        -0.10745160129914227
      ]
    ],
    "weights": [
      [
        -0.07417861804451724,
        -0.033961752071587276,
        -0.07100403934448672,
        -0.03237639327697119,
        -9.481397917365676e-06,
        4.944457437745307e-06,
        -5.927933996602005e-07,
        -3.4264700409004583e-26,
        -4.334065556164326e-05,
        2.025686984187393e-06,
        2.67e-322,
        -0.1066659012375674
      ],
      [
        -0.0844563875952667,
        -0.059297835576554866,
        -0.07268553970239439,
        -0.0508696256747432,
        -4.568857538598647e-06,
        1.8128647515162475e-06,
        2.6248644973649316e-24,
        1.3881035826042124e-62,
        -1.3238079893391193e-05,
        3.3558634199598826e-07,
        -2.67e-322,
        -0.08455357141439385
      ],
      [
        -0.06056765424126867,
        -0.03863952798552969,
        -0.06223492689824215,
        -0.03372001403764846,
        5.926805343681627e-07,
        1.5726040814280088e-07,
        5.784431801819591e-07,
        -3.314832854070711e-06,
        -4.370158133617972e-06,
        1.3900477840680711e-06,
        -2.67e-322,
        -0.11535780020314217
      ],
      [
        -0.058805619029127634,
        -0.050382947699007447,
        -0.05613201552576201,
        -0.046866343460680505,
        -1.025747304710039e-06,
        -2.755702620855145e-07,
        -3.992537578000443e-07,
        6.985029590132005e-08,
        -4.1526719441257776e-06,
        7.830367115436561e-09,
        2.67e-322,
        -0.10747424249882451
      ]
    ]
  },
  "cues": [
    [
      3,
      5
    ],
    [
      6,
      2
    ],
    [
      3,
      0
    ],
    [
      1,
      2
    ],
    [
      3,
      8
    ]
  ],
  "env": {
    "delay": 6,
    "grid_size": 10,
    "max_steps": 200,
    "noise": 0.0,
    "num_cues": 5,
    "reward_sparse_prob": 0.1
  },
  "seed": 8
}