{
  "agent": {
    "action_size": 4,
    "cue_exploration_bias": 0.6333333333333333,
    "cue_regularization": 0.009166666666666668,
    "epsilon": 0.05,
    "state_size": 11,
    "target_weights": [
      [
        -0.06446606113650306,
        -0.0361471742493729,
        -0.06739441623768469,
        -0.039124453781911844,
        -1.2252498787198897e-06,
        5.9143654715209645e-06,
        -2.2780694325853485e-87,
        2.67e-322,
        2.67e-322,
        1.7868828793994918e-08,
        4.74796381854139e-07,
        -0.10960000292557331
      ],
      [
        -0.04671827453048122,
        -0.08414655217063097,
        -0.04683488879942046,
        -0.03628184407354284,
        4.726538249396813e-05,
        7.071331284188267e-06,
        1.6043688545766803e-242,
        8.046886994847108e-06,
        6.229529153388148e-11,
        -1.041620324292099e-05,
        3.0630037327204757e-08,
        -0.10367700875024652
      ],
      [
        -0.039853666049537516,
        -0.059185950985969134,
        -0.039314222934166754,
        -0.0624059372249769,
        -6.529036660560315e-06,
        -1.9974348566465964e-07,
        -4.398563058245565e-231,
        -2.67e-322,
        2.67e-322,
        -1.7905989934682256e-14,
        -8.68887266940374e-06,
        -0.1135611105672002
      ],
      [
        -0.04212814666798919,
        -0.0368738009281661,
        -0.04284180502878587,
        -0.029690048767699546,
        -2.5257531408102e-05,
        3.781025704966117e-05,
        -2.67e-322,
        -2.67e-322,
        2.67e-322,
        -7.537395123594185e-07,
        -2.1982223916056235e-06,
        -0.1354407703295756
      ]
    ],
    "weights": [
      [
        -0.06447280384792158,
        -0.03615649482812086,
        -0.06739824772355192,
        -0.039125707400449614,
        -1.6060055533539275e-07,
        3.4111908150105e-06,
        -1.2635891997785806e-87,
        2.67e-322,
        2.67e-322,
        9.911400747412731e-09,
        2.6335789929105243e-07,
        -0.10961057712285903
      ],
      [
        -0.04678995532612487,
        -0.08418651465027796,
        -0.04685182743406438,
        -0.0363305010241834,
        6.70549156833583e-05,
        7.4961726589848495e-06,
        8.899040249196946e-243,
        4.4634107078062435e-06,
        3.455366919608653e-11,
        -5.77761227651277e-06,
        1.698972990105326e-08,
        -0.10376562818053409
      ],
      [
        -0.03985311520738717,
        -0.059196124079373524,
        -0.03932982685061732,
        -0.062410817205872715,
        -3.861383153101485e-06,
        -1.6573923977728818e-06,
        -2.4397749671029458e-231,
        -2.67e-322,
        2.67e-322,
        -9.932013120043823e-15,
        -1.765941023677072e-05,
        -0.11357616364150042
      ],
      [
        -0.04217232251704467,
        -0.03689996811761378,
        -0.04284302364668159,
        -0.029709276045203056,
        -3.329508835068009e-06,
        6.505397943771449e-06,
        -2.67e-322,
        -2.67e-322,
        2.67e-322,
        -4.1808080721352336e-07,
        -1.2193000059668913e-06,
        -0.1354861647965268
      ]
    ]
  },
  "cues": [
    [
      6,
      9
    ],
    [
      2,
      3
    ],
    [
      2,
      1
    ],
    [
      2,
      4
    ],
    [
      0,
      7
    ]
  ],
  "env": {
    "delay": 6,
    "grid_size": 10,
    "max_steps": 200,
    "noise": 0.0,
    "num_cues": 5,
    "reward_sparse_prob": 0.1
  },
  "seed": 24
}