{
  "agent": {
    "action_size": 4,
    "cue_exploration_bias": 0.6333333333333333,
    "cue_regularization": 0.009166666666666668,
    "epsilon": 0.05,
    "state_size": 11,
    "target_weights": [
      [
        -0.058083901216964585,
        -0.05355625869887427,
        -0.06545768928674774,
        -0.04937259663541611,
        -2.9887507035000473e-06,
        -2.1060595200196844e-07,
        1.5043598511920024e-31,
        -1.0720293493324404e-06,
        2.67e-322,
        -7.780993944823126e-108,
        -2.67e-322,
        -0.10502477587258008
      ],
      [
        -0.04760352567233696,
        -0.05145767534515072,
        -0.05931239208230371,
        -0.044032052455288864,
        -1.9108103623594786e-05,
        -2.3028153903095295e-06,
        7.022934043495158e-36,
        -9.585771632450008e-09,
        2.67e-322,
        8.517731087600586e-114,
        -2.67e-322,
        -0.11921469958289194
      ],
      [
        -0.06466564128785485,
        -0.046602767321920986,
        -0.08006095195461858,
        -0.03501162678780235,
        6.510865293861278e-05,
        -2.1983954248043382e-05,
        1.414887346664737e-148,
        -1.20609465178705e-07,
        2.67e-322,
        -2.67e-322,
        2.67e-322,
        -0.10990080860716331
      ],
      [
        -0.06384029573477701,
        -0.05953665261863398,
        -0.03384237439648699,
        -0.0630565999886596,
        -2.6648560867451007e-05,
        1.359086179832523e-05,
        5.084927247561259e-09,
        -6.617283562591143e-22,
        -2.67e-322,
        3.163474859622033e-112,
        -2.67e-322,
        -0.10112923594185912
      ]
    ],
    "weights": [
      [
        -0.05816241530526927,
        -0.05356050670453688,
        -0.0654957637231503,
        -0.049484937154460736,
        1.4899665257815364e-05,
        -4.010049780005073e-06,
        5.8825543899003704e-33,
        -1.5376284483193187e-06,
        2.67e-322,
        -3.0426310600910554e-109,
        -2.67e-322,
        -0.1051413643972873
      ],
      [
        -0.04761288231360267,
        -0.051461100457816544,
        -0.05931578598568688,
        -0.04404137788727192,
        1.5366672741544736e-07,
        -3.6658925715770796e-07,
        2.746204071772349e-37,
        -4.6231695954310075e-07,
        2.67e-322,
        3.3307201306690936e-115,
        -2.67e-322,
        -0.1192274501275408
      ],
      [
        -0.0648635568241004,
        -0.04660609849565993,
        -0.08005609703448509,
        -0.035201356230175576,
        3.195857907518108e-05,
        -8.951210116666993e-06,
        5.532686721027664e-150,
        9.239683711233637e-07,
        2.67e-322,
        -2.67e-322,
        2.67e-322,
        -0.11009386922327538
      ],
      [
        -0.06381967088194161,
        -0.05953682166809679,
        -0.03376018554004251,
        -0.06295361722991685,
        -1.2623853557457686e-05,
        1.681813818664122e-05,
        1.9063647817148897e-05,
        -2.5875810524650792e-23,
        -2.67e-322,
        1.2370253638491928e-113,
        -2.67e-322,
        -0.10102642223257921
      ]
    ]
  },
  "cues": [
    [
      2,
      1
    ],
    [
      7,
      5
    ],
    [
      3,
      3
    ],
    [
      7,
      7
    ],
    [
      2,
      7
    ]
  ],
  "env": {
    "delay": 6,
    "grid_size": 10,
    "max_steps": 200,
    "noise": 0.0,
    "num_cues": 5,
    "reward_sparse_prob": 0.1
  },
  "seed": 18
}