{
  "agent": {
    "action_size": 4,
    "cue_exploration_bias": 0.6333333333333333,
    "cue_regularization": 0.009166666666666668,
    "epsilon": 0.05,
    "state_size": 11,
    "target_weights": [
      [
        -0.06309784131726924,
        -0.06483331199369072,
        -0.05383051079557252,
        -0.061031449832040584,
        1.3951555402524566e-06,
        -4.540491228272285e-06,
        -4.547393796031172e-07,
        -2.67e-322,
        3.3511697977473797e-06,
        -2.67e-322,
        -2.67e-322,
        -0.08685138840357727
      ],
      [
        -0.05042821027129247,
        -0.07030404021777938,
        -0.03573283132276321,
        -0.05398435421298621,
        -1.2883834148312493e-07,
        -2.8474313029837956e-06,
        3.254226334672246e-07,
        2.67e-322,
        8.565069792511462e-65,
        2.67e-322,
        2.67e-322,
        -0.10861467181539139
      ],
      [
        -0.07882222400733807,
        -0.03525855500883195,
        -0.07312248615868273,
        -0.032618586804160916,
        4.14535496035937e-07,
        -3.5134904102467048e-06,
        -2.1478899770997845e-05,
        -2.67e-322,
        -2.946178157740435e-07,
        -2.67e-322,
        -2.67e-322,
        -0.0966921369537163
      ],
      [
        -0.04055731285753238,
        -0.06493636922011482,
        -0.015792072200816326,
        -0.05587086102137712,
        9.806033318935858e-06,
        -1.8671742406776327e-06,
        6.769621250897161e-05,
        2.67e-322,
        1.9112672154715138e-22,
        -2.67e-322,
        2.67e-322,
        -0.12376485892183403
      ]
    ],
    "weights": [
      [
        -0.06315059435589214,
        -0.06483356449338698,
        -0.05389642079592345,
        -0.06114986037131813,
        1.0601682355922837e-06,
        -9.131049122568739e-06,
        -1.778184343078079e-08,
        -2.67e-322,
        4.1530623245068605e-06,
        -2.67e-322,
        -2.67e-322,
        -0.0869700514425511
      ],
      [
        -0.05045419587198951,
        -0.0703046250119994,
        -0.03574774973612992,
        -0.05402467343282994,
        2.6865960316610003e-06,
        -6.91464239275888e-06,
        -5.661870199873891e-08,
        2.67e-322,
        3.349231160870081e-66,
        2.67e-322,
        2.67e-322,
        -0.10865557582945516
      ],
      [
        -0.07887378087058865,
        -0.03527628953502113,
        -0.07316962177238052,
        -0.032699544754920054,
        1.6974767543763946e-07,
        -3.501409182654287e-06,
        -9.757812577885402e-06,
        -2.67e-322,
        -3.0492596386894472e-06,
        -2.67e-322,
        -2.67e-322,
        -0.09679082943066461
      ],
      [
        -0.04063497389518472,
        -0.06504334616545272,
        -0.0160592948876455,
        -0.056108767800520765,
        -8.499950676775025e-06,
        -5.798869753711401e-06,
        -4.743192030740534e-05,
        2.67e-322,
        7.47369942087722e-24,
        -2.67e-322,
        2.67e-322,
        -0.12410974264631562
      ]
    ]
  },
  "cues": [
    [
      3,
      3
    ],
    [
      6,
      9
    ],
    [
      8,
      0
    ],
    [
      2,
      7
    ],
    [
      0,
      9
    ]
  ],
  "env": {
    "delay": 6,
    "grid_size": 10,
    "max_steps": 200,
    "noise": 0.0,
    "num_cues": 5,
    "reward_sparse_prob": 0.1
  },
  "seed": 26
}