{
  "agent": {
    "action_size": 4,
    "cue_exploration_bias": 0.6333333333333333,
    "cue_regularization": 0.009166666666666668,
    "epsilon": 0.05,
    "state_size": 11,
    "target_weights": [
      [
        -0.05003422546397863,
        -0.06409148373774731,
        -0.051082218637342795,
        -0.05946304200247336,
        -2.8251294306487867e-06,
        4.647789066290733e-06,
        -1.731511101179359e-05,
        -1.9024461203985564e-140,
        -6.543534836978423e-06,
        1.428317717289081e-05,
        -2.1665072109968272e-21,
        -0.09244186543572187
      ],
      [
        -0.0738777208411686,
        -0.06744376820974556,
        -0.07234734978407686,
        -0.03998566469577905,
        1.5870644594018256e-06,
        2.1193741546774007e-06,
        6.293145847653477e-06,
        2.97652362433379e-111,
        2.69285018284525e-06,
        -6.519250318283577e-05,
        3.75290998803986e-108,
        -0.08817006685762036
      ],
      [
        -0.0348095437959037,
        -0.05800779619595189,
        -0.0367019817414602,
        -0.0571527048971927,
        -6.079772709482697e-07,
        -7.721338134018024e-12,
        -8.104767028700385e-15,
        1.5593873105993524e-176,
        2.127923287941906e-08,
        1.4583245749545396e-10,
        8.16630793519153e-149,
        -0.1126509392678299
      ],
      [
        -0.031644956371208115,
        -0.04128234160968998,
        -0.028569234542713557,
        -0.0411784476672683,
        1.5443600663012463e-07,
        6.137971895590199e-08,
        -3.2043659809886434e-09,
        -1.7188936731650318e-94,
        3.020642574372721e-08,
        5.4859313930128447e-08,
        -4.0577717444558314e-65,
        -0.13509113452719335
      ]
    ],
    "weights": [
      [
        -0.04979735469955958,
        -0.06404850123452951,
        -0.05109188421506626,
        -0.059278819318995604,
        -2.6902330861742678e-06,
        1.1217002629434037e-05,
        -1.9212288935766373e-05,
        -1.222760996728337e-140,
        0.00021382343726372192,
        -6.253750521061804e-06,
        -1.3924812315749727e-21,
        -0.0922146602490263
      ],
      [
        -0.07388640652671595,
        -0.06744303967462838,
        -0.07238669920308624,
        -0.04003442833545296,
        3.9820517523152604e-06,
        -3.6540527120896706e-06,
        4.0447995907613295e-06,
        1.9131038480676385e-111,
        1.730778148358878e-06,
        -6.306473913043095e-05,
        2.4121113909107653e-108,
        -0.08821810196217707
      ],
      [
        -0.0348095437959037,
        -0.05800779619595189,
        -0.0367019817414602,
        -0.0571527048971927,
        -3.907658071583851e-07,
        -4.962742971585691e-12,
        -5.209184588201893e-15,
        1.0022664830026956e-176,
        1.3676821501679041e-08,
        9.373103352074281e-11,
        5.248738833314978e-149,
        -0.1126509392678299
      ],
      [
        -0.031644956371208115,
        -0.04128234160968998,
        -0.028569234542713557,
        -0.0411784476672683,
        9.92608008043004e-08,
        3.945064489589887e-08,
        -2.0595451817448598e-09,
        -1.1047861584794775e-94,
        1.9414604626102404e-08,
        3.525977879835231e-08,
        -2.6080554763398178e-65,
        -0.13509113452719335
      ]
    ]
  },
  "cues": [
    [
      3,
      4
    ],
    [
      1,
      6
    ],
    [
      7,
      2
    ],
    [
      1,
      1
    ],
    [
      0,
      6
    ]
  ],
  "env": {
    "delay": 6,
    "grid_size": 10,
    "max_steps": 200,
    "noise": 0.0,
    "num_cues": 5,
    "reward_sparse_prob": 0.1
  },
  "seed": 4
}