{
  "agent": {
    "action_size": 4,
    "cue_exploration_bias": 0.6333333333333333,
    "cue_regularization": 0.009166666666666668,
    "epsilon": 0.05,
    "state_size": 11,
    "target_weights": [
      [
        -0.049257233148455405,
        -0.0553120614772697,
        -0.04992325374126656,
        -0.04864291124310691,
        1.2602343425700457e-05,
        -1.3843192863049414e-07,
        4.406228861683804e-06,
        1.7136998866035154e-06,
        5.51518942902645e-06,
        2.408433900559949e-06,
        -2.0031811010396461e-233,
        -0.10709418853956296
      ],
      [
        -0.07760345879691789,
        -0.07462821860573632,
        -0.053548632996850316,
        -0.04198202223995502,
        3.311927080821926e-05,
        1.9062429428905953e-05,
        8.018305872917462e-41,
        3.734957195280473e-29,
        1.8423252842882768e-06,
        -7.814084660373201e-06,
        2.67e-322,
        -0.10016363471281199
      ],
      [
        -0.04626699409750864,
        -0.07367703286184663,
        -0.05329628873667305,
        -0.0682554844212685,
        2.1370923534495834e-06,
        -4.36735599150461e-08,
        1.943797188230662e-161,
        2.6915309387100094e-73,
        2.7391243126652464e-06,
        1.0786868553514333e-06,
        5.172821007151403e-244,
        -0.09018195508566643
      ],
      [
        -0.05622668829356759,
        -0.07516028292627823,
        -0.055003606288032796,
        -0.06395904667509165,
        1.8528579257112125e-05,
        4.95502661843957e-06,
        4.675948122781744e-06,
        -2.5373897747867755e-06,
        -1.0908602842467995e-05,
        -2.9037248320102357e-06,
        3.3535548618192646e-230,
        -0.08371239320382301
      ]
    ],
    "weights": [
      [
        -0.04932914752066993,
        -0.05528944686769753,
        -0.0498648914568769,
        -0.048679077940503954,
        9.139501575997031e-06,
        2.9351224511044666e-06,
        4.6413648090997974e-07,
        2.837863576091268e-07,
        -1.8212578062157353e-05,
        1.0730119448665558e-06,
        -7.833113713018299e-235,
        -0.10710774062738786
      ],
      [
        -0.07755490423397045,
        -0.07463431555089753,
        -0.05354763070415356,
        -0.04192636843914959,
        4.86904977971343e-06,
        -2.3412145462542947e-06,
        3.13542802773686e-42,
        1.4604942313355411e-30,
        1.3082145655441404e-05,
        -3.56551495840408e-06,
        2.67e-322,
        -0.10011407785716776
      ],
      [
        -0.04629954500667741,
        -0.07368030497703322,
        -0.05329573584250486,
        -0.06828421032108249,
        2.302058890500339e-06,
        7.090804511585781e-07,
        7.600902585669232e-163,
        1.0524793736362769e-74,
        4.193246146930686e-07,
        4.2180294104814695e-08,
        2.0227474762555087e-245,
        -0.09021395310066702
      ],
      [
        -0.05651825749516339,
        -0.07517371178928144,
        -0.05501818443749837,
        -0.06425176516314977,
        1.1940432822618094e-05,
        4.684759703400604e-06,
        -4.723811213017476e-06,
        -9.922049798612449e-08,
        -1.7438955179915535e-05,
        -7.374142155660025e-07,
        1.3113530554897e-231,
        -0.08401854055488436
      ]
    ]
  },
  "cues": [
    [
      6,
      0
    ],
    [
      3,
      4
    ],
    [
      7,
      0
    ],
    [
      4,
      0
    ],
    [
      4,
      9
    ]
  ],
  "env": {
    "delay": 6,
    "grid_size": 10,
    "max_steps": 200,
    "noise": 0.0,
    "num_cues": 5,
    "reward_sparse_prob": 0.1
  },
  "seed": 25
}