{
  "agent": {
    "action_size": 4,
    "cue_exploration_bias": 0.6333333333333333,
    "cue_regularization": 0.009166666666666668,
    "epsilon": 0.05,
    "state_size": 11,
    "target_weights": [
      [
        -0.042764893591830944,
        -0.05950298516874712,
        -0.05268817236446969,
        -0.06682047732814057,
        -1.4576131563100718e-07,
        -3.3670550320213607e-06,
        1.7660201236951243e-40,
        -7.825364331931004e-06,
        6.989600599979677e-07,
        5.571846943749077e-07,
        1.3571762439024147e-49,
        -0.0772536851570097
      ],
      [
        -0.010712821625308431,
        -0.06557290176706423,
        -0.050488254874089936,
        -0.06816643691676316,
        3.8052290524791054e-05,
        3.0650846675734846e-05,
        -7.676917280764674e-06,
        4.898656670860362e-06,
        1.0506050772171536e-15,
        5.413212802658505e-06,
        1.4328757805046764e-08,
        -0.0965338894523052
      ],
      [
        -0.03328808935577711,
        -0.04882869506164851,
        -0.03307645017412933,
        -0.05246132104555908,
        -1.9408747649553486e-07,
        4.3413318551901516e-06,
        5.582312281892746e-50,
        -2.4999532376833488e-06,
        -5.883105687909611e-06,
        -3.0770926118721256e-07,
        1.0147068542754048e-06,
        -0.09917001266263518
      ],
      [
        -0.05894499044159533,
        -0.060677173400296804,
        -0.02981889941957586,
        -0.03477762303311111,
        -1.5049433623652504e-05,
        -6.28265255636103e-06,
        5.262493323795009e-07,
        6.391736367105193e-105,
        -2.0648548238425946e-05,
        4.955625996126709e-16,
        1.563591043012512e-05,
        -0.08798949672156678
      ]
    ],
    "weights": [
      [
        -0.04280760462615512,
        -0.05955224224687749,
        -0.052701395198814435,
        -0.06682715411867914,
        1.0816006413141834e-06,
        2.0210954636190597e-06,
        6.90573430490284e-42,
        -2.7269711267556093e-06,
        2.733169571128959e-08,
        -1.8320609923597279e-06,
        5.307016845145575e-51,
        -0.07730961902567865
      ],
      [
        -0.010778256015281281,
        -0.06559991865038053,
        -0.05048215242845336,
        -0.06819875197778323,
        -0.0001010227840379335,
        -1.4057673924573046e-05,
        -8.041408136512825e-06,
        1.2342129753074789e-05,
        2.391309737991409e-06,
        -1.4328199596215553e-05,
        5.603027564256574e-10,
        -0.09659322139664153
      ],
      [
        -0.03331659635831521,
        -0.04888833924164157,
        -0.03311941196664325,
        -0.0524731456606181,
        1.9820835227082685e-07,
        5.335964569976902e-07,
        2.1828723754906818e-51,
        -1.4403075340472937e-06,
        -7.77170223878907e-06,
        -1.2032469915862001e-08,
        3.967846027896907e-08,
        -0.09924148145768721
      ],
      [
        -0.059010592446759436,
        -0.06075964720027853,
        -0.029827628465688306,
        -0.03476948028440592,
        -1.580210382259255e-05,
        3.857319760113003e-06,
        2.5523033212367044e-07,
        2.4993844920553916e-106,
        -2.2219707644963125e-06,
        1.9378169016622374e-17,
        2.484876509653388e-05,
        -0.08806382777284336
      ]
    ]
  },
  "cues": [
    [
      9,
      0
    ],
    [
      6,
      7
    ],
    [
      3,
      7
    ],
    [
      7,
      4
    ],
    [
      2,
      0
    ]
  ],
  "env": {
    "delay": 6,
    "grid_size": 10,
    "max_steps": 200,
    "noise": 0.0,
    "num_cues": 5,
    "reward_sparse_prob": 0.1
  },
  "seed": 10
}