{
  "agent": {
    "action_size": 4,
    "cue_exploration_bias": 0.6333333333333333,
    "cue_regularization": 0.009166666666666668,
    "epsilon": 0.05,
    "state_size": 11,
    "target_weights": [
      [
        -0.024150572392675686,
        -0.029066581000468866,
        -0.024253341694539073,
        -0.040407393967942934,
        4.48927749102385e-06,
        -4.452174032210188e-06,
        3.033002479236323e-07,
        3.3534110238337035e-68,
        8.368270624775177e-28,
        -1.958780652891338e-214,
        3.84210852460259e-16,
        -0.08279524658175608
      ],
      [
        -0.020546336143212725,
        -0.02864182271723653,
        -0.02812153561904296,
        -0.01598109800278236,
        -7.177757990206363e-05,
        1.9690757140442996e-05,
        -2.194731279592956e-06,
        -2.4565134025927666e-68,
        3.3707032405133904e-97,
        1.4735608084735797e-15,
        -4.995413731529065e-07,
        -0.0621413466541085
      ],
      [
        -0.04102667348437201,
        -0.023833887605520975,
        -0.04979510586343399,
        -0.037852694370338266,
        1.4058573011694802e-05,
        -1.4836073021010872e-05,
        1.1033870627231456e-33,
        3.2754769862774365e-81,
        4.722481658491406e-09,
        1.7288240618346385e-197,
        3.0793651932056964e-09,
        -0.05734945648933539
      ],
      [
        -0.01488065077122836,
        0.00498412779342411,
        -0.024302061128990693,
        -0.05222906890175124,
        1.7223254761387432e-05,
        3.5685812229698594e-05,
        -3.510381838205729e-05,
        7.21208260882556e-06,
        0.00023962739077726663,
        -2.0265724181867185e-188,
        5.853934458447941e-05,
        -0.09626420499521919
      ]
    ],
    "weights": [
      [
        -0.02409281145547748,
        -0.02901523794518157,
        -0.024253341694539073,
        -0.04040097608603202,
        -7.183418124879633e-06,
        -2.017328444360489e-07,
        1.374286388832351e-08,
        1.5194669828873356e-69,
        3.791754374229792e-29,
        -8.875448036740517e-216,
        1.740901132104438e-17,
        -0.08273748564455786
      ],
      [
        -0.020557641332836312,
        -0.028900072828994563,
        -0.02818290512497052,
        -0.015795522586575496,
        -2.9639575243856037e-05,
        1.61256799134733e-05,
        -9.944565971633016e-08,
        -1.1130729223859758e-69,
        1.527302274212785e-98,
        6.676864183480432e-17,
        -2.2634762565559092e-08,
        -0.062214021349659615
      ],
      [
        -0.04092927867766857,
        -0.02372159711400305,
        -0.04970947626894391,
        -0.03778196046066267,
        -4.502967436585448e-06,
        -2.222843902256496e-06,
        4.999566707561454e-35,
        1.4841542234110224e-82,
        2.1398077677830613e-10,
        7.83348972884264e-199,
        6.5689066519975215e-06,
        -0.05716643208814187
      ],
      [
        -0.014939457611436098,
        0.004792848036258362,
        -0.024175869064354195,
        -0.05197040392015665,
        5.54326979896476e-05,
        -1.6533433326020146e-05,
        -2.906850501274582e-05,
        3.267873017676887e-07,
        0.00025843330749570427,
        -9.18261989353311e-190,
        9.392376455303525e-05,
        -0.0961968197707904
      ]
    ]
  },
  "cues": [
    [
      7,
      8
    ],
    [
      7,
      7
    ],
    [
      8,
      9
    ],
    [
      3,
      2
    ],
    [
      8,
      7
    ]
  ],
  "env": {
    "delay": 6,
    "grid_size": 10,
    "max_steps": 200,
    "noise": 0.0,
    "num_cues": 5,
    "reward_sparse_prob": 0.1
  },
  "seed": 11
}