{
  "agent": {
    "action_size": 4,
    "cue_exploration_bias": 0.6333333333333333,
    "cue_regularization": 0.009166666666666668,
    "epsilon": 0.05,
    "state_size": 11,
    "target_weights": [
      [
        -0.016424061374396767,
        -0.0041979483806018495,
        -0.009144929023638169,
        -0.04454079376662619,
        1.7958862079427365e-06,
        -1.4399225582537552e-05,
        7.2308072716320595e-06,
        3.1192411510451765e-85,
        1.3233510184096368e-147,
        1.9992281506647292e-05,
        1.1575662932874707e-10,
        -0.06937468538942428
      ],
      [
        -0.00287482305843959,
        -0.01194679026937775,
        -0.03557268013587176,
        -0.03161880140368259,
        -8.274871004150383e-07,
        5.925673496675832e-05,
        -5.2845383917717204e-05,
        1.5986852411933093e-24,
        1.001412119264448e-07,
        -2.1579803151811582e-05,
        5.560062033590394e-16,
        -0.0557898198598188
      ],
      [
        -0.017386798163990247,
        -0.03754854255492223,
        -0.030145389135679324,
        -0.03414475053967192,
        -3.824189692614146e-07,
        -8.882778676320188e-06,
        9.641154802337125e-06,
        5.656427707627777e-116,
        2.4188989896913164e-201,
        8.2844326749745e-17,
        4.237357407944737e-06,
        -0.05850900493764599
      ],
      [
        -0.027436106879954538,
        0.005808579005792079,
        -0.017469177966705524,
        -0.023056538300390922,
        -5.187696793437019e-06,
        9.962779409291004e-06,
        -1.5327919077976587e-05,
        -1.9076447900745834e-09,
        -8.317235319655604e-06,
        9.700489330265893e-06,
        8.215568284304163e-05,
        -0.05044123721582682
      ]
    ],
    "weights": [
      [
        -0.016424061374396767,
        -0.0041979483806018495,
        -0.009144929023638169,
        -0.04454079376662619,
        1.7958862079427365e-06,
        -1.4399225582537552e-05,
        7.2308072716320595e-06,
        3.1192411510451765e-85,
        1.3233510184096368e-147,
        1.9992281506647292e-05,
        1.1575662932874707e-10,
        -0.06937468538942428
      ],
      [
        -0.00287482305843959,
        -0.01194679026937775,
        -0.03557268013587176,
        -0.03161880140368259,
        -8.274871004150383e-07,
        5.925673496675832e-05,
        -5.2845383917717204e-05,
        1.5986852411933093e-24,
        1.001412119264448e-07,
        -2.1579803151811582e-05,
        5.560062033590394e-16,
        -0.0557898198598188
      ],
      [
        -0.017386798163990247,
        -0.03754854255492223,
        -0.030145389135679324,
        -0.03414475053967192,
        -3.824189692614146e-07,
        -8.882778676320188e-06,
        9.641154802337125e-06,
        5.656427707627777e-116,
        2.4188989896913164e-201,
        8.2844326749745e-17,
        4.237357407944737e-06,
        -0.05850900493764599
      ],
      [
        -0.027436106879954538,
        0.005808579005792079,
        -0.017469177966705524,
        -0.023056538300390922,
        -5.187696793437019e-06,
        9.962779409291004e-06,
        -1.5327919077976587e-05,
        -1.9076447900745834e-09,
        -8.317235319655604e-06,
        9.700489330265893e-06,
        8.215568284304163e-05,
        -0.05044123721582682
      ]
    ]
  },
  "cues": [
    [
      8,
      6
    ],
    [
      4,
      5
    ],
    [
      4,
      2
    ],
    [
      8,
      4
    ],
    [
      1,
      0
    ]
  ],
  "env": {
    "delay": 6,
    "grid_size": 10,
    "max_steps": 200,
    "noise": 0.0,
    "num_cues": 5,
    "reward_sparse_prob": 0.1
  },
  "seed": 17
}