{
  "agent": {
    "action_size": 4,
    "cue_exploration_bias": 0.6333333333333333,
    "cue_regularization": 0.009166666666666668,
    "epsilon": 0.05,
    "state_size": 11,
    "target_weights": [
      [
        -0.04724132454332935,
        -0.0541174582381601,
        -0.05172045307757022,
        -0.049721031644572276,
        5.055944534467294e-07,
        1.0660672667255516e-05,
        -5.986349147341132e-06,
        -2.9777144241637883e-06,
        -9.911211802942093e-06,
        -2.49952331076324e-42,
        -2.4527494384851354e-06,
        -0.10966043280649121
      ],
      [
        -0.05942972391113825,
        -0.080324591145793,
        -0.045875103787729375,
        -0.04206505674285967,
        3.7220733424187866e-06,
        4.344235237086729e-08,
        -4.055015278731659e-06,
        1.1945381071433834e-18,
        2.7047592265698796e-05,
        8.373833214229077e-06,
        -5.692442804169635e-06,
        -0.10897522702233498
      ],
      [
        -0.07251900473990525,
        -0.05737280334848757,
        -0.0749511791684414,
        -0.05702707381845799,
        7.885382732260117e-06,
        1.2402667547834043e-05,
        -4.35250436978559e-07,
        -1.3133411460092745e-06,
        2.146195239571636e-06,
        -1.6443057619537544e-05,
        8.817482772314496e-13,
        -0.08211694942692335
      ],
      [
        -0.04557919066310998,
        -0.0765496088133544,
        -0.04818764178464901,
        -0.06905940227306326,
        2.0958501447721172e-06,
        2.3792183886067094e-05,
        4.601045532923119e-06,
        -7.772498421285984e-06,
        0.00013614601533028562,
        -3.814453621333443e-17,
        -1.5483045496201385e-07,
        -0.09124751337094221
      ]
    ],
    "weights": [
      [
        -0.047268593719784036,
        -0.05411670646531423,
        -0.05171789558861998,
        -0.049746495104922586,
        5.192023953062631e-07,
        1.2063307665234297e-06,
        -7.372620012099826e-07,
        -8.855321716730676e-07,
        -5.7061446380053395e-06,
        -1.032560754041661e-42,
        -1.0727776290613525e-06,
        -0.10968514449399568
      ],
      [
        -0.059387617076123916,
        -0.0803216576851375,
        -0.04587857213394448,
        -0.04202935171471593,
        4.905097753875203e-06,
        3.1217990188700624e-06,
        -3.0602628640164864e-06,
        4.934673596890106e-19,
        3.666062410589039e-05,
        3.459256211242631e-06,
        -2.3515656000894088e-06,
        -0.10893658853353574
      ],
      [
        -0.07250793112712395,
        -0.05737164264714632,
        -0.07495304579995765,
        -0.05701902753853422,
        3.992545356413483e-06,
        4.899283043657057e-06,
        -1.798032918790063e-07,
        -7.247051188421115e-07,
        3.37700886620145e-06,
        -8.055237656408635e-06,
        3.642529205838969e-13,
        -0.08210774244565833
      ],
      [
        -0.04541459206071345,
        -0.07651335062194942,
        -0.04820450522170442,
        -0.06894792529912716,
        -3.1391181953217885e-08,
        6.7380592632178036e-06,
        -6.245998321163127e-06,
        -3.2108429619806305e-06,
        0.00011860323583085863,
        -1.5757625026102747e-17,
        -5.769799998874498e-06,
        -0.09109977820560113
      ]
    ]
  },
  "cues": [
    [
      2,
      4
    ],
    [
      1,
      5
    ],
    [
      9,
      2
    ],
    [
      0,
      6
    ],
    [
      6,
      1
    ]
  ],
  "env": {
    "delay": 6,
    "grid_size": 10,
    "max_steps": 200,
    "noise": 0.0,
    "num_cues": 5,
    "reward_sparse_prob": 0.1
  },
  "seed": 20
}