{
  "agent": {
    "action_size": 4,
    "cue_exploration_bias": 0.6333333333333333,
    "cue_regularization": 0.009166666666666668,
    "epsilon": 0.05,
    "state_size": 11,
    "target_weights": [
      [
        -0.0700700302233917,
        -0.0417962871997185,
        -0.06335481334732561,
        -0.03858451503877578,
        -9.948266969182354e-07,
        -3.3866613114131734e-06,
        -2.7363262250710137e-06,
        -3.7335872467926102e-112,
        -1.2316988086454854e-06,
        -1.2075360776190752e-05,
        -2.67e-322,
        -0.10230608177826658
      ],
      [
        -0.05635514675815475,
        -0.06569198620415297,
        -0.04607309260740319,
        -0.06305008477409794,
        -1.475482769551777e-06,
        -6.957735619477529e-06,
        -1.4081240593815107e-05,
        1.1657506299626211e-147,
        -1.150076749294073e-06,
        2.343815609413832e-06,
        -4.00196388825528e-93,
        -0.09451810122459645
      ],
      [
        -0.0640569448056073,
        -0.05238386739546591,
        -0.0571770860349667,
        -0.048734949002055064,
        7.24191811540195e-06,
        1.8457159888373469e-06,
        1.067994546494848e-09,
        -7.454643219298651e-98,
        -5.883806666268377e-09,
        1.636758514641103e-06,
        -9.728031865255538e-143,
        -0.09691620449058108
      ],
      [
        -0.06670441535281045,
        -0.06095051126906607,
        -0.03721892848075792,
        -0.045485652655303646,
        -3.0331468794562595e-05,
        4.972642608585268e-07,
        1.0836805103500907e-15,
        2.67e-322,
        1.2654533006478113e-08,
        2.3985777756300648e-06,
        2.67e-322,
        -0.1139945945022203
      ]
    ],
    "weights": [
      [
        -0.07007498116902633,
        -0.04180782319525133,
        -0.06336222673119926,
        -0.038585343372751296,
        1.4443673282203096e-06,
        2.951522725213802e-07,
        -2.0662211152748213e-07,
        -1.6917289616186135e-113,
        -1.2587033834707343e-06,
        -5.368844054516474e-06,
        -2.67e-322,
        -0.10231844610777487
      ],
      [
        -0.056346456021039625,
        -0.06579794230833119,
        -0.046152758746820594,
        -0.06301510407222205,
        -1.960292259092085e-06,
        -1.947732706201217e-06,
        -2.494517665693011e-05,
        5.2821428089757315e-149,
        -6.081356721348539e-07,
        8.669337539702751e-06,
        -1.813333334832164e-94,
        -0.0945890766268988
      ],
      [
        -0.06409909460680382,
        -0.052404389251659765,
        -0.057236146967667,
        -0.04881563787975806,
        -7.527958404854877e-07,
        1.0863360574382651e-06,
        4.839199369743369e-11,
        -3.3777798666564384e-99,
        -2.66601675116654e-10,
        -3.1003068553021456e-05,
        -4.4078769714406134e-144,
        -0.09701741522447797
      ],
      [
        -0.06675918695193298,
        -0.06097476509254966,
        -0.03743830673521799,
        -0.04573554868540271,
        -2.176470464821246e-05,
        -3.666831974559935e-06,
        4.9102741768678454e-17,
        2.67e-322,
        5.733906446463392e-10,
        1.1920154592426406e-05,
        2.67e-322,
        -0.11426874435580299
      ]
    ]
  },
  "cues": [
    [
      1,
      9
    ],
    [
      8,
      3
    ],
    [
      4,
      4
    ],
    [
      4,
      1
    ],
    [
      7,
      4
    ]
  ],
  "env": {
    "delay": 6,
    "grid_size": 10,
    "max_steps": 200,
    "noise": 0.0,
    "num_cues": 5,
    "reward_sparse_prob": 0.1
  },
  "seed": 14
}