{
  "agent": {
    "action_size": 4,
    "cue_exploration_bias": 0.6333333333333333,
    "cue_regularization": 0.009166666666666668,
    "epsilon": 0.05,
    "state_size": 11,
    "target_weights": [
      [
        -0.04077044675405807,
        -0.06051375899357385,
        -0.03601577724897672,
        -0.05873875936426763,
        1.4484481747734184e-07,
        -1.5044915755812108e-05,
        -3.369340284021898e-07,
        1.072564169551732e-08,
        1.6976419810830663e-273,
        -2.67e-322,
        -7.038235651570105e-08,
        -0.11364870759887315
      ],
      [
        -0.06787869887309096,
        -0.059636138371709196,
        -0.06052902043979124,
        -0.0476390552001366,
        -4.369354713034167e-07,
        -8.59032661991021e-06,
        1.1798075440713717e-09,
        1.9968132750988417e-12,
        2.848189031710265e-06,
        2.67e-322,
        9.293169424961553e-30,
        -0.09850297792378387
      ],
      [
        -0.06922313958687029,
        -0.04802140554791304,
        -0.0670252889252054,
        -0.047907801607592664,
        -4.1685486356505556e-07,
        -1.2695043837670053e-06,
        -1.6376383231910087e-05,
        6.379022844790121e-06,
        2.67e-322,
        -2.67e-322,
        5.259388240429465e-06,
        -0.09515550674888384
      ],
      [
        -0.05701674588570813,
        -0.0712485720365401,
        -0.026659322627842423,
        -0.06059451800639294,
        8.165562359134566e-06,
        -1.8841392042331702e-05,
        6.286377706485828e-07,
        -4.721581652809687e-05,
        3.7130405641960285e-06,
        -2.67e-322,
        -1.12978213249584e-05,
        -0.10300875257070471
      ]
    ],
    "weights": [
      [
        -0.04051079048287082,
        -0.06048009094294079,
        -0.03599425326367061,
        -0.058491247158407346,
        -2.8706326732450448e-05,
        6.084277051527614e-05,
        -1.1338442408297363e-06,
        3.8237672097296196e-09,
        6.052213867855453e-274,
        -2.67e-322,
        -2.5091808455685768e-08,
        -0.11336752734237977
      ],
      [
        -0.06789609839936227,
        -0.05963347213074064,
        -0.060533431516824665,
        -0.047663532044409866,
        9.624149212387355e-08,
        -1.1186553574404989e-05,
        4.2060974334964053e-10,
        7.118780714506704e-13,
        1.0153995570369446e-06,
        2.67e-322,
        3.3130807023398234e-30,
        -0.09852478852708857
      ],
      [
        -0.06925106134689925,
        -0.048039754208684095,
        -0.06700161082122266,
        -0.047893696602867866,
        -5.351488963084764e-06,
        -3.491713766042545e-06,
        -2.131961905843099e-05,
        6.905122266773398e-06,
        2.67e-322,
        -2.67e-322,
        1.8750091479745032e-06,
        -0.09515975040493012
      ],
      [
        -0.057093819478917875,
        -0.07129083720410452,
        -0.02671837822009291,
        -0.06068838202428875,
        6.893165173813066e-06,
        -1.1439076066298693e-05,
        2.2411381644496002e-07,
        -5.107508027624363e-05,
        1.3237252521406327e-06,
        -2.67e-322,
        -1.0207251512405911e-05,
        -0.10314488175616492
      ]
    ]
  },
  "cues": [
    [
      7,
      4
    ],
    [
      4,
      3
    ],
    [
      1,
      1
    ],
    [
      4,
      8
    ],
    [
      5,
      4
    ]
  ],
  "env": {
    "delay": 6,
    "grid_size": 10,
    "max_steps": 200,
    "noise": 0.0,
    "num_cues": 5,
    "reward_sparse_prob": 0.1
  },
  "seed": 27
}