{
  "agent": {
    "action_size": 4,
    "cue_exploration_bias": 0.6333333333333333,
    "cue_regularization": 0.009166666666666668,
    "epsilon": 0.05,
    "state_size": 11,
    "target_weights": [
      [
        -0.05299083371498739,
        -0.06048464664712695,
        -0.050664457557844766,
        -0.06724987282529878,
        3.4011996686723042e-06,
        2.1189462733352076e-06,
        2.67e-322,
        -2.67e-322,
        2.67e-322,
        -2.356792572855914e-05,
        1.1002518319958679e-68,
        -0.10501320261516307
      ],
      [
        -0.07628687506472402,
        -0.040444108113090155,
        -0.06952870187629993,
        -0.03926073814709581,
        -2.720047384451758e-06,
        6.798083169363694e-06,
        2.67e-322,
        2.67e-322,
        -2.67e-322,
        1.5940064242875615e-07,
        -7.295218093931697e-06,
        -0.10694122029046466
      ],
      [
        -0.06315289710421629,
        -0.04832109859268576,
        -0.0699476673951277,
        -0.06505662187256026,
        2.607040688939241e-06,
        -5.539628464693385e-07,
        2.67e-322,
        2.67e-322,
        2.67e-322,
        4.514210991922923e-06,
        4.573044582705388e-68,
        -0.09990507287166099
      ],
      [
        -0.09142993130619352,
        -0.05814434709503916,
        -0.047868950653112266,
        -0.025253254994504568,
        -1.0928686067166561e-05,
        2.3635398640961426e-06,
        1.9770943765325516e-69,
        -2.67e-322,
        -2.67e-322,
        -2.0063891282854413e-05,
        1.1535504950664523e-69,
        -0.11081137354365671
      ]
    ],
    "weights": [
      [
        -0.05302725463247345,
        -0.06060217331991492,
        -0.050761017915283146,
        -0.06726532742743525,
        1.0564595824860511e-06,
        6.051100107415891e-06,
        2.67e-322,
        -2.67e-322,
        2.67e-322,
        -3.141216655578226e-05,
        -1.0357201836388414e-07,
        -0.10514618389008755
      ],
      [
        -0.07632180184532883,
        -0.040531544506784103,
        -0.06957278051329147,
        -0.039252307170998285,
        -5.660201479636094e-07,
        1.5276839044496706e-06,
        2.67e-322,
        2.67e-322,
        -2.67e-322,
        -4.657978367534771e-06,
        -3.09305028394953e-06,
        -0.10702022570806097
      ],
      [
        -0.06317273474678019,
        -0.048356168793341585,
        -0.06997086388528721,
        -0.06506458580462786,
        1.9114182537295534e-06,
        1.4440938537911615e-06,
        2.67e-322,
        2.67e-322,
        2.67e-322,
        2.0239831744473293e-06,
        1.7882146657854585e-69,
        -0.0999481070043844
      ],
      [
        -0.09144112576955878,
        -0.05832480885643476,
        -0.04802819662204604,
        -0.025243233665407993,
        -1.2533089189521367e-05,
        6.9309564686735185e-06,
        7.731105821990263e-71,
        -2.67e-322,
        -2.67e-322,
        -1.1903214443406672e-05,
        4.510771490842467e-71,
        -0.11098181397595575
      ]
    ]
  },
  "cues": [
    [
      1,
      2
    ],
    [
      8,
      9
    ],
    [
      2,
      3
    ],
    [
      2,
      7
    ],
    [
      6,
      3
    ]
  ],
  "env": {
    "delay": 6,
    "grid_size": 10,
    "max_steps": 200,
    "noise": 0.0,
    "num_cues": 5,
    "reward_sparse_prob": 0.1
  },
  "seed": 28
}