{
  "agent": {
    "action_size": 4,
    "cue_exploration_bias": 0.6333333333333333,
    "cue_regularization": 0.009166666666666668,
    "epsilon": 0.05,
    "state_size": 11,
    "target_weights": [
      [
        -0.03163843319048106,
        -0.03087478539866465,
        -0.0384719578367173,
        -0.038028775072400905,
        -4.495427915969809e-06,
        1.133237756666163e-06,
        1.6949712539679395e-17,
        2.6680597540841935e-15,
        -2.67e-322,
        -1.43651736337623e-37,
        -1.4803968970219683e-44,
        -0.09136255718887411
      ],
      [
        -0.0269145655703244,
        -0.04244831708084953,
        -0.038067530975739464,
        -0.008453599767631761,
        -3.284008926638623e-06,
        8.319374984532554e-06,
        1.196780552237612e-05,
        -4.851228644067631e-06,
        -3.142756735711531e-306,
        1.500879919464843e-17,
        2.654349059813899e-06,
        -0.08509509216656629
      ],
      [
        -0.036261304351665566,
        -0.01879866774931789,
        -0.04453244936910745,
        -0.02920315830297255,
        1.5113018852751085e-05,
        -2.3285546811889013e-06,
        3.942355980134582e-73,
        2.841339962765414e-40,
        2.67e-322,
        -4.397576640857643e-06,
        -2.5038844694763927e-06,
        -0.09422920537418891
      ],
      [
        -0.03495260538685385,
        -0.008085690941432279,
        -0.04148632872020432,
        -0.06383042259509132,
        0.00010006939275654963,
        -1.6239725888600623e-05,
        1.641021828379258e-55,
        4.10451419473994e-12,
        7.288083743397197e-309,
        -6.28005581829932e-06,
        -5.024452819403046e-06,
        -0.10120827392142867
      ]
    ],
    "weights": [
      [
        -0.03161805233276049,
        -0.030866620638682715,
        -0.03848063060719393,
        -0.038025231745138895,
        -2.2098232899944464e-06,
        1.5188829990432442e-06,
        1.1949166306489687e-18,
        1.8809221479461731e-16,
        -2.67e-322,
        -1.0127124478930729e-38,
        -1.0436465326898911e-45,
        -0.09135084910163016
      ],
      [
        -0.026916962118707675,
        -0.04262781220750009,
        -0.03825170487018788,
        -0.00846067508381285,
        -7.723189642304514e-06,
        1.5001090780656801e-05,
        1.6022355993682216e-05,
        5.264355108521502e-06,
        -2.21557284868077e-307,
        1.0580866030483997e-18,
        1.8712564167056202e-07,
        -0.08528166260939796
      ],
      [
        -0.036385024100895405,
        -0.019042162407608434,
        -0.04468330690359914,
        -0.029234240928403554,
        1.702962945836696e-05,
        1.531061587566793e-06,
        2.7792723407982537e-74,
        2.0030807996818845e-41,
        2.67e-322,
        -7.164447786483465e-06,
        -1.7651822630011398e-07,
        -0.09450378265791048
      ],
      [
        -0.03565586477561577,
        -0.008874190415086471,
        -0.04164242585667257,
        -0.0639012796466673,
        0.00010398656396441722,
        -1.8249682709643478e-05,
        1.1568834984061867e-56,
        2.8935902367358225e-13,
        5.13793520106057e-310,
        -1.439630376867808e-05,
        -4.385334274081742e-06,
        -0.1020676304466589
      ]
    ]
  },
  "cues": [
    [
      0,
      1
    ],
    [
      1,
      5
    ],
    [
      2,
      4
    ],
    [
      4,
      9
    ],
    [
      3,
      9
    ]
  ],
  "env": {
    "delay": 6,
    "grid_size": 10,
    "max_steps": 200,
    "noise": 0.0,
    "num_cues": 5,
    "reward_sparse_prob": 0.1
  },
  "seed": 2
}