{
  "agent": {
    "action_size": 4,
    "cue_exploration_bias": 0.3333333333333333,
    "cue_regularization": 0.01666666666666667,
    "epsilon": 0.05,
    "state_size": 11,
    "target_weights": [
      [
        0.09538773593784722,
        0.11220010591405598,
        -0.0002437972819371255,
        0.01843405741922695,
        -1.48826651049545e-05,
        -1.4775137654440238e-05,
        1.43e-322,
        6.45104263461887e-08,
        3.2711748584009996e-15,
        1.2633387738445853e-237,
        1.5305988347880849e-259,
        0.08139296590151915
      ],
      [
        0.240979692201208,
        0.16658893092149374,
        -0.10015186390298578,
        -0.03130094990328028,
        9.813963149942024e-05,
        2.818107944829003e-06,
        -1.3788961817851741e-71,
        -3.1854052706622563e-90,
        7.401125672158446e-47,
        1.758800212675586e-195,
        7.88831691201811e-111,
        0.14757404161035567
      ],
      [
        0.16468422755577,
        0.1555866133710625,
        -0.024896341410374632,
        0.010461962993645369,
        -3.689400277645905e-05,
        -1.2154127176539698e-05,
        1.43e-322,
        1.9817838903206633e-14,
        -1.7255856073884139e-10,
        2.119326158664111e-289,
        1.43e-322,
        0.10446760558636282
      ],
      [
        0.20999190435273524,
        0.19869458060900452,
        -0.01870992628433227,
        -0.026381214991888814,
        -3.060556573492389e-05,
        -2.7260289466420102e-05,
        1.4190866209655795e-08,
        1.2823503501651693e-09,
        3.717745320114699e-05,
        1.0410181878276851e-137,
        3.527611996984796e-28,
        0.1443240864098662
      ]
    ],
    "weights": [
      [
        0.09539224814284908,
        0.11221364252906156,
        -0.00038119711908584,
        0.018287633172074512,
        -2.107343273149413e-05,
        -2.1390259793988663e-05,
        1.43e-322,
        2.905038284195012e-06,
        1.6983912400165324e-16,
        6.559244306859506e-239,
        7.946856299373421e-261,
        0.08126007826937229
      ],
      [
        0.2406355446620016,
        0.1667452190517706,
        -0.1000456828619389,
        -0.03169520453171649,
        0.000317859443265916,
        4.044193619970233e-05,
        -7.15921739867168e-73,
        -1.6538597420743777e-91,
        3.842658235029289e-48,
        9.13167593739573e-197,
        4.095607517720619e-112,
        0.1473360751121962
      ],
      [
        0.16496914884182007,
        0.15583231008718454,
        -0.0249697972999675,
        0.010427731673980502,
        -4.878705841513968e-05,
        -2.0379058861911553e-05,
        1.43e-322,
        1.028940531956697e-15,
        -2.820255133025545e-06,
        1.1003523622006789e-290,
        1.43e-322,
        0.10467907098282003
      ],
      [
        0.21074533092823702,
        0.1994987093079512,
        -0.018338735496783137,
        -0.026060726327784656,
        -0.00041822525560359925,
        -6.454086766729733e-05,
        7.36788582145904e-10,
        3.156228740155864e-06,
        1.8385780807688766e-05,
        5.4049576908544654e-139,
        1.8315331870656474e-29,
        0.14544870377291705
      ]
    ]
  },
  "cues": [
    [
      4,
      4
    ],
    [
      2,
      3
    ],
    [
      2,
      2
    ],
    [
      1,
      8
    ],
    [
      3,
      4
    ]
  ],
  "env": {
    "delay": 0,
    "grid_size": 10,
    "max_steps": 200,
    "noise": 0.3,
    "num_cues": 5,
    "reward_sparse_prob": 1.0
  },
  "seed": 13
}