{
  "agent": {
    "action_size": 4,
    "cue_exploration_bias": 0.16666666666666666,
    "cue_regularization": 0.020833333333333336,
    "epsilon": 0.05,
    "state_size": 11,
    "target_weights": [
      [
        0.059798567481344905,
        0.05270072409780032,
        -0.011795905839241878,
        0.0042278086162312305,
        -2.8855018541582546e-05,
        -3.5234013224043705e-06,
        2.4767095531723315e-05,
        5.2128124355735457e-17,
        4.6193045049907716e-51,
        -1.14e-322,
        1.2816756022771946e-09,
        0.03981116860288855
      ],
      [
        0.15018484822611863,
        0.08779464399146565,
        -0.04827680680879475,
        -0.0018671798332735925,
        0.0002753300780535459,
        0.00011003180496103223,
        4.97046346705585e-41,
        -2.0655124216946217e-06,
        -2.6391139943863405e-05,
        -3.0573313176415058e-170,
        -5.977050287503166e-05,
        0.05772220592008037
      ],
      [
        0.04382236075116964,
        0.04679685561334365,
        -0.03385364530779971,
        7.455032026765132e-05,
        -1.9534535560048044e-05,
        -1.7249984341986835e-06,
        5.220991617350099e-273,
        9.753191067167358e-195,
        -1.14e-322,
        -1.14e-322,
        2.893031158556429e-14,
        0.060968715889067805
      ],
      [
        0.09020856257481326,
        0.11653323352104816,
        -0.002082971757726702,
        -0.049242613542146756,
        7.012806251210377e-05,
        2.880734746216506e-05,
        -4.6840803366569924e-07,
        1.1745386581043845e-07,
        1.0795704455656753e-08,
        7.642079e-317,
        7.153854849862677e-06,
        0.08610961101354782
      ]
    ],
    "weights": [
      [
        0.06002108485205515,
        0.05297733666243201,
        -0.011744750175597857,
        0.004224869085953799,
        -1.6783311671679972e-05,
        -1.6191029220468118e-05,
        1.6731023569343993e-06,
        3.5214338157027315e-18,
        3.1204988266785197e-52,
        -1.14e-322,
        8.658158839209197e-11,
        0.04008484163724282
      ],
      [
        0.15145106215974943,
        0.08884780192024924,
        -0.04837776832830382,
        -0.0017550853479353808,
        -8.068221389962169e-05,
        2.2831762358610846e-05,
        3.3577187648570546e-42,
        -5.260401863793967e-05,
        -6.358475728708114e-06,
        -2.0653322982194017e-171,
        -8.006512182116788e-06,
        0.058887458334202177
      ],
      [
        0.04421857491010777,
        0.047219395676923404,
        -0.03379591761051213,
        0.00010595211291361217,
        -3.261824035694627e-05,
        -9.25734258644307e-06,
        3.5269591338776533e-274,
        6.588615504473654e-196,
        -1.14e-322,
        -1.14e-322,
        1.9543418984537776e-15,
        0.06142265774529351
      ],
      [
        0.09094888000738202,
        0.11733045128733684,
        -0.0018147400771570989,
        -0.049031282195297135,
        -0.0003038292848478255,
        -0.0002470604953390961,
        -3.164257125464234e-08,
        3.0095829323090343e-05,
        7.292869099806681e-10,
        5.162477e-318,
        1.9752166189282547e-05,
        0.08711816012668616
      ]
    ]
  },
  "cues": [
    [
      5,
      7
    ],
    [
      7,
      4
    ],
    [
      6,
      3
    ],
    [
      7,
      0
    ],
    [
      6,
      4
    ]
  ],
  "env": {
    "delay": 0,
    "grid_size": 10,
    "max_steps": 200,
    "noise": 0.0,
    "num_cues": 5,
    "reward_sparse_prob": 0.5
  },
  "seed": 16
}