{
  "agent": {
    "action_size": 4,
    "cue_exploration_bias": 0.05555555555555555,
    "cue_regularization": 0.02361111111111111,
    "epsilon": 0.05,
    "state_size": 11,
    "target_weights": [
      [
        0.07517027141700475,
        0.04854993714105901,
        -0.027478806570348336,
        -0.005632958125058026,
        1.253055977941107e-05,
        9.521044077072471e-13,
        0.00011852485588377084,
        1.04e-322,
        3.383188379447269e-54,
        4.382141887248653e-10,
        2.7552806216508145e-126,
        0.03977776319681465
      ],
      [
        0.20826290988630272,
        0.1557190018596852,
        -0.08478404781071405,
        -0.017698288836017238,
        -2.3847040100340844e-05,
        6.595950417846801e-05,
        -3.884069687595201e-05,
        5.875925512788387e-149,
        -8.01930040165257e-10,
        1.0908882732111197e-08,
        4.669927908447899e-33,
        0.15446731915654605
      ],
      [
        0.08971904948522433,
        0.03540250875423666,
        -0.030487097387917193,
        -0.018539791105863034,
        -0.0001680783194796494,
        6.63423696199963e-05,
        8.299188790941686e-08,
        1.04e-322,
        3.058163489043384e-231,
        7.30570608657658e-18,
        7.964339071653546e-125,
        0.06861327984582108
      ],
      [
        0.15499390733565405,
        0.1752381643811732,
        -0.00465922362737839,
        -0.05279251569266547,
        -0.00044898315375630654,
        -6.23031603912493e-05,
        1.4967886301883137e-05,
        -2.0242114186233865e-253,
        2.0050986361283078e-15,
        9.630312498049122e-07,
        -8.991520262545075e-49,
        0.17785258508605284
      ]
    ],
    "weights": [
      [
        0.07781635324152016,
        0.05051595490932837,
        -0.026929118651689586,
        -0.004403206150153214,
        -0.0005101730529755186,
        -2.687229233165255e-05,
        2.6366051685797654e-08,
        1.04e-322,
        7.525958923145236e-58,
        5.351218074829003e-06,
        6.1291676532862354e-130,
        0.042973532939988804
      ],
      [
        0.2121410970355706,
        0.15882159214545957,
        -0.08540371683368068,
        -0.017542360995490346,
        0.00011760283097034771,
        5.501378648048274e-05,
        -3.699010106870124e-05,
        1.3071094212002275e-152,
        -1.0087144357135175e-05,
        7.169279391076355e-07,
        1.0388332445966361e-36,
        0.15772583728284717
      ],
      [
        0.09299131134903531,
        0.03775197634899505,
        -0.02984604354074039,
        -0.016975942989633622,
        -1.3221926945977755e-05,
        -1.81533403152383e-05,
        1.846168375237172e-11,
        1.04e-322,
        6.802935638648423e-235,
        1.6251664922403807e-21,
        1.7716804972313639e-128,
        0.07252659555680888
      ],
      [
        0.15710364250848927,
        0.17855671535496184,
        -0.0038178099157702722,
        -0.053159917782010596,
        0.00022390983966319325,
        -8.40366274397467e-06,
        2.5500985087858195e-05,
        -4.502892029562375e-257,
        4.460375326431451e-19,
        -3.7253059209259286e-06,
        -2.000178664706749e-52,
        0.18080373397049634
      ]
    ]
  },
  "cues": [
    [
      6,
      0
    ],
    [
      3,
      4
    ],
    [
      7,
      0
    ],
    [
      4,
      0
    ],
    [
      4,
      9
    ]
  ],
  "env": {
    "delay": 1,
    "grid_size": 10,
    "max_steps": 200,
    "noise": 0.0,
    "num_cues": 5,
    "reward_sparse_prob": 1.0
  },
  "seed": 25
}