{
  "agent": {
    "action_size": 4,
    "cue_exploration_bias": 0.10000000000000002,
    "cue_regularization": 0.022500000000000003,
    "epsilon": 0.05,
    "state_size": 11,
    "target_weights": [
      [
        0.11574852305907546,
        0.0493683310363588,
        0.026139414348050845,
        0.0006256258032408478,
        2.0154995441085164e-06,
        -4.75471759502704e-05,
        1.9578937202678825e-77,
        2.1307776482418238e-246,
        7.300081687258644e-11,
        2.456411623523488e-86,
        3.0861522696096763e-97,
        0.09009857716158842
      ],
      [
        0.22603686724731017,
        0.15338624240790763,
        -0.04232012636192681,
        0.002591467741043031,
        -8.009017316255236e-05,
        -0.001103608884403624,
        -4.334338913732192e-48,
        -1.84195784544184e-254,
        -3.001682326872364e-05,
        9.873923490776492e-45,
        -5.913647962779529e-06,
        0.18275843415883603
      ],
      [
        0.08082301258374046,
        0.05501055670388478,
        0.0086923998603193,
        0.001766265177123213,
        -5.983625801567565e-05,
        -3.034253772990426e-05,
        7.827473944100524e-70,
        2.9315877055540823e-237,
        1.790703843847438e-07,
        5.265583422365778e-104,
        6.644307619401191e-54,
        0.1171428861635466
      ],
      [
        0.150763159578834,
        0.23640624950936126,
        -0.0010694089639505676,
        -0.033466197701321004,
        5.70255103923582e-05,
        -0.0002722726234631874,
        4.5078724982013156e-49,
        5.546746912841625e-236,
        -3.3218386044204375e-06,
        -1.523715565167227e-05,
        2.665364615870556e-23,
        0.17108204706876068
      ]
    ],
    "weights": [
      [
        0.11574852305907546,
        0.0493683310363588,
        0.026139414348050845,
        0.0006256258032408478,
        2.0154995441085164e-06,
        -4.75471759502704e-05,
        1.9578937202678825e-77,
        2.1307776482418238e-246,
        7.300081687258644e-11,
        2.456411623523488e-86,
        3.0861522696096763e-97,
        0.09009857716158842
      ],
      [
        0.22603686724731017,
        0.15338624240790763,
        -0.04232012636192681,
        0.002591467741043031,
        -8.009017316255236e-05,
        -0.001103608884403624,
        -4.334338913732192e-48,
        -1.84195784544184e-254,
        -3.001682326872364e-05,
        9.873923490776492e-45,
        -5.913647962779529e-06,
        0.18275843415883603
      ],
      [
        0.08082301258374046,
        0.05501055670388478,
        0.0086923998603193,
        0.001766265177123213,
        -5.983625801567565e-05,
        -3.034253772990426e-05,
        7.827473944100524e-70,
        2.9315877055540823e-237,
        1.790703843847438e-07,
        5.265583422365778e-104,
        6.644307619401191e-54,
        0.1171428861635466
      ],
      [
        0.150763159578834,
        0.23640624950936126,
        -0.0010694089639505676,
        -0.033466197701321004,
        5.70255103923582e-05,
        -0.0002722726234631874,
        4.5078724982013156e-49,
        5.546746912841625e-236,
        -3.3218386044204375e-06,
        -1.523715565167227e-05,
        2.665364615870556e-23,
        0.17108204706876068
      ]
    ]
  },
  "cues": [
    [
      3,
      0
    ],
    [
      8,
      0
    ],
    [
      2,
      3
    ],
    [
      2,
      5
    ],
    [
      3,
      1
    ]
  ],
  "env": {
    "delay": 0,
    "grid_size": 10,
    "max_steps": 200,
    "noise": 0.0,
    "num_cues": 5,
    "reward_sparse_prob": 0.7
  },
  "seed": 15
}