{
  "agent": {
    "action_size": 4,
    "cue_exploration_bias": 0.3333333333333333,
    "cue_regularization": 0.01666666666666667,
    "epsilon": 0.05,
    "state_size": 11,
    "target_weights": [
      [
        -0.05031638286155206,
        -0.055767640037642646,
        -0.04483420302051948,
        -0.05427028259178646,
        1.0108685180891092e-06,
        -1.8776288259487905e-05,
        -1.43e-322,
        -5.108855430966494e-28,
        -1.43e-322,
        -1.43e-322,
        -1.43e-322,
        -0.11076898047437896
      ],
      [
        -0.06688522000929825,
        -0.06700409661608772,
        -0.055600875185644834,
        -0.04911577631217727,
        4.063030040671539e-08,
        3.958189423260468e-06,
        1.43e-322,
        1.43e-322,
        -1.43e-322,
        1.43e-322,
        -1.43e-322,
        -0.10545946974451759
      ],
      [
        -0.04798137383693876,
        -0.05559042382015215,
        -0.044739667045428644,
        -0.04881419922587517,
        9.88573606392228e-07,
        1.5398024106173546e-06,
        -1.43e-322,
        3.501043731472007e-26,
        -1.43e-322,
        1.43e-322,
        -1.43e-322,
        -0.11625741192691812
      ],
      [
        -0.05110498163615521,
        -0.059979857580882444,
        -0.036973559172679166,
        -0.05675305843371589,
        -4.749648626253691e-08,
        -3.5402701382602387e-06,
        1.43e-322,
        1.43e-322,
        -1.43e-322,
        1.43e-322,
        -1.43e-322,
        -0.11670087618472567
      ]
    ],
    "weights": [
      [
        -0.05031465747830318,
        -0.055763206358010756,
        -0.045057558995151056,
        -0.05449634686280109,
        -2.8641063726591327e-06,
        -5.983709975354779e-06,
        -1.43e-322,
        -1.3771827563993803e-30,
        -1.43e-322,
        -1.43e-322,
        -1.43e-322,
        -0.11099061106576169
      ],
      [
        -0.06688542999564147,
        -0.067003825678515,
        -0.055672571630537876,
        -0.049187953680986246,
        1.741491997950208e-09,
        -4.437582445892579e-06,
        1.43e-322,
        1.43e-322,
        -1.43e-322,
        1.43e-322,
        -1.43e-322,
        -0.10553137617575382
      ],
      [
        -0.04796024037353656,
        -0.05559837311223341,
        -0.04467723624526988,
        -0.04872268567023294,
        -8.157366738505427e-06,
        1.4955478327665423e-05,
        -1.43e-322,
        9.437685449383018e-29,
        -1.43e-322,
        1.43e-322,
        -1.43e-322,
        -0.1161738476633572
      ],
      [
        -0.05110511015462638,
        -0.05998107794479554,
        -0.037007109987594954,
        -0.05678551740318977,
        2.392630808956285e-08,
        -4.304857755806291e-07,
        1.43e-322,
        1.43e-322,
        -1.43e-322,
        1.43e-322,
        -1.43e-322,
        -0.11673455551811263
      ]
    ]
  },
  "cues": [
    [
      6,
      6
    ],
    [
      0,
      4
    ],
    [
      8,
      7
    ],
    [
      6,
      4
    ],
    [
      7,
      5
    ]
  ],
  "env": {
    "delay": 10,
    "grid_size": 10,
    "max_steps": 200,
    "noise": 0.0,
    "num_cues": 5,
    "reward_sparse_prob": 1.0
  },
  "seed": 0
}