{
  "agent": {
    "action_size": 4,
    "cue_exploration_bias": 0.16666666666666666,
    "cue_regularization": 0.020833333333333336,
    "epsilon": 0.05,
    "state_size": 11,
    "target_weights": [
      [
        0.10018498628174642,
        0.10484277164686252,
        0.0330334149819214,
        0.044344150371748096,
        8.090632802936358e-08,
        -2.8539773192915764e-07,
        5.2332394421961575e-127,
        3.971558378590931e-09,
        7.844728743002747e-12,
        -1.14e-322,
        -1.4349879841598426e-216,
        0.08492504351553255
      ],
      [
        0.23104987947893557,
        0.1979027486714456,
        -0.006640025830701114,
        0.01496815178857914,
        0.00010153752675166513,
        -0.0003406580091504163,
        -7.523455034122669e-38,
        3.1620820225315415e-06,
        1.14e-322,
        -1.9620273198045194e-299,
        -3.41167540557849e-16,
        0.20196610433108386
      ],
      [
        0.06687123195099974,
        0.06235082860663161,
        0.001136341179056205,
        0.028389340199778297,
        -0.0003765762862505874,
        3.8297639245430796e-05,
        7.033120106097135e-126,
        1.2445863491397457e-12,
        1.14e-322,
        -1.5191355515757555e-295,
        -1.5064e-320,
        0.10152375880497223
      ],
      [
        0.1632662330158583,
        0.29023565144127955,
        -0.0015773788622612547,
        -0.0678196658218108,
        2.1548550265631262e-05,
        0.00019414172580857925,
        1.1921405884279302e-95,
        -0.00012346773214163515,
        -4.103947496681484e-11,
        6.481918317869122e-290,
        1.2365827230842992e-159,
        0.17415016665961466
      ]
    ],
    "weights": [
      [
        0.10018498628174642,
        0.10484277164686252,
        0.0330334149819214,
        0.044344150371748096,
        2.945101574211227e-08,
        -1.0388869820860254e-07,
        1.9049711060725064e-127,
        1.4457018527172365e-09,
        2.8555891155871542e-12,
        -1.14e-322,
        -5.223553551447203e-217,
        0.08492504351553255
      ],
      [
        0.2309412029723245,
        0.19781694478349074,
        -0.006493314291245323,
        0.01509199070937876,
        8.366415007231634e-05,
        -0.00012256208324302515,
        -2.7386410685280885e-38,
        4.076693188019496e-05,
        1.14e-322,
        -7.14204919311696e-300,
        -1.2418967529981436e-16,
        0.20200413936392858
      ],
      [
        0.06755951230807156,
        0.06317720896897058,
        0.0015667788613431344,
        0.028681677876798078,
        -0.0001256694680251441,
        -6.127816222758219e-05,
        2.560152413364474e-126,
        4.5304654226341386e-13,
        1.14e-322,
        -5.529862265856671e-296,
        -5.48e-321,
        0.10264247684433099
      ],
      [
        0.1641206056152899,
        0.2911824130959058,
        -0.00129012394018312,
        -0.06762479995492725,
        -0.00021184817416759207,
        6.670720893884495e-05,
        4.33955564314567e-96,
        -5.5987143457507115e-05,
        -1.4938933118519795e-11,
        2.3595073842600505e-290,
        4.501331123414997e-160,
        0.17529179418112448
      ]
    ]
  },
  "cues": [
    [
      9,
      4
    ],
    [
      5,
      8
    ],
    [
      0,
      7
    ],
    [
      3,
      0
    ],
    [
      2,
      1
    ]
  ],
  "env": {
    "delay": 3,
    "grid_size": 10,
    "max_steps": 200,
    "noise": 0.0,
    "num_cues": 5,
    "reward_sparse_prob": 1.0
  },
  "seed": 5
}