{
  "agent": {
    "action_size": 4,
    "cue_exploration_bias": 0.3333333333333333,
    "cue_regularization": 0.01666666666666667,
    "epsilon": 0.05,
    "state_size": 11,
    "target_weights": [
      [
        0.06673158796911226,
        0.03874242682432581,
        -0.028646579031834683,
        -0.024736646086642354,
        -2.0030838389434577e-05,
        3.7745728576690514e-05,
        1.3523329320838049e-43,
        1.6931534278761064e-28,
        3.765215743118761e-17,
        2.1071244857851954e-20,
        1.8319341908736397e-178,
        0.03672709759494625
      ],
      [
        0.11808771220108166,
        0.1436978433155432,
        -0.06348897464896443,
        -0.022988375082587897,
        1.514985791175123e-06,
        -6.119968484702329e-06,
        -3.8181491496915025e-05,
        -5.758619207447608e-10,
        1.179484004493646e-06,
        3.449574665939593e-05,
        -1.1585290354892397e-25,
        0.09347309420267542
      ],
      [
        0.06049361031285747,
        0.06556059910986575,
        -0.033740738478359567,
        -0.01908488324127018,
        7.220211254863895e-06,
        1.5609591717177397e-06,
        2.79155864984243e-41,
        2.717961494272732e-05,
        1.43e-322,
        1.4747665571555056e-11,
        1.43e-322,
        0.05994836346218161
      ],
      [
        0.10190182388375428,
        0.21676999469250746,
        -0.06022108622819598,
        -0.11918797716718735,
        -5.961224520000884e-05,
        1.9964336106560512e-05,
        2.478192907892207e-10,
        -1.2018222918984569e-05,
        8.7943240742062e-109,
        -2.3553479681722602e-05,
        1.2646581134267573e-94,
        0.0701682460712088
      ]
    ],
    "weights": [
      [
        0.06752354386910175,
        0.039514749533148194,
        -0.028405917309297344,
        -0.024476351172937894,
        -3.453046499404147e-05,
        6.92283302434123e-05,
        4.100548622104669e-45,
        5.133985715330424e-30,
        1.141690027734654e-18,
        7.639620314256591e-06,
        5.5547972277789725e-180,
        0.0377597152174731
      ],
      [
        0.11789477014398916,
        0.14349190203963103,
        -0.06353522178225444,
        -0.02302162299705828,
        1.2443409397638116e-05,
        5.217763940788094e-05,
        -4.06880298328129e-05,
        -1.746130519792845e-11,
        7.786466213118516e-07,
        1.0459812304851257e-06,
        -3.512895772510298e-27,
        0.09323390501229288
      ],
      [
        0.06054879389215528,
        0.06568936079489397,
        -0.03370847657623987,
        -0.019126199444880893,
        -2.0582027246652438e-06,
        -2.919264338789916e-06,
        8.464573851275825e-43,
        8.241412300076206e-07,
        1.43e-322,
        7.144527354253104e-06,
        1.43e-322,
        0.06003580894359912
      ],
      [
        0.10542219304510946,
        0.2199577603864615,
        -0.06050264741579627,
        -0.11913693488738641,
        -0.00021421943026318465,
        0.0001723619522094387,
        7.514385158178785e-12,
        0.00021076711430540902,
        2.666618005764383e-110,
        -2.6182607655794116e-05,
        3.834700731908393e-96,
        0.07340705404496367
      ]
    ]
  },
  "cues": [
    [
      1,
      2
    ],
    [
      8,
      9
    ],
    [
      2,
      3
    ],
    [
      2,
      7
    ],
    [
      6,
      3
    ]
  ],
  "env": {
    "delay": 0,
    "grid_size": 10,
    "max_steps": 200,
    "noise": 0.3,
    "num_cues": 5,
    "reward_sparse_prob": 1.0
  },
  "seed": 28
}