{
  "agent": {
    "action_size": 4,
    "cue_exploration_bias": 0.16666666666666666,
    "cue_regularization": 0.020833333333333336,
    "epsilon": 0.05,
    "state_size": 11,
    "target_weights": [
      [
        0.08151541327341683,
        0.06975164151374508,
        0.012352729834850305,
        3.72733949285214e-05,
        3.6798277068877827e-07,
        1.3172443453551856e-06,
        1.7748883956388656e-283,
        2.97765485757576e-10,
        2.0879831695557744e-298,
        2.375817973093283e-177,
        3.994533594864081e-22,
        0.09251023176593635
      ],
      [
        0.22228241766893778,
        0.20692690094622868,
        -0.08058747586447787,
        0.0008787715390703183,
        -0.0002659511293685947,
        0.0002242817292407967,
        6.627612137148894e-36,
        -0.0005316697599661059,
        6.140076369522649e-18,
        1.375883335260363e-16,
        -3.9053925486990016e-05,
        0.18056929845501918
      ],
      [
        0.037843859797001236,
        0.07237053136288954,
        0.012180844895110359,
        -0.0026229826366800774,
        -2.5251144603461725e-05,
        2.070163267238073e-05,
        2.691587003969625e-05,
        1.0729462817178176e-08,
        3.45533343003778e-216,
        1.5738205312231515e-147,
        5.149470646015639e-10,
        0.08322019631979558
      ],
      [
        0.17836311673462377,
        0.23763572350738074,
        -0.02642003258993318,
        -0.029791359492928115,
        5.0130611299847414e-05,
        -4.246205509277818e-05,
        -6.07541583464739e-06,
        0.00019024085420163748,
        -2.0911294411600284e-06,
        -1.226576127080997e-20,
        2.022872813182426e-06,
        0.18043059256034055
      ]
    ],
    "weights": [
      [
        0.08441221700540077,
        0.07282959215730117,
        0.01312335248246498,
        0.0006267491309710332,
        2.6237057969792127e-06,
        4.99102046973176e-06,
        7.663151579009374e-287,
        1.9095171002499795e-05,
        9.014950777773838e-302,
        1.0257689044947166e-180,
        1.7246558431562908e-25,
        0.09617765814553497
      ],
      [
        0.22283776852933207,
        0.20691045603746216,
        -0.08155727524250943,
        0.000480767930199583,
        -6.522359191358195e-06,
        -2.079302174682889e-05,
        2.861498026503974e-39,
        -0.0006204669576988761,
        2.651002510465415e-21,
        5.940431285167091e-20,
        -1.2295950031913878e-05,
        0.18015484993738187
      ],
      [
        0.03816786357331053,
        0.07265465346751089,
        0.01251183492519609,
        -0.002252110934906406,
        1.2896902404629655e-07,
        -4.462526355162058e-07,
        1.1621034455006743e-08,
        4.632488450057496e-12,
        1.491854017157342e-219,
        6.795033039009165e-151,
        2.223304530529268e-13,
        0.08387519012619059
      ],
      [
        0.18338257653745324,
        0.24348395491142627,
        -0.025557657673840054,
        -0.02975775617805095,
        5.028812269204265e-06,
        -5.047008496127193e-05,
        -1.702574971508569e-05,
        0.0007911904343329086,
        -2.2891381486686572e-07,
        -5.2957914470068175e-24,
        5.602543352345608e-06,
        0.18631242727926325
      ]
    ]
  },
  "cues": [
    [
      1,
      2
    ],
    [
      8,
      9
    ],
    [
      2,
      3
    ],
    [
      2,
      7
    ],
    [
      6,
      3
    ]
  ],
  "env": {
    "delay": 0,
    "grid_size": 10,
    "max_steps": 200,
    "noise": 0.1,
    "num_cues": 5,
    "reward_sparse_prob": 1.0
  },
  "seed": 28
}