{
  "agent": {
    "action_size": 4,
    "cue_exploration_bias": 0.3,
    "cue_regularization": 0.017499999999999998,
    "epsilon": 0.05,
    "state_size": 11,
    "target_weights": [
      [
        -0.022353514053038443,
        -0.026941100042223585,
        -0.045084298080150485,
        -0.0494331218038558,
        -1.753797904702391e-05,
        -1.3694307787978304e-05,
        1.5195291723925766e-14,
        4.7473224339330595e-24,
        -4.4357675578e-313,
        1.4e-322,
        1.4e-322,
        -0.03736084842392704
      ],
      [
        0.02270903264277151,
        -0.01279445338017419,
        -0.04268720874006046,
        -0.045311075553825575,
        4.790896113765064e-08,
        4.769840148827886e-06,
        3.5573713868707907e-06,
        1.222798120386133e-05,
        -4.416511025983715e-165,
        2.5748235457126605e-86,
        1.4e-322,
        -0.042431806318626954
      ],
      [
        -0.0359035918144174,
        0.007236213088106799,
        -0.06446379615025472,
        -0.023536032699749847,
        -1.4634023688007245e-05,
        -2.037365884776001e-06,
        4.175706221890309e-12,
        3.2983202293135807e-22,
        -2.899896533155924e-256,
        -1.4e-322,
        1.4e-322,
        -0.045114814752365805
      ],
      [
        0.022781183155341934,
        0.007021369026526408,
        -0.012226725557394095,
        -0.06092475661172017,
        6.737894324655452e-05,
        -3.868322446710165e-05,
        -1.721576888058538e-05,
        -8.228782833097176e-06,
        1.2205990313788272e-149,
        -4.335281371325731e-35,
        -1.4e-322,
        -0.05686101626553722
      ]
    ],
    "weights": [
      [
        -0.022253807621766108,
        -0.02684139361095125,
        -0.0451342775789766,
        -0.049483101302681916,
        -5.185930037472765e-06,
        -3.924254886167346e-06,
        3.039273804617634e-17,
        9.495318008806733e-27,
        -8.87216407e-316,
        1.4e-322,
        1.4e-322,
        -0.037311121491480824
      ],
      [
        0.023125847060510366,
        -0.01233608672093566,
        -0.04242633801057955,
        -0.045091757065844305,
        5.23459014338949e-06,
        3.3216058814614773e-06,
        1.083430442038753e-05,
        1.3528374414234037e-05,
        -8.83364828589772e-168,
        5.150012185468875e-89,
        1.4e-322,
        -0.04175412117140713
      ],
      [
        -0.03574735038970595,
        0.007359510896606077,
        -0.06451326680834939,
        -0.023552559741632353,
        -1.836621239017794e-05,
        8.01016928720016e-06,
        8.352004533080009e-15,
        6.597108140022828e-25,
        -5.800204253693187e-259,
        -1.4e-322,
        1.4e-322,
        -0.045008043985749015
      ],
      [
        0.02209055100710751,
        0.006369085554461865,
        -0.012303361289686152,
        -0.061039741020182066,
        4.251935407571681e-05,
        -2.3548154879380268e-05,
        -7.624075306901799e-06,
        -2.315243831793666e-07,
        2.4413711361461845e-152,
        -8.671177458719452e-38,
        -1.4e-322,
        -0.057628284146063656
      ]
    ]
  },
  "cues": [
    [
      3,
      3
    ],
    [
      6,
      9
    ],
    [
      8,
      0
    ],
    [
      2,
      7
    ],
    [
      0,
      9
    ]
  ],
  "env": {
    "delay": 0,
    "grid_size": 10,
    "max_steps": 200,
    "noise": 0.0,
    "num_cues": 5,
    "reward_sparse_prob": 0.1
  },
  "seed": 26
}