{
  "agent": {
    "action_size": 4,
    "cue_exploration_bias": 0.3333333333333333,
    "cue_regularization": 0.01666666666666667,
    "epsilon": 0.05,
    "state_size": 11,
    "target_weights": [
      [
        0.08303517856203985,
        0.057238430703881814,
        0.027860063286650458,
        0.008144358126712591,
        1.5664610895019664e-05,
        -4.4676761791139966e-05,
        8.690428717904015e-238,
        2.225374801263855e-81,
        7.9738383494351665e-112,
        -5.1057318015692413e-250,
        2.594407245386173e-63,
        0.07829102718205468
      ],
      [
        0.26028573291856305,
        0.15474343976537827,
        -0.032101398695525855,
        0.02198477073905806,
        7.744257181979591e-05,
        -0.00012866590508708,
        -1.2177489384976919e-90,
        3.160545002434233e-06,
        -4.375292167269749e-18,
        7.50737320186771e-251,
        3.782300691169375e-05,
        0.17357733722639906
      ],
      [
        0.1036964969541124,
        0.09135081459191599,
        0.013562038495651949,
        -0.014142540047726991,
        -3.4645553747459035e-06,
        -0.00011673752608798778,
        -1.8508669729209298e-233,
        3.7313267121753974e-20,
        3.8735845841727124e-188,
        3.831253663889076e-252,
        2.790881201095074e-06,
        0.09995157894162413
      ],
      [
        0.15576728326279812,
        0.22791672585688708,
        0.017647666990579083,
        0.0053621810589443005,
        -0.0001388433457729531,
        0.000129865006159303,
        1.0020822637102971e-110,
        -2.4359325476291355e-07,
        2.128808999465128e-83,
        -2.3869508465796648e-247,
        -3.371178877203897e-05,
        0.19970759909623176
      ]
    ],
    "weights": [
      [
        0.08381935556898205,
        0.05793547693227489,
        0.027860063286650458,
        0.008231488905261725,
        2.773973536540687e-07,
        -0.00011966336180305737,
        1.5389478517033209e-239,
        3.940813371593607e-83,
        1.4120501756618088e-113,
        -9.041504444090763e-252,
        4.594315869026011e-65,
        0.07907520418899688
      ],
      [
        0.2648193884024842,
        0.15824427538554522,
        -0.03171053045949861,
        0.023408458838839564,
        0.00018382491692925143,
        -0.000983297055831426,
        -2.1564553069218568e-92,
        2.3551050535531115e-05,
        -7.748002658973681e-20,
        1.3294460188306907e-252,
        2.0459494667109332e-06,
        0.1785018609463474
      ],
      [
        0.10564610564105724,
        0.09348946279124644,
        0.013874476650844554,
        -0.014019141404919968,
        -0.00016665336207164071,
        -9.744312078817388e-05,
        -3.277614769334733e-235,
        6.607634000696912e-22,
        6.85955189060161e-190,
        6.7845900205422935e-254,
        4.942242515534189e-08,
        0.10221362578376157
      ],
      [
        0.16008685560912464,
        0.23307308124403323,
        0.018331322367879092,
        0.005209053395424624,
        -0.00016312541173247363,
        0.00010845088976860281,
        1.7745411613466457e-112,
        -4.313680351977152e-09,
        3.7698094567694697e-85,
        -4.2269409216800584e-249,
        -7.995120482267673e-05,
        0.20471082681985833
      ]
    ]
  },
  "cues": [
    [
      8,
      1
    ],
    [
      5,
      9
    ],
    [
      9,
      4
    ],
    [
      1,
      8
    ],
    [
      5,
      6
    ]
  ],
  "env": {
    "delay": 10,
    "grid_size": 10,
    "max_steps": 200,
    "noise": 0.0,
    "num_cues": 5,
    "reward_sparse_prob": 1.0
  },
  "seed": 29
}