{
  "agent": {
    "action_size": 4,
    "cue_exploration_bias": 0.3333333333333333,
    "cue_regularization": 0.01666666666666667,
    "epsilon": 0.05,
    "state_size": 11,
    "target_weights": [
      [
        0.1302143231267658,
        0.13538421830799485,
        -0.008343530068348164,
        -0.03595150688847645,
        -3.1437036772433494e-06,
        -7.79267261928824e-06,
        3.0405061531416313e-57,
        8.2858096523928525e-258,
        1.5362386690078305e-07,
        -4.2250071095946346e-35,
        2.215864881356943e-220,
        0.13054537172401767
      ],
      [
        0.22870281996214836,
        0.19533262281647187,
        -0.1100858013831608,
        -0.037919966517768,
        -0.00025039469156876897,
        -0.0005117788776510364,
        1.626578920599091e-14,
        1.265543593458007e-188,
        -4.11577129598683e-05,
        2.562716248870212e-07,
        5.89882393779547e-215,
        0.17667202234661034
      ],
      [
        0.09452070694582247,
        0.05626878554664544,
        0.012355211557022138,
        0.006958157400418122,
        -6.500328593859743e-05,
        -9.403283061745181e-05,
        7.714568696678644e-231,
        -1.43e-322,
        2.797091279621151e-258,
        -1.1397983532468592e-06,
        1.43e-322,
        0.06573650477238009
      ],
      [
        0.2208195402322117,
        0.22666284014267854,
        -0.01109248157665242,
        -0.039182379850155394,
        2.023279480870154e-05,
        -0.00019970009582660772,
        2.1682804706157468e-08,
        -1.1502789755492489e-150,
        -1.7814447269678622e-06,
        -1.487542427097942e-06,
        -2.0100731360815458e-257,
        0.13485011504228575
      ]
    ],
    "weights": [
      [
        0.1313468541796997,
        0.1364990751492629,
        -0.00824507263172534,
        -0.03583537524018779,
        -2.9969223930238922e-05,
        -0.0002601527824480925,
        1.4034259073019176e-59,
        3.8245342529976985e-260,
        7.090915259806001e-10,
        -1.9501636035214765e-37,
        1.0227909515537704e-222,
        0.1317763602135744
      ],
      [
        0.2314962702378076,
        0.1982857229538181,
        -0.11029016462977899,
        -0.038283979626072946,
        -0.00010560759975570392,
        -6.383029053173836e-05,
        7.507904547672913e-17,
        5.841450654667365e-191,
        -9.8392362420634e-05,
        1.1828893597244797e-09,
        2.7227579619797745e-217,
        0.17926110937565162
      ],
      [
        0.09533074988205247,
        0.0566873717148673,
        0.012008320096285259,
        0.007002722707689377,
        -7.703289291900035e-05,
        -0.00011396892524821262,
        3.5608629048134865e-233,
        -1.43e-322,
        1.2910713444380066e-260,
        1.8746211449559644e-05,
        1.43e-322,
        0.06619965624787319
      ],
      [
        0.22048007124477748,
        0.22617351587642848,
        -0.01096916235548171,
        -0.03890920535016877,
        5.7178704595452574e-05,
        6.46956192589828e-05,
        1.591995581014133e-06,
        -5.309416372147458e-153,
        -3.521747129660092e-05,
        5.068468979353441e-05,
        -9.278023370660316e-260,
        0.13463396527602228
      ]
    ]
  },
  "cues": [
    [
      3,
      4
    ],
    [
      1,
      6
    ],
    [
      7,
      2
    ],
    [
      1,
      1
    ],
    [
      0,
      6
    ]
  ],
  "env": {
    "delay": 0,
    "grid_size": 10,
    "max_steps": 200,
    "noise": 0.3,
    "num_cues": 5,
    "reward_sparse_prob": 1.0
  },
  "seed": 4
}