{
  "agent": {
    "action_size": 4,
    "cue_exploration_bias": 0.16666666666666666,
    "cue_regularization": 0.020833333333333336,
    "epsilon": 0.05,
    "state_size": 11,
    "target_weights": [
      [
        0.07351265874482148,
        0.10894236658394765,
        -0.020780034176622098,
        0.022634770024696823,
        -5.5486968143622187e-05,
        -3.340511688234928e-06,
        2.6060478047472094e-30,
        -2.0482072008490343e-301,
        -1.14e-322,
        0.000125372573512199,
        6.631921329966031e-298,
        0.09124938071963598
      ],
      [
        0.20813569897472803,
        0.18008415214274884,
        -0.0533667486052861,
        0.021659264273056585,
        0.00014073116327521394,
        2.4722134701903933e-05,
        -4.3410914546831616e-05,
        -3.109783779888036e-196,
        -3.180056650058108e-292,
        -2.264750756295115e-06,
        2.56064966886568e-19,
        0.22735730625270834
      ],
      [
        0.0960875378006316,
        0.10881282361167319,
        -0.010166134063172155,
        0.02755161924211897,
        -8.835178788313208e-05,
        1.830279987622496e-05,
        5.3644604650100673e-08,
        3.494572929679556e-109,
        1.14e-322,
        1.14e-322,
        -1.14e-322,
        0.09336618467382793
      ],
      [
        0.1771317868537106,
        0.25053969231826295,
        0.003804495778420577,
        -0.05191506629093186,
        -0.00016822179116153174,
        -0.00011521624777425423,
        -3.321203197800686e-05,
        8.322624160895516e-79,
        5.629322795423091e-121,
        7.1421718140407e-06,
        -2.4930302442927533e-16,
        0.18839967468819593
      ]
    ],
    "weights": [
      [
        0.07425245555669906,
        0.11000161059255027,
        -0.02018963365057892,
        0.022905723354014973,
        -0.0002003672007388514,
        -4.584641022667535e-05,
        3.405368056849716e-05,
        -2.5677395187854154e-303,
        -1.14e-322,
        1.5717360599340605e-06,
        8.314122944871373e-300,
        0.09257957805755676
      ],
      [
        0.2101561051527106,
        0.18156646006026494,
        -0.05314877362344985,
        0.022415337515359336,
        -0.0002634356859096872,
        3.689817349416262e-05,
        -3.764452560262716e-05,
        -3.8985873612720244e-198,
        -3.986685101461287e-294,
        -4.695446048145325e-06,
        3.2101641600447745e-21,
        0.22959568741252714
      ],
      [
        0.09670390682240579,
        0.10943628533798781,
        -0.00993939960895948,
        0.02777126099179122,
        -0.00027776540536502385,
        -1.0397198413902765e-05,
        6.725167808832253e-10,
        4.380979135849304e-111,
        1.14e-322,
        1.14e-322,
        -1.14e-322,
        0.09420928814981479
      ],
      [
        0.17911821491034519,
        0.25309223614765725,
        0.004210213908313475,
        -0.05207546393379847,
        -7.727665322330037e-05,
        -7.858533280033321e-05,
        -4.52452358560503e-05,
        1.043367631413031e-80,
        7.05721305921376e-123,
        8.953799600580239e-08,
        -3.125392917837706e-18,
        0.19079182087472357
      ]
    ]
  },
  "cues": [
    [
      3,
      5
    ],
    [
      6,
      2
    ],
    [
      3,
      0
    ],
    [
      1,
      2
    ],
    [
      3,
      8
    ]
  ],
  "env": {
    "delay": 3,
    "grid_size": 10,
    "max_steps": 200,
    "noise": 0.0,
    "num_cues": 5,
    "reward_sparse_prob": 1.0
  },
  "seed": 8
}