{
  "agent": {
    "action_size": 4,
    "cue_exploration_bias": 0.16666666666666666,
    "cue_regularization": 0.020833333333333336,
    "epsilon": 0.05,
    "state_size": 11,
    "target_weights": [
      [
        0.09384116791676589,
        0.0762465369009944,
        0.021532337117872665,
        0.03019055842075369,
        -3.979104223049861e-06,
        -7.819380103526e-06,
        1.1271603376793317e-07,
        5.961880303660012e-10,
        1.3822447437604074e-198,
        3.579120995280143e-164,
        2.8178996550295656e-177,
        0.14545046874390072
      ],
      [
        0.27803634932237337,
        0.1848829852273503,
        -0.025313824162366955,
        0.029712187095945995,
        -0.00017946907458173437,
        3.7029554381751986e-05,
        -2.7210728067693203e-05,
        -3.4962455203232565e-05,
        -1.246630581625805e-200,
        1.4716416731445936e-168,
        7.158135431348221e-170,
        0.23026889493866834
      ],
      [
        0.08499064530589515,
        0.1251351881201443,
        0.0016400568918460482,
        0.045563082430626005,
        -6.128860361420993e-05,
        2.7037166980346406e-08,
        2.9134431209059746e-06,
        0.00042743631484396563,
        4.897209780889718e-208,
        1.6690381702170352e-161,
        1.8001408475593663e-177,
        0.1418832754100478
      ],
      [
        0.22663746057773065,
        0.2535886820555302,
        0.050550019521757104,
        -0.04085904713918426,
        9.48442077571758e-05,
        -1.3455307566738109e-05,
        -0.00010057902744058323,
        -8.725324936714075e-07,
        1.3225189099148147e-185,
        -2.4323250800478265e-103,
        -1.4159868447115385e-175,
        0.20977200623600278
      ]
    ],
    "weights": [
      [
        0.09467589566412868,
        0.07720718621526387,
        0.022164762142947898,
        0.03069706187892222,
        -8.482327482200695e-05,
        -1.6244167763305705e-05,
        2.7717299655743513e-09,
        1.4660489494195773e-11,
        3.398992182360053e-200,
        8.801194099376249e-166,
        6.929321989724847e-179,
        0.14691762151633872
      ],
      [
        0.2800415541738517,
        0.18643111997163114,
        -0.025477280778606205,
        0.0300058005869043,
        -0.0002534494008636229,
        9.539131107189725e-05,
        -1.8603427729554986e-05,
        -1.7100393884734794e-05,
        -3.0655118208006366e-202,
        3.6188226179435454e-170,
        1.7602126165613725e-171,
        0.2321106431739074
      ],
      [
        0.08499064530589515,
        0.1251351881201443,
        0.0016400568918460482,
        0.045563082430626005,
        -1.5071099781195698e-06,
        6.648541773387287e-10,
        7.164266991364726e-08,
        1.051082088877352e-05,
        1.20424243505075e-209,
        4.104228081341558e-163,
        4.4266145309081915e-179,
        0.1418832754100478
      ],
      [
        0.22787912880521508,
        0.2550470378487013,
        0.05119966818537103,
        -0.04042608604125678,
        5.89809797944164e-05,
        1.3260119447799449e-05,
        3.9652599624910386e-05,
        -0.00011162688172965025,
        3.25212409460461e-187,
        -5.9811795048315274e-105,
        -3.4819652867013922e-177,
        0.2116633231271011
      ]
    ]
  },
  "cues": [
    [
      3,
      3
    ],
    [
      6,
      9
    ],
    [
      8,
      0
    ],
    [
      2,
      7
    ],
    [
      0,
      9
    ]
  ],
  "env": {
    "delay": 3,
    "grid_size": 10,
    "max_steps": 200,
    "noise": 0.0,
    "num_cues": 5,
    "reward_sparse_prob": 1.0
  },
  "seed": 26
}