{
  "agent": {
    "action_size": 4,
    "cue_exploration_bias": 0.10000000000000002,
    "cue_regularization": 0.022500000000000003,
    "epsilon": 0.05,
    "state_size": 11,
    "target_weights": [
      [
        0.04770662644383925,
        0.04327337524901876,
        -0.020130948204164605,
        -0.03977692520893786,
        -3.507190565096126e-07,
        3.909691388666113e-07,
        7.0539996699402555e-15,
        1.0634447331918362e-06,
        -1.1e-322,
        4.225898164639288e-176,
        7.635791363310616e-22,
        0.026217766897343824
      ],
      [
        0.1467006622940951,
        0.12822549734858105,
        -0.08715272991515818,
        -0.002566834288804551,
        5.89989647837136e-05,
        -8.10566556157666e-05,
        1.9117252656699496e-93,
        -0.0004920982598721492,
        7.762356033208995e-37,
        4.630663991058544e-74,
        -2.6167985167325138e-05,
        0.09842228902949639
      ],
      [
        0.02380217676118817,
        0.049304933419758085,
        -0.02934197400646277,
        -0.035121886630934594,
        -6.199862999942295e-05,
        1.4757016476087397e-05,
        1.1e-322,
        6.486185565965787e-13,
        8.81964377937946e-29,
        5.199074740565215e-203,
        3.76475896013198e-15,
        0.027655694382408787
      ],
      [
        0.10748956611693396,
        0.16390424543788779,
        -0.02971056171464001,
        -0.030223961165831464,
        2.6198672036716575e-05,
        -4.542621065380592e-05,
        -5.97216523129614e-38,
        0.0010237748294522184,
        -7.333874985954682e-10,
        -2.8710182153125254e-60,
        1.6467147592792368e-05,
        0.10626651281794501
      ]
    ],
    "weights": [
      [
        0.04893445719335406,
        0.04448616627548196,
        -0.01992854461529239,
        -0.03955948189701402,
        -2.099632905415495e-05,
        -2.0993179527971543e-05,
        2.9954308018789456e-17,
        0.0002745383964192817,
        -1.1e-322,
        1.7944976070677143e-178,
        3.242484507597885e-24,
        0.027648001235730853
      ],
      [
        0.14951719183399018,
        0.13046338304819033,
        -0.08704339948849897,
        -0.001878860021859449,
        -9.533074747170658e-05,
        9.177963756979053e-05,
        8.118005406096775e-96,
        -0.0003913925213633182,
        3.2962292947232354e-39,
        1.966378537140752e-76,
        -3.770234598168577e-05,
        0.1013481489960506
      ],
      [
        0.0249021062191726,
        0.05012513726850935,
        -0.02895726003948453,
        -0.034457447054723186,
        -5.453220704404099e-05,
        4.2382106050154927e-05,
        1.1e-322,
        2.754312580108345e-15,
        3.7451990182155838e-31,
        2.207750120194118e-205,
        1.598678122836461e-17,
        0.029140337807371464
      ],
      [
        0.10597581679079814,
        0.1624489181988933,
        -0.02943150676443562,
        -0.030003328302768386,
        5.430249140381824e-06,
        -1.6942383030780475e-05,
        -2.5360374999686485e-40,
        -1.3458189777032799e-05,
        -3.1142778647513388e-12,
        -1.2191574705553558e-62,
        1.5251779816151694e-06,
        0.10503181844201351
      ]
    ]
  },
  "cues": [
    [
      1,
      2
    ],
    [
      8,
      9
    ],
    [
      2,
      3
    ],
    [
      2,
      7
    ],
    [
      6,
      3
    ]
  ],
  "env": {
    "delay": 0,
    "grid_size": 10,
    "max_steps": 200,
    "noise": 0.0,
    "num_cues": 5,
    "reward_sparse_prob": 0.7
  },
  "seed": 28
}