{
  "agent": {
    "action_size": 4,
    "cue_exploration_bias": 0.16666666666666666,
    "cue_regularization": 0.020833333333333336,
    "epsilon": 0.05,
    "state_size": 11,
    "target_weights": [
      [
        0.10434493355951863,
        0.11840845288603664,
        0.030062489098804924,
        0.05148919444965989,
        -9.3051833089846e-05,
        -0.0001470781794993778,
        -1.14e-322,
        1.0350889218828615e-206,
        3.5154199590263226e-175,
        1.575987553178953e-172,
        1.14e-322,
        0.120656449903933
      ],
      [
        0.25078636293904494,
        0.19391697488638424,
        -0.021655886508425176,
        0.02967365426422625,
        -0.00016666943866880174,
        4.8087500705555064e-05,
        -7.320160773104975e-14,
        -1.9977158890818307e-05,
        -2.5998750268217444e-13,
        6.6940515000407085e-49,
        -1.0883952177060985e-05,
        0.23587668974275341
      ],
      [
        0.1389038567238053,
        0.13915763414937654,
        0.026261650226872522,
        0.05226856302061333,
        -2.4446222446957995e-06,
        -7.308127741277529e-05,
        1.1375530702928753e-203,
        2.1675222196369655e-171,
        -3.3779469838397614e-196,
        5.533633061469447e-177,
        8.299476463826152e-12,
        0.12984522639164517
      ],
      [
        0.21739597342704714,
        0.2754764507239502,
        0.021403296510482825,
        -0.05564579323770668,
        6.0220111796446804e-05,
        -3.870064066096334e-05,
        8.267847595833412e-54,
        1.8654016303494317e-10,
        4.982865911534122e-147,
        -1.749215186079611e-06,
        8.402015202644187e-08,
        0.19184137827899228
      ]
    ],
    "weights": [
      [
        0.10492657841140211,
        0.11906280334440557,
        0.03013519470529036,
        0.05148919444965989,
        -0.00043453821743354664,
        -6.852987802494857e-05,
        -1.14e-322,
        4.99264884403025e-208,
        1.695627981679808e-176,
        7.601619792502621e-174,
        1.14e-322,
        0.12131080036230192
      ],
      [
        0.25155352219596844,
        0.19449964467230124,
        -0.021547881496502917,
        0.029966148747155,
        -1.9957756288409105e-05,
        3.5599146579865374e-05,
        -3.5308070108100434e-15,
        -9.635784630157583e-07,
        -1.2540239560938573e-14,
        3.2288094072887163e-50,
        -2.4347893712517683e-05,
        0.23675185401159912
      ],
      [
        0.14029280004818737,
        0.1409235580799271,
        0.0269344483611219,
        0.05256438054869424,
        -0.0003106846629206251,
        -9.962303195902225e-05,
        5.486874510346187e-205,
        1.0454828638872286e-172,
        -1.62931925436756e-197,
        2.669093072446152e-178,
        4.0031702298391675e-13,
        0.13190696785027659
      ],
      [
        0.21666539909224122,
        0.2748888714556254,
        0.021498002892989195,
        -0.05569408192168167,
        0.00016972581057359465,
        -3.4138367385887904e-05,
        3.987914358784664e-55,
        8.997579914656065e-12,
        2.4034359954239687e-148,
        -3.355635645117953e-06,
        4.05262877441493e-09,
        0.19120551032669264
      ]
    ]
  },
  "cues": [
    [
      4,
      4
    ],
    [
      2,
      3
    ],
    [
      2,
      2
    ],
    [
      1,
      8
    ],
    [
      3,
      4
    ]
  ],
  "env": {
    "delay": 3,
    "grid_size": 10,
    "max_steps": 200,
    "noise": 0.0,
    "num_cues": 5,
    "reward_sparse_prob": 1.0
  },
  "seed": 13
}