{
  "agent": {
    "action_size": 4,
    "cue_exploration_bias": 0.16666666666666666,
    "cue_regularization": 0.020833333333333336,
    "epsilon": 0.05,
    "state_size": 11,
    "target_weights": [
      [
        0.05686193767911499,
        0.06982941185664547,
        0.00862305236753119,
        0.0045814492619290405,
        -0.00010882557182092022,
        -7.080250592389223e-05,
        5.674820011909051e-06,
        4.936705622569934e-222,
        -1.14e-322,
        -1.14e-322,
        2.5571740104108706e-292,
        0.057293497007431575
      ],
      [
        0.2582822168945889,
        0.20298907995746399,
        -0.03839204147230691,
        0.0009205182056871924,
        -0.0003881028809018203,
        -7.974891985800857e-05,
        -2.100182925315015e-05,
        -1.6973440040230303e-07,
        -9.461357826052462e-45,
        -1.14e-322,
        -1.1670122681384286e-08,
        0.17570433992503887
      ],
      [
        0.07204271244736979,
        0.07783121300680627,
        -0.028571147358838856,
        0.002543042571966261,
        3.613120370312331e-05,
        -1.1158842734640573e-05,
        1.3748495458106863e-20,
        5.1083861818777206e-231,
        1.14e-322,
        -1.14e-322,
        2.0322404606180244e-11,
        0.09447156553422893
      ],
      [
        0.19866296415777007,
        0.24448968255591547,
        -0.008955702684889766,
        -0.07561739192121981,
        -0.00028250698226399727,
        -0.00022010631070552516,
        -4.563722888489069e-05,
        7.908433121986641e-13,
        2.1810929919567908e-46,
        1.14e-322,
        4.972496312798261e-06,
        0.18769128166934224
      ]
    ],
    "weights": [
      [
        0.05686193767911499,
        0.06982941185664547,
        0.00862305236753119,
        0.0045814492619290405,
        -2.8284901694741902e-05,
        -1.84023101031268e-05,
        1.4749449369890228e-06,
        1.2831013050870763e-222,
        -1.14e-322,
        -1.14e-322,
        6.646362090322229e-293,
        0.057293497007431575
      ],
      [
        0.2584134871322212,
        0.2029304322248884,
        -0.03838415059197215,
        0.0011183270562296441,
        -0.00024363280296153009,
        2.5319469555888163e-05,
        -3.3755828665694466e-07,
        -4.4115741817514494e-08,
        -2.4591056268378438e-45,
        -1.14e-322,
        -3.0331866608678563e-09,
        0.1758435010430058
      ],
      [
        0.07204271244736979,
        0.07783121300680627,
        -0.028571147358838856,
        0.002543042571966261,
        9.390876866121624e-06,
        -2.9002996675797705e-06,
        3.573377433045587e-21,
        1.327722873912002e-231,
        1.14e-322,
        -1.14e-322,
        5.282005018383717e-12,
        0.09447156553422893
      ],
      [
        0.19923620688980748,
        0.24519183241431142,
        -0.00874755838128801,
        -0.07553815474397661,
        -2.5489898595335053e-05,
        -0.00010717079936808676,
        2.1484840182595594e-06,
        2.0554842917152657e-13,
        5.668888279871081e-47,
        1.14e-322,
        1.2924036789478922e-06,
        0.18847266870498144
      ]
    ]
  },
  "cues": [
    [
      5,
      7
    ],
    [
      7,
      4
    ],
    [
      6,
      3
    ],
    [
      7,
      0
    ],
    [
      6,
      4
    ]
  ],
  "env": {
    "delay": 0,
    "grid_size": 10,
    "max_steps": 200,
    "noise": 0.1,
    "num_cues": 5,
    "reward_sparse_prob": 1.0
  },
  "seed": 16
}