{
  "agent": {
    "action_size": 4,
    "cue_exploration_bias": 0.16666666666666666,
    "cue_regularization": 0.020833333333333336,
    "epsilon": 0.05,
    "state_size": 11,
    "target_weights": [
      [
        0.09446771276631231,
        0.13652598230497626,
        0.01671842159341216,
        0.027704193386970725,
        1.6024564002063986e-05,
        -0.0005597746921311257,
        1.227353581902698e-207,
        1.0327464195628864e-198,
        9.413207902516519e-239,
        6.564253357886944e-215,
        7.809810739817362e-239,
        0.14230489615217543
      ],
      [
        0.24919704778613125,
        0.1797439978025679,
        -0.02317255058745403,
        0.019966667783414146,
        2.2086851840663777e-05,
        0.00011886189275761009,
        3.860258807344046e-194,
        -9.682687885034e-209,
        -2.435113445722669e-05,
        -3.2950162540596563e-217,
        -1.2257208436354947e-53,
        0.23393463533963635
      ],
      [
        0.07539148670775041,
        0.08835497678473006,
        0.014432761487514715,
        0.0215844858535873,
        -8.660641698226719e-05,
        -0.00042271135758855787,
        2.7128434982749293e-163,
        1.754732459161361e-207,
        1.14e-322,
        5.641360934749405e-225,
        1.9205992935847968e-95,
        0.11414207454525431
      ],
      [
        0.20083809768244743,
        0.2744228876196189,
        0.010814683610993754,
        -0.06528292641697825,
        0.000158559903438092,
        -0.00022929868222882686,
        -1.8832297764058186e-36,
        1.2802647122629146e-186,
        8.665027298088879e-08,
        3.803177449165408e-223,
        1.673534911039575e-160,
        0.20158153062479028
      ]
    ],
    "weights": [
      [
        0.09730268628839348,
        0.13958413338458628,
        0.017172443190076124,
        0.027935037426105824,
        -9.470707097321513e-07,
        -0.00011647783573731979,
        7.844380091754541e-210,
        6.600588105092714e-201,
        6.016259842218892e-241,
        4.195408651353367e-217,
        4.991481248037857e-241,
        0.14559389127092057
      ],
      [
        0.25152553008845896,
        0.18176716241577986,
        -0.02299393106968136,
        0.02045060499030246,
        -0.00013873232896515888,
        -0.000638272027522516,
        2.4672056841522615e-196,
        -6.188492476820351e-211,
        -1.556353093065327e-07,
        -2.1059424347206836e-219,
        -7.833944778127603e-56,
        0.23644173715973685
      ],
      [
        0.07617377137227546,
        0.08905034093097455,
        0.014432761487514715,
        0.02167140637186786,
        -4.30396800079058e-05,
        -0.00021513243721582687,
        1.7338585916638219e-165,
        1.1215014623302021e-209,
        1.14e-322,
        3.6055607821135816e-227,
        1.2275118665868547e-97,
        0.11492435920977936
      ],
      [
        0.20098799139834564,
        0.27497514811267537,
        0.010982938053213903,
        -0.06551703875191651,
        0.0001158503040228806,
        -0.00025964925886351497,
        -1.2036279018582204e-38,
        8.182550789872744e-189,
        5.53807546854307e-10,
        2.430723298284886e-225,
        1.0696057055264949e-162,
        0.2018996787829087
      ]
    ]
  },
  "cues": [
    [
      1,
      9
    ],
    [
      8,
      3
    ],
    [
      4,
      4
    ],
    [
      4,
      1
    ],
    [
      7,
      4
    ]
  ],
  "env": {
    "delay": 3,
    "grid_size": 10,
    "max_steps": 200,
    "noise": 0.0,
    "num_cues": 5,
    "reward_sparse_prob": 1.0
  },
  "seed": 14
}