{
  "agent": {
    "action_size": 4,
    "cue_exploration_bias": 0.16666666666666666,
    "cue_regularization": 0.020833333333333336,
    "epsilon": 0.05,
    "state_size": 11,
    "target_weights": [
      [
        0.06221946499144228,
        0.048355583936172265,
        -0.024971413215658843,
        -0.05821606061142751,
        -0.00027022466318087296,
        7.110730786662729e-07,
        1.14e-322,
        -1.14e-322,
        5.201045529666241e-129,
        4.62676493422111e-08,
        1.14e-322,
        -0.014487886433825502
      ],
      [
        0.1536805201705756,
        0.12728619154750823,
        -0.052432615425225475,
        -0.03970344999279954,
        7.680749456902469e-05,
        6.05700024003477e-07,
        -4.059950573409485e-11,
        5.78589522045076e-178,
        1.4941831464431133e-06,
        -9.021456432717283e-07,
        -6.34813478580772e-14,
        0.1244208819895656
      ],
      [
        0.07519579651527425,
        0.05008471539163682,
        -0.012183396482590455,
        -0.04701504575352331,
        -0.00017641467347376933,
        2.819371651717223e-05,
        1.14e-322,
        4.897418372957436e-288,
        6.61606741040097e-05,
        1.3541019639440065e-12,
        1.14e-322,
        0.016028183199734418
      ],
      [
        0.12510638057027726,
        0.160392149858933,
        -0.02800553226999404,
        -0.08221991263965364,
        9.106589332395793e-05,
        -5.7768972035636694e-05,
        5.009653561633585e-17,
        -3.344759197175186e-178,
        -6.42978874530032e-05,
        -2.6705438188917134e-05,
        1.521471162508e-10,
        0.1270855341799858
      ]
    ],
    "weights": [
      [
        0.06359429723248217,
        0.049962291951231814,
        -0.023960798444449306,
        -0.05743732161423764,
        -2.4323898984842267e-05,
        3.061789323134561e-05,
        1.14e-322,
        -1.14e-322,
        3.1450032077976474e-132,
        2.7977433531109356e-11,
        1.14e-322,
        -0.012102439421576084
      ],
      [
        0.16038517203364128,
        0.13335866794152798,
        -0.05187914872617425,
        -0.03851780782470237,
        -0.0004482908503326643,
        1.9319325165000864e-05,
        -2.4549982314213863e-14,
        3.4986540541717653e-181,
        -5.407066386018169e-07,
        6.284682698396063e-07,
        -3.838632857762789e-17,
        0.13167900055168252
      ],
      [
        0.07850171511017742,
        0.05230583398301199,
        -0.012139549579244891,
        -0.04588639884664975,
        -0.00021123897785552747,
        1.7297469463595847e-05,
        1.14e-322,
        2.9614038956253208e-291,
        4.0006481600732726e-08,
        8.188074870712159e-16,
        1.14e-322,
        0.019377948697983156
      ],
      [
        0.12935522317457743,
        0.16611008183410497,
        -0.02763289335293473,
        -0.0833163630934661,
        0.0002144487542176761,
        -0.00015837119576478752,
        3.0292710247248305e-20,
        -2.02253149764326e-181,
        -5.624994323682355e-05,
        -0.00010806436827303296,
        9.20013420256742e-14,
        0.13170701570134527
      ]
    ]
  },
  "cues": [
    [
      4,
      1
    ],
    [
      0,
      9
    ],
    [
      4,
      6
    ],
    [
      6,
      8
    ],
    [
      5,
      2
    ]
  ],
  "env": {
    "delay": 0,
    "grid_size": 10,
    "max_steps": 200,
    "noise": 0.1,
    "num_cues": 5,
    "reward_sparse_prob": 1.0
  },
  "seed": 23
}