{
  "agent": {
    "action_size": 4,
    "cue_exploration_bias": 0.08333333333333333,
    "cue_regularization": 0.02291666666666667,
    "epsilon": 0.05,
    "state_size": 11,
    "target_weights": [
      [
        0.05701764868834045,
        0.06515040228847,
        -0.006095474779293411,
        -0.03830745657901732,
        1.4309236679152112e-06,
        9.819412848728982e-06,
        1.021766241891676e-13,
        5.655662967488916e-05,
        1.04e-322,
        4.589601966791014e-12,
        -1.04e-322,
        0.049564262566715644
      ],
      [
        0.1880863086378189,
        0.1835186336922427,
        -0.06635923255075311,
        0.004319173075662166,
        -7.347138950013854e-05,
        3.23375097812727e-05,
        -3.138551366756166e-05,
        -0.0003664428486494094,
        -4.050260944290951e-06,
        1.2344009579761837e-05,
        -7.899832136978098e-55,
        0.160601432737624
      ],
      [
        0.0330209557697742,
        0.06714448586587077,
        -0.017942298654637166,
        -0.03234298471663665,
        -0.00012245460557240223,
        4.081321248486708e-05,
        2.868482871430339e-05,
        2.7712974700175225e-11,
        1.04e-322,
        2.3257406052047228e-113,
        1.04e-322,
        0.048274148742820565
      ],
      [
        0.15811471823941212,
        0.23553736140561038,
        -0.04077916150679456,
        -0.062300524803231346,
        5.262186893764921e-05,
        -6.583818741598779e-05,
        5.383067292469921e-05,
        0.0005022356919982466,
        4.9501979090382194e-15,
        -3.2299491524878696e-06,
        4.682142630677767e-47,
        0.14582306514826832
      ]
    ],
    "weights": [
      [
        0.05701764868834045,
        0.06515040228847,
        -0.006095474779293411,
        -0.03830745657901732,
        3.245183123921506e-07,
        2.2269386954749463e-06,
        2.317257474405015e-14,
        1.282644380564568e-05,
        1.04e-322,
        1.0408730515896173e-12,
        -1.04e-322,
        0.049564262566715644
      ],
      [
        0.18894932505003736,
        0.18429759985232816,
        -0.06630414952451227,
        0.004458306354036021,
        -0.00010423848915592966,
        0.00011749924066099333,
        -2.082124899600319e-06,
        -0.00025257520382767663,
        -8.334569438429178e-07,
        2.799490459762396e-06,
        -1.791598147935111e-55,
        0.1615195321760833
      ],
      [
        0.03373912509719226,
        0.0679524263592161,
        -0.01785252748870991,
        -0.03234298471663665,
        -2.777140586604449e-05,
        9.25600375188994e-06,
        6.505414938859771e-06,
        0.0001832323416587795,
        1.04e-322,
        5.274533038946545e-114,
        1.04e-322,
        0.04908208923616589
      ],
      [
        0.15766339486598666,
        0.2350979784629011,
        -0.04080913530204989,
        -0.06234243902920282,
        3.8971191633853815e-05,
        -5.254668290547133e-05,
        1.2208225724513161e-05,
        0.00011087393103966823,
        1.1226523870338435e-15,
        -5.246106705525033e-06,
        1.0618602927301119e-47,
        0.14534176797958748
      ]
    ]
  },
  "cues": [
    [
      1,
      2
    ],
    [
      8,
      9
    ],
    [
      2,
      3
    ],
    [
      2,
      7
    ],
    [
      6,
      3
    ]
  ],
  "env": {
    "delay": 0,
    "grid_size": 10,
    "max_steps": 200,
    "noise": 0.05,
    "num_cues": 5,
    "reward_sparse_prob": 1.0
  },
  "seed": 28
}