{
  "agent": {
    "action_size": 4,
    "cue_exploration_bias": 0.16666666666666666,
    "cue_regularization": 0.020833333333333336,
    "epsilon": 0.05,
    "state_size": 11,
    "target_weights": [
      [
        -0.051709133638606394,
        -0.058026529120702774,
        -0.04833614755498934,
        -0.06609798027248645,
        -3.60116963424441e-07,
        1.1182486763110986e-06,
        1.14e-322,
        -1.14e-322,
        1.14e-322,
        -1.941083865039836e-06,
        -1.3298854493092121e-08,
        -0.10140319253592743
      ],
      [
        -0.07323421910004799,
        -0.036028004589963476,
        -0.06895255449492199,
        -0.040048038324166806,
        -4.656429386229589e-06,
        6.714074807742593e-06,
        -1.14e-322,
        1.14e-322,
        1.14e-322,
        -2.029916294322447e-09,
        -7.318536330092085e-07,
        -0.10331241694441133
      ],
      [
        -0.06474296253460975,
        -0.04946976628188249,
        -0.06348799588529332,
        -0.059038348103920786,
        -3.933822578154393e-06,
        3.77382390210158e-06,
        1.14e-322,
        -1.14e-322,
        1.14e-322,
        -4.618889898650014e-09,
        3.776285326037555e-50,
        -0.09503546679221865
      ],
      [
        -0.08034334227501298,
        -0.04500454201400934,
        -0.055949884367366476,
        -0.03538740475860819,
        -1.949253746581003e-06,
        3.7595540690383783e-06,
        -1.3584532762328122e-129,
        -1.14e-322,
        -1.14e-322,
        -1.1785983305165884e-06,
        2.5725665789571977e-11,
        -0.10780571822672931
      ]
    ],
    "weights": [
      [
        -0.051773241610038566,
        -0.058121003304837895,
        -0.048402608272462316,
        -0.06613407477725644,
        -3.4347785826997144e-07,
        2.634040613736531e-06,
        1.14e-322,
        -1.14e-322,
        1.14e-322,
        -5.701664955471305e-07,
        -8.04164082053187e-12,
        -0.10153376122483256
      ],
      [
        -0.0733158646041949,
        -0.03605131832221548,
        -0.06895077526834477,
        -0.04010459086948453,
        -6.499036302269061e-06,
        1.0891756124992677e-05,
        -1.14e-322,
        1.14e-322,
        1.14e-322,
        -4.4534220716816485e-08,
        -9.394137618212616e-06,
        -0.10339228322198105
      ],
      [
        -0.0647560493026597,
        -0.049623044506115946,
        -0.06363130824188325,
        -0.059041469004327246,
        -3.645884643956078e-06,
        3.599832713875221e-06,
        1.14e-322,
        -1.14e-322,
        1.14e-322,
        -2.094418051311199e-07,
        2.283469620907054e-53,
        -0.09519186591685855
      ],
      [
        -0.0803651992866752,
        -0.04502061929504451,
        -0.055951739441637574,
        -0.03539503956350635,
        2.1534858815013623e-06,
        -3.5859159186145577e-06,
        -8.214386678652235e-133,
        -1.14e-322,
        -1.14e-322,
        -9.997431565571406e-07,
        1.555596869311122e-14,
        -0.10782943031266264
      ]
    ]
  },
  "cues": [
    [
      1,
      2
    ],
    [
      8,
      9
    ],
    [
      2,
      3
    ],
    [
      2,
      7
    ],
    [
      6,
      3
    ]
  ],
  "env": {
    "delay": 3,
    "grid_size": 10,
    "max_steps": 200,
    "noise": 0.0,
    "num_cues": 5,
    "reward_sparse_prob": 1.0
  },
  "seed": 28
}