{
  "agent": {
    "action_size": 4,
    "cue_exploration_bias": 0.3,
    "cue_regularization": 0.017499999999999998,
    "epsilon": 0.05,
    "state_size": 11,
    "target_weights": [
      [
        0.005551742921007562,
        -0.02055848610191858,
        -0.024258914271648214,
        -0.0436611382668181,
        -9.71018885483772e-06,
        9.909379449558266e-06,
        3.509373102584446e-212,
        1.0576792933506148e-49,
        4.0371391938522487e-104,
        -1.4e-322,
        5.145210709405776e-06,
        -0.051311386017275626
      ],
      [
        0.046902348232794454,
        0.0013040880442958076,
        -0.03638106710059075,
        -0.04223893063069225,
        5.112031153593072e-05,
        5.336144343751716e-06,
        -8.503849589160249e-206,
        3.432951309214321e-06,
        -8.545007554883728e-08,
        2.1620976587442084e-102,
        5.798270727797416e-06,
        -0.04408571586443567
      ],
      [
        0.0005398003143164044,
        -0.022836400497439586,
        -0.029480949295681902,
        -0.04615500938950131,
        2.225936346552367e-05,
        3.0422880485455446e-06,
        2.610228523666209e-204,
        1.7649673870493941e-09,
        7.662558893265475e-112,
        -1.4e-322,
        1.411208278407452e-30,
        -0.04624810548950566
      ],
      [
        -0.005732901499634411,
        0.037723205570719405,
        -0.049880158106736634,
        -0.03347230851463559,
        -1.19272020302355e-05,
        -2.0643618774621374e-05,
        1.3415242366650895e-223,
        -8.409831159970419e-07,
        7.676814846167645e-06,
        -1.4e-322,
        5.994529064259112e-06,
        -0.029320410763515582
      ]
    ],
    "weights": [
      [
        0.005701023709286336,
        -0.020406718696399786,
        -0.024196019759673438,
        -0.04360073037208334,
        -7.428873650797872e-06,
        9.889851998257442e-07,
        3.9896262928976416e-215,
        1.2024213427456354e-52,
        4.589616494187771e-107,
        -1.4e-322,
        5.84932616985824e-09,
        -0.05109921071702208
      ],
      [
        0.04590408287750343,
        0.00024273237415621597,
        -0.03628542176451429,
        -0.04208019497976717,
        6.402307219950651e-05,
        1.1038529468495159e-05,
        -9.667590455621604e-209,
        1.2510460083006482e-05,
        -9.240583902210386e-07,
        2.457977939360682e-105,
        1.769614291326056e-06,
        -0.0449883358836502
      ],
      [
        0.0006617298452815205,
        -0.02269922927011773,
        -0.029317987798301283,
        -0.04600728958847744,
        -3.0472911213805303e-05,
        1.7083502756420389e-06,
        2.9674349361203364e-207,
        2.0065009013414463e-12,
        8.71117021126509e-115,
        -1.4e-322,
        1.6043303141928328e-33,
        -0.04596321446115994
      ],
      [
        -0.006194140329880085,
        0.0372526832369723,
        -0.05000856143102231,
        -0.03359142833541983,
        1.2783513075761662e-06,
        3.367724724201755e-05,
        1.5251101010653163e-226,
        -5.379749102995065e-06,
        8.72737707296553e-09,
        -1.4e-322,
        -1.3324878990090139e-05,
        -0.029910052918046943
      ]
    ]
  },
  "cues": [
    [
      8,
      1
    ],
    [
      5,
      9
    ],
    [
      9,
      4
    ],
    [
      1,
      8
    ],
    [
      5,
      6
    ]
  ],
  "env": {
    "delay": 0,
    "grid_size": 10,
    "max_steps": 200,
    "noise": 0.0,
    "num_cues": 5,
    "reward_sparse_prob": 0.1
  },
  "seed": 29
}