{
  "agent": {
    "action_size": 4,
    "cue_exploration_bias": 0.16666666666666666,
    "cue_regularization": 0.020833333333333336,
    "epsilon": 0.05,
    "state_size": 11,
    "target_weights": [
      [
        0.08584345467015235,
        0.09681704313959219,
        0.035988274391052885,
        0.030943350396234356,
        -2.7116110162004162e-05,
        -2.711346413669585e-05,
        2.8533984831426733e-127,
        4.189122092954795e-154,
        3.467628173867082e-15,
        6.273905817806659e-14,
        -1.14e-322,
        0.09605086068168696
      ],
      [
        0.24447607199453394,
        0.20318840463759785,
        -0.03356545324533299,
        0.03628405910959595,
        -0.0002230014164459898,
        3.610387365257149e-05,
        1.8085929739891704e-101,
        6.352679783544149e-93,
        -2.3055657361140597e-05,
        6.046314846168052e-08,
        3.600598063606816e-99,
        0.24065433377646397
      ],
      [
        0.0855441802117435,
        0.13625959297497903,
        0.05123856497051094,
        0.01666535188670405,
        -0.00014656702168311562,
        -2.4413536407944945e-06,
        9.614927385035425e-125,
        7.532569608879135e-107,
        2.5575301614921194e-14,
        1.7974682459286528e-16,
        1.1047154916942649e-167,
        0.14819656786805013
      ],
      [
        0.21258339100237522,
        0.2686605707002639,
        0.007692169335491193,
        -0.05928338659951422,
        9.663093688273373e-05,
        -2.6088595955380302e-05,
        -1.3191145332722342e-85,
        -4.6556779724909225e-15,
        -6.299284653787614e-05,
        -0.00014270352964728395,
        -1.7496042696325763e-92,
        0.21178772489724149
      ]
    ],
    "weights": [
      [
        0.08584345467015235,
        0.09681704313959219,
        0.035988274391052885,
        0.030943350396234356,
        -9.338705484278356e-07,
        -9.337794201247327e-07,
        9.827017187994249e-129,
        1.4427208486048252e-155,
        1.194240547455322e-16,
        2.1607139932148216e-15,
        -1.14e-322,
        0.09605086068168696
      ],
      [
        0.24561812500379937,
        0.2041055707596186,
        -0.03342105359834411,
        0.036653345643829494,
        -0.00015814575579075875,
        5.5365565582769274e-05,
        6.228738939365491e-103,
        2.187843506314447e-94,
        -3.210024855436944e-06,
        9.464031985270423e-06,
        1.2400349711811977e-100,
        0.24194078643271835
      ],
      [
        0.08577944999592302,
        0.13663602462966626,
        0.051487644681664675,
        0.01677326972735007,
        -5.047723442001582e-06,
        1.2510797857001352e-05,
        3.3113516122008567e-126,
        2.594193956908931e-108,
        8.808055728730857e-16,
        0.00011006832944357412,
        3.804606397900096e-169,
        0.1486809173633834
      ],
      [
        0.2135639709344763,
        0.2698574166155502,
        0.007994031328829542,
        -0.05919779058936098,
        -5.2825012007372354e-05,
        -2.7494311423713892e-05,
        -4.542990145954698e-87,
        -1.6034012679170148e-16,
        3.055173718927837e-06,
        -0.0001130836881234954,
        -6.025583644010008e-94,
        0.21307016682268087
      ]
    ]
  },
  "cues": [
    [
      0,
      8
    ],
    [
      1,
      8
    ],
    [
      3,
      6
    ],
    [
      5,
      8
    ],
    [
      4,
      9
    ]
  ],
  "env": {
    "delay": 3,
    "grid_size": 10,
    "max_steps": 200,
    "noise": 0.0,
    "num_cues": 5,
    "reward_sparse_prob": 1.0
  },
  "seed": 19
}