{
  "agent": {
    "action_size": 4,
    "cue_exploration_bias": 0.3333333333333333,
    "cue_regularization": 0.01666666666666667,
    "epsilon": 0.05,
    "state_size": 11,
    "target_weights": [
      [
        0.0783350158741935,
        0.05722593125973633,
        -0.04489038591628217,
        -0.014350878294232523,
        -4.3537926281167484e-05,
        -0.00012070123814805631,
        1.825114893650065e-13,
        -1.43e-322,
        1.43e-322,
        4.266810310828143e-15,
        -3.883735001334778e-249,
        0.023702208653768868
      ],
      [
        0.0951175985792705,
        0.09599536122044054,
        -0.046046071917975384,
        -0.012751787598368824,
        -2.460060324007539e-05,
        -7.449539804978383e-05,
        -4.592439118107604e-07,
        1.43e-322,
        -3.361947516951627e-295,
        5.98733589538942e-05,
        -3.990966333711352e-06,
        0.03685680072818051
      ],
      [
        0.06592370080787047,
        0.027817883898923864,
        -0.02300406584952202,
        -0.018433202669595992,
        -9.204733196034813e-05,
        -0.00021147947241095114,
        7.285147621969005e-238,
        1.43e-322,
        1.43e-322,
        7.864747726048226e-20,
        4.331665130969347e-17,
        -0.0019786597723569234
      ],
      [
        0.05369380124566855,
        0.18400604905012044,
        -0.04474571628043696,
        -0.1630261534744059,
        0.00014101221755891672,
        0.0004022871173649441,
        2.605100781591708e-196,
        -1.43e-322,
        1.43e-322,
        1.8738911947347924e-05,
        2.061472962522523e-09,
        0.030024625891205286
      ]
    ],
    "weights": [
      [
        0.07841172930665372,
        0.057285597262760946,
        -0.04489038591628217,
        -0.014333830864796919,
        -3.2028567218463895e-05,
        -8.536305700551809e-05,
        8.145668831582977e-14,
        -1.43e-322,
        1.43e-322,
        1.904319770777869e-15,
        -1.7333494598376866e-249,
        0.023778922086229084
      ],
      [
        0.09512014878631189,
        0.0960061425159066,
        -0.046022679056865294,
        -0.012736625825683407,
        -1.014278391005927e-05,
        -3.241129179024647e-05,
        -2.049651137879759e-07,
        1.43e-322,
        -1.5004705291447425e-295,
        3.453709722898059e-05,
        -1.9334553167510435e-07,
        0.03688274379633199
      ],
      [
        0.06614634146755281,
        0.027991048856454575,
        -0.02300406584952202,
        -0.01838372696744436,
        -7.304200451766335e-05,
        -0.00017428630428890712,
        3.251433656271049e-238,
        1.43e-322,
        1.43e-322,
        3.5101149326666583e-20,
        1.9332651204016187e-17,
        -0.0017560191126745823
      ],
      [
        0.05320525495134276,
        0.18350060771671076,
        -0.04483294020001462,
        -0.16309648235489968,
        0.00012642570141479,
        0.0003927793148502143,
        1.162682322826558e-196,
        -1.43e-322,
        1.43e-322,
        -2.0522982378907823e-05,
        9.200558340953595e-10,
        0.02944885567730186
      ]
    ]
  },
  "cues": [
    [
      2,
      3
    ],
    [
      0,
      9
    ],
    [
      7,
      2
    ],
    [
      1,
      5
    ],
    [
      1,
      3
    ]
  ],
  "env": {
    "delay": 0,
    "grid_size": 10,
    "max_steps": 200,
    "noise": 0.2,
    "num_cues": 5,
    "reward_sparse_prob": 1.0
  },
  "seed": 22
}