{
  "agent": {
    "action_size": 4,
    "cue_exploration_bias": 0.3333333333333333,
    "cue_regularization": 0.01666666666666667,
    "epsilon": 0.05,
    "state_size": 11,
    "target_weights": [
      [
        0.1377353231027951,
        0.15006715739203716,
        0.04305685054352497,
        0.007555264505089312,
        7.239796275114659e-06,
        -1.20157343689504e-05,
        4.599614211736094e-06,
        8.919112908326295e-13,
        3.329926453542365e-16,
        4.280342298373873e-223,
        6.680448046527772e-07,
        0.13698647865493113
      ],
      [
        0.26516938363538434,
        0.18978379725175165,
        -0.028414079392363654,
        0.04185341851251965,
        -0.00013319049530710538,
        -0.0002520531259429707,
        -0.00015578698152391308,
        -8.710441801930716e-06,
        -6.32636608006247e-05,
        -1.7266857382090145e-11,
        3.617464419823274e-05,
        0.21941298757751362
      ],
      [
        0.10465140449752403,
        0.05665879738846471,
        0.009024901868995891,
        0.032856403183131024,
        6.587807559376128e-07,
        -2.563213924412002e-07,
        3.207405143177489e-20,
        3.908731038149485e-06,
        6.230865467288016e-63,
        3.038337859588501e-101,
        9.781641338450271e-08,
        0.10269948872854433
      ],
      [
        0.18547974720585614,
        0.2639320089770336,
        0.03660555630967717,
        -0.014189379909438556,
        6.469306783454772e-05,
        -9.951088701218363e-05,
        9.80329707681105e-07,
        -9.960103157690375e-05,
        9.147792895067688e-06,
        6.3424812153610385e-59,
        6.223012336815051e-05,
        0.21654935114636703
      ]
    ],
    "weights": [
      [
        0.13867463615831152,
        0.15100029813508686,
        0.043225802529351716,
        0.007730388803382767,
        -1.3087009483727645e-05,
        -0.00015303295960777236,
        1.0658397894102235e-07,
        2.0667701651326956e-14,
        7.716229984982855e-18,
        9.918569088385617e-225,
        1.548018379652236e-08,
        0.1380947436962743
      ],
      [
        0.2655027133452929,
        0.18980322348872272,
        -0.028788717135056107,
        0.041792684242764895,
        -7.788623324903509e-06,
        0.00015129008591931325,
        -0.0001847438330402722,
        -9.343495522547162e-06,
        -4.8936717623895035e-05,
        -4.0011407019626954e-13,
        5.655657906090366e-05,
        0.21937167954472991
      ],
      [
        0.10495728137751517,
        0.05696467426845585,
        0.009269603372988803,
        0.03310110468712393,
        -6.638647720096664e-06,
        -5.939575067921787e-09,
        7.432319027180425e-22,
        5.997579368098462e-05,
        1.4438394247397238e-64,
        7.040550001254586e-103,
        2.2666384753874992e-09,
        0.10325006711252838
      ],
      [
        0.18712566773415823,
        0.2659830708487288,
        0.03770490907993762,
        -0.013495168482571094,
        5.124652082038619e-05,
        -0.0003833702650799642,
        2.4955473564652256e-06,
        -9.874322108695164e-06,
        2.1197607460142145e-07,
        1.4697034428822598e-60,
        9.156031557853352e-05,
        0.21929462444492973
      ]
    ]
  },
  "cues": [
    [
      8,
      6
    ],
    [
      4,
      5
    ],
    [
      4,
      2
    ],
    [
      8,
      4
    ],
    [
      1,
      0
    ]
  ],
  "env": {
    "delay": 6,
    "grid_size": 10,
    "max_steps": 200,
    "noise": 0.0,
    "num_cues": 5,
    "reward_sparse_prob": 1.0
  },
  "seed": 17
}