{
  "agent": {
    "action_size": 4,
    "cue_exploration_bias": 0.2333333333333333,
    "cue_regularization": 0.01916666666666667,
    "epsilon": 0.05,
    "state_size": 11,
    "target_weights": [
      [
        0.010904585630739615,
        0.025308914181042905,
        -0.02544761295958248,
        -0.05153989269557922,
        7.636102195829284e-06,
        -3.6876938098238642e-06,
        3.184681348158848e-152,
        1.3e-322,
        5.48903386061923e-134,
        1.1206047377809563e-23,
        1.3e-322,
        -0.01313058104064295
      ],
      [
        0.05494833076327899,
        0.04501739670242548,
        -0.03044474757782167,
        -0.03083812570036706,
        2.6698073295622803e-05,
        8.845582493523525e-05,
        -3.1226708635320734e-116,
        -8.623332559905324e-177,
        1.2204118105620767e-24,
        -4.9939921381818895e-08,
        -1.3e-322,
        -0.001449298875631514
      ],
      [
        -0.00251948854089593,
        0.029800249697336318,
        -0.024572631637898686,
        -0.03603762817005598,
        -1.008631577576541e-05,
        2.2230651376163677e-06,
        -1.3e-322,
        -1.3e-322,
        1.2144035619758838e-157,
        3.7731496904e-313,
        1.3e-322,
        -0.01164284690542466
      ],
      [
        0.03670103063549111,
        0.08161786442004436,
        -0.027903840614801653,
        -0.06217081789388019,
        -9.285595580212987e-05,
        -0.0005216253404793716,
        3.681538059788143e-115,
        3.886491415686178e-119,
        -9.344175158924978e-08,
        9.850787298498694e-16,
        1.3e-322,
        -0.019136791691344985
      ]
    ],
    "weights": [
      [
        0.010904585630739615,
        0.025308914181042905,
        -0.02544761295958248,
        -0.05153989269557922,
        2.212919455164491e-06,
        -1.0686825774681304e-06,
        9.229110785983712e-153,
        1.3e-322,
        1.5907055076941377e-134,
        3.247478834344847e-24,
        1.3e-322,
        -0.01313058104064295
      ],
      [
        0.054782716231466244,
        0.04482317203088477,
        -0.03047015883342449,
        -0.03083492681624191,
        1.4205338239827301e-05,
        7.171346879458098e-05,
        -9.049406266144101e-117,
        -2.4990158461460335e-177,
        3.536716730140679e-25,
        -1.4472439050851444e-08,
        -1.3e-322,
        -0.0016403246630470796
      ],
      [
        -0.0024048221075962436,
        0.029900582826473544,
        -0.024558298333736225,
        -0.03600896156173106,
        -9.793107657950213e-06,
        -1.309600975756655e-05,
        -1.3e-322,
        -1.3e-322,
        3.5193050064014215e-158,
        1.09344743467e-313,
        1.3e-322,
        -0.011513847167962513
      ],
      [
        0.036220768555203876,
        0.08108826330018817,
        -0.02797925853461085,
        -0.062196896774120436,
        3.055380678528312e-05,
        -1.769449794757862e-05,
        1.0668986596176572e-115,
        1.126293525877533e-119,
        -2.707913863822273e-08,
        2.854728538526014e-16,
        1.3e-322,
        -0.019692471691441404
      ]
    ]
  },
  "cues": [
    [
      9,
      1
    ],
    [
      7,
      4
    ],
    [
      2,
      9
    ],
    [
      7,
      5
    ],
    [
      5,
      0
    ]
  ],
  "env": {
    "delay": 0,
    "grid_size": 10,
    "max_steps": 200,
    "noise": 0.0,
    "num_cues": 5,
    "reward_sparse_prob": 0.3
  },
  "seed": 6
}