{
  "agent": {
    "action_size": 4,
    "cue_exploration_bias": 0.3,
    "cue_regularization": 0.017499999999999998,
    "epsilon": 0.05,
    "state_size": 11,
    "target_weights": [
      [
        -0.002155135067995337,
        0.004196049011163203,
        -0.018710595957082937,
        -0.04823153178543487,
        -5.924343112426404e-06,
        -1.298500399664927e-05,
        4.4079957900542866e-13,
        3.70404874584921e-17,
        3.7499149265263163e-13,
        1.4e-322,
        6.263083321702977e-06,
        -0.06467142601646633
      ],
      [
        0.024831285260350878,
        0.013067754134675256,
        -0.04395818779955609,
        -0.037312745152629175,
        1.283671594670032e-05,
        3.569407586579004e-06,
        -3.8978841113001885e-06,
        9.702603142591504e-06,
        -2.156556711296118e-06,
        -3.438810261651731e-67,
        -2.4597755464636914e-06,
        -0.036469219204711446
      ],
      [
        -0.012149104558224934,
        -0.03198964419142407,
        -0.03638064339585003,
        -0.04070120955757541,
        -1.699435334205156e-05,
        -7.1691592553326e-05,
        1.8712866467737536e-06,
        3.573679628121712e-07,
        9.246279497732266e-86,
        -5.671344714868011e-296,
        4.963711286937628e-06,
        -0.05950656559205123
      ],
      [
        0.0017251553802444556,
        0.04305883328641091,
        -0.03624001646733061,
        -0.0499163688214359,
        2.245033871283736e-05,
        5.724535842287778e-05,
        3.1397681363863512e-06,
        -1.3804671472439027e-05,
        7.568927291758245e-09,
        1.47351172653018e-28,
        1.3966138535913786e-06,
        -0.04005081345625211
      ]
    ],
    "weights": [
      [
        -0.002155135067995337,
        0.004196049011163203,
        -0.018710595957082937,
        -0.04823153178543487,
        -5.924343112426404e-06,
        -1.298500399664927e-05,
        4.4079957900542866e-13,
        3.70404874584921e-17,
        3.7499149265263163e-13,
        1.4e-322,
        6.263083321702977e-06,
        -0.06467142601646633
      ],
      [
        0.024831285260350878,
        0.013067754134675256,
        -0.04395818779955609,
        -0.037312745152629175,
        1.283671594670032e-05,
        3.569407586579004e-06,
        -3.8978841113001885e-06,
        9.702603142591504e-06,
        -2.156556711296118e-06,
        -3.438810261651731e-67,
        -2.4597755464636914e-06,
        -0.036469219204711446
      ],
      [
        -0.012149104558224934,
        -0.03198964419142407,
        -0.03638064339585003,
        -0.04070120955757541,
        -1.699435334205156e-05,
        -7.1691592553326e-05,
        1.8712866467737536e-06,
        3.573679628121712e-07,
        9.246279497732266e-86,
        -5.671344714868011e-296,
        4.963711286937628e-06,
        -0.05950656559205123
      ],
      [
        0.0017251553802444556,
        0.04305883328641091,
        -0.03624001646733061,
        -0.0499163688214359,
        2.245033871283736e-05,
        5.724535842287778e-05,
        3.1397681363863512e-06,
        -1.3804671472439027e-05,
        7.568927291758245e-09,
        1.47351172653018e-28,
        1.3966138535913786e-06,
        -0.04005081345625211
      ]
    ]
  },
  "cues": [
    [
      8,
      6
    ],
    [
      4,
      5
    ],
    [
      4,
      2
    ],
    [
      8,
      4
    ],
    [
      1,
      0
    ]
  ],
  "env": {
    "delay": 0,
    "grid_size": 10,
    "max_steps": 200,
    "noise": 0.0,
    "num_cues": 5,
    "reward_sparse_prob": 0.1
  },
  "seed": 17
}