{
  "agent": {
    "action_size": 4,
    "cue_exploration_bias": 0.16666666666666666,
    "cue_regularization": 0.020833333333333336,
    "epsilon": 0.05,
    "state_size": 11,
    "target_weights": [
      [
        0.018699925451273133,
        0.059704203587533686,
        -0.03754966809041207,
        -0.02196509688376892,
        -6.535589106214371e-05,
        7.073171739475545e-06,
        4.004315042261151e-12,
        1.14e-322,
        1.14e-322,
        7.785647548759389e-07,
        2.8366854980888333e-130,
        0.003410731809474736
      ],
      [
        0.11953077680797641,
        0.08789139710299133,
        -0.03245588883251584,
        -0.027691742041803247,
        3.599245434817274e-05,
        -6.015698916288302e-06,
        -0.00012189614324413656,
        2.10364586295155e-09,
        5.232004214414322e-09,
        3.598826535828296e-06,
        5.34280626642509e-07,
        0.07695104255511587
      ],
      [
        0.058195894396658614,
        0.05171736240109401,
        -0.007385400395385269,
        -0.04333086762706184,
        -8.660434096643019e-05,
        2.842190032246663e-05,
        7.384697329047012e-08,
        -1.14e-322,
        -1.14e-322,
        3.6940121124745706e-09,
        -1.14e-322,
        0.016417272417778406
      ],
      [
        0.0913836048535495,
        0.15671236903772023,
        -0.01086109569565093,
        -0.057783757878914106,
        0.00023750749461649636,
        -2.5903209899686915e-05,
        -6.560295700094665e-06,
        8.161415690722404e-184,
        1.7823574281974057e-220,
        1.2656190429697543e-05,
        -1.1145059288455119e-07,
        0.030051690525095067
      ]
    ],
    "weights": [
      [
        0.01911389016121905,
        0.060072172218596724,
        -0.03754966809041207,
        -0.02191910080488604,
        -7.6075136210291775e-06,
        2.487900282552306e-06,
        1.3047551836221089e-14,
        1.14e-322,
        1.14e-322,
        2.5368543408518553e-09,
        9.242979308259158e-133,
        0.003824696519420654
      ],
      [
        0.120262159674098,
        0.08754781746017246,
        -0.033269986542327525,
        -0.027430877242674272,
        0.00011610608054723197,
        -1.1454612420492581e-05,
        -0.0001967241996565417,
        -7.05748621069705e-07,
        1.704782103167151e-11,
        -4.611784187174785e-06,
        1.7408855441280243e-09,
        0.07686832771142592
      ],
      [
        0.05884539112216756,
        0.05240622727479704,
        -0.007177282065287714,
        -0.04316211744515837,
        -7.986791111021604e-05,
        2.490349396581979e-05,
        2.406209805638481e-10,
        -1.14e-322,
        -1.14e-322,
        3.163699117300743e-06,
        -1.14e-322,
        0.017274887473384907
      ],
      [
        0.09178337263169056,
        0.15732772407879803,
        -0.010407592165672927,
        -0.05754584161187288,
        -0.0002919665774506194,
        -1.7074447070935278e-05,
        -1.1251485002121986e-05,
        2.659293615956804e-186,
        5.807585239833566e-223,
        3.662037629802812e-05,
        -1.3214180507703888e-05,
        0.03090496183321409
      ]
    ]
  },
  "cues": [
    [
      6,
      9
    ],
    [
      2,
      3
    ],
    [
      2,
      1
    ],
    [
      2,
      4
    ],
    [
      0,
      7
    ]
  ],
  "env": {
    "delay": 0,
    "grid_size": 10,
    "max_steps": 200,
    "noise": 0.0,
    "num_cues": 5,
    "reward_sparse_prob": 0.5
  },
  "seed": 24
}