{
  "agent": {
    "action_size": 4,
    "cue_exploration_bias": 0.08333333333333333,
    "cue_regularization": 0.02291666666666667,
    "epsilon": 0.05,
    "state_size": 11,
    "target_weights": [
      [
        0.09362122607843446,
        0.06614438335974177,
        -0.027106494223496074,
        0.009800771502789461,
        -6.999456954157279e-05,
        -0.00010750550202640123,
        4.769237714861671e-76,
        1.04e-322,
        8.288898313770586e-229,
        1.04e-322,
        7.3924434500869e-06,
        0.056772310550796574
      ],
      [
        0.2245538641690324,
        0.1952131506190889,
        -0.052642392326592895,
        0.010870368184127847,
        0.00026348798781511553,
        -0.0001984095745010877,
        -3.4696697033894655e-05,
        1.04e-322,
        -1.635146288202261e-44,
        5.969392885196695e-48,
        9.56842695452521e-06,
        0.15969674590932592
      ],
      [
        0.11185259229007954,
        0.07244938415071002,
        -0.008811520300765333,
        -0.002943265890416178,
        -3.930425141114735e-07,
        -0.00012228354030803827,
        1.9395418585698507e-35,
        1.04e-322,
        1.4869432334130962e-134,
        -1.04e-322,
        5.969950109379889e-51,
        0.05814277725860888
      ],
      [
        0.16698809058381417,
        0.22518711432628616,
        -0.011833686038094732,
        -0.058000899170077454,
        -0.0008271681016546362,
        0.00015045327465071815,
        9.666405192789428e-06,
        -1.04e-322,
        1.471750078270263e-113,
        -3.9301012002932554e-11,
        1.7435753176157413e-05,
        0.17623094547169357
      ]
    ],
    "weights": [
      [
        0.09368596982729328,
        0.06624149898303,
        -0.026879891102490183,
        0.009995002749365938,
        -1.0954505410032121e-05,
        -1.6825156741009216e-05,
        0.00027814647935031715,
        1.04e-322,
        1.2972546586985658e-229,
        1.04e-322,
        1.1569549223277338e-06,
        0.057063657420661294
      ],
      [
        0.2248075218428534,
        0.1952901534623149,
        -0.05266210953656571,
        0.011027305804750013,
        0.0002089473114532716,
        -0.0003065951528440972,
        -1.079493571955348e-05,
        1.04e-322,
        -2.55908693740402e-45,
        9.342402858361106e-49,
        1.139965863830624e-05,
        0.1599306863731741
      ],
      [
        0.1123761973090711,
        0.07290753854232762,
        -0.008746069673391388,
        -0.0028123646356682896,
        -2.9818461785863964e-05,
        -0.00016792273792914982,
        3.0354814554674634e-36,
        1.04e-322,
        2.327141634203471e-135,
        -1.04e-322,
        9.343274942491257e-52,
        0.05873183290497437
      ],
      [
        0.16697566462711197,
        0.22515636137327238,
        -0.011445753103859762,
        -0.05759463923953091,
        -0.00012053359958142798,
        7.374650994711109e-05,
        3.268408737318546e-05,
        -1.04e-322,
        2.3033635752343728e-114,
        -6.150807861603547e-12,
        2.3599248635892828e-05,
        0.17660645244922626
      ]
    ]
  },
  "cues": [
    [
      2,
      3
    ],
    [
      0,
      9
    ],
    [
      7,
      2
    ],
    [
      1,
      5
    ],
    [
      1,
      3
    ]
  ],
  "env": {
    "delay": 0,
    "grid_size": 10,
    "max_steps": 200,
    "noise": 0.05,
    "num_cues": 5,
    "reward_sparse_prob": 1.0
  },
  "seed": 22
}