{
  "agent": {
    "action_size": 4,
    "cue_exploration_bias": 0.3333333333333333,
    "cue_regularization": 0.01666666666666667,
    "epsilon": 0.05,
    "state_size": 11,
    "target_weights": [
      [
        0.09645117886418114,
        0.08446356062315696,
        0.02779360488798611,
        -0.0026850712257967015,
        -7.888854494885574e-08,
        -8.195527596516051e-07,
        5.904045778882323e-254,
        6.440088436969726e-07,
        -2.6375142974216716e-08,
        7.381169140685115e-73,
        7.688171395572119e-10,
        0.08738230015632738
      ],
      [
        0.23546074473841502,
        0.1964717784407949,
        -0.07073667945937138,
        -0.010615187420716432,
        6.0723566776509624e-05,
        0.00023713785654507386,
        -0.0001542091919624662,
        4.0486497674363876e-05,
        3.6627442917981e-05,
        1.3798394559663722e-05,
        -3.2062032618513094e-05,
        0.19462880666814025
      ],
      [
        0.09741310905044943,
        0.14424593332717378,
        -0.008611517950893207,
        -0.015125120871048638,
        -3.291253263078333e-05,
        -1.7449275439433463e-07,
        1.2292737918134634e-48,
        1.4052572745379568e-10,
        1.6784837229473695e-08,
        1.3818937405650936e-26,
        4.077590430465273e-17,
        0.12989451286274603
      ],
      [
        0.22062116318906613,
        0.22293271427851866,
        -0.009186121869462622,
        -0.05966469448829647,
        -0.0002463643729262929,
        -4.827894714305165e-05,
        1.186879619864373e-07,
        -5.54482171129638e-06,
        -3.575361646158702e-05,
        -4.067036500076119e-08,
        -1.8921960151393843e-06,
        0.19210235726244987
      ]
    ],
    "weights": [
      [
        0.09790345711082872,
        0.08582150177320694,
        0.02850807805506196,
        -0.0018762609621232622,
        -1.050392570765704e-05,
        -2.70216026168269e-05,
        2.7251682406294427e-256,
        2.9725928850431845e-09,
        -1.217414374266641e-10,
        3.4069735354791136e-75,
        0.00019428174620064054,
        0.0895490515700508
      ],
      [
        0.23942548172290853,
        0.20064121345065777,
        -0.06995290510138134,
        -0.010036111088095732,
        -0.00015553329910806987,
        -6.239772780425237e-06,
        -1.4499604956178022e-05,
        -6.7321524084298885e-06,
        5.745051349276865e-05,
        6.369013390812196e-08,
        4.1041844988678233e-07,
        0.19937731801062375
      ],
      [
        0.09978179593418698,
        0.1465177166059688,
        -0.008319664749909736,
        -0.01473636406512265,
        -0.0004280671576565865,
        -2.604711374254998e-06,
        5.674037807210835e-51,
        6.486336044652571e-13,
        2.414954757262084e-06,
        6.378495483863832e-29,
        1.8821195423559389e-19,
        0.13255505294746703
      ],
      [
        0.21992151229387677,
        0.2224465063125253,
        -0.009234016477637599,
        -0.05992603202566743,
        -0.0001531194314278661,
        0.00012525155370316852,
        6.007859222700693e-06,
        -6.78972536247541e-06,
        8.750698820041143e-05,
        -5.289538209683574e-05,
        3.272295600363786e-07,
        0.1913548117590853
      ]
    ]
  },
  "cues": [
    [
      7,
      4
    ],
    [
      4,
      3
    ],
    [
      1,
      1
    ],
    [
      4,
      8
    ],
    [
      5,
      4
    ]
  ],
  "env": {
    "delay": 0,
    "grid_size": 10,
    "max_steps": 200,
    "noise": 0.2,
    "num_cues": 5,
    "reward_sparse_prob": 1.0
  },
  "seed": 27
}