{
  "agent": {
    "action_size": 4,
    "cue_exploration_bias": 0.10000000000000002,
    "cue_regularization": 0.022500000000000003,
    "epsilon": 0.05,
    "state_size": 11,
    "target_weights": [
      [
        0.0464473183523096,
        0.07607350080046985,
        -0.020947847229163378,
        0.02827048236312148,
        -4.513519563443581e-06,
        6.652290033359629e-07,
        1.3621444525962338e-265,
        -7.18553277877211e-309,
        1.5138289747704537e-59,
        2.8896923693100555e-25,
        2.472516410425112e-255,
        0.06401622727458267
      ],
      [
        0.16369844701976313,
        0.13176698391941738,
        -0.07613611956866177,
        0.002769809578047777,
        0.00015382615229028664,
        2.5389378090838342e-05,
        8.13165516589796e-08,
        -2.390363205828962e-10,
        -1.0774195176287549e-05,
        3.132545746792492e-07,
        6.857104241396274e-196,
        0.1601506833343691
      ],
      [
        0.05262385020210434,
        0.07248344661646354,
        -0.004357679577477077,
        0.02622576312449636,
        -6.803500557289972e-06,
        -1.0103705953382061e-06,
        2.810914361809516e-07,
        -2.9614794201162064e-282,
        1.4517902450805627e-06,
        1.2219010502562277e-16,
        1.1e-322,
        0.05571095156099536
      ],
      [
        0.13527746410202682,
        0.18472668262645633,
        -0.005309721983369982,
        -0.0370705971125999,
        0.00017831250537349042,
        -1.5288427836335459e-06,
        -1.1024481145316485e-05,
        3.237025939362669e-64,
        5.3578410771822275e-08,
        9.616460095418359e-06,
        -2.531328543556113e-83,
        0.1374311341747232
      ]
    ],
    "weights": [
      [
        0.047727852709470796,
        0.07728745975753488,
        -0.020694186813920788,
        0.02859071817846021,
        -3.4566967377646363e-06,
        -4.095045244874777e-07,
        2.183038204148729e-269,
        -1.15158803777e-312,
        3.416227215372231e-06,
        4.631159954010263e-29,
        3.96257370064895e-259,
        0.06555042204698645
      ],
      [
        0.1669278954594758,
        0.13425352590347725,
        -0.0768131613790242,
        0.0028356742233380736,
        -0.0002850723588973726,
        2.2251329380497413e-05,
        1.3032181613546204e-11,
        -3.830911024282419e-14,
        -8.105194048553763e-06,
        6.913024839882704e-09,
        1.0989525009823278e-199,
        0.16270308996371943
      ],
      [
        0.05351471288847704,
        0.07349346065973762,
        -0.0037492470500028003,
        0.02671504429506926,
        -8.221747870628393e-05,
        5.198223335902665e-06,
        4.5049065308196425e-11,
        -4.746209333813038e-286,
        2.3267088621773076e-10,
        3.947613409415706e-06,
        1.1e-322,
        0.057210246774842335
      ],
      [
        0.13686201284308658,
        0.1868215634638345,
        -0.005091443444799848,
        -0.03736265067034792,
        0.0006966075695621358,
        6.69670430285138e-05,
        -6.167746905421157e-05,
        5.1878134363652536e-68,
        8.586733764508597e-12,
        -2.3163198285761005e-05,
        -4.056828853432307e-87,
        0.1392339614543533
      ]
    ]
  },
  "cues": [
    [
      3,
      5
    ],
    [
      6,
      2
    ],
    [
      3,
      0
    ],
    [
      1,
      2
    ],
    [
      3,
      8
    ]
  ],
  "env": {
    "delay": 0,
    "grid_size": 10,
    "max_steps": 200,
    "noise": 0.0,
    "num_cues": 5,
    "reward_sparse_prob": 0.7
  },
  "seed": 8
}