{
  "agent": {
    "action_size": 4,
    "cue_exploration_bias": 0.16666666666666666,
    "cue_regularization": 0.020833333333333336,
    "epsilon": 0.05,
    "state_size": 11,
    "target_weights": [
      [
        0.03496484600573175,
        0.006027369621602717,
        -0.030298876695532353,
        -0.010297810024293997,
        -2.2122239766810624e-07,
        1.1810326208467548e-07,
        3.5093279815885176e-27,
        8.467179443586102e-41,
        -1.14e-322,
        1.14e-322,
        1.14e-322,
        0.034742933019461054
      ],
      [
        0.1336448357380572,
        0.06983009116997091,
        -0.05275483960553951,
        -0.027067447874164062,
        -0.0003916595792690903,
        0.00014145066770675008,
        9.203528853055595e-06,
        -1.6288230922935974e-06,
        -1.14e-322,
        1.14e-322,
        1.14e-322,
        0.058436365911180205
      ],
      [
        0.019159459553109874,
        0.04563356425426368,
        -0.047201183388558166,
        0.010392280263317408,
        -5.592355825538064e-06,
        1.2184326699894807e-05,
        1.1221851743652713e-05,
        1.086842046367515e-46,
        -1.14e-322,
        1.14e-322,
        1.14e-322,
        0.027210849376858543
      ],
      [
        0.10540495644606948,
        0.10619021533050789,
        0.010877645714101087,
        -0.054365458353479106,
        0.000103278980536492,
        -4.4128338534352456e-05,
        -1.5491251452972388e-05,
        -3.416195412393455e-05,
        1.14e-322,
        -1.14e-322,
        -1.14e-322,
        0.04886712829668602
      ]
    ],
    "weights": [
      [
        0.0353110730807923,
        0.0062966573466498145,
        -0.030298876695532353,
        -0.01022087067428054,
        -1.7372374049162953e-05,
        1.1578803186493131e-05,
        3.3202093021157647e-28,
        8.010880743769216e-42,
        -1.14e-322,
        1.14e-322,
        1.14e-322,
        0.03508916009452161
      ],
      [
        0.13544073165282278,
        0.07140532911783673,
        -0.05287663434421475,
        -0.026968584645939566,
        -0.0001278973689316345,
        5.903247558602116e-05,
        8.707548074880692e-07,
        -1.5410453542407826e-07,
        -1.14e-322,
        1.14e-322,
        1.14e-322,
        0.06011046708727054
      ],
      [
        0.019194923049202953,
        0.04565129600231022,
        -0.047156854018441816,
        0.010454341381480294,
        -2.0737161154097093e-06,
        2.6973888849867588e-06,
        1.0617102972910002e-06,
        1.0282718204772992e-47,
        -1.14e-322,
        1.14e-322,
        1.14e-322,
        0.02729064224306797
      ],
      [
        0.10435525450917942,
        0.10508126538420434,
        0.010889281098523062,
        -0.0542945749596436,
        0.00018083778154839966,
        -8.14303799436119e-06,
        -6.790555723840932e-06,
        -3.2320956734684315e-06,
        1.14e-322,
        -1.14e-322,
        -1.14e-322,
        0.047829061744217936
      ]
    ]
  },
  "cues": [
    [
      3,
      3
    ],
    [
      6,
      9
    ],
    [
      8,
      0
    ],
    [
      2,
      7
    ],
    [
      0,
      9
    ]
  ],
  "env": {
    "delay": 0,
    "grid_size": 10,
    "max_steps": 200,
    "noise": 0.0,
    "num_cues": 5,
    "reward_sparse_prob": 0.5
  },
  "seed": 26
}