{
  "agent": {
    "action_size": 4,
    "cue_exploration_bias": 0.3333333333333333,
    "cue_regularization": 0.01666666666666667,
    "epsilon": 0.05,
    "state_size": 11,
    "target_weights": [
      [
        0.07914389477568493,
        0.08082318498386695,
        -0.018545909381418382,
        -0.03191315077529374,
        -3.228046505886216e-06,
        -1.8558945944662472e-05,
        2.640401902825082e-302,
        3.220371488447395e-264,
        1.43e-322,
        4.5075890210976856e-173,
        1.43e-322,
        0.06201043168246638
      ],
      [
        0.11625090411590429,
        0.12152315541166579,
        -0.019574834886518046,
        -0.035171398365678,
        1.1982337341941207e-05,
        -1.4558848435472833e-05,
        -8.322615082812964e-166,
        -1.2983025371102253e-11,
        3.5208622108321625e-14,
        1.6540192968743124e-05,
        -1.43e-322,
        0.0707231871682974
      ],
      [
        0.060551711364145756,
        0.07501399125536357,
        -0.024702530889736205,
        -0.01831006907487849,
        2.070874550384479e-05,
        2.4407013493965516e-05,
        1.43e-322,
        1.7670319436984562e-248,
        1.0306858651883206e-189,
        2.2210357106369684e-134,
        -1.43e-322,
        0.051298453747780054
      ],
      [
        0.10004332212398682,
        0.24025273009429166,
        -0.0405928954338866,
        -0.17015244689871792,
        0.00011983263252561399,
        0.00016962978410847604,
        5.830722008027214e-274,
        2.2324248829029854e-196,
        -2.933003917673618e-05,
        2.3048084700218393e-12,
        1.43e-322,
        0.031516444978065716
      ]
    ],
    "weights": [
      [
        0.07967582117301447,
        0.08125601440104205,
        -0.01852788807107432,
        -0.031796032484795234,
        -3.458813270293321e-06,
        -4.845739122102464e-06,
        4.1568309245774387e-305,
        5.0698871931135705e-267,
        1.43e-322,
        7.096376282010999e-176,
        1.43e-322,
        0.06256037939013998
      ],
      [
        0.11625848850148972,
        0.12166103719486733,
        -0.019285053031380835,
        -0.03501191390815688,
        2.306923239328528e-05,
        -3.7857221332697797e-06,
        -1.3102438576709145e-168,
        -2.7549107255033294e-08,
        5.542954996170818e-17,
        -4.119189337792449e-07,
        -1.43e-322,
        0.0710205534090201
      ],
      [
        0.061145817485660225,
        0.07549893418244007,
        -0.024702530889736205,
        -0.01820090588044051,
        -7.199518625901361e-06,
        -7.79966206286703e-06,
        1.43e-322,
        2.7818693133128387e-251,
        1.6226267953206718e-192,
        3.496615389001326e-137,
        -1.43e-322,
        0.05189255986929452
      ],
      [
        0.09860911117096578,
        0.23988466209881204,
        -0.04011706106661424,
        -0.17074275548898682,
        0.0003569193362324543,
        0.0003529629167087433,
        9.17940769912687e-277,
        3.5145455622185426e-199,
        -1.3796646097054482e-06,
        8.108858823314559e-07,
        1.43e-322,
        0.03055806839231712
      ]
    ]
  },
  "cues": [
    [
      9,
      1
    ],
    [
      7,
      4
    ],
    [
      2,
      9
    ],
    [
      7,
      5
    ],
    [
      5,
      0
    ]
  ],
  "env": {
    "delay": 0,
    "grid_size": 10,
    "max_steps": 200,
    "noise": 0.3,
    "num_cues": 5,
    "reward_sparse_prob": 1.0
  },
  "seed": 6
}