{
  "agent": {
    "action_size": 4,
    "cue_exploration_bias": 0.16666666666666666,
    "cue_regularization": 0.020833333333333336,
    "epsilon": 0.05,
    "state_size": 11,
    "target_weights": [
      [
        0.012845702058536575,
        0.008547097030246299,
        -0.0260453899810511,
        -0.045826013152354864,
        2.879814090228241e-06,
        6.715663938702779e-06,
        5.4302927646811054e-195,
        3.521047522194232e-06,
        -1.14e-322,
        3.8301550085597176e-292,
        3.225215189256735e-06,
        -0.014557599264845492
      ],
      [
        0.08697785210225188,
        0.071772173408854,
        -0.09306071601630617,
        -0.011744306642070004,
        -4.271825543088944e-05,
        4.614481216055901e-05,
        4.702652143777742e-22,
        -0.0005222839014136899,
        1.3342782779689384e-16,
        2.277419584724502e-36,
        3.3005444414035423e-06,
        0.0327914927365042
      ],
      [
        -0.011074986841004676,
        0.018659913305065324,
        -0.03332808560624253,
        -0.043340141718215014,
        0.00010187024165545647,
        3.2169671200295644e-05,
        1.14e-322,
        1.5149458169890638e-07,
        7.003159638095617e-162,
        1.813498223196783e-305,
        4.5346023288981975e-15,
        -0.011207580819563683
      ],
      [
        0.0615648369377022,
        0.09566353284822107,
        -0.04715521365360257,
        -0.025352629694359093,
        1.770817678317526e-05,
        -3.6035337232420635e-05,
        1.5869374167826992e-09,
        0.0020444363517148237,
        -3.3470729244497634e-09,
        -1.2881448966950796e-39,
        1.5022788908837206e-06,
        0.04289713169974956
      ]
    ],
    "weights": [
      [
        0.0131947209096744,
        0.008939743237776352,
        -0.02600176262465887,
        -0.045826013152354864,
        1.3141935025081953e-08,
        3.0646707171893464e-08,
        2.4780958924662932e-197,
        3.839540324736776e-06,
        -1.14e-322,
        1.74787839358389e-294,
        1.4718161357339555e-08,
        -0.014164953057315438
      ],
      [
        0.09130972809891708,
        0.07591481031913143,
        -0.09243244458292572,
        -0.010926796122301876,
        -9.686111252661101e-05,
        9.953367155722607e-05,
        1.60877938791573e-05,
        -0.00021315893439643912,
        6.0889341759753155e-19,
        1.0392927900747362e-38,
        -2.299248947721025e-05,
        0.03775164016654985
      ],
      [
        -0.010326191723303405,
        0.019402068340239147,
        -0.033103236278115664,
        -0.0431086523075607,
        -1.8052727790256283e-05,
        1.903819065964801e-05,
        1.14e-322,
        6.913404431538153e-10,
        3.19586841547937e-164,
        8.275838325197147e-308,
        2.0693505658291348e-17,
        -0.010233936373735548
      ],
      [
        0.06601858064153054,
        0.10132972048539965,
        -0.04658588157293728,
        -0.02599574154704396,
        3.071657422760044e-05,
        -0.00011475681042107294,
        7.241935682930393e-12,
        0.0010938977560177017,
        -1.5274255045346888e-11,
        -5.87840603763277e-42,
        -1.1987471574184665e-05,
        0.04792020748424326
      ]
    ]
  },
  "cues": [
    [
      1,
      2
    ],
    [
      8,
      9
    ],
    [
      2,
      3
    ],
    [
      2,
      7
    ],
    [
      6,
      3
    ]
  ],
  "env": {
    "delay": 0,
    "grid_size": 10,
    "max_steps": 200,
    "noise": 0.0,
    "num_cues": 5,
    "reward_sparse_prob": 0.5
  },
  "seed": 28
}