{
  "agent": {
    "action_size": 4,
    "cue_exploration_bias": 0.16666666666666666,
    "cue_regularization": 0.020833333333333336,
    "epsilon": 0.05,
    "state_size": 11,
    "target_weights": [
      [
        0.06721199269387704,
        0.08697845517199934,
        0.004009069257113394,
        0.016656374994121592,
        -9.093488799478652e-06,
        8.941292841310273e-05,
        4.08545817059403e-160,
        5.1950088773012e-118,
        2.1128781887176374e-68,
        0.0005279999732730675,
        2.4445717157075274e-203,
        0.09296168478393908
      ],
      [
        0.2647673458506586,
        0.17788080424547045,
        -0.022554868871142345,
        0.013418075188304792,
        -0.0003470348503720277,
        0.00021991039056446572,
        3.4380701635187925e-60,
        -1.205118915221848e-114,
        2.1806923218878113e-21,
        -0.000399031552329039,
        2.746072263245744e-200,
        0.21914667644628189
      ],
      [
        0.08530368493283973,
        0.06318148700233903,
        0.010322744502012149,
        -0.00733710094905355,
        -0.00011161085599411998,
        9.55004114418916e-05,
        3.0619688747638716e-154,
        3.4469092284689774e-237,
        1.1784197576370622e-46,
        1.662862389653732e-06,
        2.7451588829253246e-223,
        0.11175393894744368
      ],
      [
        0.1935327135281073,
        0.23968389950731905,
        0.030417358827881116,
        -0.0577574833258126,
        0.00016254138510989042,
        -0.00014559683602812022,
        -1.2033410902157955e-60,
        1.4538241409404262e-82,
        -4.3143250471413112e-19,
        0.0006255715087562839,
        -1.9856190293059526e-210,
        0.22816438756798685
      ]
    ],
    "weights": [
      [
        0.06940356504223064,
        0.0890517026245344,
        0.004234398914310745,
        0.017000029547137484,
        -5.827821729095017e-05,
        2.928059065010157e-05,
        1.2594561846346847e-163,
        1.6015060701986699e-121,
        6.513535057864108e-72,
        1.6277068667894892e-07,
        7.53607266937995e-207,
        0.09537858678949004
      ],
      [
        0.2677487529293926,
        0.1803290855715415,
        -0.022164710257138415,
        0.01434135955497156,
        -8.558776926069095e-05,
        -1.0121652007058109e-05,
        1.059880813813868e-63,
        -3.7151144562464284e-118,
        6.722590996905572e-25,
        -7.557384717282925e-05,
        8.465532018641962e-204,
        0.22251824213901977
      ],
      [
        0.08712884916805569,
        0.06501930914236029,
        0.010718829027123268,
        -0.006953674328747731,
        -8.484424939851922e-06,
        -2.982245403528524e-07,
        9.439371241731586e-158,
        1.0626057015872961e-240,
        3.6328068722727973e-50,
        9.761926520033027e-06,
        8.462716269598793e-227,
        0.11397518770777076
      ],
      [
        0.19443869504757452,
        0.24108363495674076,
        0.031398066562656195,
        -0.057270529520991965,
        3.616899701399407e-05,
        -8.716067700440075e-05,
        -3.7096338158737386e-64,
        4.4818175323831385e-86,
        -1.330010768989562e-22,
        0.0012363730011473854,
        -6.121223281118757e-214,
        0.230051076822229
      ]
    ]
  },
  "cues": [
    [
      3,
      9
    ],
    [
      8,
      2
    ],
    [
      5,
      9
    ],
    [
      7,
      9
    ],
    [
      1,
      9
    ]
  ],
  "env": {
    "delay": 3,
    "grid_size": 10,
    "max_steps": 200,
    "noise": 0.0,
    "num_cues": 5,
    "reward_sparse_prob": 1.0
  },
  "seed": 3
}