{
  "agent": {
    "action_size": 4,
    "cue_exploration_bias": 0.10000000000000002,
    "cue_regularization": 0.022500000000000003,
    "epsilon": 0.05,
    "state_size": 11,
    "target_weights": [
      [
        0.04468471763860338,
        0.056287042578836474,
        -0.018679554867233716,
        -0.008146801245240705,
        -7.503122258578061e-05,
        -2.1869434400769147e-05,
        8.485678109851664e-227,
        3.3836962101319704e-10,
        3.17925873807546e-222,
        3.2166089997663437e-06,
        1.1e-322,
        0.03027099905502073
      ],
      [
        0.19193932965102437,
        0.10668700585166796,
        -0.039191870778310905,
        -0.018595309344308208,
        -0.00013013679468056773,
        -1.1650485378434758e-05,
        8.23354278266994e-75,
        -1.2497913330452208e-05,
        -1.1197041293285403e-106,
        -0.0001218398379496418,
        6.077150301308354e-169,
        0.11973640851160341
      ],
      [
        0.06489296452294113,
        0.03262302777128849,
        0.0016827375578924875,
        -0.023962924720615713,
        -2.1092040974225112e-05,
        3.575239558306271e-05,
        7.88830139194809e-129,
        6.1706123204021626e-58,
        -1.1e-322,
        8.95286548428746e-05,
        2.543009168084268e-234,
        0.038686934295674526
      ],
      [
        0.12538401708427147,
        0.15168706020857178,
        -0.00790746757307413,
        -0.08105783116789647,
        9.141148470020929e-05,
        1.22475732973393e-05,
        -4.4415766540366355e-10,
        7.647016842351719e-15,
        6.040312838519057e-110,
        -6.506344859270282e-05,
        -5.628842584703611e-49,
        0.12809433120349653
      ]
    ],
    "weights": [
      [
        0.04468471763860338,
        0.056287042578836474,
        -0.018679554867233716,
        -0.008146801245240705,
        -6.599778577068942e-07,
        -1.923644846461075e-07,
        7.464038925565267e-229,
        2.976313725050573e-12,
        2.7964896462297657e-224,
        2.8293430968947348e-08,
        1.1e-322,
        0.03027099905502073
      ],
      [
        0.19161183895857736,
        0.1060619890769617,
        -0.03942879288302817,
        -0.018534705366766227,
        -8.132916564690638e-05,
        4.005278559787243e-05,
        7.24225960843449e-77,
        -8.711040334960444e-06,
        -9.848965631540424e-109,
        -8.34512149258735e-05,
        5.345487516526731e-171,
        0.11917199571443916
      ],
      [
        0.06587253651600046,
        0.03373600572130103,
        0.0019841422584003275,
        -0.023794925977061086,
        -3.3732043510782896e-05,
        -1.2486920735780447e-05,
        6.938583797767983e-131,
        5.427697110096891e-60,
        -1.1e-322,
        7.874978947467934e-07,
        2.2368417907124846e-236,
        0.0399679109892417
      ],
      [
        0.1264968602432576,
        0.1530351779799993,
        -0.0069855833965077625,
        -0.08037122160377139,
        6.398868725515018e-05,
        7.972675651130252e-05,
        -3.906829908869937e-12,
        6.726348871223467e-17,
        5.313085125978931e-112,
        4.538343186016955e-06,
        -4.9511541227718794e-51,
        0.1301290585390492
      ]
    ]
  },
  "cues": [
    [
      2,
      6
    ],
    [
      6,
      4
    ],
    [
      7,
      3
    ],
    [
      7,
      8
    ],
    [
      2,
      8
    ]
  ],
  "env": {
    "delay": 0,
    "grid_size": 10,
    "max_steps": 200,
    "noise": 0.0,
    "num_cues": 5,
    "reward_sparse_prob": 0.7
  },
  "seed": 21
}