{
  "agent": {
    "action_size": 4,
    "cue_exploration_bias": 0.16666666666666666,
    "cue_regularization": 0.020833333333333336,
    "epsilon": 0.05,
    "state_size": 11,
    "target_weights": [
      [
        0.12958337083248775,
        0.0691243597717961,
        0.020739115881693544,
        -0.010695853625141093,
        -6.1022853508148394e-05,
        -0.00015614200063208147,
        1.1492151082533161e-09,
        5.229470606125468e-23,
        6.039297642726459e-276,
        -1.0082052326047856e-294,
        8.685033376379502e-40,
        0.09853312646864343
      ],
      [
        0.2689911144725028,
        0.17538596990851396,
        -0.10260358724565968,
        -0.03673747341810383,
        0.0001261117954344006,
        0.0007664584739303095,
        4.456768713784376e-07,
        -2.9845418615402037e-05,
        3.655674941757208e-293,
        4.264800027880967e-229,
        6.269712741562954e-36,
        0.16542922050029615
      ],
      [
        0.09766918880851602,
        0.07346255422800187,
        -0.0002186052011640107,
        -0.008750561183701957,
        -2.0893349762187106e-06,
        -3.7633454247225165e-05,
        7.790836575435118e-06,
        1.9779863829527863e-36,
        3.068561960459407e-266,
        6.380872965402093e-260,
        6.68003935274837e-26,
        0.12507805732683877
      ],
      [
        0.18503420490843434,
        0.22007014866586752,
        -0.026288031788230047,
        -0.008077674352506054,
        9.79197069816747e-06,
        -6.226407867155581e-06,
        -2.180168233196174e-06,
        3.416392919670978e-05,
        -2.4585988205837402e-14,
        -2.8750738708210384e-235,
        -3.2947335102250103e-06,
        0.18013446957408027
      ]
    ],
    "weights": [
      [
        0.13132817214034015,
        0.07064944925713305,
        0.02096515786823643,
        -0.010250099816082768,
        -3.998466372842103e-06,
        -1.6173340903102448e-05,
        2.673671508904539e-12,
        1.2166466021754955e-25,
        1.4050544519636463e-278,
        -2.3456092651278514e-297,
        2.020590064083315e-42,
        0.10050396976303871
      ],
      [
        0.26891056364711413,
        0.17493919646017045,
        -0.10275790596358078,
        -0.036525569513070226,
        -1.1098670534290815e-05,
        7.846937636918165e-05,
        0.00011819267389970576,
        -5.1929539130730076e-06,
        8.504999514362504e-296,
        9.922140984599006e-232,
        1.4586609770220317e-38,
        0.16519435095698629
      ],
      [
        0.09856608312747363,
        0.07453663059942739,
        -4.1423148696092684e-05,
        -0.008750561183701957,
        -5.83901189025749e-05,
        -5.554324369402514e-05,
        1.8125534229994436e-08,
        4.6018241486051605e-39,
        7.139069638110011e-269,
        1.4845226213101816e-262,
        1.554124268601905e-28,
        0.1261521336982643
      ],
      [
        0.18627369068909588,
        0.2208104909473027,
        -0.026124853752940793,
        -0.00741535281799029,
        -3.4015899783641555e-05,
        -0.00019670063763198065,
        1.5732404585599087e-05,
        3.597711631780726e-06,
        -5.719978419368354e-17,
        -6.6889157993176e-238,
        4.1192943100716094e-06,
        0.18153713339003114
      ]
    ]
  },
  "cues": [
    [
      3,
      0
    ],
    [
      8,
      0
    ],
    [
      2,
      3
    ],
    [
      2,
      5
    ],
    [
      3,
      1
    ]
  ],
  "env": {
    "delay": 0,
    "grid_size": 10,
    "max_steps": 200,
    "noise": 0.1,
    "num_cues": 5,
    "reward_sparse_prob": 1.0
  },
  "seed": 15
}