{
  "agent": {
    "action_size": 4,
    "cue_exploration_bias": 0.3333333333333333,
    "cue_regularization": 0.01666666666666667,
    "epsilon": 0.05,
    "state_size": 11,
    "target_weights": [
      [
        0.050610493663995525,
        0.07589261398855415,
        0.042705450946289476,
        0.01863016117786361,
        -4.284674822329717e-05,
        -6.70687878275325e-06,
        3.43004559154818e-07,
        1.9710399294189174e-08,
        1.0933837151999963e-264,
        3.2393131163093014e-26,
        2.0869384106391236e-108,
        0.07206377844860974
      ],
      [
        0.20874626069422178,
        0.17855404614127915,
        -0.008806843263120954,
        0.03546555098740487,
        -0.0004561840161376495,
        0.00010219270376436391,
        4.0654698893854045e-05,
        -3.0125892082856435e-05,
        -4.6798522040847105e-20,
        6.450950598720656e-06,
        2.673989053291503e-63,
        0.1798264218105973
      ],
      [
        0.0951896091279133,
        0.12203094630240836,
        0.018546257994574978,
        0.024496848488562664,
        -1.5194632948131655e-07,
        1.058549837601729e-06,
        6.66306816428665e-15,
        1.7365297410437165e-23,
        5.9169973109802e-263,
        6.962549544539255e-34,
        3.922392016761629e-110,
        0.1003004154690725
      ],
      [
        0.17587243196010105,
        0.2495725563375229,
        -0.0004426690758641306,
        -0.06961997288275201,
        0.00020333278410803696,
        -0.0001484170036630299,
        1.0925295128706031e-08,
        3.0371417500882673e-05,
        3.030096613480342e-93,
        -2.6617354574109216e-05,
        -1.2901936005208474e-06,
        0.15066042306986555
      ]
    ],
    "weights": [
      [
        0.050610493663995525,
        0.07589261398855415,
        0.042705450946289476,
        0.01863016117786361,
        -8.534752830896909e-06,
        -1.3359602548895797e-06,
        6.832395114328361e-08,
        3.926164601744993e-09,
        2.1779388507914294e-265,
        6.452470242432511e-27,
        4.1570257363019838e-109,
        0.07206377844860974
      ],
      [
        0.20951622457586985,
        0.17925724026521192,
        -0.008686499131633779,
        0.03565266487660725,
        -0.00017106664272424293,
        1.3542069817211854e-05,
        4.808412448349098e-05,
        -2.8600610649427173e-05,
        -1.9044419346601903e-05,
        1.2849812685311498e-06,
        5.326386852843603e-64,
        0.18071672982373246
      ],
      [
        0.09596327627402525,
        0.12304500904054641,
        0.019071530303017607,
        0.02478172520497921,
        -0.00022741718277030645,
        0.00010594162020546268,
        1.3272335062917047e-15,
        3.459037788835273e-24,
        1.1786217541437394e-263,
        0.00012880250039809887,
        7.81311248976916e-111,
        0.1015993549236271
      ],
      [
        0.1757355667736023,
        0.24953397813910486,
        -0.0004146167110635654,
        -0.0696902075060321,
        1.3657681083289962e-05,
        -8.566885169968203e-05,
        2.1762373434306014e-09,
        6.049759952449972e-06,
        6.03572656552988e-94,
        -4.5731563432975866e-05,
        -8.243145961014917e-06,
        0.15055161024816738
      ]
    ]
  },
  "cues": [
    [
      0,
      1
    ],
    [
      1,
      5
    ],
    [
      2,
      4
    ],
    [
      4,
      9
    ],
    [
      3,
      9
    ]
  ],
  "env": {
    "delay": 6,
    "grid_size": 10,
    "max_steps": 200,
    "noise": 0.0,
    "num_cues": 5,
    "reward_sparse_prob": 1.0
  },
  "seed": 2
}