{
  "agent": {
    "action_size": 4,
    "cue_exploration_bias": 0.3333333333333333,
    "cue_regularization": 0.01666666666666667,
    "epsilon": 0.05,
    "state_size": 11,
    "target_weights": [
      [
        0.0975909185271363,
        0.09614239019112375,
        -0.0006967617777652881,
        -0.020318294322949338,
        3.0436863927975518e-06,
        -4.979610882236792e-06,
        7.624707578126186e-24,
        1.8499597821943118e-52,
        1.568064090221672e-89,
        1.5187363822444667e-108,
        7.996285381200898e-10,
        0.0625028242548297
      ],
      [
        0.1452776818304267,
        0.15706119171272778,
        -0.022091675516622722,
        -0.029830234356686903,
        -2.9405606446860476e-05,
        5.429263482513976e-05,
        2.6343691749552998e-17,
        -1.965108297429103e-06,
        1.43e-322,
        3.1720836521163984e-08,
        -3.554453666107856e-05,
        0.10971253142195002
      ],
      [
        0.09139460615690853,
        0.09994560616566148,
        -0.032759074826479974,
        -0.012174877463286219,
        -4.188007951919736e-05,
        -5.720222412825039e-06,
        2.4536970447541703e-10,
        3.982175954778087e-12,
        7.070185797130742e-16,
        -1.43e-322,
        1.0236271649434972e-08,
        0.09210785418889858
      ],
      [
        0.14291014170716926,
        0.2520665441557749,
        -0.023166069537888197,
        -0.14038470119460328,
        -0.0005422935356086978,
        9.637852612366721e-06,
        -0.0001164755798063053,
        -2.047889437599323e-05,
        0.001542985684869953,
        8.704895928612742e-51,
        -0.000408350983520884,
        0.06266257907428006
      ]
    ],
    "weights": [
      [
        0.09782946190106541,
        0.09632792392640194,
        -0.0006967617777652881,
        -0.02026528468429843,
        -3.925076583020785e-06,
        -7.580200067582177e-07,
        1.1606691821077524e-24,
        2.816096598237532e-53,
        2.3869815942992556e-90,
        2.3118926156249745e-109,
        3.94957304905396e-05,
        0.0627413676287588
      ],
      [
        0.1452485170871494,
        0.15692243458272848,
        -0.02242227489901686,
        -0.030051241352359016,
        -2.9818640265721166e-05,
        2.8195175602071286e-05,
        4.010161811892951e-18,
        3.711952203702308e-05,
        1.43e-322,
        -3.2026160375910084e-05,
        -2.8183069712470477e-05,
        0.10935276729627859
      ],
      [
        0.09164095143582635,
        0.10023648794215241,
        -0.032634715819711696,
        -0.012095054954091066,
        -1.0867663980883748e-05,
        -9.773328039104823e-06,
        3.735134118776169e-11,
        6.061857272665818e-13,
        1.0762572442840219e-16,
        -1.43e-322,
        1.5582138621639138e-09,
        0.0924785584745847
      ],
      [
        0.14342393328534667,
        0.25250574501431805,
        -0.023125674698019474,
        -0.14026971563510024,
        -0.00010569725665206919,
        -6.380407786331191e-06,
        -0.00013558140238483055,
        -1.3772565831219698e-05,
        0.00020483416370844213,
        1.3251005804840392e-51,
        -0.0005740998218654904,
        0.06321676549232617
      ]
    ]
  },
  "cues": [
    [
      7,
      8
    ],
    [
      7,
      7
    ],
    [
      8,
      9
    ],
    [
      3,
      2
    ],
    [
      8,
      7
    ]
  ],
  "env": {
    "delay": 0,
    "grid_size": 10,
    "max_steps": 200,
    "noise": 0.3,
    "num_cues": 5,
    "reward_sparse_prob": 1.0
  },
  "seed": 11
}