{
  "agent": {
    "action_size": 4,
    "cue_exploration_bias": 0.3333333333333333,
    "cue_regularization": 0.01666666666666667,
    "epsilon": 0.05,
    "state_size": 11,
    "target_weights": [
      [
        0.07280266668601904,
        0.08811990412824933,
        -0.007798571456047321,
        -0.0009807303360516613,
        -8.58573438042684e-07,
        3.0077512431310475e-06,
        1.8525760273957325e-230,
        2.1095033697355177e-31,
        1.43e-322,
        1.0316675387097363e-06,
        -1.43e-322,
        0.06926993151362326
      ],
      [
        0.23421059071835054,
        0.14182401218556842,
        -0.018550774033309177,
        0.009180042134118532,
        -1.2894102881326014e-05,
        0.00013485771058844613,
        2.2571586781569944e-35,
        -3.474055899933249e-05,
        1.43e-322,
        -8.948284467190007e-05,
        -1.43e-322,
        0.1826487663239311
      ],
      [
        0.0987862714990207,
        0.06415921682600986,
        0.003332376538215804,
        -0.0199561678189341,
        -1.1657518646273056e-05,
        2.7438295811874527e-07,
        -6.593296174639007e-241,
        1.43e-322,
        -1.43e-322,
        6.975228289888335e-05,
        -1.43e-322,
        0.07422988025207686
      ],
      [
        0.16705986054727048,
        0.2058873213565197,
        0.02014292447088411,
        -0.06553185680888615,
        -0.00011088252201085349,
        -0.00020317966377691015,
        -7.46649725603505e-06,
        3.307620578093251e-05,
        1.5264749292463667e-145,
        -0.00010699390524113143,
        -4.83725448055619e-222,
        0.19782056671045423
      ]
    ],
    "weights": [
      [
        0.07460317895050987,
        0.09014548042580152,
        -0.007573507422985968,
        -0.0009807303360516613,
        -5.88534950383796e-05,
        -5.850977255327947e-05,
        1.646969896434073e-231,
        1.8753824377532447e-32,
        1.43e-322,
        9.171690415165964e-08,
        -1.43e-322,
        0.07129550781117545
      ],
      [
        0.23592678323369887,
        0.14340586299089378,
        -0.017756832788871836,
        0.01010832508857894,
        -0.000165394484303649,
        0.0001682591447239301,
        2.006650382724291e-36,
        -9.061291010612299e-06,
        1.43e-322,
        9.863705380877705e-06,
        -1.43e-322,
        0.1851589000837168
      ],
      [
        0.10008120607268581,
        0.06543729317951093,
        0.00373440633012805,
        -0.019537279806857807,
        -0.00011172302671429751,
        -1.040252812007964e-05,
        -5.861546385855704e-242,
        1.43e-322,
        -1.43e-322,
        6.201090181627097e-06,
        -1.43e-322,
        0.07592684461765421
      ],
      [
        0.16634569886537628,
        0.2054122229451615,
        0.02038734559812985,
        -0.06552649895217624,
        6.85724769752227e-05,
        1.6589099400347654e-06,
        -6.637836197083927e-07,
        2.9405279137738662e-06,
        1.3570607731895595e-146,
        -7.330514866731177e-05,
        -4.3003970649810595e-223,
        0.1973508261558057
      ]
    ]
  },
  "cues": [
    [
      2,
      6
    ],
    [
      6,
      4
    ],
    [
      7,
      3
    ],
    [
      7,
      8
    ],
    [
      2,
      8
    ]
  ],
  "env": {
    "delay": 6,
    "grid_size": 10,
    "max_steps": 200,
    "noise": 0.0,
    "num_cues": 5,
    "reward_sparse_prob": 1.0
  },
  "seed": 21
}