{
  "agent": {
    "action_size": 4,
    "cue_exploration_bias": 0.3333333333333333,
    "cue_regularization": 0.01666666666666667,
    "epsilon": 0.05,
    "state_size": 11,
    "target_weights": [
      [
        -0.06429871833621514,
        -0.04237625900768667,
        -0.058398373304637,
        -0.04202121197004946,
        -6.137684866342803e-07,
        -3.2208633161512507e-06,
        -1.43e-322,
        -1.43e-322,
        -2.5450368641206643e-07,
        -7.572796178045166e-99,
        -1.43e-322,
        -0.1060487215968936
      ],
      [
        -0.04701967366824999,
        -0.07236583072476412,
        -0.04159023789499298,
        -0.06540614156823668,
        9.229517189986036e-08,
        -7.768910899033064e-07,
        1.43e-322,
        1.43e-322,
        -5.339262628429484e-07,
        5.2411426448559164e-169,
        1.43e-322,
        -0.09955694420033505
      ],
      [
        -0.06457376162527698,
        -0.05610183325711104,
        -0.061004653510797785,
        -0.055017842335394106,
        1.8873852348171708e-05,
        -8.371092304349492e-06,
        -1.43e-322,
        -7.178812337055354e-160,
        -9.917262284835166e-06,
        -1.448998158873687e-100,
        -1.43e-322,
        -0.0889487576014132
      ],
      [
        -0.05272331096249974,
        -0.07281101908784979,
        -0.046157372311390006,
        -0.06877097405564382,
        7.040136943305483e-08,
        -6.897403755349507e-06,
        -1.43e-322,
        1.34873233192e-313,
        -1.5525255155610966e-05,
        -8.360107947395652e-145,
        -1.43e-322,
        -0.09065385175046989
      ]
    ],
    "weights": [
      [
        -0.06427966005803741,
        -0.04237556150982754,
        -0.058356228342555404,
        -0.04196070622764927,
        -1.8476801462685665e-06,
        3.6512051305963693e-06,
        -1.43e-322,
        -1.43e-322,
        -2.2625787220263584e-08,
        -6.732337649108084e-100,
        -1.43e-322,
        -0.10598751835663432
      ],
      [
        -0.04701759257875202,
        -0.07236562032407193,
        -0.04159045931136305,
        -0.065404492295801,
        -2.1236075603816889e-07,
        4.881460852162007e-08,
        1.43e-322,
        1.43e-322,
        7.561119464860588e-07,
        4.65946014163264e-170,
        1.43e-322,
        -0.09955508452720718
      ],
      [
        -0.06461102297696368,
        -0.05610897569314033,
        -0.061105844754666516,
        -0.05514915249492018,
        -2.2609827846682207e-06,
        -1.2726082187685197e-05,
        -1.43e-322,
        -6.382079675240292e-161,
        -1.0129427172223732e-05,
        -1.288182677721533e-101,
        -1.43e-322,
        -0.08908721019696866
      ],
      [
        -0.05268559477566935,
        -0.07281098353678442,
        -0.04611430125441767,
        -0.06869022236290642,
        -2.884844243311693e-07,
        6.578844513607392e-06,
        -1.43e-322,
        1.199044744e-314,
        -1.6141795680898892e-06,
        -7.432270479962708e-146,
        -1.43e-322,
        -0.09057306450666712
      ]
    ]
  },
  "cues": [
    [
      7,
      9
    ],
    [
      5,
      4
    ],
    [
      2,
      2
    ],
    [
      0,
      5
    ],
    [
      8,
      7
    ]
  ],
  "env": {
    "delay": 6,
    "grid_size": 10,
    "max_steps": 200,
    "noise": 0.0,
    "num_cues": 5,
    "reward_sparse_prob": 1.0
  },
  "seed": 9
}