{
  "agent": {
    "action_size": 4,
    "cue_exploration_bias": 0.10000000000000002,
    "cue_regularization": 0.022500000000000003,
    "epsilon": 0.05,
    "state_size": 11,
    "target_weights": [
      [
        0.05813103526662402,
        0.04438693020817324,
        -0.0009255427545413664,
        -0.02964773205089775,
        2.5751875398604182e-05,
        -5.8762420694535595e-05,
        1.5034246775727303e-302,
        3.068282077461478e-13,
        1.2969962673542022e-11,
        1.7724848590278624e-163,
        -1.1e-322,
        0.020343008916241953
      ],
      [
        0.14136365846828697,
        0.11785341139378726,
        -0.05436697428701298,
        -0.009724201471478518,
        0.0003919054623066133,
        5.554278838232516e-05,
        -1.7772078724300992e-53,
        -1.0635494265183003e-09,
        9.92356162235281e-06,
        1.5899892455675324e-11,
        -6.494170166881682e-06,
        0.11690142557037174
      ],
      [
        0.03973749032939478,
        0.06535354609521371,
        -0.030456446943972575,
        -0.0157532813532227,
        -0.00027438373172499386,
        -3.702757114962278e-06,
        1.8456167047018073e-218,
        3.6496928912162817e-22,
        7.50893457921788e-09,
        5.0278489632630985e-140,
        2.9710494839448044e-23,
        0.0503739651486122
      ],
      [
        0.12435771751098547,
        0.14987724551113352,
        -0.0022508359269943086,
        -0.07593738545652329,
        -0.00040682391221593945,
        -0.00012760326548220735,
        5.963907118193075e-12,
        1.6880864140689204e-11,
        1.0776133666401469e-22,
        -3.333531393136567e-07,
        1.1488466823930745e-08,
        0.10277419752683836
      ]
    ],
    "weights": [
      [
        0.05813103526662402,
        0.04438693020817324,
        -0.0009255427545413664,
        -0.02964773205089775,
        2.5751875398604182e-05,
        -5.8762420694535595e-05,
        1.5034246775727303e-302,
        3.068282077461478e-13,
        1.2969962673542022e-11,
        1.7724848590278624e-163,
        -1.1e-322,
        0.020343008916241953
      ],
      [
        0.14136365846828697,
        0.11785341139378726,
        -0.05436697428701298,
        -0.009724201471478518,
        0.0003919054623066133,
        5.554278838232516e-05,
        -1.7772078724300992e-53,
        -1.0635494265183003e-09,
        9.92356162235281e-06,
        1.5899892455675324e-11,
        -6.494170166881682e-06,
        0.11690142557037174
      ],
      [
        0.03973749032939478,
        0.06535354609521371,
        -0.030456446943972575,
        -0.0157532813532227,
        -0.00027438373172499386,
        -3.702757114962278e-06,
        1.8456167047018073e-218,
        3.6496928912162817e-22,
        7.50893457921788e-09,
        5.0278489632630985e-140,
        2.9710494839448044e-23,
        0.0503739651486122
      ],
      [
        0.12435771751098547,
        0.14987724551113352,
        -0.0022508359269943086,
        -0.07593738545652329,
        -0.00040682391221593945,
        -0.00012760326548220735,
        5.963907118193075e-12,
        1.6880864140689204e-11,
        1.0776133666401469e-22,
        -3.333531393136567e-07,
        1.1488466823930745e-08,
        0.10277419752683836
      ]
    ]
  },
  "cues": [
    [
      7,
      4
    ],
    [
      4,
      3
    ],
    [
      1,
      1
    ],
    [
      4,
      8
    ],
    [
      5,
      4
    ]
  ],
  "env": {
    "delay": 0,
    "grid_size": 10,
    "max_steps": 200,
    "noise": 0.0,
    "num_cues": 5,
    "reward_sparse_prob": 0.7
  },
  "seed": 27
}