{
  "agent": {
    "action_size": 4,
    "cue_exploration_bias": 0.2333333333333333,
    "cue_regularization": 0.01916666666666667,
    "epsilon": 0.05,
    "state_size": 11,
    "target_weights": [
      [
        0.009214519403192496,
        0.016654202517106576,
        -0.03706683426861342,
        -0.022371438820301594,
        -3.569258445659455e-08,
        1.4509246536712523e-06,
        -1.3e-322,
        1.2144096782538525e-18,
        1.3e-322,
        8.929390560474448e-07,
        1.0590495e-317,
        -0.023586478581769117
      ],
      [
        0.09425229190991383,
        0.029485350103161754,
        -0.037193773625220236,
        -0.03708259418382153,
        1.0283111734940995e-05,
        3.702921799697077e-05,
        1.0678901500343352e-46,
        -1.5448314635119406e-05,
        -5.794573465503342e-78,
        1.8791365462525464e-06,
        4.349349306538549e-119,
        0.024047467923583844
      ],
      [
        0.032874964984924086,
        -0.0037521860862883374,
        -0.020463330794772597,
        -0.041751778753720645,
        -3.445057922068862e-06,
        -1.8587349096572798e-06,
        -1.3e-322,
        4.303802634332598e-07,
        -1.3e-322,
        1.540051576797452e-05,
        -1.3e-322,
        -0.015477133595008196
      ],
      [
        0.05123890389911813,
        0.056888082208760495,
        -0.01933941948034087,
        -0.07183591826050374,
        -6.454766264656043e-05,
        -0.00010807015939914826,
        -8.26314805203875e-13,
        1.7006110378988355e-05,
        8.791908563976566e-157,
        -3.383813707601832e-05,
        -1.443120542910546e-55,
        0.04251726611107719
      ]
    ],
    "weights": [
      [
        0.009799428810211463,
        0.017283509513512933,
        -0.03678856252503019,
        -0.02213756466610575,
        -6.63100206715989e-06,
        1.8397586630897336e-05,
        -1.3e-322,
        5.49034843467716e-20,
        1.3e-322,
        0.00016757400139942567,
        4.78804e-319,
        -0.02272329743116691
      ],
      [
        0.0944218225232659,
        0.029583387667077486,
        -0.037131355190032043,
        -0.03694868269919695,
        4.8087602828879766e-05,
        2.7554877484541606e-05,
        4.827933372598321e-48,
        -1.092263750303528e-05,
        -2.6197277513213155e-79,
        1.5731329738745483e-06,
        1.9663416378032606e-120,
        0.024279416972124164
      ],
      [
        0.033123457468284066,
        -0.0034726320425083603,
        -0.0204322692343526,
        -0.041751778753720645,
        -2.7282002814930483e-05,
        -2.7210285121766097e-05,
        -1.3e-322,
        1.945749978750422e-08,
        -1.3e-322,
        6.962576069180927e-07,
        -1.3e-322,
        -0.015197579551228219
      ],
      [
        0.050159773852901164,
        0.05580201299804107,
        -0.01943249481295319,
        -0.07192205442861355,
        0.00011187963050187344,
        7.202926226688963e-05,
        -3.735770785213817e-14,
        6.230249557262812e-06,
        3.974823511902485e-158,
        -8.004255637936977e-05,
        -6.524350683051078e-57,
        0.04134506073224794
      ]
    ]
  },
  "cues": [
    [
      2,
      6
    ],
    [
      6,
      4
    ],
    [
      7,
      3
    ],
    [
      7,
      8
    ],
    [
      2,
      8
    ]
  ],
  "env": {
    "delay": 0,
    "grid_size": 10,
    "max_steps": 200,
    "noise": 0.0,
    "num_cues": 5,
    "reward_sparse_prob": 0.3
  },
  "seed": 21
}