{
  "agent": {
    "action_size": 4,
    "cue_exploration_bias": 0.16666666666666666,
    "cue_regularization": 0.020833333333333336,
    "epsilon": 0.05,
    "state_size": 11,
    "target_weights": [
      [
        0.11054113250683949,
        0.1016720630287924,
        0.033565722432525855,
        0.04836345638519404,
        -8.79866206761179e-05,
        -5.559733603068538e-06,
        3.7685146695110686e-231,
        4.635159549716732e-108,
        4.379515164803921e-05,
        4.7263515621436495e-15,
        1.14e-322,
        0.11832598655984689
      ],
      [
        0.2504499984168954,
        0.24079044442644623,
        -0.03437659296962791,
        0.0038448060188138043,
        -0.00021218023978060465,
        4.99659210375056e-07,
        6.780035943295663e-211,
        1.999564713151704e-08,
        -3.447689124369401e-05,
        2.753376700933574e-06,
        1.14e-322,
        0.24581712047453
      ],
      [
        0.10530509229871482,
        0.13432067755810995,
        0.034254361894197505,
        0.021380976314231203,
        -2.054071961943302e-06,
        -2.3230894216767456e-05,
        2.2025158173385583e-235,
        8.14227204891278e-33,
        8.733665117628551e-13,
        0.0001977085683122011,
        -1.14e-322,
        0.15097327687870793
      ],
      [
        0.23166089903260878,
        0.29128480175769156,
        -0.008909968024421374,
        -0.07943224698662119,
        -3.496614739352174e-05,
        2.3186739647515105e-05,
        -3.589372902502872e-07,
        -3.772641188232924e-05,
        -2.705671008624435e-05,
        -0.0001404966083256836,
        -2.768014022048999e-06,
        0.21426309556756148
      ]
    ],
    "weights": [
      [
        0.11137132312907944,
        0.10276294085317542,
        0.03396362538895055,
        0.048500672139475676,
        -8.018585967935119e-05,
        -5.612274449062874e-06,
        6.616698681477815e-233,
        8.138340107623643e-110,
        7.689483724427109e-07,
        8.298453606256994e-17,
        1.14e-322,
        0.11955408013851153
      ],
      [
        0.2505443008615537,
        0.2408385157154882,
        -0.03406894187722881,
        0.004198688266829279,
        -0.00016969507856654122,
        4.618113104863626e-05,
        1.190428028563229e-212,
        3.5108042189887514e-10,
        6.392039342863778e-06,
        -7.897263295723911e-05,
        1.14e-322,
        0.24621907401158746
      ],
      [
        0.1070391577883294,
        0.13596935863950332,
        0.03429210936193164,
        0.021504108190186527,
        -8.734219699332942e-05,
        -1.6005815521888745e-05,
        3.8671425701014626e-237,
        1.429607297701316e-34,
        1.5334431609305422e-14,
        3.471335892233459e-06,
        -1.14e-322,
        0.15274508983605664
      ],
      [
        0.2324489971713213,
        0.2922079706593744,
        -0.00868680202873872,
        -0.07934415175390884,
        -0.00025523528928163085,
        -0.00010289503014408112,
        -7.382041385123485e-07,
        -2.0373653313939244e-06,
        2.16007063624989e-05,
        -5.3423640099703134e-05,
        -4.8600354081625374e-08,
        0.21527435970195663
      ]
    ]
  },
  "cues": [
    [
      0,
      8
    ],
    [
      1,
      8
    ],
    [
      3,
      6
    ],
    [
      5,
      8
    ],
    [
      4,
      9
    ]
  ],
  "env": {
    "delay": 0,
    "grid_size": 10,
    "max_steps": 200,
    "noise": 0.1,
    "num_cues": 5,
    "reward_sparse_prob": 1.0
  },
  "seed": 19
}