{
  "agent": {
    "action_size": 4,
    "cue_exploration_bias": 0.08333333333333333,
    "cue_regularization": 0.02291666666666667,
    "epsilon": 0.05,
    "state_size": 11,
    "target_weights": [
      [
        0.08571309647753754,
        0.13257923989637443,
        0.014867999651299636,
        0.02104589756468519,
        -2.1079848157906093e-09,
        -9.780401711599418e-05,
        7.676960762272056e-188,
        1.04e-322,
        3.0505927247419287e-22,
        5.018733541934341e-200,
        1.04e-322,
        0.13169985792128802
      ],
      [
        0.2654767304619869,
        0.1990083411557572,
        -0.038662829139356036,
        0.001491728554178305,
        -0.0001996139224849578,
        -0.0006859152605672944,
        5.971790294219976e-187,
        -2.8480101286200295e-136,
        1.1983202554566519e-05,
        -6.847598739127978e-110,
        -2.2925155201046076e-33,
        0.23472403946359205
      ],
      [
        0.07413426742930486,
        0.09143334761360608,
        0.01870447313811217,
        0.021520607396863126,
        2.2920718719306106e-05,
        -2.3683344143517106e-05,
        7.131948106483866e-213,
        1.385790113581727e-147,
        2.6091995872351383e-15,
        1.7816640570643637e-257,
        3.956146580464034e-180,
        0.11715656691740622
      ],
      [
        0.2148510975236649,
        0.27822309494559283,
        0.006927668306176009,
        -0.058957149206552005,
        1.616563022966961e-05,
        -0.00022962645461165195,
        -4.2658980800980477e-187,
        5.8270759707900665e-67,
        -9.9690325521985e-08,
        4.945413810618075e-85,
        1.5461748889853359e-65,
        0.21170751516118932
      ]
    ],
    "weights": [
      [
        0.08579578006234152,
        0.13268948467611308,
        0.015063073915813054,
        0.02121341063426395,
        3.90270676834259e-06,
        -2.181530114392836e-06,
        1.8803823895311054e-189,
        1.04e-322,
        2.7418460072737666e-05,
        1.2292805007393843e-201,
        1.04e-322,
        0.13197761577060543
      ],
      [
        0.2676047497010731,
        0.2007636734243139,
        -0.03849701772911787,
        0.0020302269349459843,
        -9.958966019167574e-05,
        -0.0004385753000155092,
        1.4627206847805528e-188,
        -6.975870083095699e-138,
        4.232637367258985e-06,
        -1.6772397929803753e-111,
        -5.615250546696335e-35,
        0.23701787011291647
      ],
      [
        0.07453928804783068,
        0.09202119315587168,
        0.01933288526496028,
        0.021966194599971456,
        5.662778787302127e-06,
        -4.215235232977458e-05,
        1.746887868489371e-214,
        3.3943319574739868e-149,
        0.00010732519378361987,
        4.363979210925203e-259,
        9.690121638848414e-182,
        0.11818999966278014
      ],
      [
        0.21595425809758784,
        0.27950305119535684,
        0.007061456026622192,
        -0.05900015716194705,
        3.588725464878365e-05,
        -0.00041102109331470825,
        -1.044882196711514e-188,
        1.427274591760537e-68,
        1.8994660895620323e-05,
        1.2113216839834352e-86,
        3.7871758400426807e-67,
        0.21294446345555842
      ]
    ]
  },
  "cues": [
    [
      1,
      9
    ],
    [
      8,
      3
    ],
    [
      4,
      4
    ],
    [
      4,
      1
    ],
    [
      7,
      4
    ]
  ],
  "env": {
    "delay": 0,
    "grid_size": 10,
    "max_steps": 200,
    "noise": 0.05,
    "num_cues": 5,
    "reward_sparse_prob": 1.0
  },
  "seed": 14
}