{
  "agent": {
    "action_size": 4,
    "cue_exploration_bias": 0.08333333333333333,
    "cue_regularization": 0.02291666666666667,
    "epsilon": 0.05,
    "state_size": 11,
    "target_weights": [
      [
        0.0715415814329187,
        0.08770411034171757,
        -0.015461198866366705,
        -0.03041689721903261,
        -9.013732268041895e-05,
        2.1925703356249075e-05,
        8.111699130322244e-09,
        9.462104057660614e-16,
        1.04e-322,
        1.243996500657819e-47,
        7.277468155385162e-116,
        0.03482821640487639
      ],
      [
        0.2136151638676861,
        0.18827868214067878,
        -0.04146420340875517,
        -0.0020475419841641303,
        -0.00019137230992871798,
        6.001793742999696e-05,
        1.2607889862921979e-05,
        -2.8271078248708553e-05,
        -1.9091193913515707e-08,
        -1.768638852058413e-06,
        7.701215534196682e-87,
        0.15203796483842769
      ],
      [
        0.0756828820118311,
        0.11383888688207164,
        -0.0043208567785318125,
        -0.009684933980289632,
        -7.712404849639967e-05,
        2.789805314534863e-07,
        6.171564012828947e-13,
        1.2036742969313052e-25,
        -1.04e-322,
        2.225612859845395e-06,
        3.564640773004483e-136,
        0.05792657357988303
      ],
      [
        0.18557806981339015,
        0.2498890531820536,
        -0.02034842374371658,
        -0.08013658654184412,
        -0.0001920308258538548,
        -0.0001131825600559187,
        5.270215673346126e-05,
        -1.3268579942549178e-05,
        1.7572497108029953e-44,
        -1.4726554902908224e-06,
        -2.206656864017521e-07,
        0.1404603062553048
      ]
    ],
    "weights": [
      [
        0.0715415814329187,
        0.08779283688409259,
        -0.015195019239241655,
        -0.030239444134282575,
        -6.718068878697907e-06,
        -1.0038634678820405e-05,
        6.045770149396394e-10,
        7.052247049998088e-17,
        1.04e-322,
        9.271691157179104e-49,
        5.424005381627441e-117,
        0.03509439603200144
      ],
      [
        0.21466391959942482,
        0.1896237052236775,
        -0.040862103671997975,
        -0.0017417095986669655,
        -0.00041763274611420235,
        7.746786011669502e-06,
        5.968959267107346e-05,
        1.3658786153333106e-05,
        -1.4228951101898957e-09,
        1.8956702436565077e-05,
        5.739830612882274e-88,
        0.1536888203069235
      ],
      [
        0.07689619010537575,
        0.11524237517689759,
        -0.003930119498679786,
        -0.00948437690171891,
        -0.00037269937040944887,
        0.00014706508093880404,
        4.5997585566722154e-14,
        8.971163768612184e-27,
        -1.04e-322,
        1.6587824050164832e-07,
        2.6567798475404845e-137,
        0.05953061895327971
      ],
      [
        0.18401882011953044,
        0.2484339655033599,
        -0.02037902948278163,
        -0.0802713542960751,
        0.0003157213709897601,
        -7.793709680327831e-05,
        3.927970217693625e-06,
        1.805699257816142e-05,
        1.3097043758557346e-45,
        -7.275922951725752e-06,
        -2.364939726972909e-06,
        0.13887045082238006
      ]
    ]
  },
  "cues": [
    [
      0,
      1
    ],
    [
      1,
      5
    ],
    [
      2,
      4
    ],
    [
      4,
      9
    ],
    [
      3,
      9
    ]
  ],
  "env": {
    "delay": 0,
    "grid_size": 10,
    "max_steps": 200,
    "noise": 0.05,
    "num_cues": 5,
    "reward_sparse_prob": 1.0
  },
  "seed": 2
}