{
  "agent": {
    "action_size": 4,
    "cue_exploration_bias": 0.3333333333333333,
    "cue_regularization": 0.01666666666666667,
    "epsilon": 0.05,
    "state_size": 11,
    "target_weights": [
      [
        0.08758836499865767,
        0.10295323405201626,
        -0.011172291880621785,
        -0.03822511211967358,
        -0.00017427168087801015,
        -0.00042524432878660213,
        1.43e-322,
        -1.43e-322,
        1.8302429372027328e-59,
        1.252979004436459e-158,
        1.43e-322,
        0.07782851940623528
      ],
      [
        0.19823340206304865,
        0.17358831418380274,
        0.0024594126066179323,
        0.01678018830246592,
        4.775615613721209e-05,
        3.188502653982698e-05,
        -1.43e-322,
        -1.43e-322,
        4.260788970312881e-08,
        -5.978230227294773e-96,
        1.43e-322,
        0.17473993260857698
      ],
      [
        0.052767491614437154,
        0.0832509193460462,
        -0.005211207725066572,
        -0.01483989375059981,
        0.00021868990425836553,
        1.6323914298733646e-05,
        -1.43e-322,
        -1.43e-322,
        8.548719057781245e-84,
        1.1397927223276424e-141,
        -1.43e-322,
        0.06300555716274132
      ],
      [
        0.1693052699555625,
        0.25349530615728505,
        -0.005304102633175333,
        -0.0788442823294226,
        -7.560478711915136e-06,
        -0.0006127203436165229,
        1.43e-322,
        -1.43e-322,
        -7.20794972480974e-05,
        5.292875056681846e-48,
        1.43e-322,
        0.13606718561035216
      ]
    ],
    "weights": [
      [
        0.08833275089021499,
        0.1042214982516418,
        -0.010180486276155953,
        -0.037757184823275974,
        -0.00015659484137137955,
        -6.807043673398484e-05,
        1.43e-322,
        -1.43e-322,
        9.502605963310437e-61,
        6.505456471072716e-160,
        1.43e-322,
        0.07956471090225842
      ],
      [
        0.1999254713064225,
        0.1751990474046354,
        0.003019656229947662,
        0.01742176794833689,
        -0.00017962245189266247,
        -0.0003273843858830671,
        -1.43e-322,
        -1.43e-322,
        5.702125251864697e-06,
        -3.103892114713367e-97,
        1.43e-322,
        0.1769922454752805
      ],
      [
        0.052767491614437154,
        0.08343596319032268,
        -0.0047948590754444825,
        -0.014608588945254204,
        5.164527245891486e-05,
        8.475362598409656e-07,
        -1.43e-322,
        -1.43e-322,
        4.4384877573298513e-85,
        5.917794244671227e-143,
        -1.43e-322,
        0.06342190581236341
      ],
      [
        0.17009509568289435,
        0.25445451023032917,
        -0.004978830995013704,
        -0.07868838903697326,
        0.00042520079058669814,
        8.422607608445311e-05,
        1.43e-322,
        -1.43e-322,
        -3.498213193225338e-05,
        2.7480562855525844e-49,
        1.43e-322,
        0.1371822829758457
      ]
    ]
  },
  "cues": [
    [
      9,
      1
    ],
    [
      7,
      4
    ],
    [
      2,
      9
    ],
    [
      7,
      5
    ],
    [
      5,
      0
    ]
  ],
  "env": {
    "delay": 6,
    "grid_size": 10,
    "max_steps": 200,
    "noise": 0.0,
    "num_cues": 5,
    "reward_sparse_prob": 1.0
  },
  "seed": 6
}