{
  "agent": {
    "action_size": 4,
    "cue_exploration_bias": 0.3,
    "cue_regularization": 0.017499999999999998,
    "epsilon": 0.05,
    "state_size": 11,
    "target_weights": [
      [
        -0.02033153847552996,
        0.007459008217913223,
        -0.05420715195858639,
        -0.02895365731980706,
        -2.629085888708374e-06,
        -1.2625159735606158e-05,
        -1.4e-322,
        3.849468878068405e-205,
        1.2201844288673272e-20,
        9.195773360680453e-77,
        1.1607589996356025e-05,
        -0.04341992864166509
      ],
      [
        0.018898184742277453,
        -0.009538011073470496,
        -0.050757465721762436,
        -0.04863510151871024,
        -5.88549402351108e-06,
        3.6217578957758405e-05,
        1.4e-322,
        -1.9750772017219437e-45,
        -6.357780463292707e-06,
        -5.300732835426059e-06,
        -1.3028108964915639e-05,
        -0.023949142838525905
      ],
      [
        -0.02239863556101437,
        -0.009227014934120398,
        -0.04543896577525583,
        -0.03849537195909782,
        7.413653442618013e-07,
        -7.290150327146502e-07,
        1.4e-322,
        -3.309995552987256e-293,
        1.2524216402939068e-09,
        9.00811323859918e-83,
        -1.2959868678123748e-239,
        -0.0435197749862813
      ],
      [
        0.004781738906400637,
        0.02298716725878698,
        -0.03206914476784501,
        -0.05278739321103322,
        9.722998609236178e-06,
        7.57883860855838e-05,
        -2.8688833231814333e-196,
        2.4630660229265384e-29,
        -1.6266989907433554e-05,
        1.352002582698644e-29,
        4.827208419908992e-18,
        -0.03735865653009465
      ]
    ],
    "weights": [
      [
        -0.020204177698542627,
        0.007578648226326206,
        -0.05419979195844528,
        -0.028938576551091607,
        -1.2155466331940245e-05,
        -3.537860449161024e-05,
        -1.4e-322,
        3.0289305506965006e-206,
        9.600944990455205e-22,
        7.235636850614679e-78,
        9.133359711058062e-07,
        -0.04328520786453665
      ],
      [
        0.018987807175663046,
        -0.00939863723961635,
        -0.05072594481283294,
        -0.04865333201024933,
        -1.903419718881824e-05,
        -3.120751451787979e-06,
        1.4e-322,
        -1.5540771638298315e-46,
        -1.273263615612504e-06,
        -2.481361651594405e-06,
        -1.025108619177534e-06,
        -0.02382799949621082
      ],
      [
        -0.02239863556101437,
        -0.009227014934120398,
        -0.04543527049290465,
        -0.03849167667674664,
        5.69544199509162e-07,
        7.04404899222336e-08,
        1.4e-322,
        -2.6044493333177436e-294,
        9.854601475679807e-11,
        7.087977655301313e-84,
        -1.0197391748204211e-240,
        -0.043516079703930115
      ],
      [
        0.004218172360722027,
        0.022466166928787983,
        -0.0320863427167145,
        -0.05284715737558229,
        2.5428225619646512e-05,
        0.00011604635629544042,
        -2.2573629295915392e-197,
        1.9380481208016007e-30,
        -1.2981818933142087e-05,
        1.0638147903176076e-30,
        4.487968691174636e-06,
        -0.03793942102464275
      ]
    ]
  },
  "cues": [
    [
      1,
      9
    ],
    [
      8,
      3
    ],
    [
      4,
      4
    ],
    [
      4,
      1
    ],
    [
      7,
      4
    ]
  ],
  "env": {
    "delay": 0,
    "grid_size": 10,
    "max_steps": 200,
    "noise": 0.0,
    "num_cues": 5,
    "reward_sparse_prob": 0.1
  },
  "seed": 14
}