{
  "agent": {
    "action_size": 4,
    "cue_exploration_bias": 0.2333333333333333,
    "cue_regularization": 0.01916666666666667,
    "epsilon": 0.05,
    "state_size": 11,
    "target_weights": [
      [
        0.008221716959606941,
        0.029587718839361534,
        -0.02649696742606466,
        -0.009563348642704982,
        -5.34745768190945e-07,
        -1.986633056013254e-05,
        3.8019809034504124e-07,
        7.985618613376155e-10,
        1.2070484332496098e-81,
        2.9015436250350795e-152,
        9.967605779774321e-08,
        -0.0016268804225006241
      ],
      [
        0.09627141694225078,
        0.04143801507163957,
        -0.04185806192421119,
        -0.036186720783358786,
        5.6374864275199334e-05,
        1.418687899367689e-05,
        -0.00035379816381876547,
        -2.998389301553047e-06,
        3.9221589188037344e-05,
        3.9333263062213265e-110,
        -1.800977574978162e-05,
        0.043466322380947595
      ],
      [
        0.011937382436931421,
        0.015491796881839206,
        -0.033211014001103,
        -0.0223066889024394,
        7.085979267121295e-07,
        7.253754591004759e-07,
        9.284490523649762e-10,
        6.0014662494996656e-217,
        3.5495027477152075e-06,
        1.9221548486690274e-270,
        3.626092216933305e-10,
        0.015356025970493735
      ],
      [
        0.06063870036476564,
        0.06690800250788714,
        -0.016231551138080755,
        -0.06520216315080662,
        -8.08493773976407e-05,
        1.757676134704315e-05,
        0.0007666847921372457,
        6.444070758460524e-06,
        -1.7582597352555214e-06,
        -3.6311853080806994e-109,
        -1.0721547103902654e-05,
        0.05263398075010432
      ]
    ],
    "weights": [
      [
        0.009092322341233696,
        0.030499907064170603,
        -0.026313666685274545,
        -0.009421630745097182,
        -7.093241687520024e-06,
        -5.246819438000141e-06,
        0.00010880146679871691,
        3.0168381661699603e-05,
        8.513344275314161e-84,
        2.0464663330256397e-154,
        7.03017851366385e-10,
        -0.0005729743000837552
      ],
      [
        0.09683432281553786,
        0.041866397766962334,
        -0.041392406730681786,
        -0.03558654241186501,
        -0.00015452778675533775,
        -0.00018980816100460366,
        -0.00016272884014681795,
        2.2814284318234577e-05,
        6.488888033047473e-05,
        2.7741853656908963e-112,
        -3.980821641541391e-06,
        0.044494883447764096
      ],
      [
        0.012434866578197618,
        0.01599443187445535,
        -0.033133846521065054,
        -0.0222346722737514,
        -8.54677955027688e-06,
        -2.1802172467635604e-07,
        7.581522985677239e-05,
        4.232849894939022e-219,
        2.5034736026391288e-08,
        1.3557008589231892e-272,
        2.55749235626626e-12,
        0.015930677591797872
      ],
      [
        0.059925362404861834,
        0.06634073534495429,
        -0.01633931495334233,
        -0.06545599776303904,
        3.555886893135088e-05,
        1.9794376211669653e-05,
        -0.0002321314837425922,
        -7.782923450906963e-07,
        -2.3776702556461404e-06,
        -2.56108452681791e-111,
        -1.797881809625091e-05,
        0.05181287897493893
      ]
    ]
  },
  "cues": [
    [
      7,
      9
    ],
    [
      5,
      4
    ],
    [
      2,
      2
    ],
    [
      0,
      5
    ],
    [
      8,
      7
    ]
  ],
  "env": {
    "delay": 0,
    "grid_size": 10,
    "max_steps": 200,
    "noise": 0.0,
    "num_cues": 5,
    "reward_sparse_prob": 0.3
  },
  "seed": 9
}