{
  "agent": {
    "action_size": 4,
    "cue_exploration_bias": 0.3333333333333333,
    "cue_regularization": 0.01666666666666667,
    "epsilon": 0.05,
    "state_size": 11,
    "target_weights": [
      [
        0.09246498593498478,
        0.10724471805672196,
        -0.016683949932254968,
        -0.036340394315823504,
        2.698142581426006e-05,
        -0.00014694028186123783,
        1.43e-322,
        1.43e-322,
        1.43e-322,
        1.43e-322,
        1.8380542113797467e-07,
        0.0650823808171402
      ],
      [
        0.2436406473515305,
        0.10433795600672231,
        -0.17356229976585336,
        -0.05134442861082567,
        0.00010305563654798054,
        -0.0012372218433188442,
        1.43e-322,
        1.43e-322,
        5.664659552653708e-13,
        1.43e-322,
        4.7632102799302376e-05,
        0.06640794826221293
      ],
      [
        0.0327545586886637,
        0.061172457777723274,
        -0.03341072565688594,
        -0.028758318004544012,
        2.5585221138013157e-05,
        -3.835261820416643e-05,
        1.43e-322,
        -1.43e-322,
        1.43e-322,
        1.43e-322,
        2.628712430342187e-32,
        0.06469706751320131
      ],
      [
        0.1298571156428087,
        0.10666645413689611,
        -0.028827337738493625,
        -0.05747885487123795,
        2.672312289276169e-05,
        9.170689766039357e-05,
        -2.283190618578188e-266,
        -1.43e-322,
        1.43e-322,
        -1.43e-322,
        7.299807458629787e-05,
        0.10354909698113167
      ]
    ],
    "weights": [
      [
        0.09285165725560937,
        0.10772403649919178,
        -0.01659130281040972,
        -0.036340394315823504,
        4.199974625851585e-06,
        -4.0101003622981446e-05,
        1.43e-322,
        1.43e-322,
        1.43e-322,
        1.43e-322,
        9.543162033254342e-09,
        0.06556169925961002
      ],
      [
        0.24316561832643527,
        0.10368729194921963,
        -0.1738836710545769,
        -0.051490164867141766,
        -7.442612311962797e-05,
        -0.00012810689259432377,
        1.43e-322,
        1.43e-322,
        -9.32193056273932e-06,
        1.43e-322,
        4.73003075533798e-06,
        0.06561154794839419
      ],
      [
        0.03326152775024288,
        0.061669595710763976,
        -0.033318710161096235,
        -0.02865647138021583,
        5.199430640676304e-05,
        -0.0002627174344363848,
        1.43e-322,
        -1.43e-322,
        1.43e-322,
        1.43e-322,
        1.364825286777269e-33,
        0.06529605207057018
      ],
      [
        0.13023418456268832,
        0.10692483676743104,
        -0.02872269075277692,
        -0.05725552159617647,
        1.110758531926522e-05,
        -3.3846606297936296e-05,
        -1.1854306522081262e-267,
        -1.43e-322,
        1.43e-322,
        -1.43e-322,
        5.172069740592764e-05,
        0.10403081288672808
      ]
    ]
  },
  "cues": [
    [
      2,
      4
    ],
    [
      1,
      5
    ],
    [
      9,
      2
    ],
    [
      0,
      6
    ],
    [
      6,
      1
    ]
  ],
  "env": {
    "delay": 0,
    "grid_size": 10,
    "max_steps": 200,
    "noise": 0.3,
    "num_cues": 5,
    "reward_sparse_prob": 1.0
  },
  "seed": 20
}