{
  "agent": {
    "action_size": 4,
    "cue_exploration_bias": 0.3333333333333333,
    "cue_regularization": 0.01666666666666667,
    "epsilon": 0.05,
    "state_size": 11,
    "target_weights": [
      [
        0.05772594378668598,
        0.08030725227925865,
        -0.03781657740891915,
        -0.038262807339265716,
        6.252129414472105e-07,
        -5.78480832112217e-08,
        -3.88318195904121e-93,
        5.515454410111144e-20,
        1.43e-322,
        -3.355307033314735e-07,
        -7.48242764200124e-93,
        0.024175202661418132
      ],
      [
        0.21595182103598648,
        0.03491566543383842,
        -0.17698066308311247,
        -0.06060026984631484,
        0.00011383668904913314,
        7.119183132266879e-05,
        1.43e-322,
        5.302599835751062e-05,
        -4.797253452821782e-06,
        -0.0003992356870045241,
        1.43e-322,
        0.005960107591766755
      ],
      [
        0.06760300082584392,
        0.05013038078511999,
        -0.013205172515053097,
        -0.053648151504489705,
        -7.700024979796195e-06,
        -9.637789371318139e-06,
        1.43e-322,
        6.383219226347105e-07,
        -1.43e-322,
        4.5096618397810046e-06,
        1.43e-322,
        0.02650906052563108
      ],
      [
        0.08018774423388313,
        0.05840178129140715,
        -0.03234117879986265,
        -0.05740253632790692,
        -1.176784796837825e-05,
        -1.6683959249770032e-05,
        -8.104782664616004e-246,
        -1.1273330190102203e-07,
        1.43e-322,
        1.2583048391227594e-05,
        7.496484368465157e-113,
        0.0584643471263209
      ]
    ],
    "weights": [
      [
        0.0578110202975022,
        0.08040315840383336,
        -0.03780447400221174,
        -0.038261533546316784,
        -2.155990367411432e-06,
        -1.6937806203300216e-06,
        -1.1774597847729827e-94,
        1.672398005335332e-21,
        1.43e-322,
        3.4678611746244134e-07,
        -2.2688243131170483e-94,
        0.024272382578941765
      ],
      [
        0.21828452288435998,
        0.03755734360843205,
        -0.1766060463196016,
        -0.06053462940902389,
        -0.00014814839074601846,
        -0.00013764576119950893,
        1.43e-322,
        5.719521308394661e-05,
        -1.4912570363658773e-05,
        -0.0006622350394610241,
        1.43e-322,
        0.008667426203651286
      ],
      [
        0.0676659340628199,
        0.05020775538929301,
        -0.013177248310372815,
        -0.05363466866700647,
        2.5387945889748773e-06,
        -2.764484422319906e-06,
        1.43e-322,
        8.211447350921665e-07,
        -1.43e-322,
        4.7031088363152554e-05,
        1.43e-322,
        0.026599917967287348
      ],
      [
        0.08000860732413043,
        0.05818653552869262,
        -0.03236129712869709,
        -0.057386545803779526,
        -1.2915246900361169e-06,
        1.1782856174472204e-05,
        -2.4575350196226263e-247,
        7.09870207322313e-06,
        1.43e-322,
        6.103787625298359e-08,
        2.273086598606475e-114,
        0.05826509188773374
      ]
    ]
  },
  "cues": [
    [
      2,
      6
    ],
    [
      6,
      4
    ],
    [
      7,
      3
    ],
    [
      7,
      8
    ],
    [
      2,
      8
    ]
  ],
  "env": {
    "delay": 0,
    "grid_size": 10,
    "max_steps": 200,
    "noise": 0.3,
    "num_cues": 5,
    "reward_sparse_prob": 1.0
  },
  "seed": 21
}