{
  "agent": {
    "action_size": 4,
    "cue_exploration_bias": 0.3333333333333333,
    "cue_regularization": 0.01666666666666667,
    "epsilon": 0.05,
    "state_size": 11,
    "target_weights": [
      [
        0.055261896476322805,
        0.04931296079343402,
        -0.016010357954661956,
        -0.0011355511998446199,
        1.6925844403041865e-06,
        -2.99326620920851e-05,
        -1.43e-322,
        0.000269374979758541,
        5.264273441763049e-05,
        1.8979058266793107e-08,
        8.92097416832418e-19,
        0.031060045482446723
      ],
      [
        0.2569263425236686,
        0.17214290077527172,
        -0.0606807343404662,
        0.008122130148800822,
        3.3976853777451184e-05,
        0.00018101097469906444,
        1.2888611319808646e-14,
        -0.0002026448973246668,
        -3.925094901177085e-06,
        -1.1859170026522732e-05,
        -1.1691139594483856e-07,
        0.15205977268596085
      ],
      [
        0.08178461047124064,
        0.0815479752517923,
        -0.040564058024173684,
        -0.0034247323144840497,
        -7.96630355587934e-05,
        -1.6412677428890203e-05,
        -1.43e-322,
        3.3351735003704227e-10,
        3.174612875917722e-05,
        9.554284858800929e-06,
        -1.43e-322,
        0.09222055289276485
      ],
      [
        0.17262357942101905,
        0.19607299717755697,
        0.02806378059692219,
        -0.016220607997802654,
        -0.0005272420292476397,
        -0.00032134869180121977,
        -3.7916420977920874e-38,
        -5.222581433697357e-07,
        2.543471518670423e-05,
        6.879106423240696e-07,
        -2.7522163840256813e-05,
        0.1986713802144025
      ]
    ],
    "weights": [
      [
        0.05573034814640312,
        0.04931296079343402,
        -0.014929844027197834,
        0.00041341439769982053,
        0.000590245431402249,
        -6.93610828910662e-07,
        -1.43e-322,
        6.24205767009009e-06,
        1.2198571093745644e-06,
        4.397898287788786e-10,
        2.0672014632531187e-20,
        0.03260901107999116
      ],
      [
        0.2573590911982868,
        0.17205041659567805,
        -0.060938288207476314,
        0.008389809136002346,
        0.00010512116678199789,
        0.00013580395011196546,
        2.9865971671806984e-16,
        -5.027310834861822e-05,
        3.6494006282622067e-05,
        1.9167846418602264e-06,
        -2.7091145452059397e-09,
        0.15223496749356885
      ],
      [
        0.08329165300588641,
        0.08300209858443196,
        -0.04031999320299601,
        -0.003127748291300258,
        -0.000155440145034755,
        -5.410404805751307e-05,
        -1.43e-322,
        0.0004380514419244815,
        7.356331560359283e-07,
        2.213954582514007e-07,
        -1.43e-322,
        0.09397166024858829
      ],
      [
        0.17463972746582385,
        0.1984322558902098,
        0.028833360694037302,
        -0.015794138568535628,
        -6.587098842637895e-06,
        -0.0001140132204826981,
        -8.786134725643225e-40,
        4.926994690571094e-06,
        4.988447930062854e-06,
        8.430635502284879e-06,
        -6.377538628514883e-07,
        0.2014571083563224
      ]
    ]
  },
  "cues": [
    [
      5,
      7
    ],
    [
      7,
      4
    ],
    [
      6,
      3
    ],
    [
      7,
      0
    ],
    [
      6,
      4
    ]
  ],
  "env": {
    "delay": 10,
    "grid_size": 10,
    "max_steps": 200,
    "noise": 0.0,
    "num_cues": 5,
    "reward_sparse_prob": 1.0
  },
  "seed": 16
}