{
  "agent": {
    "action_size": 4,
    "cue_exploration_bias": 0.10000000000000002,
    "cue_regularization": 0.022500000000000003,
    "epsilon": 0.05,
    "state_size": 11,
    "target_weights": [
      [
        0.06953050028694432,
        0.05447339980562832,
        -0.0008801002621145293,
        0.005240590506310882,
        -1.0253682098558012e-05,
        7.20407980660951e-07,
        2.8723030536545366e-06,
        7.469750156934347e-08,
        1.498716773747473e-247,
        1.2242675949864786e-229,
        2.518316846100023e-302,
        0.09872736373409174
      ],
      [
        0.1994852755004381,
        0.12619665275853204,
        -0.032846866845703926,
        0.002314403059491252,
        -0.00017013255203971806,
        7.729900757992733e-05,
        -5.70537057523802e-05,
        -1.077329113407809e-05,
        -6.9244186392526145e-248,
        9.738251071024683e-45,
        -1.0964733145705571e-279,
        0.1441847784333962
      ],
      [
        0.05520194009252739,
        0.09393925445624501,
        -0.022534751292998284,
        0.022795502696313006,
        2.1430201210936686e-07,
        8.533387593407284e-06,
        8.42158419426673e-82,
        5.912621591120767e-05,
        1.2332351484173938e-255,
        -1.1e-322,
        4.236730812952119e-285,
        0.08791976201183549
      ],
      [
        0.15793476760397904,
        0.18332209868247384,
        0.029900398716095553,
        -0.05994477754554225,
        -4.5829493723606525e-05,
        -5.856024756033332e-05,
        8.779726047846372e-06,
        -5.172224648231988e-05,
        1.7164908147843388e-243,
        -6.111354937793087e-37,
        -3.53832153543366e-275,
        0.12041969245658894
      ]
    ],
    "weights": [
      [
        0.06955692877911059,
        0.0545338715817242,
        -0.0007647561642425253,
        0.005321891320253261,
        3.526491027266898e-07,
        -3.161284631470683e-07,
        9.535246306121136e-10,
        2.479749046707755e-11,
        4.975322350688193e-251,
        4.064227501323639e-233,
        8.360110669333985e-306,
        0.09886913632413
      ],
      [
        0.19687015617048673,
        0.12341560552374181,
        -0.033055345101070444,
        0.002271852708963545,
        0.00010560212458468286,
        -2.724787893282871e-06,
        1.4298668868984006e-05,
        -5.4141856588688975e-06,
        -2.298714168338277e-251,
        3.2328281806797276e-48,
        -3.6399860764054275e-283,
        0.14136118084807808
      ],
      [
        0.055556222283923436,
        0.09429353664764105,
        -0.022490466019073778,
        0.022839787970237512,
        -1.5356007169110198e-05,
        7.680872002762523e-06,
        2.7957314419834255e-85,
        1.9628257232291078e-08,
        4.0939972815765523e-259,
        -1.1e-322,
        1.406476652344573e-288,
        0.08831832947715604
      ],
      [
        0.1579111229533854,
        0.18324586783289315,
        0.030365223550599126,
        -0.05942736651205148,
        1.9655891307305462e-05,
        -5.10955971951877e-07,
        1.8914306734329853e-05,
        -9.740694935005645e-05,
        5.698271524774766e-247,
        -2.0287996603228724e-40,
        -1.1746242203685855e-278,
        0.12086087264049895
      ]
    ]
  },
  "cues": [
    [
      3,
      3
    ],
    [
      6,
      9
    ],
    [
      8,
      0
    ],
    [
      2,
      7
    ],
    [
      0,
      9
    ]
  ],
  "env": {
    "delay": 0,
    "grid_size": 10,
    "max_steps": 200,
    "noise": 0.0,
    "num_cues": 5,
    "reward_sparse_prob": 0.7
  },
  "seed": 26
}