{
  "agent": {
    "action_size": 4,
    "cue_exploration_bias": 0.16666666666666666,
    "cue_regularization": 0.020833333333333336,
    "epsilon": 0.05,
    "state_size": 11,
    "target_weights": [
      [
        -0.05439551394215539,
        -0.06719984581361908,
        -0.05257173354392192,
        -0.07063779821304497,
        -4.296299849688334e-06,
        5.122372542057615e-07,
        4.68688767640619e-05,
        -1.14e-322,
        -1.0019857641680507e-20,
        -2.5654534332839824e-36,
        1.14e-322,
        -0.08876786668678668
      ],
      [
        -0.03735106043254535,
        -0.06892274893748893,
        -0.033034041299716904,
        -0.07400061497920339,
        -1.3777675380851992e-06,
        2.1370995798534874e-06,
        1.7232122591477338e-08,
        1.664684585159997e-71,
        5.235951827980838e-07,
        7.973883514264572e-15,
        1.8224867116257578e-146,
        -0.10571791468516889
      ],
      [
        -0.038286089472148004,
        -0.05132919811431564,
        -0.04285189435422353,
        -0.06473426228935847,
        3.439664586777184e-06,
        1.8030500347258075e-06,
        3.599187545872635e-07,
        -2.3819548213697077e-09,
        -5.245876803123933e-05,
        -8.462159232223181e-07,
        2.446720727642817e-193,
        -0.11394345695910127
      ],
      [
        -0.06603255484989745,
        -0.060763109331182945,
        -0.03946810784307853,
        -0.05142845993403007,
        3.772692490405091e-06,
        6.221989591447559e-07,
        7.963223696145305e-06,
        1.0161287193736286e-203,
        -3.886364200985383e-06,
        8.15199652167907e-28,
        6.2444238166938105e-06,
        -0.10472626955337087
      ]
    ],
    "weights": [
      [
        -0.054159256778566714,
        -0.0672135731001906,
        -0.05260153787341531,
        -0.07041761809237815,
        -2.0421414810058893e-06,
        2.385070914664531e-07,
        -2.142422493462575e-05,
        -1.14e-322,
        -6.0588749406281746e-24,
        -1.5512956445223354e-39,
        1.14e-322,
        -0.0885614138526914
      ],
      [
        -0.03733185031177964,
        -0.06897700235406484,
        -0.03308142989555923,
        -0.07397454003770407,
        -1.6299745513788918e-06,
        1.1889583913052615e-06,
        1.3699049760763048e-06,
        1.0066126763238422e-74,
        6.907504842119584e-09,
        4.821701538262849e-18,
        1.1020335279778655e-149,
        -0.10574609316024548
      ],
      [
        -0.03830955494632351,
        -0.051552389698624086,
        -0.04301481929835982,
        -0.06469746112336182,
        1.850249731534837e-06,
        1.0042424228083496e-06,
        6.216261633798392e-06,
        -7.363093712634533e-08,
        -2.3470659789332995e-05,
        1.8792777121535935e-07,
        1.4794995531437792e-196,
        -0.1141298473774131
      ],
      [
        -0.06595576697985701,
        -0.06081748086367136,
        -0.03946523727529362,
        -0.051294429963716325,
        4.032691039190085e-06,
        2.067062390227548e-06,
        1.2439610502326616e-05,
        6.144395513819798e-207,
        -2.462113454956385e-06,
        4.9294041100773065e-31,
        5.081900645503655e-06,
        -0.10464661111554553
      ]
    ]
  },
  "cues": [
    [
      9,
      0
    ],
    [
      6,
      7
    ],
    [
      3,
      7
    ],
    [
      7,
      4
    ],
    [
      2,
      0
    ]
  ],
  "env": {
    "delay": 3,
    "grid_size": 10,
    "max_steps": 200,
    "noise": 0.0,
    "num_cues": 5,
    "reward_sparse_prob": 1.0
  },
  "seed": 10
}