{
  "agent": {
    "action_size": 4,
    "cue_exploration_bias": 0.3333333333333333,
    "cue_regularization": 0.01666666666666667,
    "epsilon": 0.05,
    "state_size": 11,
    "target_weights": [
      [
        -0.0475864050875781,
        -0.05534236668403485,
        -0.04468072663540504,
        -0.05181210178630605,
        -6.052580079764099e-05,
        0.00012581287559284695,
        -1.43e-322,
        -9.944436714519453e-26,
        -1.43e-322,
        -1.43e-322,
        -1.43e-322,
        -0.10788552631529343
      ],
      [
        -0.059637165598090715,
        -0.061925864668289206,
        -0.0578708266646853,
        -0.049215905327808125,
        -4.522574128258002e-07,
        1.1102957506918032e-05,
        -1.43e-322,
        2.6943480210114358e-121,
        -1.43e-322,
        -1.43e-322,
        -1.43e-322,
        -0.10048136681235034
      ],
      [
        -0.04685741893815748,
        -0.05528988673669057,
        -0.044107151764489004,
        -0.04735826612961759,
        5.744388369733503e-09,
        2.659112297579955e-06,
        -1.43e-322,
        1.1394802497368155e-08,
        -1.43e-322,
        -1.43e-322,
        -1.43e-322,
        -0.11450094174719665
      ],
      [
        -0.04372787271554304,
        -0.060071615483604436,
        -0.03998124605764725,
        -0.052291878495349504,
        5.349535390313189e-06,
        -1.1772223153111836e-05,
        1.43e-322,
        -1.43e-322,
        -1.43e-322,
        -1.43e-322,
        -1.43e-322,
        -0.11233145414908154
      ]
    ],
    "weights": [
      [
        -0.04772534391402894,
        -0.05535434513304667,
        -0.04487606899247678,
        -0.05213440452081683,
        2.1940706770218117e-06,
        -2.1136586347729822e-05,
        -1.43e-322,
        -2.6806996107835135e-28,
        -1.43e-322,
        -1.43e-322,
        -1.43e-322,
        -0.10821980749881598
      ],
      [
        -0.0596035881938084,
        -0.06192129278631662,
        -0.05776475724928436,
        -0.049080830390097446,
        -6.165266333385609e-06,
        1.894286805989944e-05,
        -1.43e-322,
        7.263093826817831e-124,
        -1.43e-322,
        -1.43e-322,
        -1.43e-322,
        -0.1003417199926671
      ],
      [
        -0.04685488405707456,
        -0.05528274951893099,
        -0.04403563111025307,
        -0.04729134781205832,
        -5.127974866306231e-08,
        1.198890166255793e-05,
        -1.43e-322,
        5.703781290315629e-08,
        -1.43e-322,
        -1.43e-322,
        -1.43e-322,
        -0.11442688621187778
      ],
      [
        -0.04373943997713919,
        -0.06007061024086953,
        -0.039954334845401236,
        -0.05227753978743452,
        -7.086485262326196e-07,
        1.225314385841453e-06,
        1.43e-322,
        -1.43e-322,
        -1.43e-322,
        -1.43e-322,
        -1.43e-322,
        -0.11231611019843163
      ]
    ]
  },
  "cues": [
    [
      6,
      6
    ],
    [
      0,
      4
    ],
    [
      8,
      7
    ],
    [
      6,
      4
    ],
    [
      7,
      5
    ]
  ],
  "env": {
    "delay": 6,
    "grid_size": 10,
    "max_steps": 200,
    "noise": 0.0,
    "num_cues": 5,
    "reward_sparse_prob": 1.0
  },
  "seed": 0
}