{
  "agent": {
    "action_size": 4,
    "cue_exploration_bias": 0.16666666666666666,
    "cue_regularization": 0.020833333333333336,
    "epsilon": 0.05,
    "state_size": 11,
    "target_weights": [
      [
        0.09360561400432174,
        0.1010881209917115,
        0.021164475750610263,
        -0.0012053679841370006,
        -5.823741153176911e-06,
        4.6612131358331595e-05,
        2.334736558291114e-16,
        6.614783895133377e-05,
        2.5751195281019454e-09,
        1.838739846071427e-300,
        8.368771254234092e-250,
        0.09915169516262164
      ],
      [
        0.20970358763340063,
        0.17637528347093143,
        -0.02358170072185382,
        0.016112825707293034,
        -0.0001150565735852011,
        -4.110234372737523e-05,
        -2.2981905578279918e-05,
        1.711669256416872e-05,
        -6.222332091278916e-05,
        -1.8595358568379653e-41,
        -2.091262877968737e-33,
        0.20314851236197046
      ],
      [
        0.08803622512160839,
        0.0869022892163025,
        0.020284916536716293,
        0.009735270278362566,
        1.451831777252409e-06,
        -8.47471232938626e-07,
        9.270984460761882e-06,
        3.0043137421546023e-10,
        1.8687481542983756e-17,
        4.236068913782728e-181,
        4.983724064747585e-223,
        0.08478477061377573
      ],
      [
        0.18026951638003666,
        0.24045101706158267,
        0.025372959346634676,
        -0.06346291654067535,
        6.503459089215307e-05,
        2.7847633443582946e-05,
        -4.052334550277598e-06,
        -5.412904659178052e-05,
        -9.923746670017872e-05,
        1.8690378389642346e-44,
        3.560308067487632e-41,
        0.17702014035078006
      ]
    ],
    "weights": [
      [
        0.09518197135270462,
        0.1026366704979174,
        0.021439322872128637,
        -0.0009027130204416481,
        -2.3258563086855156e-06,
        2.259728503923932e-05,
        2.7692136455663713e-19,
        7.845745919309843e-08,
        7.217539742454395e-05,
        2.1809156387710562e-303,
        9.926137264416384e-253,
        0.10100289963252289
      ],
      [
        0.2120060752491165,
        0.1782452571689897,
        -0.023313028844897297,
        0.016814011501907287,
        -6.522331092825541e-05,
        3.385186119645547e-06,
        -4.344180744735772e-05,
        1.9346376273811677e-06,
        -5.970723744233326e-05,
        -2.2055816322783483e-44,
        -2.4804313264260525e-36,
        0.205719671854643
      ],
      [
        0.09024345106834873,
        0.08894084737712561,
        0.02048183535771213,
        0.010100856885275615,
        -3.81986870168037e-05,
        -5.4331182366639956e-05,
        0.0001451789097185539,
        3.563394157166292e-13,
        2.2165082696943745e-20,
        5.024369793649316e-184,
        5.911158000600299e-226,
        0.08718891538151191
      ],
      [
        0.18110348851342892,
        0.24201113761735815,
        0.02603472368084355,
        -0.06352730062884981,
        2.4313637987777424e-05,
        -0.00016430109080069563,
        -1.1414579367256824e-06,
        5.225486679183256e-05,
        -6.23624237763265e-05,
        2.2168518625193365e-47,
        4.222854886087529e-44,
        0.17851587681838116
      ]
    ]
  },
  "cues": [
    [
      6,
      6
    ],
    [
      0,
      4
    ],
    [
      8,
      7
    ],
    [
      6,
      4
    ],
    [
      7,
      5
    ]
  ],
  "env": {
    "delay": 3,
    "grid_size": 10,
    "max_steps": 200,
    "noise": 0.0,
    "num_cues": 5,
    "reward_sparse_prob": 1.0
  },
  "seed": 0
}