{
  "agent": {
    "action_size": 4,
    "cue_exploration_bias": 0.16666666666666666,
    "cue_regularization": 0.020833333333333336,
    "epsilon": 0.05,
    "state_size": 11,
    "target_weights": [
      [
        0.08268279883326,
        0.06586614240452,
        -0.026453493697177866,
        -0.0002064142608456671,
        -3.776313352637753e-05,
        -0.00015400374506785493,
        3.968569434401547e-67,
        -1.14e-322,
        3.1093841884087484e-278,
        6.936953230357531e-188,
        3.1201798917821174e-145,
        0.04648688383193952
      ],
      [
        0.2167185091928042,
        0.19059506425940573,
        -0.06168544277413646,
        -0.0013899508799635745,
        0.00016834187445536626,
        -0.0005192123360599002,
        1.7305055192288887e-30,
        4.5606519927097955e-31,
        -1.3066608642965495e-06,
        1.1320744541052768e-38,
        5.749617225501252e-42,
        0.14281834048555242
      ],
      [
        0.07189075188826351,
        0.046328586795188344,
        -0.006574744182448266,
        -0.014547532818393029,
        -6.858576149472303e-05,
        -8.991921314894266e-05,
        1.14e-322,
        1.14e-322,
        5.497093666299071e-276,
        1.14e-322,
        1.7224313642807995e-139,
        0.02041771297510958
      ],
      [
        0.17514193169639747,
        0.20301701887653748,
        -0.025267813274535655,
        -0.04111108984418675,
        9.402939715929802e-06,
        0.0002098306499761086,
        -8.39263779631672e-05,
        -2.654284829416574e-44,
        2.9699052399680624e-24,
        -1.5654078829779616e-95,
        4.2434573195515674e-69,
        0.17095065934783557
      ]
    ],
    "weights": [
      [
        0.08601758757296518,
        0.06862817492764202,
        -0.026136667251102804,
        0.0006831684018125653,
        -6.944936134749935e-05,
        -0.0002666515338506187,
        6.592446794625566e-70,
        -1.14e-322,
        5.1651987359585666e-281,
        1.1523420679379935e-190,
        5.1831321755205765e-148,
        0.05013849901771975
      ],
      [
        0.22064281789147297,
        0.19398074078692987,
        -0.06213715662895035,
        -0.0013030325636326186,
        -0.0005584446723523537,
        -0.0002099260924494596,
        2.8746543942080897e-33,
        7.575993341609818e-34,
        -2.6074854430036148e-05,
        1.8805619328591245e-41,
        9.551060218326633e-45,
        0.14629093532940737
      ],
      [
        0.07537074099868382,
        0.049428957053236806,
        -0.005953349135552345,
        -0.013546518919125252,
        -0.00020587708036722073,
        -0.0003919426674033552,
        1.14e-322,
        1.14e-322,
        9.131577037813521e-279,
        1.14e-322,
        2.861241894367359e-142,
        0.024519097132425824
      ],
      [
        0.1797535613701203,
        0.20856739260067372,
        -0.024281402594973717,
        -0.041063423215038385,
        -0.0013894119432101208,
        0.0002794474859950891,
        -1.5827717579434419e-06,
        -4.409203821414107e-47,
        4.9335012535875096e-27,
        -2.6004000562423992e-98,
        7.04908080022711e-72,
        0.17654869970112025
      ]
    ]
  },
  "cues": [
    [
      2,
      3
    ],
    [
      0,
      9
    ],
    [
      7,
      2
    ],
    [
      1,
      5
    ],
    [
      1,
      3
    ]
  ],
  "env": {
    "delay": 0,
    "grid_size": 10,
    "max_steps": 200,
    "noise": 0.1,
    "num_cues": 5,
    "reward_sparse_prob": 1.0
  },
  "seed": 22
}