{
  "agent": {
    "action_size": 4,
    "cue_exploration_bias": 0.16666666666666666,
    "cue_regularization": 0.020833333333333336,
    "epsilon": 0.05,
    "state_size": 11,
    "target_weights": [
      [
        0.0932223781070562,
        0.08873419836188211,
        0.02490127222147693,
        -0.01307684238815608,
        -0.0002976530391966431,
        -0.0001403231625462493,
        -1.14e-322,
        4.3410301562079387e-07,
        3.5423632946517004e-26,
        4.851918433094268e-184,
        2.0467076594403044e-14,
        0.08126116673269283
      ],
      [
        0.23264440035648548,
        0.18866962274853416,
        -0.06252500425446521,
        0.002582299094521026,
        -0.00027105780951487625,
        3.2714842131339264e-05,
        -8.996011944390437e-10,
        -1.6974054247853124e-05,
        3.089643528214528e-05,
        1.3681202630057455e-45,
        -1.049527900842535e-05,
        0.20002413749111733
      ],
      [
        0.07468832295902456,
        0.12155446590381772,
        0.0008571842065895491,
        -0.005689737381635088,
        2.344814216215248e-06,
        -2.5467976855418354e-06,
        2.7290633314633965e-158,
        7.171415673403764e-08,
        2.2578038081038768e-13,
        5.024569816132229e-43,
        1.7898357346302256e-48,
        0.11663842892880387
      ],
      [
        0.2082610629333029,
        0.22773371426203268,
        -2.4994600894820496e-05,
        -0.06766466745900383,
        2.3127703555833507e-05,
        -4.361154819294551e-06,
        8.139037629558767e-64,
        6.542173439407928e-06,
        1.02201970796739e-06,
        -1.112457655968531e-05,
        6.3362963345724455e-06,
        0.18890338427525533
      ]
    ],
    "weights": [
      [
        0.09405580854715455,
        0.08955833007531129,
        0.02524684697080464,
        -0.0127219689121592,
        -5.3054937980665155e-05,
        -1.9345777675236896e-06,
        -1.14e-322,
        1.0099491874579676e-09,
        8.133519730628999e-06,
        1.128808347969738e-186,
        4.7617055473795706e-17,
        0.08244017192211889
      ],
      [
        0.23523352346646995,
        0.19117892309536463,
        -0.0623678216924268,
        0.0028193044197135876,
        0.00021400220688993474,
        6.990790387978765e-05,
        -4.149737053350511e-06,
        -1.9650211129903443e-05,
        5.631638832099723e-06,
        4.060946051710487e-05,
        -1.8566535418539784e-05,
        0.20277044316314052
      ],
      [
        0.07570359174602821,
        0.12276010313787823,
        0.0014630900065421657,
        -0.0052742000287393336,
        1.123501725750133e-05,
        -6.110910244976788e-05,
        6.349219413256631e-161,
        1.668443934193793e-10,
        5.252824881147388e-16,
        1.1689760311551041e-45,
        4.1640879718100805e-51,
        0.11825960351576016
      ],
      [
        0.20768911793910563,
        0.22740881388856427,
        0.00041966000241232704,
        -0.0674670574764255,
        3.89240275793875e-05,
        -2.963932604507046e-05,
        1.8935630817739387e-66,
        1.710883033996268e-07,
        2.5801702312699644e-05,
        -2.7281665130278208e-06,
        -2.551292521570902e-07,
        0.18877609388436517
      ]
    ]
  },
  "cues": [
    [
      7,
      4
    ],
    [
      4,
      3
    ],
    [
      1,
      1
    ],
    [
      4,
      8
    ],
    [
      5,
      4
    ]
  ],
  "env": {
    "delay": 0,
    "grid_size": 10,
    "max_steps": 200,
    "noise": 0.1,
    "num_cues": 5,
    "reward_sparse_prob": 1.0
  },
  "seed": 27
}