{
  "agent": {
    "action_size": 4,
    "cue_exploration_bias": 0.2333333333333333,
    "cue_regularization": 0.01916666666666667,
    "epsilon": 0.05,
    "state_size": 11,
    "target_weights": [
      [
        0.019018471454691762,
        0.03173479096365738,
        -0.010051375542122957,
        -0.006799174296145687,
        -9.200207871749492e-06,
        8.664787910055803e-06,
        6.012470099905519e-220,
        2.6859368602235196e-15,
        2.751393421686179e-299,
        -1.1204422682755708e-288,
        3.1379088973672525e-09,
        -0.03932626183556658
      ],
      [
        0.07483331590125492,
        0.05185775781552421,
        -0.035980552288468685,
        -0.02454394739094756,
        1.2923546651762356e-05,
        6.298745703833096e-06,
        -4.293305823208532e-07,
        1.3035160287072535e-07,
        3.700515652854064e-294,
        -1.2294280027346611e-62,
        -1.0959698433471436e-05,
        0.016409014295634978
      ],
      [
        0.0028688625394322357,
        0.010624030082035257,
        -0.03677243534671716,
        -0.021795007212965897,
        -1.4616641680206726e-05,
        -5.4587748307031505e-06,
        1.6474708932061215e-176,
        8.830701600736868e-53,
        1.8596219554188112e-300,
        5.0423454644595415e-58,
        2.3582666613631e-214,
        -0.0003873871323681553
      ],
      [
        0.03129483222642397,
        0.10210492649474152,
        -0.03013773059334749,
        -0.04022069339579549,
        -0.000311235839851245,
        -8.475504404930779e-05,
        2.4293228057945902e-91,
        -1.473495111002328e-05,
        -6.82866636019885e-299,
        4.468408249060865e-280,
        7.233908925692358e-08,
        0.013618414139093628
      ]
    ],
    "weights": [
      [
        0.019281489349373133,
        0.031974178097982545,
        -0.010016228047825837,
        -0.0067403960414923626,
        9.228270074174482e-08,
        -5.21715518512136e-05,
        6.882040289261252e-221,
        3.0743979395025363e-16,
        3.149321337988891e-300,
        -1.282489343636806e-289,
        3.5917376879848687e-10,
        -0.03902809644658809
      ],
      [
        0.07677268206834575,
        0.0535911947184714,
        -0.035850720047682805,
        -0.024208185886018002,
        5.525271149518485e-05,
        -0.0007375773893238025,
        -4.914237103633229e-08,
        1.4920406552046078e-08,
        4.235713008266563e-295,
        -1.4072374426774922e-63,
        -4.221566603904328e-06,
        0.018478212703511736
      ],
      [
        0.0028688625394322357,
        0.010624030082035257,
        -0.03677243534671716,
        -0.021795007212965897,
        -1.673061408462701e-06,
        -6.24826530372179e-07,
        1.8857409474032836e-177,
        1.0107866349251366e-53,
        2.1285749462917352e-301,
        5.771608683647278e-59,
        2.699337527945046e-215,
        -0.0003873871323681553
      ],
      [
        0.031847512336252264,
        0.10280538467398366,
        -0.0301576942023469,
        -0.04038843507420876,
        -0.00017937073438122696,
        2.0358459735576733e-05,
        2.7806703646413623e-92,
        -1.6866034344365147e-06,
        -7.816281200891121e-300,
        5.1146642042157415e-281,
        8.280133098082886e-09,
        0.01415113063992252
      ]
    ]
  },
  "cues": [
    [
      9,
      4
    ],
    [
      5,
      8
    ],
    [
      0,
      7
    ],
    [
      3,
      0
    ],
    [
      2,
      1
    ]
  ],
  "env": {
    "delay": 0,
    "grid_size": 10,
    "max_steps": 200,
    "noise": 0.0,
    "num_cues": 5,
    "reward_sparse_prob": 0.3
  },
  "seed": 5
}