{
  "agent": {
    "action_size": 4,
    "cue_exploration_bias": 0.3333333333333333,
    "cue_regularization": 0.01666666666666667,
    "epsilon": 0.05,
    "state_size": 11,
    "target_weights": [
      [
        0.08605903373875182,
        0.13202174798825014,
        0.04789631499264455,
        0.022546335912568743,
        -4.4724786296332e-05,
        -4.2569863862049004e-05,
        2.9599937641783613e-125,
        2.7911624326911825e-137,
        6.030457847391524e-39,
        1.0798818956966096e-09,
        2.717777697194542e-141,
        0.15247216336252808
      ],
      [
        0.2511255968813794,
        0.19911924824736238,
        -0.01646732530031568,
        0.04696521328790252,
        -0.0002174263198109813,
        -6.17338470987226e-05,
        -3.493613789750954e-07,
        -3.890781379444466e-05,
        -1.0223231960146308e-06,
        -0.00021400042248976287,
        1.6036332828168482e-55,
        0.2223594897528128
      ],
      [
        0.10407137777944468,
        0.127651538417,
        0.0006888834090459788,
        0.040220921904241334,
        -4.543966079432676e-05,
        2.1789806384150835e-06,
        -2.950963817440586e-123,
        1.933184690972404e-101,
        -1.788284636706368e-126,
        6.347506524749392e-10,
        2.0822673426557093e-62,
        0.1395860458238033
      ],
      [
        0.1975363731988717,
        0.25438928504625025,
        0.023110386004252526,
        -0.05865310831915761,
        4.258042362780311e-05,
        -0.00014232468864848217,
        3.159908089360583e-122,
        1.5683934857063037e-42,
        2.2487610770756276e-53,
        -8.13512385434198e-05,
        -1.3800553849791028e-05,
        0.21720019339252764
      ]
    ],
    "weights": [
      [
        0.08654866104133214,
        0.13251137529083049,
        0.04800460888925782,
        0.022654629809182005,
        -3.771045172632443e-05,
        -3.974576108804791e-05,
        7.715280086630264e-126,
        7.275218007586032e-138,
        1.571850316250851e-39,
        2.8147327155242486e-10,
        7.083939297714486e-142,
        0.1530700845617217
      ],
      [
        0.2512904529304199,
        0.1991456090318252,
        -0.016527847565622568,
        0.047043186287173265,
        -7.898089142258017e-05,
        2.3276180563819663e-05,
        -9.106170840168785e-08,
        -1.014139572236305e-05,
        -2.6647048692351943e-07,
        -0.00010763940304712351,
        4.179900675097781e-56,
        0.22246382353654637
      ],
      [
        0.1041257579059692,
        0.12778748873331128,
        0.0008792138518817778,
        0.04032968215729036,
        -1.1843934075550922e-05,
        3.453529471364093e-05,
        -7.69174335858293e-124,
        5.038882693112032e-102,
        -4.661197943650839e-127,
        1.6544896574722557e-10,
        5.427469462352579e-63,
        0.1398307563931636
      ],
      [
        0.19898164922627848,
        0.2560298968004967,
        0.023326267548943246,
        -0.05863256250130664,
        -7.234548623078102e-05,
        -0.0002837255558153499,
        8.236360580372007e-123,
        4.088047473177491e-43,
        5.861438550147358e-54,
        -3.596254971424214e-05,
        -3.5971406288187516e-06,
        0.21886135096462514
      ]
    ]
  },
  "cues": [
    [
      2,
      1
    ],
    [
      7,
      5
    ],
    [
      3,
      3
    ],
    [
      7,
      7
    ],
    [
      2,
      7
    ]
  ],
  "env": {
    "delay": 6,
    "grid_size": 10,
    "max_steps": 200,
    "noise": 0.0,
    "num_cues": 5,
    "reward_sparse_prob": 1.0
  },
  "seed": 18
}