{
  "agent": {
    "action_size": 4,
    "cue_exploration_bias": 0.16666666666666666,
    "cue_regularization": 0.020833333333333336,
    "epsilon": 0.05,
    "state_size": 11,
    "target_weights": [
      [
        0.045936268910397524,
        0.05108326094315433,
        -0.015440109204831841,
        -0.04302518287648771,
        -2.5677600241418546e-07,
        5.311890443562628e-08,
        8.284399483096341e-14,
        4.503308807251702e-165,
        2.8944319254370475e-299,
        4.377336033411173e-06,
        2.2456293738075985e-157,
        0.03917073837116607
      ],
      [
        0.09924539806962702,
        0.08764681749203357,
        -0.06919999146700657,
        -0.018805773169693743,
        -1.0082758089663157e-05,
        7.097699743583245e-05,
        1.3871456077740598e-05,
        2.3365037856651904e-131,
        -6.429595547243958e-17,
        1.9560711990534322e-05,
        1.0704761350396637e-156,
        0.08810041037024559
      ],
      [
        0.04874078566117622,
        0.023912113602341425,
        -0.0062719272276087,
        -0.025092230724554826,
        -4.6447210798479744e-05,
        -0.00014046764797539854,
        5.229294418071828e-15,
        1.14e-322,
        2.5585528281736087e-253,
        4.895457607704444e-15,
        1.14e-322,
        0.0013294447031020433
      ],
      [
        0.10068089653255659,
        0.13811258757926634,
        0.013618048998499197,
        -0.04606024041124763,
        -0.0003776958498747839,
        -0.0027635636444154656,
        -1.503200230416372e-05,
        -9.410409290479198e-107,
        1.686084044375384e-108,
        -9.206273404817364e-06,
        -1.9771573289927353e-175,
        0.03942200191778181
      ]
    ],
    "weights": [
      [
        0.046759620833954504,
        0.0518946858285706,
        -0.015249271209218936,
        -0.04282241784273409,
        -8.558601836707225e-06,
        -0.00010302149441588935,
        1.217282530021659e-07,
        5.34134104122154e-168,
        3.433064152621116e-302,
        5.191925672258287e-09,
        2.663524277610287e-160,
        0.04018492829033596
      ],
      [
        0.0990796417748159,
        0.08734591662422178,
        -0.06867710220067287,
        -0.018147739330359427,
        0.00011083443553092547,
        0.00037729093535698773,
        7.747651917618638e-06,
        2.771309740794647e-134,
        -7.626095398931383e-20,
        2.3779432509390008e-05,
        1.2696837721917234e-159,
        0.08845754334176817
      ],
      [
        0.0487872105492218,
        0.02394306352770514,
        -0.006179077451517551,
        -0.024983905985781818,
        -5.509069084684722e-08,
        1.8262899600228214e-07,
        6.202427167974704e-18,
        1.14e-322,
        3.034680456567965e-256,
        5.806465813200534e-18,
        1.14e-322,
        0.0014687193672387679
      ],
      [
        0.09828023337956483,
        0.13604618892583054,
        0.013818013958792293,
        -0.0461945399505105,
        8.497769501330346e-05,
        0.00038008789776878296,
        -2.189596473478284e-06,
        -1.1161616382378283e-109,
        1.9998517291704933e-111,
        1.5987681264466628e-05,
        -2.3450915845022513e-178,
        0.03722130372508314
      ]
    ]
  },
  "cues": [
    [
      3,
      4
    ],
    [
      1,
      6
    ],
    [
      7,
      2
    ],
    [
      1,
      1
    ],
    [
      0,
      6
    ]
  ],
  "env": {
    "delay": 0,
    "grid_size": 10,
    "max_steps": 200,
    "noise": 0.0,
    "num_cues": 5,
    "reward_sparse_prob": 0.5
  },
  "seed": 4
}