{
  "agent": {
    "action_size": 4,
    "cue_exploration_bias": 0.3333333333333333,
    "cue_regularization": 0.01666666666666667,
    "epsilon": 0.05,
    "state_size": 11,
    "target_weights": [
      [
        -0.033641036386146156,
        -0.053305137045761425,
        -0.040062724196242516,
        -0.06750715198766728,
        9.365769298536714e-06,
        2.3023925509440738e-06,
        1.43e-322,
        2.5931679201716034e-97,
        6.509442731599117e-11,
        -4.2585663480129254e-09,
        1.43e-322,
        -0.12543969879199904
      ],
      [
        -0.07470526373536637,
        -0.09011067196175035,
        -0.039142780072356546,
        -0.037402535036612915,
        1.617990221801432e-05,
        8.445402222516332e-06,
        -1.43e-322,
        1.3324507998226269e-30,
        9.009222042331037e-42,
        1.0230561303163287e-38,
        -1.43e-322,
        -0.09067506656350462
      ],
      [
        -0.03592865554476028,
        -0.06456579434662325,
        -0.03529740551423449,
        -0.06660299710694088,
        2.972415991466966e-06,
        8.494475161749728e-07,
        1.43e-322,
        3.22174981586608e-190,
        2.5369949011080945e-12,
        -1.43e-322,
        1.43e-322,
        -0.11821027789194342
      ],
      [
        -0.0636739793799249,
        -0.07052515681354297,
        -0.054652374292772025,
        -0.0667298079401546,
        4.413481866498755e-06,
        5.462253136318554e-06,
        -1.43e-322,
        8.923356104409182e-06,
        -6.924358696790156e-07,
        5.40908389122649e-50,
        -1.43e-322,
        -0.08834166779299249
      ]
    ],
    "weights": [
      [
        -0.03373845790077763,
        -0.053358058996290675,
        -0.040067328222613594,
        -0.0675562555781406,
        4.400869577929862e-06,
        2.4548272115430857e-06,
        1.43e-322,
        6.990344887157575e-100,
        1.7547359491500919e-13,
        -1.8869403723506841e-06,
        1.43e-322,
        -0.1255417243330015
      ],
      [
        -0.07472356935267435,
        -0.09008453795738734,
        -0.03909064310892816,
        -0.03739483769485556,
        6.098326437790001e-06,
        6.447174477213307e-06,
        -1.43e-322,
        3.59185788296839e-33,
        2.4285958788472283e-44,
        2.7578295775611413e-41,
        -1.43e-322,
        -0.0906412352173843
      ],
      [
        -0.03597658004656801,
        -0.06457976230643589,
        -0.03528853175556238,
        -0.06662807989026383,
        5.893538451658866e-06,
        3.82686048295668e-06,
        1.43e-322,
        8.684799074465625e-193,
        4.110614971640393e-08,
        -1.43e-322,
        1.43e-322,
        -0.11824932863507902
      ],
      [
        -0.06355207527195483,
        -0.07040084129437232,
        -0.054568653461640575,
        -0.06664849852022374,
        1.4035013902558241e-05,
        8.297015224072076e-06,
        -1.43e-322,
        1.3742002263651677e-05,
        -1.1779431930553422e-06,
        1.4581146723710542e-52,
        -1.43e-322,
        -0.08813604285389097
      ]
    ]
  },
  "cues": [
    [
      4,
      1
    ],
    [
      0,
      9
    ],
    [
      4,
      6
    ],
    [
      6,
      8
    ],
    [
      5,
      2
    ]
  ],
  "env": {
    "delay": 10,
    "grid_size": 10,
    "max_steps": 200,
    "noise": 0.0,
    "num_cues": 5,
    "reward_sparse_prob": 1.0
  },
  "seed": 23
}