{
  "agent": {
    "action_size": 4,
    "cue_exploration_bias": 0.3333333333333333,
    "cue_regularization": 0.01666666666666667,
    "epsilon": 0.05,
    "state_size": 11,
    "target_weights": [
      [
        0.06555428722323044,
        0.08311629037687708,
        -0.03871744255809236,
        -0.03566671054231651,
        -1.976493940989793e-05,
        -3.9833137929851984e-05,
        3.645120870920831e-15,
        7.848475050672644e-06,
        -2.7847664860241e-06,
        2.6840772990464878e-33,
        1.43e-322,
        0.04535365929626979
      ],
      [
        0.2412093146594679,
        0.07220297281006145,
        -0.2099544681865768,
        -0.02952193638297197,
        -0.00021333036953672633,
        -0.0001319621008392624,
        7.284197007214102e-72,
        -0.00016763408187930032,
        5.2160185224537615e-56,
        -4.882628132307031e-05,
        1.43e-322,
        0.018956064644637602
      ],
      [
        0.055831220256246414,
        0.0698237500708176,
        -0.06177123919671595,
        -0.012651569878536297,
        -1.1691099680872006e-09,
        -1.1196928072765945e-09,
        1.9904780292185143e-22,
        2.068137904306816e-46,
        1.2418812393181727e-14,
        9.016528873667743e-24,
        1.43e-322,
        0.02888576569484313
      ],
      [
        0.08774733894554498,
        0.0830465096813927,
        -0.028046893513405405,
        -0.04825664672528284,
        -1.4423023502284705e-05,
        4.399309034915853e-06,
        7.382984209536136e-06,
        1.8866791769524737e-06,
        -1.617257908453066e-07,
        2.7649815215982365e-10,
        -4.47262e-318,
        0.05625387962154388
      ]
    ],
    "weights": [
      [
        0.066429706249306,
        0.08399296722522084,
        -0.0385936369393181,
        -0.03554416274581047,
        -8.208477021139903e-07,
        -8.302381990372172e-06,
        1.2857831106339231e-17,
        5.957064768353206e-06,
        -9.823009556016791e-09,
        9.467837640945111e-36,
        1.43e-322,
        0.04635288394111959
      ],
      [
        0.2403868416787082,
        0.07077072921293216,
        -0.210391940710935,
        -0.0293496382909608,
        3.727532815934862e-05,
        0.00020491939566358276,
        4.66534729267696e-06,
        3.6835852701243515e-06,
        1.8399029163689986e-58,
        -2.438304424560889e-05,
        1.43e-322,
        0.017696119139519496
      ],
      [
        0.055861355196604054,
        0.0698237500708176,
        -0.061732446223841705,
        -0.012582641965304415,
        -7.822107812249473e-06,
        3.9129896239480025e-06,
        7.021229535827496e-25,
        7.29516765557291e-49,
        4.3806226994197023e-17,
        3.1804982476140474e-26,
        1.43e-322,
        0.028954693608075014
      ],
      [
        0.08805540324072407,
        0.08339800482812604,
        -0.0279475345335391,
        -0.04820071859697082,
        5.16653348139171e-06,
        -2.4309052077155956e-05,
        -4.3250760805819034e-05,
        2.186264159434099e-06,
        -1.7038403916842205e-05,
        -2.831356085455684e-07,
        -1.5776e-320,
        0.056661302896589286
      ]
    ]
  },
  "cues": [
    [
      2,
      1
    ],
    [
      7,
      5
    ],
    [
      3,
      3
    ],
    [
      7,
      7
    ],
    [
      2,
      7
    ]
  ],
  "env": {
    "delay": 0,
    "grid_size": 10,
    "max_steps": 200,
    "noise": 0.3,
    "num_cues": 5,
    "reward_sparse_prob": 1.0
  },
  "seed": 18
}