{
  "agent": {
    "action_size": 4,
    "cue_exploration_bias": 0.16666666666666666,
    "cue_regularization": 0.020833333333333336,
    "epsilon": 0.05,
    "state_size": 11,
    "target_weights": [
      [
        0.02785117355295823,
        0.058844921822162895,
        -0.03815969923672263,
        0.009691064534517763,
        -9.074222318320748e-05,
        -1.2384900431479547e-06,
        6.910566461064305e-42,
        -1.14e-322,
        4.478785806560376e-152,
        7.128501104737499e-10,
        1.0350704093415323e-268,
        0.028208230467671902
      ],
      [
        0.09217191143781352,
        0.0883341434175737,
        -0.06689516787657569,
        -0.016082933809970883,
        -0.0004860732414074896,
        3.2788564182922214e-05,
        -4.993365318222675e-07,
        -2.08635208328659e-60,
        -2.6028499752121494e-10,
        -7.30060165858047e-06,
        2.818282092530345e-132,
        0.09786509944450644
      ],
      [
        0.045995974584029924,
        0.06269662129767546,
        -0.029708124934154003,
        0.004034267468533327,
        -2.774567095329453e-05,
        -4.25066343740322e-06,
        4.306373351803747e-05,
        -7.071622432926878e-303,
        3.5060716535813267e-184,
        1.3154049649350201e-09,
        -1.14e-322,
        0.02373263058624431
      ],
      [
        0.07343527436202266,
        0.13210024179192398,
        -0.010115405106358168,
        -0.05109202914105911,
        -0.00110277698311233,
        -0.0002581370979407248,
        -1.0704786136827933e-05,
        9.56707966734728e-84,
        1.675443285608852e-69,
        1.3649110628942294e-06,
        -3.983128410423261e-06,
        0.07078326131172977
      ]
    ],
    "weights": [
      [
        0.02785117355295823,
        0.058844921822162895,
        -0.03815969923672263,
        0.009691064534517763,
        -9.074222318320748e-05,
        -1.2384900431479547e-06,
        6.910566461064305e-42,
        -1.14e-322,
        4.478785806560376e-152,
        7.128501104737499e-10,
        1.0350704093415323e-268,
        0.028208230467671902
      ],
      [
        0.09217191143781352,
        0.0883341434175737,
        -0.06689516787657569,
        -0.016082933809970883,
        -0.0004860732414074896,
        3.2788564182922214e-05,
        -4.993365318222675e-07,
        -2.08635208328659e-60,
        -2.6028499752121494e-10,
        -7.30060165858047e-06,
        2.818282092530345e-132,
        0.09786509944450644
      ],
      [
        0.045995974584029924,
        0.06269662129767546,
        -0.029708124934154003,
        0.004034267468533327,
        -2.774567095329453e-05,
        -4.25066343740322e-06,
        4.306373351803747e-05,
        -7.071622432926878e-303,
        3.5060716535813267e-184,
        1.3154049649350201e-09,
        -1.14e-322,
        0.02373263058624431
      ],
      [
        0.07343527436202266,
        0.13210024179192398,
        -0.010115405106358168,
        -0.05109202914105911,
        -0.00110277698311233,
        -0.0002581370979407248,
        -1.0704786136827933e-05,
        9.56707966734728e-84,
        1.675443285608852e-69,
        1.3649110628942294e-06,
        -3.983128410423261e-06,
        0.07078326131172977
      ]
    ]
  },
  "cues": [
    [
      3,
      5
    ],
    [
      6,
      2
    ],
    [
      3,
      0
    ],
    [
      1,
      2
    ],
    [
      3,
      8
    ]
  ],
  "env": {
    "delay": 0,
    "grid_size": 10,
    "max_steps": 200,
    "noise": 0.0,
    "num_cues": 5,
    "reward_sparse_prob": 0.5
  },
  "seed": 8
}