{
  "agent": {
    "action_size": 4,
    "cue_exploration_bias": 0.16666666666666666,
    "cue_regularization": 0.020833333333333336,
    "epsilon": 0.05,
    "state_size": 11,
    "target_weights": [
      [
        0.0026087828615502925,
        0.045111503147486146,
        -0.0047111491269397334,
        -0.034952035437617414,
        -8.085783946106019e-06,
        -8.900123876227855e-06,
        1.14e-322,
        6.503817459559329e-152,
        -1.14e-322,
        2.35571940451674e-08,
        1.14e-322,
        -2.4673976427280162e-05
      ],
      [
        0.11356082370298805,
        0.07339659677115373,
        -0.0375995110190872,
        -0.02647655553650381,
        0.00010587589466268306,
        0.00010057595984226568,
        8.851701758060516e-116,
        1.489252687038612e-05,
        -1.14e-322,
        -2.1941701443884184e-05,
        -2.0857949210288738e-08,
        0.05637353035442897
      ],
      [
        0.02507302506710643,
        0.04567526377397866,
        -0.019042685992217877,
        -0.01575484127007387,
        -5.184838782338197e-06,
        -2.3598985205238435e-06,
        -1.14e-322,
        1.1630284060831016e-17,
        -1.14e-322,
        1.6854495266919434e-09,
        3.2560625831378473e-42,
        0.022581310308514378
      ],
      [
        0.0799521194417721,
        0.10797310263502047,
        0.002859751100596461,
        -0.06941193709552305,
        5.6766842016801564e-05,
        0.00010521222218394612,
        -1.9105813192573468e-140,
        -3.1187200756804855e-05,
        -8.687027038468517e-291,
        2.8586626959496364e-05,
        9.329969058490077e-15,
        0.049345950224353514
      ]
    ],
    "weights": [
      [
        0.002725498942855822,
        0.04527243239135876,
        -0.004467942602545246,
        -0.03475304207579001,
        -2.1855163780749803e-05,
        -5.997561112867882e-06,
        1.14e-322,
        2.1191862913214318e-154,
        -1.14e-322,
        7.675812396785826e-11,
        1.14e-322,
        0.000335248629272737
      ],
      [
        0.11638709325667357,
        0.075600228096574,
        -0.03799649538553252,
        -0.026250901674683753,
        9.394320517621077e-06,
        4.855151130667986e-05,
        2.8842145612461028e-118,
        7.758298493621987e-07,
        -1.14e-322,
        -2.8529991411977583e-05,
        -6.796297759949345e-11,
        0.05880281554166918
      ],
      [
        0.025417420317820762,
        0.04602880443964913,
        -0.018962314677269696,
        -0.015683615370081838,
        -9.61252202722105e-08,
        -2.6480443198427803e-07,
        -1.14e-322,
        4.94659377887025e-07,
        -1.14e-322,
        5.491823154461302e-12,
        1.0609466260047681e-44,
        0.023006076874176887
      ],
      [
        0.07947734583433211,
        0.1074566374927714,
        0.002848584234508511,
        -0.06938141242680192,
        4.139988740853456e-05,
        7.792320358602547e-05,
        -6.2253864986231e-143,
        -5.1390798260971885e-06,
        -2.8305573959802426e-293,
        8.307704471497345e-06,
        3.040051884934809e-17,
        0.04886000975082559
      ]
    ]
  },
  "cues": [
    [
      2,
      9
    ],
    [
      1,
      4
    ],
    [
      1,
      7
    ],
    [
      7,
      7
    ],
    [
      6,
      3
    ]
  ],
  "env": {
    "delay": 0,
    "grid_size": 10,
    "max_steps": 200,
    "noise": 0.0,
    "num_cues": 5,
    "reward_sparse_prob": 0.5
  },
  "seed": 1
}