{
  "agent": {
    "action_size": 4,
    "cue_exploration_bias": 0.16666666666666666,
    "cue_regularization": 0.020833333333333336,
    "epsilon": 0.05,
    "state_size": 11,
    "target_weights": [
      [
        0.05506311577414348,
        0.05665194669626034,
        -0.012365984110154866,
        -0.018831527294102958,
        6.933860919493048e-07,
        -5.1620295743601e-06,
        -1.14e-322,
        -1.14e-322,
        2.6462359782737922e-64,
        -1.14e-322,
        8.653544397877504e-46,
        0.03199847647839882
      ],
      [
        0.1324501565072883,
        0.0783040985145299,
        -0.058898589314703105,
        -0.021837351511727245,
        -0.00010937718304595833,
        7.776879016838121e-05,
        1.6180230398986373e-90,
        2.5518430880181997e-154,
        -5.2834519783379626e-86,
        2.7629377076483922e-195,
        -1.563527199383597e-10,
        0.069881167869118
      ],
      [
        0.009877802022066118,
        0.03330283546302198,
        -0.03525126718811748,
        -0.025605993887671145,
        4.685623409118567e-10,
        2.7764872152110517e-09,
        1.3478103790153064e-258,
        -1.14e-322,
        4.9624e-320,
        -1.14e-322,
        -1.14e-322,
        0.03997976931537276
      ],
      [
        0.09646534248559677,
        0.0962146108890746,
        -0.011760731670376936,
        -0.06335217871251163,
        -5.709100711365855e-06,
        3.829410985237499e-05,
        -2.4094172298935003e-15,
        -3.076659279093737e-146,
        2.1716103323465297e-63,
        -1.14e-322,
        2.0790275814290484e-70,
        0.0872239298920377
      ]
    ],
    "weights": [
      [
        0.05506311577414348,
        0.05665194669626034,
        -0.012365984110154866,
        -0.018831527294102958,
        4.950864670013459e-07,
        -3.685754609443844e-06,
        -1.14e-322,
        -1.14e-322,
        1.8894460626579858e-64,
        -1.14e-322,
        6.178740492097573e-46,
        0.03199847647839882
      ],
      [
        0.13234853300827454,
        0.0781990165538297,
        -0.05891681172869215,
        -0.021852115464029848,
        -9.235187637335714e-05,
        0.00012294598645312812,
        1.1552889791864495e-90,
        1.822048341403859e-154,
        -3.772451746433152e-86,
        1.972772578086913e-195,
        -1.1163782576416732e-10,
        0.0697613219561152
      ],
      [
        0.009877802022066118,
        0.03330283546302198,
        -0.03525126718811748,
        -0.025605993887671145,
        3.345594563048891e-10,
        1.9824470983962935e-09,
        9.62353710987355e-259,
        -1.14e-322,
        3.543e-320,
        -1.14e-322,
        -1.14e-322,
        0.03997976931537276
      ],
      [
        0.09796553628714329,
        0.09792520499769329,
        -0.011568244252668416,
        -0.06337009160187528,
        0.00015240664486658245,
        -0.0009809384104096503,
        -1.7203544716719753e-15,
        -2.1967737604474362e-146,
        1.5505573296437962e-63,
        -1.14e-322,
        1.48445207084326e-70,
        0.08891661111129275
      ]
    ]
  },
  "cues": [
    [
      2,
      4
    ],
    [
      1,
      5
    ],
    [
      9,
      2
    ],
    [
      0,
      6
    ],
    [
      6,
      1
    ]
  ],
  "env": {
    "delay": 0,
    "grid_size": 10,
    "max_steps": 200,
    "noise": 0.0,
    "num_cues": 5,
    "reward_sparse_prob": 0.5
  },
  "seed": 20
}