{
  "agent": {
    "action_size": 4,
    "cue_exploration_bias": 0.3333333333333333,
    "cue_regularization": 0.01666666666666667,
    "epsilon": 0.05,
    "state_size": 11,
    "target_weights": [
      [
        0.12937386313906243,
        0.08476254467670344,
        0.009847753067549312,
        -0.03743490903761806,
        1.0346853768535652e-06,
        -0.00012618119625557427,
        4.90500674301203e-31,
        5.166997612715645e-46,
        1.3203502103091392e-242,
        1.5661411414246182e-244,
        8.225157509921435e-22,
        0.08743225596107393
      ],
      [
        0.22244959247314813,
        0.12762665038267046,
        -0.11630037741120616,
        -0.049216466057160284,
        -7.879508424380931e-05,
        -0.0020222425068478138,
        1.3863606387020374e-05,
        1.474351550047807e-06,
        3.15698213097657e-249,
        4.448514880551687e-241,
        1.1548683284438047e-24,
        0.10519090833539628
      ],
      [
        0.08798642584546865,
        0.07421776954031153,
        -0.0134752912847622,
        -0.03244522554265719,
        -5.186439998432614e-05,
        -3.287321494821327e-05,
        6.502812339559531e-14,
        9.361808067442811e-09,
        6.7183175e-317,
        1.43e-322,
        1.2589135154742719e-36,
        0.10213860828019325
      ],
      [
        0.14333191698862577,
        0.17353260755570027,
        -0.03962744564284377,
        -0.016581835016760686,
        -2.1267990810539243e-06,
        8.716862263512596e-06,
        -2.4798277889912645e-05,
        1.539464619088489e-06,
        2.919941960459659e-07,
        -1.43e-322,
        1.6582958593457973e-05,
        0.12509276779965897
      ]
    ],
    "weights": [
      [
        0.1298826943151204,
        0.08512199184340381,
        0.009884653100173854,
        -0.037248624995635915,
        -7.227404654383214e-06,
        -9.137695744618116e-05,
        4.360629916442992e-32,
        4.593544015061125e-47,
        1.1738125814930643e-243,
        1.3923246740481837e-245,
        7.312297369686051e-23,
        0.08797798716975644
      ],
      [
        0.22325029601610633,
        0.12806883602680935,
        -0.1165917027728035,
        -0.04914927351993833,
        5.1259059895448456e-05,
        0.00017313388177048837,
        1.23249691444681e-06,
        -1.1897772660630831e-05,
        2.806607910503869e-250,
        3.954801305729406e-242,
        1.0266965258996016e-25,
        0.1057002865167572
      ],
      [
        0.08801065414879915,
        0.07422382661614416,
        -0.013445938980868441,
        -0.03239770201126555,
        -6.449232376298754e-06,
        -2.9224817021314408e-06,
        5.7811048005787414e-15,
        8.322798004110388e-10,
        5.972695e-318,
        1.43e-322,
        1.571671773437587e-05,
        0.1021921888874175
      ],
      [
        0.143085882218346,
        0.17326168739421635,
        -0.039707558836342825,
        -0.016637062819055543,
        4.4586127711464366e-05,
        1.256822444375122e-05,
        2.921379570135985e-05,
        5.987467941916414e-05,
        2.5958753849212358e-08,
        -1.43e-322,
        1.999191820997269e-05,
        0.1247666198358802
      ]
    ]
  },
  "cues": [
    [
      3,
      0
    ],
    [
      8,
      0
    ],
    [
      2,
      3
    ],
    [
      2,
      5
    ],
    [
      3,
      1
    ]
  ],
  "env": {
    "delay": 0,
    "grid_size": 10,
    "max_steps": 200,
    "noise": 0.2,
    "num_cues": 5,
    "reward_sparse_prob": 1.0
  },
  "seed": 15
}