{
  "agent": {
    "action_size": 4,
    "cue_exploration_bias": 0.16666666666666666,
    "cue_regularization": 0.020833333333333336,
    "epsilon": 0.05,
    "state_size": 11,
    "target_weights": [
      [
        0.08746603384773091,
        0.10681723148197254,
        -0.0022806308124825995,
        -0.03331977963241781,
        -1.2293245495639376e-06,
        -1.227738085355276e-05,
        6.937137976364476e-57,
        -1.14e-322,
        3.4352821415655393e-125,
        1.5595616645918168e-252,
        1.14e-322,
        0.08659784932344834
      ],
      [
        0.24011285003251337,
        0.2007735062583752,
        -0.03597091419628395,
        -0.006955882605544093,
        7.278791816377588e-05,
        0.00012381895653759968,
        -1.4698231209248815e-51,
        -2.8503420108078773e-19,
        3.804445970802323e-77,
        -2.2772368089519295e-07,
        -1.14e-322,
        0.17818905377514105
      ],
      [
        0.06600526943507339,
        0.10702413980253385,
        0.0146069170647984,
        -0.005557211596586663,
        -2.336639266440847e-05,
        -5.023624714751692e-06,
        1.2348360973485813e-207,
        9.467144521896535e-28,
        4.6190226121824465e-119,
        2.092222929643502e-235,
        1.14e-322,
        0.09606145977324203
      ],
      [
        0.20439608246536323,
        0.2617450916186242,
        -0.015794534180103292,
        -0.062493686827888945,
        -1.242252597372134e-05,
        -5.522622059619414e-05,
        7.58557262358721e-62,
        1.0863017643502978e-06,
        -5.388293703356274e-11,
        2.0833728780801258e-07,
        1.14e-322,
        0.1606675665732251
      ]
    ],
    "weights": [
      [
        0.08811911567312947,
        0.1073338555894364,
        -0.00209784930878677,
        -0.03300054041078728,
        -7.176606284204118e-07,
        -4.6154398424701597e-07,
        4.1947952703273524e-60,
        -1.14e-322,
        2.077269520770163e-128,
        9.430462413610599e-256,
        1.14e-322,
        0.08743371265254272
      ],
      [
        0.24013028708771003,
        0.20067171313760396,
        -0.03536453315513351,
        -0.0062302713884255685,
        5.445691314622268e-05,
        9.166782142328044e-05,
        -8.887825349416893e-55,
        -1.7235639865445345e-22,
        2.300497989071429e-80,
        -4.0845718262088795e-07,
        -1.14e-322,
        0.17881287187148834
      ],
      [
        0.06810048941675605,
        0.10896427380270512,
        0.014909270373660143,
        -0.005099772306213534,
        -1.1543440359788835e-05,
        -9.114529784714554e-05,
        7.466890003392895e-211,
        1.0881279719571834e-05,
        2.793061673723875e-122,
        1.2651394392963247e-238,
        1.14e-322,
        0.09845903306378642
      ],
      [
        0.20368451976485175,
        0.2613840222754297,
        -0.015660967638640073,
        -0.06271061364374267,
        0.00012971720773691608,
        1.4921948740676954e-05,
        4.58689509601249e-65,
        6.568722604005287e-10,
        -3.2582296934245107e-14,
        9.739487881545117e-06,
        1.14e-322,
        0.1600895704141769
      ]
    ]
  },
  "cues": [
    [
      9,
      1
    ],
    [
      7,
      4
    ],
    [
      2,
      9
    ],
    [
      7,
      5
    ],
    [
      5,
      0
    ]
  ],
  "env": {
    "delay": 0,
    "grid_size": 10,
    "max_steps": 200,
    "noise": 0.1,
    "num_cues": 5,
    "reward_sparse_prob": 1.0
  },
  "seed": 6
}