{
  "agent": {
    "action_size": 4,
    "cue_exploration_bias": 0.3333333333333333,
    "cue_regularization": 0.01666666666666667,
    "epsilon": 0.05,
    "state_size": 11,
    "target_weights": [
      [
        0.12536399021512826,
        0.12336381064845031,
        0.026922732314557666,
        0.044891432636178355,
        -1.819662401312999e-05,
        1.62536968254394e-05,
        2.0263699306741543e-103,
        2.250696563769356e-34,
        1.43e-322,
        1.678923236646887e-116,
        8.105715071816662e-133,
        0.10399336478155051
      ],
      [
        0.26593474082031415,
        0.2326053479702075,
        -0.03024153798797979,
        -0.008451098326084063,
        3.423040166724368e-05,
        -0.0005276540238161154,
        -3.9821660087484955e-78,
        3.1767942986236516e-05,
        1.43e-322,
        3.913536916168975e-06,
        2.5008800163832794e-05,
        0.21324945351518398
      ],
      [
        0.12950020625259187,
        0.1264599412558633,
        -0.004966406159726144,
        0.02080645451335632,
        -0.00035724160149979437,
        -7.833059991390583e-05,
        1.123613326692889e-75,
        6.124363850189059e-06,
        -1.43e-322,
        3.6549783171475577e-168,
        -4.593994119786584e-64,
        0.15804998576778223
      ],
      [
        0.207537058459588,
        0.2982345496249193,
        -0.019254527065016267,
        -0.04922488676448022,
        -5.897108038545456e-06,
        0.00019149912472234034,
        6.974531222585654e-99,
        -0.00011700553061571655,
        -1.753773376532602e-32,
        8.025111772790399e-122,
        8.760789320663685e-16,
        0.20074384390058853
      ]
    ],
    "weights": [
      [
        0.12569530220424918,
        0.12375034130242472,
        0.027018160103286663,
        0.04493164176005387,
        -3.0602566499305456e-05,
        1.270664471114904e-05,
        2.3573071497154753e-104,
        2.6182697548460145e-35,
        1.43e-322,
        1.953117093607115e-117,
        9.429502384094776e-134,
        0.10442010455940043
      ],
      [
        0.26617093041602574,
        0.2327077779758649,
        -0.030142631801960737,
        -0.008218432550010887,
        -5.542928900496515e-05,
        -0.000211418830216541,
        -4.63251465671608e-79,
        -0.0001037794511766817,
        1.43e-322,
        4.552677383093304e-07,
        6.7931203317351945e-06,
        0.21358454929691456
      ],
      [
        0.12950020625259187,
        0.1264599412558633,
        -0.005018390301266669,
        0.020754470371815797,
        -5.592186310046526e-05,
        -9.112318556618204e-06,
        1.3071165774985298e-76,
        7.124566187530529e-07,
        -1.43e-322,
        4.2518922081520124e-169,
        -5.3442636610388835e-65,
        0.1579980016262417
      ],
      [
        0.20860254903130956,
        0.29951787877110475,
        -0.018721827532532445,
        -0.04891002580646026,
        -0.0002596928184666557,
        1.7964034993506868e-06,
        8.113578901876603e-100,
        -0.00013618465213045074,
        -2.0401914067613256e-33,
        9.335735332872269e-123,
        1.019156028232259e-16,
        0.20234203400479392
      ]
    ]
  },
  "cues": [
    [
      9,
      4
    ],
    [
      5,
      8
    ],
    [
      0,
      7
    ],
    [
      3,
      0
    ],
    [
      2,
      1
    ]
  ],
  "env": {
    "delay": 0,
    "grid_size": 10,
    "max_steps": 200,
    "noise": 0.2,
    "num_cues": 5,
    "reward_sparse_prob": 1.0
  },
  "seed": 5
}