{
  "agent": {
    "action_size": 4,
    "cue_exploration_bias": 0.3333333333333333,
    "cue_regularization": 0.01666666666666667,
    "epsilon": 0.05,
    "state_size": 11,
    "target_weights": [
      [
        0.08731861197424952,
        0.06260229747476166,
        -0.028863808864889418,
        0.005282928642191324,
        -6.091354488069759e-07,
        2.2141675630342865e-05,
        1.43e-322,
        -1.43e-322,
        1.6473213460067936e-11,
        -1.43e-322,
        1.43e-322,
        0.04871238180521827
      ],
      [
        0.2025207707443715,
        0.08940110048575917,
        -0.13624620190318645,
        0.011045515316203245,
        0.0008421212197754118,
        -6.690471821061653e-05,
        -1.43e-322,
        5.676806246076078e-155,
        -2.510115159570543e-07,
        -1.43e-322,
        1.43e-322,
        0.05405984290807153
      ],
      [
        0.10534217726826624,
        0.07158009616602852,
        -0.006103415879762538,
        -0.0058762885065451985,
        -0.00011256231604074128,
        -1.1449202777519225e-08,
        1.43e-322,
        1.43e-322,
        3.475528303668763e-89,
        -1.43e-322,
        1.43e-322,
        0.05434046665779859
      ],
      [
        0.10597681931279557,
        0.09504043583670832,
        -0.00200296579866737,
        0.020965228287907606,
        -1.0672263433973419e-05,
        6.784683055463748e-06,
        4.807051787773479e-233,
        -2.9872735226836735e-158,
        -9.074589414771549e-07,
        -1.43e-322,
        1.43e-322,
        0.12505039444010085
      ]
    ],
    "weights": [
      [
        0.08827477382281199,
        0.06334783895947048,
        -0.028810353847673,
        0.005547004023261379,
        -0.00011483002615566952,
        -6.392931006793173e-06,
        1.43e-322,
        -1.43e-322,
        7.603646689708597e-14,
        -1.43e-322,
        1.43e-322,
        0.04972199867099715
      ],
      [
        0.2058670657627739,
        0.09289659664460741,
        -0.136459334815058,
        0.010683181263886015,
        0.00027874126700964274,
        -0.0016465035188438324,
        -1.43e-322,
        2.6202798334233116e-157,
        -1.4153403833430383e-06,
        -1.43e-322,
        1.43e-322,
        0.05719300501460245
      ],
      [
        0.1059959487681393,
        0.07233452544516164,
        -0.006002758100502463,
        -0.0058762885065451985,
        -0.00010248320560919429,
        -5.284681887363078e-11,
        1.43e-322,
        1.43e-322,
        1.6042218687470684e-91,
        -1.43e-322,
        1.43e-322,
        0.0550948959369317
      ],
      [
        0.10580387937622303,
        0.09490747249907396,
        -0.0017050077540485533,
        0.02122320973358823,
        6.881991006070188e-07,
        3.575081036622239e-05,
        2.2188216951090805e-235,
        -1.3788549809706764e-160,
        -4.188616382064893e-09,
        -1.43e-322,
        1.43e-322,
        0.12517541254814718
      ]
    ]
  },
  "cues": [
    [
      2,
      3
    ],
    [
      0,
      9
    ],
    [
      7,
      2
    ],
    [
      1,
      5
    ],
    [
      1,
      3
    ]
  ],
  "env": {
    "delay": 6,
    "grid_size": 10,
    "max_steps": 200,
    "noise": 0.0,
    "num_cues": 5,
    "reward_sparse_prob": 1.0
  },
  "seed": 22
}