{
  "agent": {
    "action_size": 4,
    "cue_exploration_bias": 0.2333333333333333,
    "cue_regularization": 0.01916666666666667,
    "epsilon": 0.05,
    "state_size": 11,
    "target_weights": [
      [
        0.03215644533053442,
        0.031456425634403075,
        -0.014211811489482334,
        -0.028399128540708835,
        3.034199831273876e-07,
        -2.9342157902966086e-06,
        4.0688455701894464e-13,
        -2.9205256317887784e-08,
        2.813435503066864e-32,
        8.126475699310658e-261,
        8.872631630759744e-251,
        0.0023262392487419263
      ],
      [
        0.06165771754244133,
        0.04962034753446625,
        -0.04465476045463401,
        -0.026251168179981715,
        -1.688472635803622e-05,
        2.3172653160851645e-05,
        -2.1764406620447864e-06,
        -2.3405246321142254e-07,
        -2.0621434268579292e-05,
        -1.6249310518933906e-10,
        -3.118516672209516e-07,
        0.03402958253823179
      ],
      [
        0.03012632779386339,
        0.02194041204109413,
        -0.016881069464212112,
        -0.02037873587510233,
        -4.021459396875267e-07,
        3.285411460257824e-08,
        1.0364387938388594e-08,
        3.883298070540138e-07,
        1.0816759007392141e-06,
        7.834593935423994e-206,
        1.170952617598664e-225,
        -0.010291112714897539
      ],
      [
        0.05742124487766146,
        0.07881943417223425,
        -0.013701982989892978,
        -0.06375454749022978,
        2.501891965298919e-05,
        -0.0001769708146048109,
        -3.876243342630198e-06,
        -4.038994291398568e-07,
        -3.507811409208438e-05,
        1.8972804906315553e-52,
        1.8001524149382347e-25,
        0.015096926511877887
      ]
    ],
    "weights": [
      [
        0.03250510498107832,
        0.03178672805244503,
        -0.01418888091972904,
        -0.02835784073845359,
        -1.1635873694902404e-05,
        -1.2697678739505366e-05,
        6.101885447654205e-16,
        -4.379795827759397e-11,
        4.219197032164104e-35,
        1.2186951545578187e-263,
        1.3305931841401518e-253,
        0.0026978294690391228
      ],
      [
        0.06060312722024161,
        0.04869930597708972,
        -0.04448425997006644,
        -0.02621421646023734,
        1.3623697029360022e-05,
        1.3666482258417385e-05,
        9.495614352725549e-06,
        1.5151264830705608e-05,
        1.3168048808123458e-05,
        -2.4368443009077045e-13,
        -3.6298741338575495e-06,
        0.03314549270059961
      ],
      [
        0.030643033239151043,
        0.022546858635746816,
        -0.016741499466756734,
        -0.020328907027011983,
        -8.458790100037666e-06,
        -1.3965254041855014e-05,
        1.5543059288964742e-11,
        5.823627261535325e-10,
        1.6221462141881082e-09,
        1.1749228103689798e-208,
        1.7560309463613326e-228,
        -0.009634837272154511
      ],
      [
        0.0585129360993429,
        0.08052753727924997,
        -0.013691750228424959,
        -0.06436072661409611,
        1.6110425506157757e-05,
        2.9960171442377413e-05,
        9.862699143520456e-07,
        -2.509846164867588e-07,
        -7.812167613906666e-05,
        2.8452758936643255e-55,
        2.699616791737743e-28,
        0.016198850495027322
      ]
    ]
  },
  "cues": [
    [
      6,
      6
    ],
    [
      0,
      4
    ],
    [
      8,
      7
    ],
    [
      6,
      4
    ],
    [
      7,
      5
    ]
  ],
  "env": {
    "delay": 0,
    "grid_size": 10,
    "max_steps": 200,
    "noise": 0.0,
    "num_cues": 5,
    "reward_sparse_prob": 0.3
  },
  "seed": 0
}