{
  "agent": {
    "action_size": 4,
    "cue_exploration_bias": 0.3333333333333333,
    "cue_regularization": 0.01666666666666667,
    "epsilon": 0.05,
    "state_size": 11,
    "target_weights": [
      [
        0.1251748356414287,
        0.11827586417909443,
        -0.003944619836953655,
        -0.0019223606364507627,
        7.711805967650095e-05,
        -0.0005507648308206292,
        2.4798128726101024e-236,
        -2.287171298245514e-255,
        2.574088765151992e-104,
        -1.43e-322,
        4.25151128828396e-310,
        0.1105315606188849
      ],
      [
        0.25035478196696986,
        0.20172338772297072,
        -0.05460978264528097,
        -0.023063208591064543,
        -6.354881917547529e-05,
        -1.682845373214188e-05,
        1.341613854382782e-14,
        9.58355457864157e-193,
        -2.5440900976628022e-92,
        1.8896504977763945e-181,
        -2.5441478268960383e-12,
        0.19207459999822235
      ],
      [
        0.05171432839491443,
        0.053736436336004806,
        -0.016660131760943248,
        0.014388067039368313,
        -1.0816232969301533e-06,
        -0.0001484952773030228,
        4.523957426389983e-09,
        -4.309936654696992e-279,
        4.905645871634349e-123,
        -1.43e-322,
        1.0217739170125214e-238,
        0.1004074311153953
      ],
      [
        0.20763248965412553,
        0.22667447282497538,
        -0.003443504006595674,
        -0.07432766581610245,
        5.300292853910672e-05,
        5.8891366020768645e-06,
        1.5882014536660294e-06,
        -1.4126484769745187e-75,
        4.190164976646873e-92,
        -9.249655308493945e-202,
        4.4425424102758135e-70,
        0.20670830472434698
      ]
    ],
    "weights": [
      [
        0.12606745303162117,
        0.11917404098554839,
        -0.0038330426631795972,
        -0.0018163428789381981,
        8.148598008796633e-06,
        -5.373739244883262e-05,
        4.391385991196514e-238,
        -4.050245931666016e-257,
        4.558334811564664e-106,
        -1.43e-322,
        7.52880482193e-312,
        0.11153575518285141
      ],
      [
        0.25243053807171906,
        0.20336588290737626,
        -0.054333203759298315,
        -0.02235336878473843,
        -8.928240137163342e-05,
        0.00030554031395969947,
        2.3758019610288673e-16,
        1.6971073820670017e-194,
        -4.505211557942729e-94,
        3.3462947208023017e-183,
        -4.5053137879734385e-14,
        0.19442693498895403
      ],
      [
        0.05171432839491443,
        0.053736436336004806,
        -0.016660131760943248,
        0.014388067039368313,
        -1.9153967004338847e-08,
        -2.6296342264768326e-06,
        8.011267094564355e-11,
        -7.632267602700099e-281,
        8.687181519382812e-125,
        -1.43e-322,
        1.8094121999681487e-240,
        0.1004074311153953
      ],
      [
        0.2090698513691102,
        0.22842989390204949,
        -0.0031316687402180546,
        -0.07433388991181417,
        0.00010103700211665582,
        -0.0002056611265249558,
        -3.05225152216171e-05,
        -2.5015938907283665e-77,
        7.42016947427245e-94,
        -1.637978703706134e-203,
        7.867093005791076e-72,
        0.20845750170570929
      ]
    ]
  },
  "cues": [
    [
      2,
      4
    ],
    [
      1,
      5
    ],
    [
      9,
      2
    ],
    [
      0,
      6
    ],
    [
      6,
      1
    ]
  ],
  "env": {
    "delay": 0,
    "grid_size": 10,
    "max_steps": 200,
    "noise": 0.2,
    "num_cues": 5,
    "reward_sparse_prob": 1.0
  },
  "seed": 20
}