{
  "agent": {
    "action_size": 4,
    "cue_exploration_bias": 0.16666666666666666,
    "cue_regularization": 0.020833333333333336,
    "epsilon": 0.05,
    "state_size": 11,
    "target_weights": [
      [
        0.038092900323487305,
        0.05812213544310698,
        -0.002638997084732903,
        0.012821992473020523,
        -0.00017476026712426548,
        -1.2838582674303654e-05,
        5.2612911981882265e-14,
        4.1527894534014256e-05,
        8.538323350787801e-28,
        1.0169500179660014e-248,
        1.1327475089966595e-12,
        0.021702930484363885
      ],
      [
        0.13382818183310263,
        0.09490187196246484,
        -0.0432329417735915,
        -0.00984647918296286,
        -0.0006315500502351462,
        1.043656291388979e-05,
        4.88585439846263e-06,
        4.2298608238351673e-05,
        2.5616474254917854e-06,
        2.3130194764789634e-224,
        1.9387700104549162e-05,
        0.0973414533716449
      ],
      [
        0.061831478499928726,
        0.06889856040288793,
        -0.00583084504788411,
        0.013362763268468962,
        -2.115876972878419e-05,
        -3.631832577948623e-08,
        1.2013373862225849e-14,
        4.793336598002692e-13,
        -1.0807433304229146e-260,
        4.26584610071937e-239,
        9.57010730234865e-07,
        0.0206803528930122
      ],
      [
        0.11430167868915558,
        0.15230207318193995,
        0.005005706453742625,
        -0.05196330049032769,
        -0.002087976498746392,
        -0.00027769112204630914,
        -2.8043458857556765e-06,
        -8.241382366779325e-06,
        1.0006118739527164e-10,
        -8.94670303228048e-147,
        -2.2082661501597293e-05,
        0.07234949348436143
      ]
    ],
    "weights": [
      [
        0.039573981785163574,
        0.05950895374507184,
        -0.0021826345445550917,
        0.01337261817290976,
        -5.608820156628837e-06,
        -3.2705761085489924e-06,
        3.181432964022008e-17,
        3.654950004175772e-06,
        5.163010816627942e-31,
        6.149361797411898e-252,
        2.5743698372087083e-05,
        0.02364037448621797
      ],
      [
        0.13504902826558407,
        0.09626519230065154,
        -0.042473279710050875,
        -0.009229291025127382,
        -5.478452163230225e-05,
        -8.076043351077243e-06,
        1.4556960358292477e-05,
        1.2271515105313882e-05,
        2.5673574054211136e-06,
        1.3986521809378572e-227,
        2.024219081088772e-05,
        0.09932196186766704
      ],
      [
        0.06217952578825588,
        0.06922023541269588,
        -0.005767723316775048,
        0.01345225727809723,
        -1.3535953867168945e-05,
        -2.1961209611955443e-11,
        7.26432774288697e-18,
        2.8984670275977625e-16,
        7.539769785519376e-07,
        2.579500524309858e-242,
        5.786916879150184e-10,
        0.021091521912448414
      ],
      [
        0.11492800298382239,
        0.15391442416950601,
        0.004604571987305718,
        -0.05335046164966376,
        0.0012330559954052097,
        0.0001208332649246891,
        -1.484692105759088e-05,
        -1.3300090718191913e-05,
        6.050567208827429e-14,
        -5.409952590347862e-150,
        -2.1953266693001956e-05,
        0.07257468331259127
      ]
    ]
  },
  "cues": [
    [
      4,
      4
    ],
    [
      2,
      3
    ],
    [
      2,
      2
    ],
    [
      1,
      8
    ],
    [
      3,
      4
    ]
  ],
  "env": {
    "delay": 0,
    "grid_size": 10,
    "max_steps": 200,
    "noise": 0.0,
    "num_cues": 5,
    "reward_sparse_prob": 0.5
  },
  "seed": 13
}