{
  "agent": {
    "action_size": 4,
    "cue_exploration_bias": 0.10000000000000002,
    "cue_regularization": 0.022500000000000003,
    "epsilon": 0.05,
    "state_size": 11,
    "target_weights": [
      [
        0.08370827708319245,
        0.04588923241487878,
        0.008468315022051993,
        0.0011984530535073183,
        -0.00043734975543742823,
        -3.287079548402535e-06,
        6.365572926468685e-14,
        3.7211488365604485e-105,
        2.035213087351865e-233,
        -1.1e-322,
        6.170538400469593e-179,
        0.06913333863349531
      ],
      [
        0.20016377409134212,
        0.14101376291380602,
        -0.07838491004750164,
        0.010871297469247613,
        0.00013219785315858116,
        8.092860044337847e-05,
        -2.2115926577904868e-05,
        -6.891721495907401e-36,
        2.534336073074951e-204,
        -1.1e-322,
        -9.93078212627414e-97,
        0.13625615220621132
      ],
      [
        0.06232192522791076,
        0.058747883879752244,
        -0.013773263219464009,
        0.018671679513036207,
        -2.8755498067129533e-07,
        -4.155573063762299e-08,
        1.2175757610744983e-06,
        2.219764347670155e-124,
        8.490347225685794e-223,
        -1.1e-322,
        2.5857268764091535e-196,
        0.06374197033004415
      ],
      [
        0.14865983503122157,
        0.18040158238093354,
        -0.007627888322750777,
        -0.03825321413535419,
        -0.0004753225194918197,
        7.069639037723961e-05,
        3.0772209408618587e-06,
        3.970687916907188e-111,
        -2.704777901114627e-248,
        1.1e-322,
        1.7691589968545633e-96,
        0.16386736782936273
      ]
    ],
    "weights": [
      [
        0.08425016289770307,
        0.046217428219386014,
        0.008813042772074623,
        0.0017568708135333342,
        2.08164989042601e-05,
        -4.428290017954669e-06,
        1.1598139442732361e-15,
        6.779971511147486e-107,
        3.70817920954611e-235,
        -1.1e-322,
        1.1242784527343855e-180,
        0.07001995219802856
      ],
      [
        0.2038922337044533,
        0.14444217882143828,
        -0.07827806438764505,
        0.011278186834583202,
        -0.0012438508677135487,
        3.364099297343869e-05,
        -1.2205349876072592e-05,
        -1.2556787556018473e-37,
        4.617586430916318e-206,
        -1.1e-322,
        -1.809398732940403e-98,
        0.1400914574791793
      ],
      [
        0.06344549094881768,
        0.06001189531577254,
        -0.013632817504350643,
        0.018671679513036207,
        -9.079280901715942e-05,
        -1.297040996909151e-05,
        2.2184355787228434e-08,
        4.0444335068778355e-126,
        1.5469500102852107e-224,
        -1.1e-322,
        4.711221003959339e-198,
        0.06500598176606445
      ],
      [
        0.14896411294212739,
        0.18089252113154702,
        -0.007411249088979464,
        -0.03822323574129046,
        -0.0008745227288456834,
        -1.084335516492619e-05,
        -9.714949913560114e-06,
        7.234634285999755e-113,
        -4.928133197297488e-250,
        1.1e-322,
        3.223425916081156e-98,
        0.16438828497403993
      ]
    ]
  },
  "cues": [
    [
      5,
      2
    ],
    [
      6,
      0
    ],
    [
      1,
      8
    ],
    [
      1,
      5
    ],
    [
      9,
      0
    ]
  ],
  "env": {
    "delay": 0,
    "grid_size": 10,
    "max_steps": 200,
    "noise": 0.0,
    "num_cues": 5,
    "reward_sparse_prob": 0.7
  },
  "seed": 7
}