{
  "agent": {
    "action_size": 4,
    "cue_exploration_bias": 0.16666666666666666,
    "cue_regularization": 0.020833333333333336,
    "epsilon": 0.05,
    "state_size": 11,
    "target_weights": [
      [
        0.09647866503949153,
        0.10410935494912477,
        0.017328910820211985,
        -0.013471530838614566,
        -2.723965638286128e-06,
        -8.415895102730524e-05,
        4.243721626509873e-07,
        1.9892909431469579e-07,
        1.14e-322,
        1.14e-322,
        2.681247396507752e-06,
        0.07000188086831513
      ],
      [
        0.22359770724868167,
        0.16523397800455117,
        -0.03926608930406635,
        0.013979551461315878,
        -9.06187969039428e-05,
        7.237023939911529e-05,
        -1.130274782332638e-06,
        -6.451880149482561e-06,
        -2.3409131566798326e-49,
        -7.997345961210479e-82,
        3.1093478446466e-05,
        0.1669893012791101
      ],
      [
        0.08650414408297757,
        0.06250202928526839,
        -0.017187231954810967,
        -0.01734622295202578,
        -5.3433207582493354e-06,
        -4.297127189778212e-05,
        4.230845721215459e-54,
        1.4927259918896668e-106,
        -5.6902073102493545e-288,
        -1.14e-322,
        5.928625418014169e-26,
        0.05834009449019128
      ],
      [
        0.16486459714290047,
        0.24435312563266118,
        -0.0069534580354385,
        -0.058784660973137774,
        2.8002544778972297e-05,
        -0.00023334138901296155,
        1.509185967488031e-05,
        4.832418997173231e-05,
        1.4262540944400106e-34,
        5.586598170882377e-72,
        2.086708661434569e-12,
        0.15237518673829684
      ]
    ],
    "weights": [
      [
        0.09647866503949153,
        0.10410935494912477,
        0.017328910820211985,
        -0.013471530838614566,
        -2.723965638286128e-06,
        -8.415895102730524e-05,
        4.243721626509873e-07,
        1.9892909431469579e-07,
        1.14e-322,
        1.14e-322,
        2.681247396507752e-06,
        0.07000188086831513
      ],
      [
        0.22359770724868167,
        0.16523397800455117,
        -0.03926608930406635,
        0.013979551461315878,
        -9.06187969039428e-05,
        7.237023939911529e-05,
        -1.130274782332638e-06,
        -6.451880149482561e-06,
        -2.3409131566798326e-49,
        -7.997345961210479e-82,
        3.1093478446466e-05,
        0.1669893012791101
      ],
      [
        0.08650414408297757,
        0.06250202928526839,
        -0.017187231954810967,
        -0.01734622295202578,
        -5.3433207582493354e-06,
        -4.297127189778212e-05,
        4.230845721215459e-54,
        1.4927259918896668e-106,
        -5.6902073102493545e-288,
        -1.14e-322,
        5.928625418014169e-26,
        0.05834009449019128
      ],
      [
        0.16486459714290047,
        0.24435312563266118,
        -0.0069534580354385,
        -0.058784660973137774,
        2.8002544778972297e-05,
        -0.00023334138901296155,
        1.509185967488031e-05,
        4.832418997173231e-05,
        1.4262540944400106e-34,
        5.586598170882377e-72,
        2.086708661434569e-12,
        0.15237518673829684
      ]
    ]
  },
  "cues": [
    [
      8,
      6
    ],
    [
      4,
      5
    ],
    [
      4,
      2
    ],
    [
      8,
      4
    ],
    [
      1,
      0
    ]
  ],
  "env": {
    "delay": 3,
    "grid_size": 10,
    "max_steps": 200,
    "noise": 0.0,
    "num_cues": 5,
    "reward_sparse_prob": 1.0
  },
  "seed": 17
}