{
  "agent": {
    "action_size": 4,
    "cue_exploration_bias": 0.3333333333333333,
    "cue_regularization": 0.01666666666666667,
    "epsilon": 0.05,
    "state_size": 11,
    "target_weights": [
      [
        0.0784004632187923,
        0.06116585571638913,
        -0.03317469735810295,
        -0.007014218783771156,
        -5.451116463269507e-10,
        3.4616685456144038e-06,
        5.5975782713663054e-05,
        1.43e-322,
        1.43e-322,
        -1.43e-322,
        1.43e-322,
        0.03703427282147484
      ],
      [
        0.13228504701478278,
        0.1144493725882241,
        -0.024619385024563373,
        -0.02276428785713592,
        5.205105765101446e-05,
        4.990349645661599e-05,
        3.1309154807346243e-06,
        -5.529629443310909e-06,
        2.4135518320037025e-239,
        -1.43e-322,
        -3.328568738324254e-11,
        0.06347982649297615
      ],
      [
        0.09050038024329925,
        0.082071858846375,
        -0.06120473060042835,
        -0.015873518713263188,
        -1.2638259104459837e-05,
        -1.9489971386722023e-06,
        5.588782643165383e-49,
        -7.014455586075405e-18,
        1.43e-322,
        -1.43e-322,
        3.0844226884355734e-11,
        0.08029565008856829
      ],
      [
        0.0814605213841828,
        0.2456316428643514,
        -0.025266973530334875,
        -0.2102730658486875,
        0.00048358024109185037,
        3.793314964072394e-05,
        2.479109898386487e-05,
        1.914604762175652e-121,
        1.43e-322,
        1.43e-322,
        1.9010100641021288e-87,
        0.054177568050311
      ]
    ],
    "weights": [
      [
        0.0784004632187923,
        0.06116585571638913,
        -0.03317469735810295,
        -0.007014218783771156,
        -1.8592345506099622e-10,
        1.1806854258449998e-06,
        1.909188877543395e-05,
        1.43e-322,
        1.43e-322,
        -1.43e-322,
        1.43e-322,
        0.03703427282147484
      ],
      [
        0.1321548370046676,
        0.11436600533458331,
        -0.024599940977278578,
        -0.022791686566325513,
        4.369344606989412e-05,
        3.317583527775273e-05,
        1.0678741274461778e-06,
        -6.224408368484671e-06,
        8.231999785705923e-240,
        -1.43e-322,
        -1.1352885310875995e-11,
        0.06336906053014574
      ],
      [
        0.09051604624740373,
        0.08208360834945336,
        -0.061202772349915294,
        -0.01586764396172401,
        -6.051481646397741e-06,
        -4.146550428361376e-06,
        1.906188916717816e-49,
        -2.3924490087904566e-18,
        1.43e-322,
        -1.43e-322,
        1.0520166409332438e-11,
        0.08031327434318583
      ],
      [
        0.08012001943662944,
        0.24451092837769428,
        -0.02501742250069735,
        -0.2102433022799462,
        0.0006270195494369654,
        9.4345726457914e-05,
        4.401359531210845e-05,
        6.530220641193722e-122,
        1.43e-322,
        1.43e-322,
        6.483852649363575e-88,
        0.05308661713239515
      ]
    ]
  },
  "cues": [
    [
      5,
      7
    ],
    [
      7,
      4
    ],
    [
      6,
      3
    ],
    [
      7,
      0
    ],
    [
      6,
      4
    ]
  ],
  "env": {
    "delay": 0,
    "grid_size": 10,
    "max_steps": 200,
    "noise": 0.3,
    "num_cues": 5,
    "reward_sparse_prob": 1.0
  },
  "seed": 16
}