{
  "agent": {
    "action_size": 4,
    "cue_exploration_bias": 0.2333333333333333,
    "cue_regularization": 0.01916666666666667,
    "epsilon": 0.05,
    "state_size": 11,
    "target_weights": [
      [
        0.029620650990802192,
        0.001373563262427016,
        -0.01634214993708044,
        -0.033183968845563516,
        1.2314935955873993e-08,
        -1.2384186580558978e-05,
        1.238086663435297e-07,
        2.2152239099245194e-230,
        1.6105118515700935e-258,
        -1.3e-322,
        2.0498642900159516e-287,
        -0.009764752418027354
      ],
      [
        0.06432527978927195,
        0.04222667606704795,
        -0.0689311745011354,
        -0.01672637443969778,
        0.0003465380212508641,
        -3.41263130879069e-05,
        2.9646989519466102e-05,
        1.0597543287648513e-07,
        7.238401724232392e-252,
        6.026700787188e-274,
        -4.920387487420663e-285,
        0.00987139345050741
      ],
      [
        0.017149184021632822,
        0.022887114283123764,
        -0.03799332725014249,
        -0.014860356127291608,
        -1.117120459508942e-05,
        -6.021427795578952e-06,
        4.3298691511207346e-07,
        6.946103027124602e-213,
        9.208705473432878e-268,
        -1.3e-322,
        7.587123642710093e-282,
        -0.005650834906912279
      ],
      [
        0.03607478525977468,
        0.052996039196422394,
        -0.030109992639821916,
        -0.04591482503936181,
        0.00010506402474274551,
        -1.7624179642147694e-05,
        3.3532916171911567e-05,
        1.4357853798891013e-214,
        -1.6174481416261533e-276,
        1.3e-322,
        2.300239422727482e-283,
        0.028800213740844086
      ]
    ],
    "weights": [
      [
        0.029992108594068017,
        0.0016998925779810941,
        -0.01603048799867866,
        -0.03282717861945,
        5.521069799081263e-06,
        -5.43630310356819e-06,
        1.856709197788217e-10,
        3.322082960901047e-233,
        2.415220401179452e-261,
        -1.3e-322,
        3.0740997329942864e-290,
        -0.009081632876359755
      ],
      [
        0.06624160026280665,
        0.04382397108511774,
        -0.06908654582090908,
        -0.016562720304006642,
        0.00011740117374900962,
        6.830868671179142e-05,
        -8.994066057339644e-06,
        -1.119542741744339e-07,
        1.0855142419011077e-254,
        9.03800284290377e-277,
        -7.378908903862391e-288,
        0.011632342604268325
      ],
      [
        0.01751195100162778,
        0.023193679623710634,
        -0.03778387984407719,
        -0.01459470708181822,
        1.6726619325559812e-05,
        -3.826048939515632e-06,
        6.493332103100754e-10,
        1.041679371899706e-215,
        1.3809928381591898e-270,
        -1.3e-322,
        1.1378106774116359e-284,
        -0.005078620520852024
      ],
      [
        0.03520879915136309,
        0.05215867970060251,
        -0.030325555683757496,
        -0.046159014695889185,
        0.00023868135862486616,
        3.7528843340554316e-05,
        -4.612291958961811e-06,
        2.1531900791929195e-217,
        -2.4256224787770578e-279,
        1.3e-322,
        3.4495773352754253e-286,
        0.027718664588496922
      ]
    ]
  },
  "cues": [
    [
      5,
      2
    ],
    [
      6,
      0
    ],
    [
      1,
      8
    ],
    [
      1,
      5
    ],
    [
      9,
      0
    ]
  ],
  "env": {
    "delay": 0,
    "grid_size": 10,
    "max_steps": 200,
    "noise": 0.0,
    "num_cues": 5,
    "reward_sparse_prob": 0.3
  },
  "seed": 7
}