{
  "agent": {
    "action_size": 4,
    "cue_exploration_bias": 0.16666666666666666,
    "cue_regularization": 0.020833333333333336,
    "epsilon": 0.05,
    "state_size": 11,
    "target_weights": [
      [
        0.04615420489562717,
        0.0587963776838118,
        0.002887570690007371,
        0.00621391865676552,
        -7.349049025123376e-06,
        -6.504220286978183e-06,
        5.239303782418691e-294,
        8.55190114145199e-138,
        -1.14e-322,
        -1.14e-322,
        1.6960643881738183e-10,
        0.0007484178374995563
      ],
      [
        0.1534563183188036,
        0.0964953266011596,
        -0.04756395687068684,
        -0.0021419183412519803,
        9.271498353440165e-05,
        0.00017362889662950556,
        -1.3097805305592562e-74,
        5.3470932386663686e-08,
        1.14e-322,
        -9.637597326888478e-28,
        -8.39618122369818e-06,
        0.08344861213096581
      ],
      [
        0.03823932717278508,
        0.04747689541639467,
        -0.02905220726875996,
        -0.015557179836015452,
        -0.00020069436224012417,
        -5.807100470855591e-05,
        5.143650297628429e-127,
        3.545621563883442e-16,
        1.14e-322,
        2.3451742002135975e-164,
        3.8986731242881458e-28,
        0.042703305578941586
      ],
      [
        0.09120820104023056,
        0.16395322024397938,
        -0.020319103277175354,
        -0.032336991015054106,
        -0.00048424904437549744,
        -0.0001314263794796106,
        1.4468237093825969e-77,
        -1.9537472011164274e-05,
        -1.14e-322,
        1.777555988391593e-95,
        3.509774797264831e-05,
        0.08335041026907222
      ]
    ],
    "weights": [
      [
        0.04615420489562717,
        0.0587963776838118,
        0.002887570690007371,
        0.00621391865676552,
        -3.746648946432102e-06,
        -3.315943328485283e-06,
        2.671071036447083e-294,
        4.359879937128967e-138,
        -1.14e-322,
        -1.14e-322,
        8.646775700242067e-11,
        0.0007484178374995563
      ],
      [
        0.15342170296550592,
        0.09647401244633852,
        -0.04741106287656959,
        -0.002002325545611357,
        6.855138657490466e-05,
        0.00010126225897541279,
        -6.677446058804504e-75,
        2.7260236230070913e-08,
        1.14e-322,
        -4.913383180256763e-28,
        3.156535338433461e-05,
        0.08356689077178532
      ],
      [
        0.03823932717278508,
        0.04747689541639467,
        -0.02905220726875996,
        -0.015557179836015452,
        -0.00010231681926073433,
        -2.960541804331099e-05,
        2.6223055394709644e-127,
        1.8076079301359438e-16,
        1.14e-322,
        1.195602916294672e-164,
        1.9875985999905762e-28,
        0.042703305578941586
      ],
      [
        0.09256616274363344,
        0.1655006086576014,
        -0.0201581654706729,
        -0.03236547991877079,
        -0.0005751481021321999,
        -0.00015567207778535534,
        7.376111532117981e-78,
        -9.960479060125261e-06,
        -1.14e-322,
        9.062231383086508e-96,
        1.7893327424313187e-05,
        0.08486930977897754
      ]
    ]
  },
  "cues": [
    [
      9,
      4
    ],
    [
      5,
      8
    ],
    [
      0,
      7
    ],
    [
      3,
      0
    ],
    [
      2,
      1
    ]
  ],
  "env": {
    "delay": 0,
    "grid_size": 10,
    "max_steps": 200,
    "noise": 0.0,
    "num_cues": 5,
    "reward_sparse_prob": 0.5
  },
  "seed": 5
}