{
  "agent": {
    "action_size": 4,
    "cue_exploration_bias": 0.3333333333333333,
    "cue_regularization": 0.01666666666666667,
    "epsilon": 0.05,
    "state_size": 11,
    "target_weights": [
      [
        0.08282483286148369,
        0.0754428122361835,
        -0.011734842154182211,
        -0.05146134997992125,
        -3.3323694108228996e-05,
        4.390440393035291e-06,
        1.43e-322,
        2.2081395284662745e-19,
        3.635777725288806e-104,
        6.539316920992852e-36,
        1.43e-322,
        0.019354052497692054
      ],
      [
        0.09556843088374338,
        0.10306416064859576,
        -0.027660791660961834,
        -0.04882168461645756,
        -0.0005384419617853888,
        6.963836310220893e-06,
        6.335509286619153e-76,
        3.976255045049969e-130,
        -3.494411399501794e-05,
        1.969484460292465e-06,
        -1.43e-322,
        0.0910806164669957
      ],
      [
        0.11502287031198757,
        0.07894001925396216,
        -0.015999331163738847,
        -0.039859210500283196,
        7.208749563593147e-06,
        -2.174452209227369e-06,
        1.43e-322,
        3.654673036672782e-217,
        4.626811954639451e-157,
        1.1603104174544284e-48,
        1.43e-322,
        0.052039322315299785
      ],
      [
        0.09150955818734804,
        0.20747794225408647,
        -0.05568295031289949,
        -0.19057994546063925,
        0.00028326746334175355,
        -6.672848450101106e-05,
        3.238532282775793e-259,
        -1.489717358416322e-05,
        -5.035029566465309e-06,
        -5.042333697131076e-05,
        -1.43e-322,
        0.06581129375415273
      ]
    ],
    "weights": [
      [
        0.08342152362308886,
        0.07607477996666764,
        -0.011524940509408766,
        -0.05128672530402677,
        -2.753815532168466e-05,
        5.632824188129001e-06,
        1.43e-322,
        1.7452022116260462e-21,
        2.873535501428186e-106,
        5.168346567740296e-38,
        1.43e-322,
        0.02016064490407066
      ],
      [
        0.09552835476528833,
        0.10323449352561405,
        -0.02738998888162731,
        -0.048761290832596366,
        1.4316850280121797e-05,
        1.4718081716742245e-05,
        5.007267283723167e-78,
        3.1426316177720685e-132,
        6.459926923694409e-08,
        1.9425081298214e-05,
        -1.43e-322,
        0.09131134312787514
      ],
      [
        0.11534554727952716,
        0.07920251999834531,
        -0.01572559324522253,
        -0.03952529635861043,
        6.163782288030568e-06,
        9.016617735542518e-06,
        1.43e-322,
        2.8884694033811906e-219,
        3.656799016511028e-159,
        9.170508840628883e-51,
        1.43e-322,
        0.052635737201355705
      ],
      [
        0.09112566288113558,
        0.20816615127192023,
        -0.055016291846771745,
        -0.19098539131855785,
        -0.00027168055425474263,
        -0.00025523777129438075,
        2.5595727214975124e-261,
        3.978094659719478e-06,
        2.3838274676497193e-06,
        1.724403208174981e-05,
        -1.43e-322,
        0.06609405691406794
      ]
    ]
  },
  "cues": [
    [
      4,
      1
    ],
    [
      0,
      9
    ],
    [
      4,
      6
    ],
    [
      6,
      8
    ],
    [
      5,
      2
    ]
  ],
  "env": {
    "delay": 0,
    "grid_size": 10,
    "max_steps": 200,
    "noise": 0.3,
    "num_cues": 5,
    "reward_sparse_prob": 1.0
  },
  "seed": 23
}