{
  "agent": {
    "action_size": 4,
    "cue_exploration_bias": 0.3333333333333333,
    "cue_regularization": 0.01666666666666667,
    "epsilon": 0.05,
    "state_size": 11,
    "target_weights": [
      [
        0.1020209471432878,
        0.0746633872800854,
        -0.004426384737862028,
        0.061230795788454806,
        -2.538062367416837e-05,
        -2.697996737838535e-05,
        4.67999687944071e-09,
        3.2754214855825325e-10,
        1.4345161107437452e-33,
        1.0300798892275449e-19,
        8.70124318502533e-06,
        0.11424293244938337
      ],
      [
        0.2334273898632867,
        0.1618917919897375,
        0.00023311247367414407,
        0.02260664961746464,
        -8.21149233545774e-05,
        -0.00010042002086967715,
        -8.779973397962327e-05,
        -2.502148460537171e-06,
        -2.6924894051184433e-05,
        1.6121321001825926e-90,
        -6.380077731093328e-05,
        0.2227134696998686
      ],
      [
        0.05978767271017382,
        0.06902492735581797,
        0.013181047545764069,
        0.018402532443691638,
        -4.543331725488308e-06,
        2.4040915795562533e-08,
        2.6462323040277042e-05,
        2.171528770973231e-73,
        9.311766467567229e-191,
        3.358237972872391e-07,
        3.067596518605043e-09,
        0.10959837779060348
      ],
      [
        0.17591414880422618,
        0.22756916716859427,
        0.03559536726603286,
        -0.05876096096794008,
        -0.00010595196944903146,
        0.0001079791582468788,
        0.0010799632461389902,
        1.994945100630475e-06,
        2.5920581519115173e-31,
        -8.163759365541027e-06,
        -0.00011021354770563799,
        0.21973634759367874
      ]
    ],
    "weights": [
      [
        0.1039878748241171,
        0.07641176744082256,
        -0.004270134334979875,
        0.06160559371142911,
        -4.433595622761085e-05,
        -4.444461470284685e-05,
        3.1795624898421616e-10,
        2.2253021876428933e-11,
        9.746018500209274e-35,
        6.998302481176192e-21,
        5.911573695196053e-07,
        0.11636611053309483
      ],
      [
        0.2351436310542225,
        0.16341380155445182,
        0.000407059807466366,
        0.02297482857747829,
        -4.241349438893717e-05,
        -5.110217511164542e-05,
        -9.305009812276417e-05,
        -1.6999450200682764e-07,
        -1.513424146319475e-06,
        1.0952731137341302e-91,
        -9.092648994277205e-05,
        0.22460365822459658
      ],
      [
        0.06035234573003575,
        0.06973243640235592,
        0.013622140730141225,
        0.018700789601392764,
        1.2284710665890029e-05,
        9.871110680286065e-06,
        9.062313093090712e-05,
        1.475323937956273e-74,
        6.326359640219487e-192,
        2.2815672244176155e-08,
        2.0841071213903498e-10,
        0.11060414399484256
      ],
      [
        0.17728728439194863,
        0.22933783236943925,
        0.035848064007380956,
        -0.0589037938397144,
        -8.919275998022774e-05,
        8.359236820386743e-05,
        0.0008524530677629779,
        1.3553540257952258e-07,
        1.7610291381844658e-32,
        -5.682919268069874e-06,
        -5.244375442360513e-05,
        0.22136217992274923
      ]
    ]
  },
  "cues": [
    [
      7,
      9
    ],
    [
      5,
      4
    ],
    [
      2,
      2
    ],
    [
      0,
      5
    ],
    [
      8,
      7
    ]
  ],
  "env": {
    "delay": 10,
    "grid_size": 10,
    "max_steps": 200,
    "noise": 0.0,
    "num_cues": 5,
    "reward_sparse_prob": 1.0
  },
  "seed": 9
}