{
  "agent": {
    "action_size": 4,
    "cue_exploration_bias": 0.08333333333333333,
    "cue_regularization": 0.02291666666666667,
    "epsilon": 0.05,
    "state_size": 11,
    "target_weights": [
      [
        0.08318296410678308,
        0.06676083488045059,
        0.016414508490694577,
        -0.00962965663777992,
        -5.637516473354311e-06,
        -7.251414625402866e-07,
        2.983931368279785e-06,
        5.642131668354797e-13,
        4.917440662607566e-05,
        3.108348797696682e-115,
        0.00012231224337878478,
        0.06273498900163754
      ],
      [
        0.23079313143836672,
        0.17362217376971203,
        -0.08919210922374934,
        -0.010888625814060792,
        -0.00018903504296288905,
        2.6405346926059958e-05,
        -7.404806968661476e-05,
        6.965734160220647e-08,
        4.313377815653963e-52,
        2.879105393655644e-105,
        7.440156690467251e-08,
        0.17150576360371453
      ],
      [
        0.05653432787861566,
        0.08346232651661221,
        -0.01560285766004754,
        -0.0022116349414755673,
        -1.0044184391325165e-05,
        -8.118978950139269e-06,
        6.292202499402909e-40,
        1.237810475296538e-17,
        8.208963162312362e-188,
        1.5795098987487834e-128,
        4.6883914329131907e-35,
        0.08202439198175773
      ],
      [
        0.1879581334113446,
        0.1966422802893997,
        0.0034893347356191704,
        -0.053361833671817606,
        -6.857656824093261e-05,
        -4.2217741440985565e-05,
        2.367474599936304e-05,
        8.510993596660668e-06,
        1.3825100421022249e-05,
        -2.5930667614423964e-121,
        -5.151168385367404e-06,
        0.17211478408980993
      ]
    ],
    "weights": [
      [
        0.08439477440451704,
        0.06789906911098155,
        0.01666318031677925,
        -0.009307408744492245,
        -6.857237756986134e-05,
        -3.947199561293225e-05,
        7.308793375703229e-08,
        1.3819746325563086e-14,
        0.0001166143780891727,
        7.613539421008049e-117,
        2.9958963657050256e-06,
        0.06419547112545618
      ],
      [
        0.23351212658063694,
        0.17600994752031265,
        -0.08951618533432701,
        -0.010881480532969013,
        -0.00046430684703037124,
        9.727491435507075e-05,
        -5.099271698133979e-05,
        1.7061756925220528e-09,
        1.056511806574533e-53,
        7.052034323843324e-107,
        1.2788123186723277e-06,
        0.17390068263540706
      ],
      [
        0.05755479408036865,
        0.08418235657750694,
        -0.015500858757860106,
        -0.0018091998984298768,
        -0.00011991821468046153,
        -0.0001797071560326706,
        0.00021357528150484342,
        3.031873017722547e-19,
        2.010690199509803e-189,
        3.868826075409367e-130,
        1.1483670372530745e-36,
        0.08314685708569815
      ],
      [
        0.18909344520642668,
        0.1976374104252034,
        0.004108864452060969,
        -0.052602122296097356,
        8.916205298402602e-06,
        -5.4652343316126555e-06,
        1.3124051681468614e-05,
        4.422279549687598e-05,
        5.5430210937656275e-06,
        -6.351415910652204e-123,
        2.220873665693721e-06,
        0.1738696256013338
      ]
    ]
  },
  "cues": [
    [
      7,
      4
    ],
    [
      4,
      3
    ],
    [
      1,
      1
    ],
    [
      4,
      8
    ],
    [
      5,
      4
    ]
  ],
  "env": {
    "delay": 0,
    "grid_size": 10,
    "max_steps": 200,
    "noise": 0.05,
    "num_cues": 5,
    "reward_sparse_prob": 1.0
  },
  "seed": 27
}