{
  "agent": {
    "action_size": 4,
    "cue_exploration_bias": 0.05555555555555555,
    "cue_regularization": 0.02361111111111111,
    "epsilon": 0.05,
    "state_size": 11,
    "target_weights": [
      [
        0.09451457029364976,
        0.09837437693353983,
        0.029564206207637625,
        0.0046343386865507815,
        -6.219115820985815e-05,
        -3.0063395734668366e-05,
        1.37431575754062e-70,
        1.3732486493692968e-79,
        1.773915480985195e-18,
        1.2037200460493338e-07,
        1.708739408747905e-33,
        0.08968744400674605
      ],
      [
        0.27032715147179864,
        0.20834195097892588,
        -0.047751247228030536,
        0.01827890430707861,
        -6.281739258190007e-06,
        -3.27256183048138e-06,
        -1.2198026157581198e-05,
        -3.2424735204321197e-05,
        -0.0003043053447660924,
        4.487554807204992e-06,
        -7.809646381683793e-05,
        0.20910242935191478
      ],
      [
        0.09740511430772844,
        0.1064195350895975,
        -0.0029824992736714215,
        0.017138277316406447,
        2.4642727657660904e-05,
        4.868618224028832e-05,
        2.9012183257028472e-05,
        9.047751159838971e-09,
        5.036302672283826e-24,
        7.271836383105281e-12,
        1.0924816448824902e-18,
        0.1278949378925271
      ],
      [
        0.20957878274721398,
        0.28325186372947675,
        0.0439022614611756,
        -0.037833048729194095,
        2.73534593767794e-05,
        1.5307437476981803e-05,
        -4.0576702685200194e-05,
        -4.04444871386325e-05,
        0.0012648855216692452,
        2.5888903120818127e-06,
        -1.8086830157461636e-05,
        0.19639955111338928
      ]
    ],
    "weights": [
      [
        0.09621205930153734,
        0.09988509065456012,
        0.02969629761629515,
        0.004953205382075571,
        -6.988974786235553e-05,
        2.130730536485455e-08,
        3.0571883024650594e-74,
        3.0548145025570454e-83,
        3.94610454567922e-22,
        2.6776952996669427e-11,
        3.8011192869778015e-37,
        0.09151702442329115
      ],
      [
        0.2765151098668174,
        0.21363581599196896,
        -0.0473858706790493,
        0.019538374238035415,
        -0.000375160870682377,
        -1.7890724025299767e-05,
        -6.686305117761186e-06,
        -1.9058321655502475e-05,
        -0.0002494959086219233,
        -1.1572543670655752e-05,
        -0.00012450062897538682,
        0.2156557642959147
      ],
      [
        0.09817128363282382,
        0.10715186231583021,
        -0.002474454269570583,
        0.017680164419369964,
        -4.094975790491663e-06,
        -4.342974118070051e-06,
        6.45380850766667e-09,
        1.3423297895857726e-05,
        1.1203339212913438e-27,
        1.6176321202671107e-15,
        2.430243622738803e-22,
        0.12916915222172332
      ],
      [
        0.2105102666988882,
        0.2847791967188753,
        0.04411422702780815,
        -0.03821693220028576,
        4.629741290496192e-05,
        1.0481074016748936e-05,
        -1.5695392523568683e-05,
        -7.136592464256728e-06,
        0.0003529425746442322,
        -7.249208172171308e-05,
        8.035994235651016e-06,
        0.1975430006316963
      ]
    ]
  },
  "cues": [
    [
      7,
      8
    ],
    [
      7,
      7
    ],
    [
      8,
      9
    ],
    [
      3,
      2
    ],
    [
      8,
      7
    ]
  ],
  "env": {
    "delay": 1,
    "grid_size": 10,
    "max_steps": 200,
    "noise": 0.0,
    "num_cues": 5,
    "reward_sparse_prob": 1.0
  },
  "seed": 11
}