{
  "agent": {
    "action_size": 4,
    "cue_exploration_bias": 0.3,
    "cue_regularization": 0.017499999999999998,
    "epsilon": 0.05,
    "state_size": 11,
    "target_weights": [
      [
        -0.0037706481927722653,
        -0.008044140383941132,
        -0.04373544212180292,
        -0.03003152692304159,
        -1.7026993703655584e-05,
        -6.171703955051441e-05,
        -4.036041260828325e-269,
        -1.4e-322,
        3.868982238948748e-07,
        -1.4e-322,
        1.4e-322,
        -0.05724851161871678
      ],
      [
        0.019281102009192978,
        0.02241956475940857,
        -0.05793923544317477,
        -0.0269056512326143,
        0.00017223357482682073,
        -0.000713342047877585,
        -4.717126697120016e-263,
        1.4e-322,
        -3.4601234566383254e-05,
        1.4e-322,
        1.4e-322,
        -0.05087285936709587
      ],
      [
        0.010866395893598743,
        -0.011844242847339759,
        -0.028835532437979407,
        -0.039659847426060935,
        -2.4790711142379215e-05,
        -2.484703507017361e-06,
        -1.1306610542199011e-270,
        -1.4e-322,
        2.569197653782577e-10,
        -1.4e-322,
        -1.4e-322,
        -0.0628674312750853
      ],
      [
        -0.0011780682892924526,
        0.012736271514095683,
        -0.04782843496381955,
        -0.04971096415671896,
        1.612287411835878e-05,
        6.077935613676678e-05,
        -6.917584687598524e-16,
        -1.4e-322,
        3.101287676079807e-08,
        -1.4e-322,
        -1.9664680025299148e-173,
        -0.027929962327138368
      ]
    ],
    "weights": [
      [
        -0.003417006714477131,
        -0.007763731715380949,
        -0.043671808325509764,
        -0.02989466031701348,
        -7.818638797001832e-06,
        -1.3832121018635e-06,
        -1.4202817042818293e-271,
        -1.4e-322,
        1.361493684790152e-09,
        -1.4e-322,
        1.4e-322,
        -0.05683123634412849
      ],
      [
        0.01823026878291616,
        0.021214372456128623,
        -0.05813355099948383,
        -0.02694560771192022,
        0.00018763336651784606,
        -1.5565502466509082e-05,
        -1.6599554642124592e-265,
        1.4e-322,
        -6.390530510043134e-07,
        1.4e-322,
        1.4e-322,
        -0.0521180081496818
      ],
      [
        0.011135365182743714,
        -0.011573782973099703,
        -0.028806201743000023,
        -0.03963200731617663,
        -3.165130738530283e-05,
        -9.003363447551713e-07,
        -3.978792844954603e-273,
        -1.4e-322,
        9.040998806841476e-13,
        -1.4e-322,
        -1.4e-322,
        -0.06256913129096095
      ],
      [
        -0.0005711371117484554,
        0.01298625066624152,
        -0.047772920996232496,
        -0.0492984981637337,
        -2.9236223121280535e-06,
        -1.227160967131671e-05,
        -2.434295968421273e-18,
        -1.4e-322,
        1.0913421992982473e-10,
        -1.4e-322,
        -6.919994979128804e-176,
        -0.02726751718200728
      ]
    ]
  },
  "cues": [
    [
      2,
      3
    ],
    [
      0,
      9
    ],
    [
      7,
      2
    ],
    [
      1,
      5
    ],
    [
      1,
      3
    ]
  ],
  "env": {
    "delay": 0,
    "grid_size": 10,
    "max_steps": 200,
    "noise": 0.0,
    "num_cues": 5,
    "reward_sparse_prob": 0.1
  },
  "seed": 22
}