{
  "agent": {
    "action_size": 4,
    "cue_exploration_bias": 0.3,
    "cue_regularization": 0.017499999999999998,
    "epsilon": 0.05,
    "state_size": 11,
    "target_weights": [
      [
        -0.013940252235693987,
        -0.00809453416403859,
        -0.04952904402188992,
        -0.03476202692412284,
        3.249534917231176e-06,
        -2.7932856638197277e-05,
        7.362163053092745e-13,
        6.862141799075025e-40,
        3.8357604219608295e-15,
        5.198861351491338e-21,
        -1.4e-322,
        -0.044952481626451574
      ],
      [
        0.030115216287969024,
        0.013994757301125602,
        -0.056395384184562386,
        -0.028848735243517536,
        2.5653438977017673e-05,
        1.54000713899419e-05,
        7.943904295552975e-06,
        -4.798405223934926e-06,
        8.734566570447118e-06,
        -1.3756953083892226e-06,
        1.4e-322,
        -0.03857894972484414
      ],
      [
        -0.009901797106700317,
        0.0020679319551087936,
        -0.07174123779837649,
        -0.02059876772743453,
        -1.8601895057180812e-06,
        7.176635562115727e-07,
        1.4831129858189007e-05,
        2.1400768665300013e-74,
        3.16481896274493e-08,
        3.148700236159481e-26,
        1.4e-322,
        -0.04681725026976455
      ],
      [
        0.013234168774871763,
        0.018497498407939475,
        -0.034497568970480896,
        -0.06467148107957828,
        2.499401660474434e-05,
        1.5585681583029468e-05,
        8.674376054352782e-06,
        5.073073056449621e-06,
        4.771752521006765e-06,
        -2.2275846017050283e-06,
        -5.2410721982992226e-297,
        -0.024709966006204283
      ]
    ],
    "weights": [
      [
        -0.013690335018050451,
        -0.007876368784369371,
        -0.04949973691727718,
        -0.03470096798153578,
        -5.099787737549175e-06,
        -4.8164983800006565e-06,
        3.2925761201539103e-14,
        3.06895189060679e-41,
        1.71546501712893e-16,
        2.3250838937505716e-22,
        -1.4e-322,
        -0.044673257304195295
      ],
      [
        0.029815218709642065,
        0.0137083085895663,
        -0.05632814125847651,
        -0.028795041184199306,
        2.5896998344642715e-05,
        1.556224425611648e-05,
        5.926637032668261e-06,
        -9.828850026019766e-06,
        1.2559445728573259e-05,
        4.284497408481058e-06,
        1.4e-322,
        -0.03881170437708521
      ],
      [
        -0.009772139098661476,
        0.0021805346553170233,
        -0.07171739803593982,
        -0.020557872657167253,
        -1.9887897863628807e-06,
        -9.207022892401031e-07,
        6.632918023387287e-07,
        9.57105396228683e-76,
        1.4154002385164186e-09,
        1.4081914693191311e-27,
        1.4e-322,
        -0.04666375249928904
      ],
      [
        0.012829052295967534,
        0.018122443800587338,
        -0.034431066892406964,
        -0.06463504087305649,
        2.9301122596153403e-05,
        1.7293702574914854e-05,
        1.0460880967044508e-05,
        2.26882766396288e-07,
        -5.140678956767102e-06,
        -8.984170570735827e-06,
        -2.3439618274785857e-298,
        -0.0250485804070346
      ]
    ]
  },
  "cues": [
    [
      2,
      1
    ],
    [
      7,
      5
    ],
    [
      3,
      3
    ],
    [
      7,
      7
    ],
    [
      2,
      7
    ]
  ],
  "env": {
    "delay": 0,
    "grid_size": 10,
    "max_steps": 200,
    "noise": 0.0,
    "num_cues": 5,
    "reward_sparse_prob": 0.1
  },
  "seed": 18
}