{
  "agent": {
    "action_size": 4,
    "cue_exploration_bias": 0.3333333333333333,
    "cue_regularization": 0.01666666666666667,
    "epsilon": 0.05,
    "state_size": 11,
    "target_weights": [
      [
        0.05550047566333307,
        0.04902963153162248,
        -0.02188434517492055,
        -0.035867998697055196,
        -4.649593292454966e-07,
        -8.025000645992879e-07,
        2.252572004948485e-09,
        1.2070469174775815e-10,
        4.9837272897391115e-283,
        4.117194589069402e-153,
        2.9079256735162053e-09,
        0.03483652665193002
      ],
      [
        0.19722382118122192,
        0.18172743079585302,
        -0.0950671938114419,
        -0.01726334404476659,
        2.9321503585573763e-05,
        6.107775663703685e-05,
        -0.00011354525208405433,
        -2.612908879630208e-05,
        1.631136562893177e-28,
        3.632572049777851e-37,
        -0.0013798140933925266,
        0.11481867836256081
      ],
      [
        0.06040489288529524,
        0.09005789428107391,
        -0.03104742721204861,
        -0.034522367416714946,
        -2.1181732221970976e-05,
        2.955122710926504e-12,
        4.496610293820785e-28,
        0.00019251098495640104,
        1.8006977720546335e-187,
        1.43e-322,
        5.647074937114274e-05,
        0.03498627661538539
      ],
      [
        0.16090492381585647,
        0.16896281779114167,
        -0.04290312740246306,
        -0.051020878338255374,
        4.895156055842276e-06,
        7.837099320610758e-05,
        3.5989861337050394e-05,
        3.999124299637649e-06,
        4.352288645108895e-35,
        -6.058733824071571e-44,
        -8.717437961208157e-05,
        0.15396641449977935
      ]
    ],
    "weights": [
      [
        0.05610231811948204,
        0.049381332467878375,
        -0.02165193244680559,
        -0.03538544444904716,
        -1.0550296578048323e-05,
        5.269610303832652e-05,
        3.988975642456677e-11,
        0.00032360770140280526,
        8.82545229353084e-285,
        7.290949587836978e-155,
        5.149511161573658e-11,
        0.03567078183619395
      ],
      [
        0.20008724089321225,
        0.183593778286521,
        -0.09573566570468228,
        -0.01693474371668469,
        -0.0002486677147350056,
        0.00020219815456520865,
        -0.00012545841099336616,
        -0.00011323403595997151,
        2.8885043428612585e-30,
        6.432753933814496e-39,
        -0.0011339752545560136,
        0.11701362618131064
      ],
      [
        0.06226457339139996,
        0.09162754243917573,
        -0.030725697859658167,
        -0.0339106057163216,
        -1.5241915552784596e-05,
        7.672826392480456e-06,
        1.3700480302567908e-05,
        3.4090880478379613e-06,
        3.188772450502069e-189,
        1.43e-322,
        0.00015562861505580476,
        0.03716768647388056
      ],
      [
        0.16051829208699248,
        0.16860802360149155,
        -0.04257291553832946,
        -0.050722504013335695,
        2.6081818107372326e-05,
        4.0478673433470455e-05,
        -3.854656906926682e-06,
        1.984294476963476e-05,
        7.707266784875631e-37,
        -1.0729131674928459e-45,
        -1.1623183149574313e-05,
        0.15390999463504895
      ]
    ]
  },
  "cues": [
    [
      7,
      4
    ],
    [
      8,
      5
    ],
    [
      2,
      6
    ],
    [
      0,
      5
    ],
    [
      7,
      9
    ]
  ],
  "env": {
    "delay": 0,
    "grid_size": 10,
    "max_steps": 200,
    "noise": 0.2,
    "num_cues": 5,
    "reward_sparse_prob": 1.0
  },
  "seed": 12
}