{
  "agent": {
    "action_size": 4,
    "cue_exploration_bias": 0.3333333333333333,
    "cue_regularization": 0.01666666666666667,
    "epsilon": 0.05,
    "state_size": 11,
    "target_weights": [
      [
        0.04190637663293941,
        0.08342108441633664,
        -0.03838173430228379,
        -0.023307592742777977,
        -3.22509125233485e-06,
        2.7040848147355976e-06,
        4.689413951558845e-06,
        -1.8707071134986762e-270,
        2.1228540686131282e-14,
        -1.43e-322,
        1.43e-322,
        0.025785116779269427
      ],
      [
        0.23842187564674988,
        0.07200961975256742,
        -0.1874040213861025,
        -0.047866998406190964,
        -0.0001841837034536739,
        -6.213727551391986e-05,
        -0.00041060856224944597,
        1.43e-322,
        8.09208786214166e-10,
        1.43e-322,
        2.89450054e-315,
        0.04089400884030339
      ],
      [
        0.08919853798444503,
        0.08036566079813505,
        -0.013215947598010775,
        -0.04680706963894232,
        -2.091543261543027e-05,
        9.178903158505275e-07,
        9.199671405432125e-05,
        -1.43e-322,
        2.6203276050934425e-37,
        -3.60692201467e-312,
        2.9608576272876905e-306,
        0.04158936880293909
      ],
      [
        0.1148479671614154,
        0.13260469887430404,
        -0.024333739681338437,
        -0.023684369393319814,
        4.185304508821012e-06,
        -6.783509416601328e-06,
        5.5993224865345214e-05,
        2.3754924695637814e-06,
        -4.8838357619847095e-05,
        6.3786809205416325e-165,
        -7.4550760632955e-311,
        0.04004340884727354
      ]
    ],
    "weights": [
      [
        0.04276951596488878,
        0.08448778546494597,
        -0.038178172585623824,
        -0.023307592742777977,
        -1.6458577640855547e-06,
        7.289341084350808e-09,
        0.00015367341460960745,
        -5.042823414748007e-273,
        5.722530334144119e-17,
        -1.43e-322,
        1.43e-322,
        0.02685181782787876
      ],
      [
        0.23827843780695127,
        0.07119036329332559,
        -0.18853547146010732,
        -0.048322629860752545,
        0.00026882757614862606,
        -4.064041368504382e-05,
        -0.000806521543686654,
        1.43e-322,
        2.1813660647864405e-12,
        1.43e-322,
        7.80264e-318,
        0.039619120926499926
      ],
      [
        0.08949688741872813,
        0.08068239341728495,
        -0.01314351579214826,
        -0.0467530210179466,
        -7.308128019675104e-06,
        3.4939474568556523e-06,
        1.746610022591898e-05,
        -1.43e-322,
        7.0635586436418035e-40,
        -9.72309918e-315,
        7.981517824400037e-309,
        0.041960150043084725
      ],
      [
        0.11669711017456785,
        0.13436899264715543,
        -0.023985376551658943,
        -0.02325115702333932,
        -0.00014346270585345708,
        -2.56869056104541e-06,
        -0.00011143150860201459,
        1.1952884926662339e-07,
        -3.19471227164601e-05,
        1.7194867795822118e-167,
        -2.00964821593e-313,
        0.042240914990105474
      ]
    ]
  },
  "cues": [
    [
      6,
      9
    ],
    [
      2,
      3
    ],
    [
      2,
      1
    ],
    [
      2,
      4
    ],
    [
      0,
      7
    ]
  ],
  "env": {
    "delay": 0,
    "grid_size": 10,
    "max_steps": 200,
    "noise": 0.3,
    "num_cues": 5,
    "reward_sparse_prob": 1.0
  },
  "seed": 24
}