{
  "agent": {
    "action_size": 4,
    "cue_exploration_bias": 0.3333333333333333,
    "cue_regularization": 0.01666666666666667,
    "epsilon": 0.05,
    "state_size": 11,
    "target_weights": [
      [
        0.042292560933506425,
        0.07902630523119701,
        -0.04738480998033852,
        -0.005274042237583985,
        -5.654952544513171e-06,
        3.218257392513508e-08,
        1.9597492616347632e-13,
        1.43e-322,
        1.43e-322,
        2.7214888726045125e-07,
        3.406340348024623e-19,
        0.03342450710460417
      ],
      [
        0.08830197958358733,
        0.12027397272305408,
        -0.05246871764419383,
        -0.037466244737297066,
        0.00015170951833535725,
        3.1297724681547635e-05,
        -9.63554315703822e-06,
        -1.43e-322,
        5.543326359585995e-42,
        -1.975537101252772e-05,
        1.6562618703116465e-05,
        0.10842161782266022
      ],
      [
        0.09473833252944446,
        0.1031545498691181,
        -0.04745410289936398,
        -0.005427281122705007,
        -7.43695733431414e-07,
        1.0553106339294276e-07,
        2.425058059218961e-71,
        1.43e-322,
        -2.868077393562736e-243,
        -4.776465144496506e-13,
        3.912606654337583e-69,
        0.05472901056644895
      ],
      [
        0.08290760836158015,
        0.2271780491263512,
        -0.04212265545665472,
        -0.16870475282622366,
        0.00040318397967221986,
        -0.00014223991227894843,
        1.1777343624033422e-05,
        3.48476445352466e-310,
        1.43e-322,
        0.0001450345056412659,
        -0.00017534584207001068,
        0.04824834496099129
      ]
    ],
    "weights": [
      [
        0.042292560933506425,
        0.07902630523119701,
        -0.04738480998033852,
        -0.005274042237583985,
        -3.8419416626876744e-07,
        2.1864652373691484e-09,
        1.3314421787679545e-14,
        1.43e-322,
        1.43e-322,
        1.848963612319812e-08,
        2.3142476965731055e-20,
        0.03342450710460417
      ],
      [
        0.08830975160682866,
        0.1203024187849049,
        -0.052411714721215336,
        -0.037429915852928076,
        1.4414278184786962e-06,
        5.88042149910081e-06,
        -6.546331628117529e-07,
        -1.43e-322,
        3.766103485949181e-43,
        4.351968253071958e-06,
        1.125254621286859e-06,
        0.10848639276888006
      ],
      [
        0.09478103331684302,
        0.10318776159265032,
        -0.04745410289936398,
        -0.005417792058838657,
        -2.5391257376591264e-06,
        4.219362994812939e-07,
        1.6475702525903223e-72,
        1.43e-322,
        -1.948554995537981e-244,
        -3.245102464532962e-14,
        2.658202062118753e-70,
        0.05477171135384753
      ],
      [
        0.08450411411840346,
        0.22845885621292764,
        -0.04230257238984812,
        -0.16856897108917018,
        -0.0004983494124033949,
        -0.00010967975005830856,
        1.6113273146549852e-05,
        2.367528574866e-311,
        1.43e-322,
        9.853559430682372e-06,
        -7.086550029669691e-05,
        0.04966493378462112
      ]
    ]
  },
  "cues": [
    [
      3,
      5
    ],
    [
      6,
      2
    ],
    [
      3,
      0
    ],
    [
      1,
      2
    ],
    [
      3,
      8
    ]
  ],
  "env": {
    "delay": 0,
    "grid_size": 10,
    "max_steps": 200,
    "noise": 0.3,
    "num_cues": 5,
    "reward_sparse_prob": 1.0
  },
  "seed": 8
}