{
  "agent": {
    "action_size": 4,
    "cue_exploration_bias": 0.3333333333333333,
    "cue_regularization": 0.01666666666666667,
    "epsilon": 0.05,
    "state_size": 11,
    "target_weights": [
      [
        0.11498722528462298,
        0.15134945785740295,
        0.05656996880675448,
        0.03246957020923274,
        -8.686236417500451e-06,
        -3.768183926148212e-06,
        9.586676554120491e-222,
        1.2249818866132146e-66,
        -2.5684150836416616e-221,
        3.6745655775960447e-07,
        5.158688740041675e-78,
        0.17363488638033983
      ],
      [
        0.2896678842333215,
        0.187301511295612,
        -0.01937832079263682,
        0.0539467806958233,
        -0.00016494567715751108,
        7.065699623233249e-06,
        2.538610548328048e-221,
        4.3153497487441636e-70,
        -3.0010606404524975e-221,
        -0.00022049715167912306,
        -5.8274707834633e-05,
        0.25070178111121455
      ],
      [
        0.12794278535145384,
        0.12460075402143715,
        0.025245448012069467,
        0.05247756277110257,
        -0.00011175587011278727,
        -2.3545730518694472e-05,
        -1.6879628367243058e-221,
        5.772851142593602e-61,
        -1.7784170252134648e-221,
        0.00032386964988619945,
        2.2096568064752285e-73,
        0.1697392045971489
      ],
      [
        0.22288623680252864,
        0.25115999726153104,
        0.060089490183343225,
        -0.012434975278529062,
        -1.9997654284356798e-05,
        -2.7202218331408486e-05,
        -2.3974761286646264e-221,
        -2.400205219469967e-20,
        1.400658182991684e-221,
        -0.00012512822644654743,
        1.0504637304387339e-18,
        0.2495098066678562
      ]
    ],
    "weights": [
      [
        0.11522421518231149,
        0.15155219203799172,
        0.056838414299533166,
        0.03277227141911115,
        -1.543753858481509e-05,
        3.6001047100497407e-06,
        1.4593294131205375e-222,
        1.864725577818929e-67,
        -3.909763363247828e-222,
        5.593598154223035e-08,
        7.852800883577116e-79,
        0.17414032177080702
      ],
      [
        0.28983989538365296,
        0.18744781608846184,
        -0.019202399760897985,
        0.054148408085043585,
        -7.255255473681537e-05,
        5.222652496505146e-05,
        3.8643934847690876e-222,
        6.569030237635287e-71,
        -4.5683569675544084e-222,
        -0.00037190762215508997,
        -8.870852657225976e-06,
        0.25104971329328446
      ],
      [
        0.12817809976672673,
        0.12483606843671007,
        0.025542528253251366,
        0.05277464301228447,
        -9.725177936041068e-06,
        -1.8157905108968066e-05,
        -2.569497157831407e-222,
        8.787708047094151e-62,
        -2.707190817419245e-222,
        4.930097551824016e-05,
        3.3636444834527257e-74,
        0.17027159925360372
      ],
      [
        0.22369055268042962,
        0.2521241997546434,
        0.06055851731599584,
        -0.012125834761087697,
        -7.904619715694706e-05,
        -0.0001256575680759632,
        -3.6495519714919904e-222,
        -3.653706323066101e-21,
        2.132148375538114e-222,
        -9.758167051147687e-05,
        1.5990657560952918e-19,
        0.25078314967841
      ]
    ]
  },
  "cues": [
    [
      2,
      9
    ],
    [
      1,
      4
    ],
    [
      1,
      7
    ],
    [
      7,
      7
    ],
    [
      6,
      3
    ]
  ],
  "env": {
    "delay": 10,
    "grid_size": 10,
    "max_steps": 200,
    "noise": 0.0,
    "num_cues": 5,
    "reward_sparse_prob": 1.0
  },
  "seed": 1
}