{
  "agent": {
    "action_size": 4,
    "cue_exploration_bias": 0.16666666666666666,
    "cue_regularization": 0.020833333333333336,
    "epsilon": 0.05,
    "state_size": 11,
    "target_weights": [
      [
        0.09104482982529336,
        0.10856481262473715,
        -0.012285158057616931,
        0.04903937118338421,
        -1.408234378140218e-05,
        -2.9948990965418364e-06,
        1.565052502924995e-205,
        2.509666169959124e-08,
        3.761765610044115e-07,
        7.739506223951042e-31,
        5.052967120031751e-84,
        0.11727642791911237
      ],
      [
        0.2487562744075224,
        0.22333354614952772,
        -0.0929944272050162,
        -0.020597232900657233,
        -0.00029934309808105807,
        1.7548306130214852e-05,
        5.400170229659865e-118,
        -1.5968372770698668e-05,
        1.917396662433757e-05,
        7.427336893925921e-38,
        1.0540551608473372e-79,
        0.22835020308577406
      ],
      [
        0.10180912738768562,
        0.12470038061725584,
        -0.0029972351260231945,
        0.0245545507607391,
        -5.883073821249505e-05,
        -6.197440360581214e-06,
        3.048561392764641e-301,
        2.1437074853094193e-17,
        5.877639459473477e-06,
        3.1576480309392553e-263,
        -2.60555e-319,
        0.10625667319803059
      ],
      [
        0.21634681869554778,
        0.269204138547922,
        -0.004188260670984582,
        -0.039357237128156655,
        -0.0006429661375219485,
        -0.00010103228307291681,
        -2.5505980049927525e-163,
        1.4482814695362138e-05,
        1.837532062455606e-05,
        1.8297800139793963e-09,
        -9.571906612535638e-62,
        0.2196219500806298
      ]
    ],
    "weights": [
      [
        0.0926505977827065,
        0.10955437346162324,
        -0.011814153970390756,
        0.05012658239113741,
        -3.356855663288428e-06,
        -3.3888561508226357e-06,
        1.3254196948782444e-208,
        5.2333870733858194e-05,
        8.717771292639533e-06,
        1.8714246605084905e-05,
        4.279282724346568e-87,
        0.11935319996375168
      ],
      [
        0.25490811878072694,
        0.22894682941100944,
        -0.0933038291914968,
        -0.020368073775415274,
        -0.0007361776270899852,
        5.694540110090996e-05,
        4.57332387553096e-121,
        -3.413928292040444e-05,
        1.0016965741737508e-07,
        6.290101182744165e-41,
        8.926636435928384e-83,
        0.23419264547249785
      ],
      [
        0.10247374006747477,
        0.12544806988201862,
        -0.0029141585410495515,
        0.0245545507607391,
        -1.7560097895936062e-06,
        -3.464859025195118e-07,
        2.581781316258727e-304,
        1.81547399577763e-20,
        4.977685467049802e-09,
        2.67416516818348e-266,
        -2.37e-322,
        0.10700436246279338
      ],
      [
        0.21619060256643427,
        0.2693439377709631,
        -0.0035791966451684345,
        -0.03904418845449477,
        0.0003222278047977509,
        2.8364711865624567e-06,
        -2.160063527080642e-166,
        3.1241298827733145e-06,
        -1.6316211994695694e-05,
        2.2068511713730148e-08,
        -8.10630539108378e-65,
        0.2200747979773325
      ]
    ]
  },
  "cues": [
    [
      3,
      5
    ],
    [
      6,
      2
    ],
    [
      3,
      0
    ],
    [
      1,
      2
    ],
    [
      3,
      8
    ]
  ],
  "env": {
    "delay": 0,
    "grid_size": 10,
    "max_steps": 200,
    "noise": 0.1,
    "num_cues": 5,
    "reward_sparse_prob": 1.0
  },
  "seed": 8
}