{
  "agent": {
    "action_size": 4,
    "cue_exploration_bias": 0.3333333333333333,
    "cue_regularization": 0.01666666666666667,
    "epsilon": 0.05,
    "state_size": 11,
    "target_weights": [
      [
        0.06396841152565885,
        0.09548239531056028,
        -0.03500945096681508,
        -0.01347939341949365,
        -4.810560468333831e-06,
        -7.110781561146599e-05,
        1.43e-322,
        9.695326215635756e-301,
        -1.43e-322,
        -1.43e-322,
        2.42643974297277e-310,
        0.06007772235129491
      ],
      [
        0.10262552603421288,
        0.09903685328253525,
        -0.02394155065409039,
        -0.04666670951510893,
        1.7654518719947835e-05,
        3.0046869469556516e-05,
        1.43e-322,
        -3.009812362594139e-14,
        6.26733190683526e-21,
        1.365237440888671e-55,
        -1.4694037449713068e-21,
        0.08659411352108197
      ],
      [
        0.03722782839510139,
        0.05596563097897306,
        -0.020793728269087305,
        -0.019416316409906605,
        9.347507697810781e-06,
        -2.4652542320128177e-05,
        5.925875646915085e-28,
        -1.43e-322,
        -1.43e-322,
        -1.43e-322,
        -1.43e-322,
        0.040751926476003404
      ],
      [
        0.08063815440640397,
        0.23852055793981566,
        -0.03582022677625096,
        -0.19621545040046712,
        0.0002792325172937963,
        0.000578354901627117,
        -9.638897894542872e-07,
        4.568305582954721e-302,
        2.609758360405881e-58,
        1.43e-322,
        3.39290795449083e-188,
        0.03474667696150177
      ]
    ],
    "weights": [
      [
        0.06396841152565885,
        0.09548239531056028,
        -0.03500945096681508,
        -0.01347939341949365,
        -4.810560468333831e-06,
        -7.110781561146599e-05,
        1.43e-322,
        9.695326215635756e-301,
        -1.43e-322,
        -1.43e-322,
        2.42643974297277e-310,
        0.06007772235129491
      ],
      [
        0.10262552603421288,
        0.09903685328253525,
        -0.02394155065409039,
        -0.04666670951510893,
        1.7654518719947835e-05,
        3.0046869469556516e-05,
        1.43e-322,
        -3.009812362594139e-14,
        6.26733190683526e-21,
        1.365237440888671e-55,
        -1.4694037449713068e-21,
        0.08659411352108197
      ],
      [
        0.03722782839510139,
        0.05596563097897306,
        -0.020793728269087305,
        -0.019416316409906605,
        9.347507697810781e-06,
        -2.4652542320128177e-05,
        5.925875646915085e-28,
        -1.43e-322,
        -1.43e-322,
        -1.43e-322,
        -1.43e-322,
        0.040751926476003404
      ],
      [
        0.08063815440640397,
        0.23852055793981566,
        -0.03582022677625096,
        -0.19621545040046712,
        0.0002792325172937963,
        0.000578354901627117,
        -9.638897894542872e-07,
        4.568305582954721e-302,
        2.609758360405881e-58,
        1.43e-322,
        3.39290795449083e-188,
        0.03474667696150177
      ]
    ]
  },
  "cues": [
    [
      1,
      9
    ],
    [
      8,
      3
    ],
    [
      4,
      4
    ],
    [
      4,
      1
    ],
    [
      7,
      4
    ]
  ],
  "env": {
    "delay": 0,
    "grid_size": 10,
    "max_steps": 200,
    "noise": 0.3,
    "num_cues": 5,
    "reward_sparse_prob": 1.0
  },
  "seed": 14
}