{
  "agent": {
    "action_size": 4,
    "cue_exploration_bias": 0.3,
    "cue_regularization": 0.017499999999999998,
    "epsilon": 0.05,
    "state_size": 11,
    "target_weights": [
      [
        -0.005769340704874585,
        -0.012657460233749732,
        -0.024831797466083525,
        -0.039013738818405364,
        -3.5015292164395245e-06,
        -5.151705749105551e-06,
        3.575895435831703e-08,
        7.315687706737987e-54,
        2.7860438418425396e-06,
        3.927229605118639e-10,
        8.251025521157458e-10,
        -0.06499247066549912
      ],
      [
        0.01996059848507958,
        0.0020790185820695594,
        -0.05168060731565131,
        -0.029754076370404076,
        1.124814723039732e-05,
        -1.2811461568824597e-05,
        -1.4301844936248123e-05,
        -9.7831755235464e-06,
        -7.538519157313741e-05,
        2.3516906177805468e-05,
        -4.9959219992876615e-06,
        -0.04519348372242448
      ],
      [
        -0.02903631054650068,
        -0.009038598183824562,
        -0.048036684471803585,
        -0.03889919946253281,
        -1.5676185835241915e-08,
        -1.3730147498288226e-06,
        1.2357557220521818e-05,
        5.600458883119279e-15,
        9.265419851127143e-07,
        1.939392054208977e-06,
        3.9298802643085264e-21,
        -0.043600672159834195
      ],
      [
        0.018699261097654473,
        0.022333757699718095,
        -0.024712451916965934,
        -0.036409177727137004,
        1.289469252294586e-06,
        2.5829799927657783e-06,
        -2.357002438817986e-05,
        -5.692889901804227e-06,
        1.631906733912057e-06,
        -3.462834902339445e-08,
        -7.018405541228762e-06,
        -0.06309468391431229
      ]
    ],
    "weights": [
      [
        -0.005468770658021801,
        -0.012351624332008971,
        -0.024803286098789998,
        -0.03899049330599981,
        -2.8256947013587626e-06,
        -2.882106460149566e-06,
        1.0150838522809386e-05,
        4.529311225186e-56,
        1.908998873151751e-06,
        7.273841008333106e-07,
        1.984224821987373e-06,
        -0.06466338925135277
      ],
      [
        0.019760861431700468,
        0.0019237214875064263,
        -0.05155236321226669,
        -0.02967027222583543,
        4.827807982023667e-06,
        -3.271761003527273e-06,
        -4.032911366926824e-06,
        -1.0492792448249363e-05,
        -7.877072979548822e-05,
        7.452288572135824e-06,
        -1.1396853186505207e-05,
        -0.045264976672419
      ],
      [
        -0.0287937250749146,
        -0.00876155762252865,
        -0.04797840499913947,
        -0.038875375079578535,
        2.8376092220311655e-07,
        -8.221763776491219e-06,
        7.527323751333171e-05,
        3.1041020323550184e-06,
        8.215625433996455e-05,
        1.2007224137075757e-08,
        2.4330796376635235e-23,
        -0.043299807215584
      ],
      [
        0.018426632152099814,
        0.022074469252114273,
        -0.0247530554698039,
        -0.0364631217779258,
        1.5014932145408126e-06,
        6.177792327745444e-06,
        -4.412514105042378e-06,
        -7.928893366809566e-06,
        1.4800903680883637e-05,
        3.5984973015909085e-07,
        -4.932808956925693e-06,
        -0.06340791641270495
      ]
    ]
  },
  "cues": [
    [
      7,
      8
    ],
    [
      7,
      7
    ],
    [
      8,
      9
    ],
    [
      3,
      2
    ],
    [
      8,
      7
    ]
  ],
  "env": {
    "delay": 0,
    "grid_size": 10,
    "max_steps": 200,
    "noise": 0.0,
    "num_cues": 5,
    "reward_sparse_prob": 0.1
  },
  "seed": 11
}