{
  "agent": {
    "action_size": 4,
    "cue_exploration_bias": 0.16666666666666666,
    "cue_regularization": 0.020833333333333336,
    "epsilon": 0.05,
    "state_size": 11,
    "target_weights": [
      [
        0.05977350566660249,
        0.026880012957928277,
        -0.005890954822046992,
        -0.018086368750230994,
        -0.00017518487042096964,
        -1.6069885643448764e-05,
        3.4632107473460467e-06,
        1.14e-322,
        5.7258908117443575e-291,
        2.35822e-318,
        2.5494902756915064e-271,
        0.030839297372806572
      ],
      [
        0.11195119296545743,
        0.08593747919718146,
        -0.06054833550085527,
        -0.004428425393365467,
        -0.0007024480980359542,
        4.254359208017368e-05,
        -3.887020444107321e-05,
        -3.509764676991023e-198,
        1.737021736067266e-273,
        8.215043804118313e-192,
        -1.3505789379891511e-219,
        0.06588014562697336
      ],
      [
        0.04489378210704011,
        0.03964410609164588,
        -0.03175397116592079,
        0.002366606233815361,
        -8.280880865187126e-06,
        -1.1419086949819858e-06,
        7.294739269093771e-26,
        -2.2908529350228407e-260,
        1.80121513e-316,
        1.73e-322,
        2.5305096411063772e-290,
        0.028333119262716637
      ],
      [
        0.0702575073877588,
        0.11363640790999416,
        -0.014318081284706966,
        -0.05658056026983417,
        0.00042901726226291247,
        7.365959848904471e-05,
        4.708771737669395e-09,
        1.091498819663324e-217,
        -3.6610546511146945e-239,
        -1.279037836048558e-207,
        2.6094267047687214e-217,
        0.07877484722394337
      ]
    ],
    "weights": [
      [
        0.05977350566660249,
        0.026880012957928277,
        -0.005890954822046992,
        -0.018086368750230994,
        -6.376970135976716e-05,
        -5.849659310794413e-06,
        1.2606563259343984e-06,
        1.14e-322,
        2.0843029777979366e-291,
        8.58414e-319,
        9.280495119800994e-272,
        0.030839297372806572
      ],
      [
        0.11346507876973057,
        0.08723570615660052,
        -0.06062283000594923,
        -0.0042872610536053846,
        -0.0013669095109968695,
        6.28951394463385e-05,
        -2.0624444416338106e-05,
        -1.2776025963711661e-198,
        6.322997933454805e-274,
        2.9903888891042207e-192,
        -4.9162930184209795e-220,
        0.06731953692615249
      ],
      [
        0.04490984579706294,
        0.03965481521832776,
        -0.031721843785875135,
        0.002404088177201957,
        3.31223375962609e-06,
        -4.156704644878182e-07,
        2.6553853855623453e-26,
        -8.339019641051486e-261,
        6.55667e-317,
        1.14e-322,
        9.211403000361455e-291,
        0.02838131033278512
      ],
      [
        0.07309662826647954,
        0.1168964356766557,
        -0.013863770404039457,
        -0.05654715627710743,
        -0.000845307963961783,
        -0.00014392702204310594,
        1.7140576509884836e-09,
        3.9732057681241907e-218,
        -1.3326742269600978e-239,
        -4.6558735715396675e-208,
        9.49867196199292e-218,
        0.08206827898333165
      ]
    ]
  },
  "cues": [
    [
      5,
      2
    ],
    [
      6,
      0
    ],
    [
      1,
      8
    ],
    [
      1,
      5
    ],
    [
      9,
      0
    ]
  ],
  "env": {
    "delay": 0,
    "grid_size": 10,
    "max_steps": 200,
    "noise": 0.0,
    "num_cues": 5,
    "reward_sparse_prob": 0.5
  },
  "seed": 7
}