{
  "agent": {
    "action_size": 4,
    "cue_exploration_bias": 0.16666666666666666,
    "cue_regularization": 0.020833333333333336,
    "epsilon": 0.05,
    "state_size": 11,
    "target_weights": [
      [
        0.06427293858408052,
        0.03835660026613311,
        -0.004385213194119522,
        -0.023981327894267847,
        -7.351004565283467e-06,
        6.928515421659063e-06,
        -1.14e-322,
        1.6425043084450995e-05,
        2.916738575007392e-157,
        2.50389531916772e-172,
        9.459737305521135e-41,
        0.027283510723325573
      ],
      [
        0.15968351281522714,
        0.08690980382645974,
        -0.033329713286421155,
        -0.012012128016254417,
        7.272068366863442e-05,
        -0.0013808120075798312,
        -2.917621947557363e-159,
        4.593183956236021e-07,
        -1.5353622100359757e-06,
        1.0810026747759502e-174,
        6.754774147715829e-06,
        0.07174680253216696
      ],
      [
        0.04585532643219615,
        0.023465928762199887,
        -0.004172830870123397,
        -0.02183369410570232,
        2.654360123051894e-05,
        1.6806137510761006e-05,
        6.80341538614572e-155,
        2.7380689614073045e-09,
        2.933893357371808e-172,
        -1.14e-322,
        3.760492726619544e-13,
        0.024375539053932707
      ],
      [
        0.07875275146057757,
        0.1453247004405246,
        -0.023598746059696366,
        -0.03030673837718846,
        -1.4232385014053622e-06,
        0.00013258062727774408,
        5.0986825758354876e-142,
        -2.5923776986051333e-11,
        2.3482667496091404e-94,
        -2.8651890846817858e-152,
        -2.0845801353639355e-05,
        0.08144665424373565
      ]
    ],
    "weights": [
      [
        0.06514257880784655,
        0.03933607597175723,
        -0.004236765037020978,
        -0.023942715219027376,
        -1.394138677859125e-05,
        1.031721220730345e-06,
        -1.14e-322,
        1.4702443627649342e-07,
        2.610841521398043e-159,
        2.241295781710815e-174,
        8.467634072659391e-43,
        0.02830159910419016
      ],
      [
        0.1574396418968376,
        0.08446192682982508,
        -0.03370697716449035,
        -0.012185385816078385,
        0.00016340329729594294,
        -1.3276664719318142e-05,
        -2.611632249011442e-161,
        3.304860512132996e-06,
        -1.3743389423706667e-08,
        9.67631001362623e-177,
        -7.4082646629478136e-06,
        0.0691256677357083
      ],
      [
        0.04624050535388465,
        0.023899255049099448,
        -0.004124683504912334,
        -0.02183369410570232,
        -6.889382557778277e-05,
        1.504357024088414e-07,
        6.089897644468367e-157,
        2.4509101344042397e-11,
        2.6261971718740026e-174,
        -1.14e-322,
        3.366105771597566e-15,
        0.02480886534083227
      ],
      [
        0.08080934250703385,
        0.14744817879212768,
        -0.02289194077766359,
        -0.02966682040030256,
        -0.0004227020143149609,
        6.575057065679962e-06,
        4.5639510813499216e-144,
        -2.3204984473616844e-13,
        2.1019889769114538e-96,
        -2.5646983562538507e-154,
        1.3855036625685292e-05,
        0.08421005057222475
      ]
    ]
  },
  "cues": [
    [
      8,
      1
    ],
    [
      5,
      9
    ],
    [
      9,
      4
    ],
    [
      1,
      8
    ],
    [
      5,
      6
    ]
  ],
  "env": {
    "delay": 0,
    "grid_size": 10,
    "max_steps": 200,
    "noise": 0.0,
    "num_cues": 5,
    "reward_sparse_prob": 0.5
  },
  "seed": 29
}