{
  "agent": {
    "action_size": 4,
    "cue_exploration_bias": 0.10000000000000002,
    "cue_regularization": 0.022500000000000003,
    "epsilon": 0.05,
    "state_size": 11,
    "target_weights": [
      [
        0.026315162817621304,
        0.06191929866781895,
        -0.03188375471408552,
        -0.010899041221379895,
        5.136809552646118e-06,
        3.582568976319258e-06,
        1.0804402744308147e-29,
        1.8248122688265694e-05,
        2.3805270910030905e-113,
        1.700418366189537e-23,
        8.772668039795479e-140,
        0.016691882552149352
      ],
      [
        0.18132526094392232,
        0.11834226910606785,
        -0.0460556081691003,
        -0.009947849245517238,
        0.00022488178874356638,
        -5.9508357068707386e-05,
        -1.1963364435315317e-05,
        1.7024989470765967e-05,
        -7.712318799084538e-06,
        4.475536817065476e-08,
        4.350704636656386e-111,
        0.12514580735447875
      ],
      [
        0.06947230207648337,
        0.05676517643853833,
        0.0052982395530244905,
        -0.02441863403627174,
        -6.111416284807358e-07,
        5.9256783592039586e-05,
        2.008449393744928e-18,
        2.8988877139365487e-18,
        6.197796532549603e-35,
        5.077087238365824e-113,
        -1.1e-322,
        0.04037732004601212
      ],
      [
        0.1417818572079583,
        0.1990457233389388,
        0.00440083001887223,
        -0.0344569341112016,
        -9.712987944836188e-05,
        -0.00011401560608197424,
        -5.550504225153075e-06,
        -2.592682261984085e-05,
        3.4422846551769884e-05,
        -4.9388045342316424e-05,
        -2.1332198681212174e-110,
        0.09571186859402839
      ]
    ],
    "weights": [
      [
        0.026495450283662392,
        0.06209958613386004,
        -0.031454263152738596,
        -0.010469549660032974,
        7.817406373985465e-06,
        3.932995599031765e-06,
        1.731565541296191e-33,
        2.9245318957581597e-09,
        3.8151471936517255e-117,
        2.725172245390517e-27,
        1.4059499671041723e-143,
        0.017301661579537365
      ],
      [
        0.18837718458866193,
        0.12444258221760872,
        -0.045639227900043704,
        -0.008579858443261899,
        -0.00020149431722400158,
        7.3301653363721e-05,
        -2.8859212157137777e-05,
        1.1364472386492392e-05,
        -7.274174003257787e-06,
        3.511330336651627e-07,
        6.972648472550231e-115,
        0.1326141112682749
      ],
      [
        0.07161088770968183,
        0.05898192153133033,
        0.005858616248975529,
        -0.02393641679991425,
        -4.361366977968113e-06,
        1.632602193050269e-06,
        3.2188375831121814e-22,
        4.6458968555053195e-22,
        9.932886770054549e-39,
        8.136784161197855e-117,
        -1.1e-322,
        0.0430762823751616
      ],
      [
        0.14235156533058616,
        0.20086361273116132,
        0.00466643228193653,
        -0.03543951311773199,
        0.00011771087087333738,
        -0.00010606451585913578,
        -8.5448589839724e-06,
        -6.564567948371377e-06,
        5.516770925053851e-09,
        -1.9008366719749004e-05,
        -3.418800745458186e-114,
        0.09654717897972054
      ]
    ]
  },
  "cues": [
    [
      6,
      9
    ],
    [
      2,
      3
    ],
    [
      2,
      1
    ],
    [
      2,
      4
    ],
    [
      0,
      7
    ]
  ],
  "env": {
    "delay": 0,
    "grid_size": 10,
    "max_steps": 200,
    "noise": 0.0,
    "num_cues": 5,
    "reward_sparse_prob": 0.7
  },
  "seed": 24
}