{
  "agent": {
    "action_size": 4,
    "cue_exploration_bias": 0.08333333333333333,
    "cue_regularization": 0.02291666666666667,
    "epsilon": 0.05,
    "state_size": 11,
    "target_weights": [
      [
        0.10573108836344411,
        0.06724126180117211,
        0.02164435978869729,
        0.015045279714110961,
        1.20581770837692e-06,
        -2.2520233261392453e-06,
        3.756100289834195e-05,
        3.999205015661829e-239,
        -1.04e-322,
        2.7132124991259674e-247,
        6.527861182820921e-180,
        0.10433219468039232
      ],
      [
        0.2555633535836761,
        0.20881557743907236,
        -0.06746418335898953,
        0.009389789124826726,
        -0.00033979601270777544,
        0.00014068601217136133,
        -2.676017989134951e-05,
        -1.0908463398727015e-51,
        6.8799051573127734e-164,
        2.7736904714896145e-189,
        -1.4234758534880718e-168,
        0.20257645838705685
      ],
      [
        0.09448098052520254,
        0.09575893128428763,
        -0.003511604839239996,
        0.024081345786016575,
        -3.826698261726972e-06,
        -6.908075037005178e-07,
        2.7864646419987044e-28,
        9.783739724437342e-193,
        1.04e-322,
        5.598838446979025e-250,
        1.5586534385418357e-203,
        0.10616268400755989
      ],
      [
        0.19793723588898757,
        0.24594379679164413,
        0.0017096837513865353,
        -0.04518045561416403,
        3.486203571751777e-05,
        1.8064887519853476e-05,
        3.767076243764629e-06,
        3.1572148710495454e-102,
        -1.633617713311268e-226,
        -3.0205015555579326e-08,
        2.467150799146009e-165,
        0.22248234076126444
      ]
    ],
    "weights": [
      [
        0.10730797013480252,
        0.06902652410177147,
        0.02209489743765683,
        0.015287436833829538,
        -8.436702971169223e-05,
        -2.5029248326265066e-05,
        2.25346536903381e-08,
        2.3993155962451858e-242,
        -1.04e-322,
        1.6277867825195752e-250,
        3.916378151339612e-183,
        0.10635961410071025
      ],
      [
        0.2580963338521316,
        0.21098784321893613,
        -0.06775177456790035,
        0.009462912404507409,
        -0.0001116304636658999,
        0.00014575357369190527,
        -4.984807519794145e-08,
        -6.544512287101173e-55,
        4.1275862777683705e-167,
        1.6640704293326557e-192,
        -8.540116855167386e-172,
        0.20482184744660129
      ],
      [
        0.0962063725456827,
        0.09747304294025372,
        -0.002850579454856391,
        0.024753651534914246,
        -0.0008624496653658436,
        -9.749697786992927e-05,
        1.6717342691236963e-31,
        5.869736414741249e-196,
        1.04e-322,
        3.359012692294013e-253,
        9.351112257533835e-207,
        0.10854910141242366
      ],
      [
        0.1995203404434393,
        0.24756489008527433,
        0.002224076311724461,
        -0.044704051793004546,
        -4.519767888564102e-05,
        1.101085655518065e-06,
        1.9735411102754798e-06,
        1.894165178114232e-105,
        -9.800859026982068e-230,
        -1.81214427926338e-11,
        1.480162524176114e-168,
        0.22457983787605423
      ]
    ]
  },
  "cues": [
    [
      5,
      2
    ],
    [
      6,
      0
    ],
    [
      1,
      8
    ],
    [
      1,
      5
    ],
    [
      9,
      0
    ]
  ],
  "env": {
    "delay": 0,
    "grid_size": 10,
    "max_steps": 200,
    "noise": 0.05,
    "num_cues": 5,
    "reward_sparse_prob": 1.0
  },
  "seed": 7
}