{
  "agent": {
    "action_size": 4,
    "cue_exploration_bias": 0.3,
    "cue_regularization": 0.017499999999999998,
    "epsilon": 0.05,
    "state_size": 11,
    "target_weights": [
      [
        -0.02766377783348508,
        -0.013525466990395104,
        -0.04699058749761631,
        -0.028715130125576388,
        -1.3253216244681417e-05,
        1.2813754433266912e-06,
        9.157607433249524e-05,
        3.4594690727168576e-220,
        1.1779743789561048e-117,
        1.4353946889653523e-05,
        -1.4e-322,
        -0.052913742498153046
      ],
      [
        0.028107705235925436,
        -0.00842777032685333,
        -0.03726941729174239,
        -0.051647539274705896,
        1.5917788483954706e-05,
        1.8455877958683292e-05,
        3.3398172612564752e-06,
        -1.3841832987824286e-64,
        7.3634872467098725e-06,
        -0.0001049855643293887,
        5.060703155925921e-77,
        -0.03222751258905176
      ],
      [
        -0.010583019269951581,
        -0.03218572865805561,
        -0.03809031155783206,
        -0.05626964555129436,
        1.2637539459898126e-08,
        1.1873377538382235e-05,
        3.8630246340956765e-21,
        4.371062552647748e-115,
        1.698510636942872e-09,
        7.731001580389898e-10,
        1.7850663929935624e-203,
        -0.03254582131519185
      ],
      [
        0.007322383594893161,
        0.0022918383595519013,
        -0.03386111553213606,
        -0.07085422647127736,
        1.7495370556597032e-05,
        -1.1514115854206386e-05,
        -5.633891257144848e-18,
        1.6984551966435879e-56,
        -9.083064005001587e-08,
        2.900836014388638e-05,
        -6.86026335659536e-129,
        -0.022324416725243983
      ]
    ],
    "weights": [
      [
        -0.02766377783348508,
        -0.013525466990395104,
        -0.04699058749761631,
        -0.028715130125576388,
        -5.679160184533525e-06,
        5.490845591612742e-07,
        3.924143284191097e-05,
        1.4824234853394987e-220,
        5.047759779859329e-118,
        6.150836307325993e-06,
        -1.4e-322,
        -0.052913742498153046
      ],
      [
        0.0280496873857391,
        -0.008474695009148828,
        -0.03725676758685842,
        -0.051645982737712745,
        1.1458655894101509e-05,
        8.840772586424181e-06,
        2.105366235758574e-05,
        -5.931389432882829e-65,
        7.072612169755765e-06,
        -0.0001022657117679893,
        2.168571261365434e-77,
        -0.03227288073435413
      ],
      [
        -0.010583019269951581,
        -0.03218572865805561,
        -0.03808568080405731,
        -0.05626501479751961,
        3.6870308497820016e-06,
        6.008286829197474e-06,
        1.6553518247038702e-21,
        1.8730520920206467e-115,
        7.278319318304087e-10,
        3.312825773859652e-10,
        7.64922098807994e-204,
        -0.0325411905614171
      ],
      [
        0.007268471389945958,
        0.0022324295921464054,
        -0.033876750935487025,
        -0.07086436531217004,
        1.9287445569286247e-05,
        -2.0224702583496e-05,
        -2.4141891538522663e-18,
        7.278081750053103e-57,
        -3.892200541998672e-08,
        2.0632431366071825e-05,
        -2.939704128484716e-129,
        -0.022393964333542148
      ]
    ]
  },
  "cues": [
    [
      3,
      9
    ],
    [
      8,
      2
    ],
    [
      5,
      9
    ],
    [
      7,
      9
    ],
    [
      1,
      9
    ]
  ],
  "env": {
    "delay": 0,
    "grid_size": 10,
    "max_steps": 200,
    "noise": 0.0,
    "num_cues": 5,
    "reward_sparse_prob": 0.1
  },
  "seed": 3
}