{
  "agent": {
    "action_size": 4,
    "cue_exploration_bias": 0.05555555555555555,
    "cue_regularization": 0.02361111111111111,
    "epsilon": 0.05,
    "state_size": 11,
    "target_weights": [
      [
        0.05651823789245669,
        0.027322934057600154,
        -0.03942051735651507,
        -0.04109561006224521,
        3.3753682797861726e-07,
        1.2513428315441774e-06,
        4.375110988363651e-79,
        1.5133688135430638e-07,
        1.04e-322,
        1.2362013077626885e-15,
        5.908684204278815e-09,
        0.03529710133523397
      ],
      [
        0.22089338789588783,
        0.12802173620990145,
        -0.06321645312072878,
        -0.042883063619170346,
        -1.797302464970433e-05,
        0.00018864005867177074,
        -1.97043232693553e-26,
        -2.2354737922457395e-05,
        6.728805146027372e-119,
        -0.0001112736769473643,
        2.9514884793869453e-06,
        0.12234412182225426
      ],
      [
        0.07239452718818047,
        0.036757737051897624,
        -0.030493447688049045,
        -0.02978213412906698,
        -0.00015931184434914296,
        -0.00010125237198404632,
        2.0762153427053737e-170,
        9.317226099545409e-11,
        1.04e-322,
        2.4898335383317115e-258,
        5.21517580587946e-13,
        0.009095606367402188
      ],
      [
        0.1372796751539704,
        0.17860169900915515,
        -0.007380328140403977,
        -0.05539325856782742,
        -0.0001349301413812681,
        -0.0001476598806076879,
        5.5776056396899426e-80,
        -4.9985977837232575e-05,
        -1.04e-322,
        2.46156192421131e-05,
        -0.00012683509011749517,
        0.13067374015316974
      ]
    ],
    "weights": [
      [
        0.0574488758578827,
        0.028016116250974683,
        -0.03926484458451026,
        -0.04070248151818892,
        -0.00022843168925249625,
        -7.597551839754527e-05,
        6.468675446987113e-80,
        2.237541336080125e-08,
        1.04e-322,
        1.8277445002712247e-16,
        8.736089333019238e-10,
        0.03638341207266479
      ],
      [
        0.2208398985391347,
        0.1277005343590282,
        -0.06341629450720772,
        -0.04281519251152916,
        6.257571902891765e-05,
        0.00013592813996579986,
        -2.9133174557395075e-27,
        -2.0355765631310515e-05,
        9.948651988814402e-120,
        -3.063472053265493e-05,
        4.363825537101723e-07,
        0.12209079107902225
      ],
      [
        0.07239452718818047,
        0.036757737051897624,
        -0.030493447688049045,
        -0.02978213412906698,
        -2.355452510110991e-05,
        -1.4970334109109617e-05,
        3.069719430143945e-171,
        1.3775676060437207e-11,
        1.04e-322,
        3.6812609141408825e-259,
        7.710725459751392e-14,
        0.009095606367402188
      ],
      [
        0.14055433432942857,
        0.1818216211109286,
        -0.0067126728669580325,
        -0.0546708662206967,
        -0.0005500204146276143,
        -0.0004850075463009443,
        8.246584086757865e-81,
        -5.2252758381693655e-06,
        -1.04e-322,
        4.468019223630521e-05,
        6.256617818879835e-06,
        0.13461605460207385
      ]
    ]
  },
  "cues": [
    [
      9,
      0
    ],
    [
      6,
      7
    ],
    [
      3,
      7
    ],
    [
      7,
      4
    ],
    [
      2,
      0
    ]
  ],
  "env": {
    "delay": 1,
    "grid_size": 10,
    "max_steps": 200,
    "noise": 0.0,
    "num_cues": 5,
    "reward_sparse_prob": 1.0
  },
  "seed": 10
}