{
  "agent": {
    "action_size": 4,
    "cue_exploration_bias": 0.3333333333333333,
    "cue_regularization": 0.01666666666666667,
    "epsilon": 0.05,
    "state_size": 11,
    "target_weights": [
      [
        0.03822321613968274,
        0.03521508835116431,
        -0.0177797165361284,
        -0.03885081694720419,
        7.555148258696544e-06,
        -4.114129202336713e-05,
        5.154499843699389e-271,
        0.0012710738217053521,
        1.12899447233936e-279,
        4.0987614601681304e-275,
        8.980122029921213e-08,
        0.01908558826122316
      ],
      [
        0.17976840643841122,
        0.1515776568434577,
        -0.11672504425669884,
        -0.022423563980906,
        -0.0001084410331748082,
        -4.8760747192236185e-05,
        3.89768592792944e-245,
        -0.0006514780583995573,
        6.83716984087072e-134,
        2.6777832750121468e-138,
        -0.0001036978233827107,
        0.10191771883227004
      ],
      [
        0.02250565317083385,
        0.04593146905143461,
        -0.03604959531829026,
        -0.03975256716479256,
        -2.844020686101522e-06,
        1.3300728033539813e-06,
        1.43e-322,
        5.3664985577915065e-06,
        5.000414150353221e-301,
        1.57325477810997e-309,
        1.0415662814721692e-29,
        0.019651549480226946
      ],
      [
        0.13469769673991414,
        0.17449600455294476,
        -0.04686057075273644,
        -0.030757598696004387,
        1.323892855144705e-05,
        -1.913634026514454e-05,
        -6.294527436526139e-06,
        0.0012871001616556264,
        -1.2511573118838684e-115,
        -7.061714934694455e-117,
        -7.355432822174294e-06,
        0.11632463440282827
      ]
    ],
    "weights": [
      [
        0.03882638852383078,
        0.035893657283330854,
        -0.017704319988109896,
        -0.03885081694720419,
        6.716648364850898e-07,
        -3.6575270575070906e-06,
        4.5824332973156875e-272,
        0.00021629549194447103,
        1.0036942515105751e-280,
        3.643864887451165e-276,
        7.983472975398353e-09,
        0.0197641571933897
      ],
      [
        0.17878683228566358,
        0.15048949776492757,
        -0.11639290543643598,
        -0.021984840234860727,
        -1.1181830561506664e-05,
        -4.114384560849555e-06,
        3.465105503971438e-246,
        -0.00045442025892497253,
        6.078353999080225e-135,
        2.3805924172080277e-139,
        5.616266794824873e-06,
        0.10126828349978528
      ],
      [
        0.02250565317083385,
        0.04593146905143461,
        -0.03604959531829026,
        -0.03975256716479256,
        -2.5283801504381763e-07,
        1.1824561231471368e-07,
        1.43e-322,
        4.770903565217879e-07,
        4.4454486366812467e-302,
        1.3986488115203e-310,
        9.259691831038706e-31,
        0.019651549480226946
      ],
      [
        0.13604271403149387,
        0.17597462458084157,
        -0.04656044601103827,
        -0.030591076690623217,
        6.330412011195051e-06,
        2.3960405139414568e-05,
        -5.595936170463248e-07,
        0.0004485969580678429,
        -1.1122989814743705e-116,
        -6.277978200435971e-118,
        2.6020577858943305e-06,
        0.1179697764361062
      ]
    ]
  },
  "cues": [
    [
      1,
      2
    ],
    [
      8,
      9
    ],
    [
      2,
      3
    ],
    [
      2,
      7
    ],
    [
      6,
      3
    ]
  ],
  "env": {
    "delay": 0,
    "grid_size": 10,
    "max_steps": 200,
    "noise": 0.2,
    "num_cues": 5,
    "reward_sparse_prob": 1.0
  },
  "seed": 28
}