{
  "agent": {
    "action_size": 4,
    "cue_exploration_bias": 0.16666666666666666,
    "cue_regularization": 0.020833333333333336,
    "epsilon": 0.05,
    "state_size": 11,
    "target_weights": [
      [
        0.020272412876259072,
        0.020522696274926668,
        -0.01752400006724016,
        -0.03266162021326522,
        1.5216510774861519e-06,
        -7.004977521025843e-05,
        5.52237749597132e-05,
        7.637088710860182e-20,
        3.309411722725465e-05,
        -1.14e-322,
        -1.14e-322,
        -0.012869981783291804
      ],
      [
        0.08881535035884758,
        0.0786600738094076,
        -0.0478099138029948,
        -0.03128841498687714,
        -0.00019792687283667985,
        -0.00015210472844512406,
        -1.7150967988966347e-05,
        -1.9035308775275452e-05,
        -0.00011204380267184613,
        -1.4441489363050698e-63,
        -5.909965264543535e-13,
        0.05803206200627687
      ],
      [
        0.01964627402860688,
        0.01785438033142774,
        -0.015963427090676607,
        -0.025855115557157318,
        -5.361480076789781e-07,
        -7.686901832577438e-06,
        1.3755105310743818e-73,
        5.720309503218408e-07,
        1.7182520370440737e-09,
        -1.14e-322,
        -1.14e-322,
        -0.019853524106618385
      ],
      [
        0.07388719905538957,
        0.10886321029783008,
        -0.014248686056612449,
        -0.07787907250481638,
        2.4364343786745524e-05,
        -0.00037007873281299695,
        1.547725901784736e-05,
        2.0722808342228503e-05,
        1.1741287827521543e-05,
        2.575077362948331e-42,
        3.681577298965911e-15,
        0.031016177622885232
      ]
    ],
    "weights": [
      [
        0.0207762569185596,
        0.021132932240176226,
        -0.017354464264056266,
        -0.03259847633303036,
        4.327436671030609e-06,
        -2.327920030956487e-05,
        5.224775007669442e-06,
        7.22552383587794e-21,
        3.1310665870991897e-06,
        -1.14e-322,
        -1.14e-322,
        -0.012196601937807383
      ],
      [
        0.08808799107406697,
        0.07778927295026834,
        -0.04794374402283071,
        -0.03127880363235439,
        -3.135018407352372e-05,
        4.591192004785191e-05,
        -1.1943655748320716e-05,
        -1.5187738662365693e-06,
        -2.7558074390147826e-05,
        -1.3663233408552053e-64,
        -5.5914755615507794e-14,
        0.05717087250166038
      ],
      [
        0.020346441722195928,
        0.018548946017179792,
        -0.015882208387794593,
        -0.025768294846438312,
        -1.6539551240450058e-05,
        -2.4900271404553757e-05,
        1.3013838787345503e-74,
        5.412040402951973e-08,
        1.6256549478144575e-10,
        -1.14e-322,
        -1.14e-322,
        -0.019072137710147326
      ],
      [
        0.07701112203925628,
        0.11238947231395655,
        -0.013822233006847795,
        -0.07785495848731142,
        9.336791264459242e-06,
        -0.00015534317190560128,
        1.4643185143114192e-06,
        2.401164069680092e-05,
        3.807638316956982e-05,
        2.4363057140810945e-43,
        3.4831760549641646e-16,
        0.03456655365651661
      ]
    ]
  },
  "cues": [
    [
      6,
      6
    ],
    [
      0,
      4
    ],
    [
      8,
      7
    ],
    [
      6,
      4
    ],
    [
      7,
      5
    ]
  ],
  "env": {
    "delay": 0,
    "grid_size": 10,
    "max_steps": 200,
    "noise": 0.0,
    "num_cues": 5,
    "reward_sparse_prob": 0.5
  },
  "seed": 0
}