{
  "agent": {
    "action_size": 4,
    "cue_exploration_bias": 0.16666666666666666,
    "cue_regularization": 0.020833333333333336,
    "epsilon": 0.05,
    "state_size": 11,
    "target_weights": [
      [
        0.07619513924167301,
        0.07813765666726116,
        0.02368355756432071,
        -0.02072525421607442,
        -7.268235945279142e-07,
        -1.1307416884591612e-06,
        -8.85098415767e-313,
        -1.14e-322,
        5.721071068651195e-07,
        1.9477381413007396e-07,
        -1.14e-322,
        0.06301621321015352
      ],
      [
        0.21641762849828702,
        0.17721604234927718,
        -0.04332382432318997,
        0.017010287566855926,
        -0.0005864672450419656,
        5.196543310184123e-05,
        -1.7581594742240658e-80,
        -1.1615689015595292e-61,
        1.4203982655814262e-05,
        1.7588182997482359e-06,
        -1.4502664631124253e-13,
        0.20299854556419522
      ],
      [
        0.05421762737144814,
        0.10736600191236781,
        -0.002734071624203263,
        -0.015563224808554446,
        -1.353398546085087e-08,
        -9.873734905042893e-09,
        -1.65816025e-316,
        -1.14e-322,
        2.0482936484185797e-12,
        1.1616376874596142e-59,
        -1.14e-322,
        0.09257647751043437
      ],
      [
        0.19703878361067337,
        0.23918621863681477,
        -8.981685281752485e-05,
        -0.09040427340834041,
        -0.0006510698133897715,
        -0.00017389594083199505,
        2.0681067336592547e-91,
        5.190342047762369e-99,
        0.0002757813581691667,
        -0.00018802691535423224,
        7.460346170205145e-21,
        0.17761628270070273
      ]
    ],
    "weights": [
      [
        0.07619513924167301,
        0.07813765666726116,
        0.02368355756432071,
        -0.02072525421607442,
        -1.7872867499819793e-08,
        -2.780536642798402e-08,
        -2.1764905306e-314,
        -1.14e-322,
        1.4068330463799796e-08,
        4.7895618669925334e-09,
        -1.14e-322,
        0.06301621321015352
      ],
      [
        0.21726977942959297,
        0.17826088883085467,
        -0.042504917772935996,
        0.017636498566838302,
        -0.00011157411409863549,
        2.0247536327294307e-05,
        -4.3233807436823224e-82,
        -2.8563419275029293e-63,
        5.325890487733609e-05,
        4.1907777946151587e-05,
        -3.566260166812067e-15,
        0.204669603045755
      ],
      [
        0.05602382167091826,
        0.1095511712218082,
        -0.002178067287102117,
        -0.015386195481423575,
        -3.1935180503971496e-05,
        -4.2316863168166384e-05,
        -4.07747e-318,
        -1.14e-322,
        5.0368316678940375e-14,
        2.8565110746367478e-61,
        -1.14e-322,
        0.09493867614700563
      ],
      [
        0.1959521146713439,
        0.23822635281791069,
        -0.00019301487138631928,
        -0.0906342745473346,
        0.0001912873789748159,
        -1.3446961173641448e-05,
        5.085552794992182e-93,
        1.2763247698178223e-100,
        6.781568059412473e-06,
        -5.065209417437572e-05,
        1.8345273819773308e-22,
        0.17642641574280446
      ]
    ]
  },
  "cues": [
    [
      7,
      4
    ],
    [
      4,
      3
    ],
    [
      1,
      1
    ],
    [
      4,
      8
    ],
    [
      5,
      4
    ]
  ],
  "env": {
    "delay": 3,
    "grid_size": 10,
    "max_steps": 200,
    "noise": 0.0,
    "num_cues": 5,
    "reward_sparse_prob": 1.0
  },
  "seed": 27
}