{
  "agent": {
    "action_size": 4,
    "cue_exploration_bias": 0.3333333333333333,
    "cue_regularization": 0.01666666666666667,
    "epsilon": 0.05,
    "state_size": 11,
    "target_weights": [
      [
        0.10933387100844619,
        0.13272225568870008,
        0.018469800025023065,
        0.007343249320027587,
        -2.2466105639945976e-06,
        -9.39803236642524e-05,
        1.1142282323299802e-291,
        5.551607485486744e-16,
        1.7971433051029023e-234,
        1.7055408839974581e-06,
        4.981720299278053e-217,
        0.12988136332243155
      ],
      [
        0.2775964386637841,
        0.21889351944848814,
        -0.04118781244746311,
        -0.011526164681419404,
        -5.420755172428557e-05,
        6.259790132357368e-05,
        1.43e-322,
        -3.661196003191249e-05,
        3.8466219128239057e-237,
        -0.00023973308894317214,
        -2.55318035900227e-13,
        0.21682084388684852
      ],
      [
        0.13114161453352915,
        0.12777797475857217,
        -0.006107127965760411,
        0.021146595238212593,
        -3.6011494660432717e-05,
        -2.2764761546605532e-05,
        -1.43e-322,
        1.8924304880283843e-13,
        6.843383273341067e-225,
        8.341085248188993e-23,
        3.8755728942940125e-231,
        0.1415854578013944
      ],
      [
        0.2388185970931837,
        0.26855481343294196,
        -0.0034773996771718003,
        -0.07746432101980107,
        6.805881767605473e-05,
        3.889353299881137e-05,
        -2.4133038306902903e-50,
        -8.879941149841655e-05,
        2.6418525365528812e-09,
        8.165771323523827e-06,
        -6.240677017184332e-134,
        0.20187527709799943
      ]
    ],
    "weights": [
      [
        0.10936591889558514,
        0.132786351462978,
        0.018581967630009383,
        0.0074233690378749575,
        -7.268288813060845e-06,
        -4.879450514097772e-06,
        5.785063627241796e-293,
        6.436480483085376e-05,
        9.330752951351282e-236,
        8.855153950062076e-08,
        2.5865049967528167e-218,
        0.1300255788145568
      ],
      [
        0.27880222017279016,
        0.21955343621989248,
        -0.04155611295939138,
        -0.01134860045574559,
        -6.452689078181223e-05,
        7.414234858995464e-05,
        1.43e-322,
        1.41299426202181e-05,
        1.9971628675298694e-238,
        -0.00019609398472897335,
        -1.3256090987540075e-14,
        0.21765832488392664
      ],
      [
        0.13183817994692754,
        0.12847716004619308,
        -0.005936373641682327,
        0.021314729688068166,
        -0.00015230119356956958,
        -5.397286628077674e-05,
        -1.43e-322,
        9.825483205073033e-15,
        3.553078849841582e-226,
        4.3306844577180664e-24,
        2.012194192802025e-232,
        0.14245277753887087
      ],
      [
        0.2425038087439373,
        0.2728561950989278,
        -0.002471781297322375,
        -0.07707487265518403,
        -0.00020606899869590013,
        -0.00041611686317502225,
        -1.2529853226941998e-51,
        0.00013421987340945805,
        1.3716476188894812e-10,
        -3.5435496367204394e-05,
        -3.2401542676747597e-135,
        0.20656610712860235
      ]
    ]
  },
  "cues": [
    [
      2,
      9
    ],
    [
      1,
      4
    ],
    [
      1,
      7
    ],
    [
      7,
      7
    ],
    [
      6,
      3
    ]
  ],
  "env": {
    "delay": 0,
    "grid_size": 10,
    "max_steps": 200,
    "noise": 0.2,
    "num_cues": 5,
    "reward_sparse_prob": 1.0
  },
  "seed": 1
}