{
  "agent": {
    "action_size": 4,
    "cue_exploration_bias": 0.08333333333333333,
    "cue_regularization": 0.02291666666666667,
    "epsilon": 0.05,
    "state_size": 11,
    "target_weights": [
      [
        0.10312876268846749,
        0.10037866094521877,
        -0.006370650825901887,
        0.03467907158046131,
        4.557959484902847e-05,
        -2.2807497123661342e-05,
        1.2413631464181998e-16,
        6.084860412627585e-10,
        1.4995364184616915e-19,
        2.7909255771848e-311,
        2.828155194381622e-08,
        0.1134064819065233
      ],
      [
        0.2745255470540553,
        0.1828272160529525,
        -0.046874522873716976,
        -0.004338252602372212,
        -6.459926786706036e-05,
        -9.588711246203423e-05,
        -0.00027511577939447695,
        -1.9497423780796076e-05,
        4.01358145311069e-05,
        5.51317e-318,
        -8.480203250601395e-05,
        0.216703991543246
      ],
      [
        0.08466846990887328,
        0.09311557206459856,
        0.0065067982903111365,
        0.012518435678157403,
        -5.859591935202897e-08,
        -4.513277382502471e-08,
        7.210751104086322e-08,
        3.826716554348043e-11,
        7.863014295420595e-16,
        1.2201864575686487e-282,
        9.429952543545236e-14,
        0.12780492573384997
      ],
      [
        0.2073066718390543,
        0.23661742899901772,
        0.013510886685809426,
        -0.058501180343758445,
        -1.547996817692926e-05,
        2.4498673106105475e-05,
        0.00021218063916893562,
        2.3831254109614664e-06,
        1.184244202129305e-05,
        -8.173958917144109e-130,
        -6.4352955313929945e-06,
        0.2290443900482836
      ]
    ],
    "weights": [
      [
        0.10338940960700611,
        0.10056172922394316,
        -0.006096692346797098,
        0.035030608699380336,
        -3.4067556095669475e-06,
        3.964531699108774e-06,
        3.0405748730789e-18,
        6.224596150388007e-05,
        3.672940322416601e-21,
        6.8360481034e-313,
        6.927237727345391e-10,
        0.11394108730416673
      ],
      [
        0.2785209723759358,
        0.1861706827450604,
        -0.04717041123544449,
        -0.003982182334327017,
        -5.0976557211471e-05,
        -9.688390379828627e-05,
        -0.0003396456763405136,
        -8.640967176912164e-05,
        1.2846410948886728e-05,
        1.3504e-319,
        -0.00010325130031153372,
        0.22040352850339914
      ],
      [
        0.0852246148558821,
        0.09383061556789563,
        0.0066656968465993735,
        0.012518435678157403,
        -1.4352389996497876e-09,
        -1.105474884127843e-09,
        3.764148264980858e-05,
        9.373097820020114e-13,
        1.9259540419175383e-17,
        2.988705032898177e-284,
        2.3097573696271713e-15,
        0.12851996923714704
      ],
      [
        0.20884498119005213,
        0.2384015635472048,
        0.01376770347686025,
        -0.058490188749896886,
        -9.095830578191989e-05,
        5.780316875118463e-05,
        0.0010893960966444369,
        3.1776921074251973e-05,
        6.48982449046663e-06,
        -2.0021163161448298e-131,
        -1.7628039982761593e-05,
        0.23083951619033244
      ]
    ]
  },
  "cues": [
    [
      7,
      9
    ],
    [
      5,
      4
    ],
    [
      2,
      2
    ],
    [
      0,
      5
    ],
    [
      8,
      7
    ]
  ],
  "env": {
    "delay": 0,
    "grid_size": 10,
    "max_steps": 200,
    "noise": 0.05,
    "num_cues": 5,
    "reward_sparse_prob": 1.0
  },
  "seed": 9
}