{
  "agent": {
    "action_size": 4,
    "cue_exploration_bias": 0.10000000000000002,
    "cue_regularization": 0.022500000000000003,
    "epsilon": 0.05,
    "state_size": 11,
    "target_weights": [
      [
        0.055776129692427304,
        0.08749803773713269,
        0.012394822208042902,
        0.0012856493327601838,
        -8.575577750281387e-06,
        -1.6921589896521078e-05,
        1.1327912106914822e-217,
        7.601640722596594e-190,
        1.7067404383557214e-48,
        2.15825696377605e-26,
        6.034298014761722e-206,
        0.08668776653160191
      ],
      [
        0.17088532766679154,
        0.14352752710295208,
        -0.02635549134854067,
        0.012428499169499636,
        -1.1405930594876587e-06,
        7.1881723758305805e-06,
        -1.251212567005023e-16,
        -9.299627668392301e-13,
        -5.241757058160154e-06,
        0.00012696716985958302,
        5.645340543942594e-23,
        0.1322310544900002
      ],
      [
        0.06643885421057812,
        0.09701253363249443,
        -0.010064429419748926,
        0.02247409029108548,
        -3.960402284650173e-07,
        -4.233374812599896e-07,
        -1.4532090649155324e-194,
        4.550892938549317e-180,
        5.241908131974236e-34,
        1.1499116766164135e-25,
        1.3487193898708921e-216,
        0.09120020942614154
      ],
      [
        0.13002840348367437,
        0.1896314052313745,
        0.008113585686594435,
        -0.07639999853713618,
        -0.00010388464273430203,
        -0.00026601173115613203,
        6.220478911326534e-206,
        4.0060534804687646e-16,
        1.09464228680968e-11,
        -2.5077636816026615e-05,
        -2.9310069534454314e-06,
        0.1346954233596733
      ]
    ],
    "weights": [
      [
        0.056119086820572775,
        0.08784099486527816,
        0.012437691849061086,
        0.001328518973778368,
        -2.2680532973037272e-05,
        -2.2692420941381916e-05,
        1.6135354008405995e-220,
        1.0827693836796247e-192,
        2.4310623982085138e-51,
        3.0741975946632303e-29,
        8.595188040077364e-209,
        0.08707359330076557
      ],
      [
        0.17327718205570275,
        0.14523982043458877,
        -0.026747203195223005,
        0.012716348380091934,
        -1.3373198808451771e-05,
        6.754263091820121e-05,
        -1.7822134845192528e-19,
        -5.069443772534079e-07,
        -1.4380025091665978e-05,
        -2.525738267718762e-05,
        8.041161276217688e-26,
        0.13423119703222922
      ],
      [
        0.06712527951820568,
        0.09770302634076092,
        -0.0100218981307267,
        0.022512554179468788,
        -2.6902822626873905e-05,
        -4.221820522696035e-05,
        -2.0699350850651017e-197,
        6.482242087050163e-183,
        7.466516564629496e-37,
        1.6379216051014003e-28,
        1.9211011356880254e-219,
        0.09192916602279134
      ],
      [
        0.128221219487507,
        0.1878006798031542,
        0.007744854131729194,
        -0.07674518865994848,
        0.00016116014329487532,
        0.00021657803789302873,
        8.860382071185892e-209,
        5.7061787268382225e-19,
        1.5591964912460553e-14,
        -1.3540973489009577e-05,
        -7.169169912568472e-06,
        0.13251950780864083
      ]
    ]
  },
  "cues": [
    [
      2,
      1
    ],
    [
      7,
      5
    ],
    [
      3,
      3
    ],
    [
      7,
      7
    ],
    [
      2,
      7
    ]
  ],
  "env": {
    "delay": 0,
    "grid_size": 10,
    "max_steps": 200,
    "noise": 0.0,
    "num_cues": 5,
    "reward_sparse_prob": 0.7
  },
  "seed": 18
}