{
  "agent": {
    "action_size": 4,
    "cue_exploration_bias": 0.3,
    "cue_regularization": 0.017499999999999998,
    "epsilon": 0.05,
    "state_size": 11,
    "target_weights": [
      [
        -0.014380270104812038,
        0.007706485780235529,
        -0.0333434617559814,
        -0.019939992963655926,
        -2.7046737861424096e-05,
        -7.0789373189105275e-06,
        1.297543935112727e-13,
        3.500332381711572e-07,
        8.357318695430792e-60,
        -7.292174378666551e-235,
        1.1865378736760126e-05,
        -0.06147470461518433
      ],
      [
        0.011987293940064602,
        -0.0020123213829752774,
        -0.047206544740313314,
        -0.03874677669728335,
        6.137527991338509e-05,
        7.742582771142536e-06,
        1.4367803839389028e-06,
        3.2332099532180974e-05,
        1.0792524557352178e-06,
        1.2095260507958763e-245,
        6.367391548087347e-06,
        -0.028473037488116047
      ],
      [
        -0.00018025252502210863,
        0.009307361160089149,
        -0.03292088724919443,
        -0.0161478107149936,
        -1.6187097199217163e-05,
        -9.206251258545334e-06,
        5.7705524115312803e-08,
        -8.111648478366898e-99,
        -4.951773733680728e-12,
        1.680383522357703e-273,
        6.797482729432913e-06,
        -0.06842142033324936
      ],
      [
        0.012221685374321741,
        0.025890848818010452,
        -0.017439766931301465,
        -0.050077542826276564,
        3.230257324369076e-05,
        6.441545974640901e-06,
        -1.0444061884733026e-05,
        -9.459251954472902e-06,
        5.120303147681296e-07,
        -1.213527797790049e-207,
        -1.4804874120502944e-05,
        -0.052175973215516994
      ]
    ],
    "weights": [
      [
        -0.014335463539097032,
        0.0077647162699636466,
        -0.033371022633361926,
        -0.019980977765049562,
        -2.9625467184544635e-06,
        -3.347545517846535e-06,
        1.0071126491087946e-05,
        3.9793483610144193e-10,
        9.501006997762887e-63,
        -8.290099052761673e-238,
        1.3489140538663384e-08,
        -0.061457458926849846
      ],
      [
        0.012068289622794348,
        -0.001832848666186938,
        -0.046917327646774774,
        -0.038556036637803444,
        -5.580852202896837e-06,
        -9.364427858148845e-06,
        3.2990913254699534e-06,
        5.950971364357545e-06,
        9.016890011823988e-07,
        1.3750481334247825e-248,
        1.3631384400997609e-05,
        -0.028102824711847794
      ],
      [
        8.616743531840408e-05,
        0.00961019598534163,
        -0.03298869607376219,
        -0.016252034404473356,
        -8.953144159406918e-06,
        -5.512731078927826e-06,
        2.640385819140109e-06,
        -9.221717127826245e-102,
        -5.6294175930805534e-15,
        1.9103418436794516e-276,
        7.727709488310409e-09,
        -0.06822280919747666
      ],
      [
        0.011208785810821612,
        0.024891971884221844,
        -0.017689302473254908,
        -0.05034110099794153,
        9.73782094015394e-05,
        1.210129663105266e-05,
        -3.817907034461426e-06,
        -4.791371426901559e-06,
        2.2508276007399108e-08,
        -1.3795975143423356e-210,
        -3.892688723386016e-06,
        -0.05343840832097055
      ]
    ]
  },
  "cues": [
    [
      4,
      4
    ],
    [
      2,
      3
    ],
    [
      2,
      2
    ],
    [
      1,
      8
    ],
    [
      3,
      4
    ]
  ],
  "env": {
    "delay": 0,
    "grid_size": 10,
    "max_steps": 200,
    "noise": 0.0,
    "num_cues": 5,
    "reward_sparse_prob": 0.1
  },
  "seed": 13
}