{
  "agent": {
    "action_size": 4,
    "cue_exploration_bias": 0.3333333333333333,
    "cue_regularization": 0.01666666666666667,
    "epsilon": 0.05,
    "state_size": 11,
    "target_weights": [
      [
        -0.03277232475791321,
        -0.05095911390047864,
        -0.04159846201935887,
        -0.07052020132783202,
        -3.241442752285755e-06,
        4.381213743988711e-07,
        1.43e-322,
        1.7364713785309634e-07,
        1.2762324088901112e-08,
        -3.235937244995027e-07,
        1.43e-322,
        -0.12610672498687983
      ],
      [
        -0.06484181386448594,
        -0.08811930291389011,
        -0.04788290563777027,
        -0.038270579779007254,
        7.2719036014990045e-06,
        1.8739588731324145e-06,
        -1.43e-322,
        6.006562684395283e-12,
        4.626189416214233e-06,
        5.532210557381343e-80,
        -1.43e-322,
        -0.08955174225804001
      ],
      [
        -0.03422484474948493,
        -0.06202527953221396,
        -0.036208026681227856,
        -0.06835032229306884,
        1.250351441228817e-06,
        -1.0628940106746235e-06,
        -1.43e-322,
        -2.3075214604006686e-05,
        -7.03853576936053e-07,
        -1.5883400818462784e-06,
        -1.43e-322,
        -0.11741708826366155
      ],
      [
        -0.059113191370494936,
        -0.06900616370175172,
        -0.05943707447613732,
        -0.06847271322588398,
        7.721926063035618e-06,
        -1.5049728202355496e-06,
        -1.43e-322,
        -3.8036704387458324e-08,
        -3.938721824982315e-06,
        3.833064077948531e-09,
        -1.43e-322,
        -0.08856557996692672
      ]
    ],
    "weights": [
      [
        -0.03275642951952246,
        -0.05095505412679691,
        -0.04160120960027128,
        -0.07051111344403542,
        -5.092156783419825e-06,
        1.084177443084654e-06,
        1.43e-322,
        4.680967139916684e-10,
        3.440311221233754e-11,
        -8.630183973016959e-07,
        1.43e-322,
        -0.12609357732940155
      ],
      [
        -0.06484945426556135,
        -0.08813144392554123,
        -0.04785712078181571,
        -0.03824029431247697,
        -5.282631259377983e-07,
        1.407483578876869e-06,
        -1.43e-322,
        1.619175697171025e-14,
        -4.012780796359789e-06,
        1.491305652967924e-82,
        -1.43e-322,
        -0.08953359780316084
      ],
      [
        -0.03426868346110091,
        -0.062168328348709855,
        -0.036330070858817926,
        -0.068373156365779,
        7.59990489665001e-07,
        -2.429641769821157e-07,
        -1.43e-322,
        -1.7712730626861924e-05,
        -3.819546030828196e-06,
        -4.281652909491033e-09,
        -1.43e-322,
        -0.1175829711528676
      ],
      [
        -0.05919782498894268,
        -0.06897259348621368,
        -0.05936290697093539,
        -0.06851674955466792,
        -3.696292267840242e-05,
        -7.0815111035780475e-06,
        -1.43e-322,
        2.100042515780516e-07,
        -3.221982120346125e-07,
        -4.803097265788279e-07,
        -1.43e-322,
        -0.08857604608017265
      ]
    ]
  },
  "cues": [
    [
      4,
      1
    ],
    [
      0,
      9
    ],
    [
      4,
      6
    ],
    [
      6,
      8
    ],
    [
      5,
      2
    ]
  ],
  "env": {
    "delay": 6,
    "grid_size": 10,
    "max_steps": 200,
    "noise": 0.0,
    "num_cues": 5,
    "reward_sparse_prob": 1.0
  },
  "seed": 23
}