{
  "agent": {
    "action_size": 4,
    "cue_exploration_bias": 0.3,
    "cue_regularization": 0.017499999999999998,
    "epsilon": 0.05,
    "state_size": 11,
    "target_weights": [
      [
        -0.039068374707268524,
        -0.004451812722282927,
        -0.05444485008516454,
        -0.032472562727247106,
        -3.880679092870761e-07,
        -3.376754904800826e-07,
        4.853070131628904e-19,
        3.8521985725792474e-55,
        1.4e-322,
        8.75117814407258e-08,
        3.809459291301599e-123,
        -0.07125275034381894
      ],
      [
        0.01845729208163507,
        -0.004988784204788859,
        -0.04627550735671954,
        -0.049704663984566966,
        -0.0005894426766785945,
        0.00020077878926994902,
        -5.8164670424877205e-06,
        2.9907540919116804e-06,
        9.653344312997105e-09,
        9.732450644384444e-07,
        8.688539006421648e-104,
        -0.03794206069542775
      ],
      [
        -0.005012267979649826,
        -0.0202761522598307,
        -0.02479253097898474,
        -0.05195264592604507,
        -3.6551945431678234e-05,
        -2.0414813876624825e-06,
        4.985811193731416e-05,
        1.2037119816652704e-11,
        -9.469323728117115e-22,
        2.9672800824312306e-11,
        8.70504221964992e-146,
        -0.06419802054213034
      ],
      [
        0.008557878576040644,
        0.03747168786544902,
        -0.030076558828055315,
        -0.04058426611655663,
        3.540685997807749e-05,
        -4.075827776296545e-05,
        -4.742556158790277e-07,
        -8.705298169534724e-06,
        4.626334816620576e-22,
        -2.2527709466201638e-05,
        -3.2542124344838866e-147,
        -0.07198949888481847
      ]
    ],
    "weights": [
      [
        -0.03901763875025799,
        -0.004375708786767121,
        -0.054381430138901364,
        -0.0324345107594892,
        -4.38102193090937e-06,
        -4.375762572558876e-06,
        5.0650545313325784e-20,
        4.020464428995681e-56,
        1.4e-322,
        9.133433746249189e-09,
        3.9758582756886444e-124,
        -0.07113859444054522
      ],
      [
        0.018214412140751434,
        -0.005267655622198661,
        -0.04630585174073793,
        -0.04969901689205918,
        -4.167781624393094e-05,
        1.9508573022606924e-05,
        -4.918496478654995e-05,
        3.7959886890938683e-06,
        1.0075006960315308e-09,
        -1.667613471204737e-07,
        9.068058501426346e-105,
        -0.03821528502032977
      ],
      [
        -0.004890733335148887,
        -0.02017826021726045,
        -0.02477622320195551,
        -0.05191269554708516,
        -1.2814053210609268e-05,
        5.78639993409933e-06,
        5.20359378583755e-06,
        1.7886785388456142e-05,
        -9.882948269213718e-23,
        3.096892280476207e-12,
        9.085282582817352e-147,
        -0.06406017812060016
      ],
      [
        0.008480815158423763,
        0.03736235043443504,
        -0.030060241853942175,
        -0.040535675129046385,
        7.558163096616811e-06,
        2.8795009747453747e-06,
        -2.1863524095097562e-05,
        5.59368070898496e-06,
        4.828415310479075e-23,
        -2.893177600073011e-06,
        -3.3963579734358955e-148,
        -0.07205024532832217
      ]
    ]
  },
  "cues": [
    [
      6,
      9
    ],
    [
      2,
      3
    ],
    [
      2,
      1
    ],
    [
      2,
      4
    ],
    [
      0,
      7
    ]
  ],
  "env": {
    "delay": 0,
    "grid_size": 10,
    "max_steps": 200,
    "noise": 0.0,
    "num_cues": 5,
    "reward_sparse_prob": 0.1
  },
  "seed": 24
}