{
  "agent": {
    "action_size": 4,
    "cue_exploration_bias": 0.3333333333333333,
    "cue_regularization": 0.01666666666666667,
    "epsilon": 0.05,
    "state_size": 11,
    "target_weights": [
      [
        0.08077225054526868,
        0.05383635173730966,
        -0.018027235808014734,
        -2.7746712946393533e-05,
        -7.489610851328571e-05,
        3.4668545352878647e-06,
        1.43e-322,
        3.885518640275805e-05,
        3.3580375924e-314,
        1.1531123963279139e-17,
        1.43e-322,
        0.09282197844651566
      ],
      [
        0.2089661579596872,
        0.17001935421242234,
        -0.029319282366719254,
        -0.028499831456164935,
        -0.00035345912741361734,
        9.715836614927183e-05,
        -1.5964472842164903e-06,
        1.5663542344041688e-15,
        -1.43e-322,
        4.1710542130188464e-05,
        1.43e-322,
        0.1571932453716307
      ],
      [
        0.10422724409282241,
        0.13362148674444663,
        -0.046985922562124215,
        0.007687403139280518,
        -3.484225241510976e-05,
        2.471059506817916e-05,
        1.3619198739201145e-27,
        8.555520034530821e-16,
        -4.13e-321,
        1.437123762362083e-06,
        1.43e-322,
        0.11249389474300465
      ],
      [
        0.18416053376820402,
        0.23000422559005146,
        0.002808947131282198,
        -0.10749258987370905,
        -0.00016086404210223339,
        -5.47453311141588e-05,
        4.958098390715537e-185,
        -4.631912362050769e-05,
        1.43e-322,
        -7.702343696270239e-05,
        -1.43e-322,
        0.11955400703600179
      ]
    ],
    "weights": [
      [
        0.08206738139113993,
        0.05491653464639147,
        -0.017934297075300535,
        0.00028013995655726053,
        -0.00015868092586544913,
        0.00010468003668315867,
        1.43e-322,
        2.6397986238999135e-06,
        2.28143109e-315,
        7.834178133841839e-19,
        1.43e-322,
        0.0942100480251011
      ],
      [
        0.21004399467459287,
        0.17104273214083673,
        -0.029038817299077386,
        -0.02816490760203187,
        -0.00018132361964223715,
        8.87205025892753e-05,
        -1.0846169415633802e-07,
        1.0641718996428299e-16,
        -1.43e-322,
        2.8337898209021373e-06,
        1.43e-322,
        0.1585515471541783
      ],
      [
        0.10451398211817178,
        0.13384450520860725,
        -0.046985922562124215,
        0.007751122700469268,
        -1.7414087845093053e-05,
        1.1710107105337145e-05,
        9.252803915981383e-29,
        5.812570239606275e-17,
        -3e-322,
        9.763734732689393e-08,
        1.43e-322,
        0.11278063276835402
      ],
      [
        0.19026369454187927,
        0.23653764287525858,
        0.0031143783658671457,
        -0.10761741515065607,
        -0.0006217165336505692,
        -7.729975982632213e-05,
        3.368503028991313e-186,
        -9.149697755889307e-05,
        1.43e-322,
        -9.1245012261338e-05,
        -1.43e-322,
        0.1259625990442621
      ]
    ]
  },
  "cues": [
    [
      3,
      3
    ],
    [
      6,
      9
    ],
    [
      8,
      0
    ],
    [
      2,
      7
    ],
    [
      0,
      9
    ]
  ],
  "env": {
    "delay": 0,
    "grid_size": 10,
    "max_steps": 200,
    "noise": 0.2,
    "num_cues": 5,
    "reward_sparse_prob": 1.0
  },
  "seed": 26
}