{
  "agent": {
    "action_size": 4,
    "cue_exploration_bias": 0.3333333333333333,
    "cue_regularization": 0.01666666666666667,
    "epsilon": 0.05,
    "state_size": 11,
    "target_weights": [
      [
        0.12176224378052629,
        0.10476794832431027,
        -0.0224381076917954,
        -0.028613563984772925,
        -2.964272591924006e-06,
        -1.000340537682081e-05,
        1.5883689911291882e-07,
        1.1669968406602048e-121,
        -1.43e-322,
        1.43e-322,
        -1.4489743766187137e-34,
        0.05551844109734188
      ],
      [
        0.14686612853579872,
        0.12895339085082172,
        -0.04123589853201888,
        -0.028441249325790806,
        -5.265994447129438e-05,
        -1.4028736480084317e-05,
        -2.450803935677655e-05,
        -9.477202978590337e-06,
        -1.424265519873733e-113,
        -7.885561859568267e-23,
        -2.9485459100363412e-06,
        0.08828791333827338
      ],
      [
        0.08811832238287902,
        0.05340115577108653,
        -0.02572179613057254,
        -0.015165735313704362,
        2.523291424278729e-08,
        -3.5943121213830515e-09,
        5.02704717262175e-16,
        8.481196411225628e-09,
        1.43e-322,
        2.6190560965378385e-254,
        -5.3010391267191856e-36,
        0.05141970861433071
      ],
      [
        0.09765395261399994,
        0.25569246356726477,
        -0.03443466584812438,
        -0.16481585124933115,
        0.00011964504994879506,
        0.00015779290322716393,
        1.1185467416044667e-05,
        -4.600023264552417e-06,
        2.5524670152061986e-300,
        3.8080173173466333e-38,
        1.600812630484619e-05,
        0.05768333439670903
      ]
    ],
    "weights": [
      [
        0.12225263356100124,
        0.10518419599314677,
        -0.022446045447375478,
        -0.02854735962871455,
        -1.3601820100208957e-05,
        -2.276049411993583e-05,
        1.2553668101409667e-09,
        9.22335496025201e-124,
        -1.43e-322,
        1.43e-322,
        -1.1451963311489041e-36,
        0.05600089312223677
      ],
      [
        0.14771270205882103,
        0.12975151835809645,
        -0.041466104075379505,
        -0.02862300885340395,
        -9.747091449717514e-06,
        -3.404778853570426e-05,
        -0.00016067968817261405,
        -4.162659732834636e-05,
        -1.125667695896383e-115,
        -6.232350727760055e-25,
        2.4224225312839445e-05,
        0.08890428131793503
      ],
      [
        0.08936252005314195,
        0.05443870671200778,
        -0.0256866060252364,
        -0.014923898479026544,
        -2.1786473598557223e-05,
        -2.8359729479166503e-05,
        3.5031828101012076e-05,
        6.703110262414694e-11,
        1.43e-322,
        2.0699699602883677e-256,
        -4.1896741979399863e-38,
        0.05269909638992978
      ],
      [
        0.09843255648331746,
        0.25673719007260776,
        -0.03397141398108554,
        -0.16461872201831787,
        1.8438312456947823e-05,
        -4.7798337924929574e-05,
        3.94451107212032e-05,
        -4.00103318879991e-06,
        2.0173413059338826e-302,
        3.009664995562853e-40,
        1.2652016356326617e-07,
        0.058925190133065415
      ]
    ]
  },
  "cues": [
    [
      8,
      6
    ],
    [
      4,
      5
    ],
    [
      4,
      2
    ],
    [
      8,
      4
    ],
    [
      1,
      0
    ]
  ],
  "env": {
    "delay": 0,
    "grid_size": 10,
    "max_steps": 200,
    "noise": 0.3,
    "num_cues": 5,
    "reward_sparse_prob": 1.0
  },
  "seed": 17
}