{
  "agent": {
    "action_size": 4,
    "cue_exploration_bias": 0.16666666666666666,
    "cue_regularization": 0.020833333333333336,
    "epsilon": 0.05,
    "state_size": 11,
    "target_weights": [
      [
        0.12438925698677482,
        0.07969031222157869,
        0.017860967528884716,
        0.01747100565722263,
        -5.34734333545102e-07,
        -0.00015236649821271487,
        2.171210103234965e-28,
        7.651651216789457e-10,
        2.0550130244299348e-196,
        1.5921583658845117e-239,
        8.965292098625555e-220,
        0.11920697104391041
      ],
      [
        0.2537212398243105,
        0.2111051008848214,
        -0.07582481184576359,
        -0.003102476567062184,
        -0.0016054998682000427,
        0.00015355782444321213,
        -5.4672714430954034e-05,
        -2.2817223464534514e-05,
        1.770875418829886e-169,
        2.935610333518848e-100,
        -1.4760542197783506e-171,
        0.1923737161409179
      ],
      [
        0.10204990290140296,
        0.09707582587032973,
        -0.003868617406933037,
        0.029976361008481854,
        -3.113489503389258e-06,
        -2.5177397888245344e-07,
        5.703346619414877e-06,
        2.7246536290507048e-76,
        4.3565298819970136e-257,
        -1.14e-322,
        2.06368593232426e-214,
        0.1133745938160672
      ],
      [
        0.18969650732575222,
        0.23556385852156628,
        -0.001884162516039123,
        -0.04663509217474495,
        0.00022002690200180467,
        1.5971039095259667e-05,
        3.942648857445217e-05,
        2.9919199596183736e-14,
        -6.355854543549534e-186,
        -2.7439854268854226e-198,
        1.028092887343672e-212,
        0.21064776593060458
      ]
    ],
    "weights": [
      [
        0.1260293130949536,
        0.08094347563579196,
        0.018216428685698057,
        0.018213359508001476,
        -6.255942458712823e-05,
        -0.00011268852823067978,
        1.943501394940895e-30,
        1.8820496088768514e-06,
        1.8394906479343428e-198,
        1.425178521623935e-241,
        8.025044501115101e-222,
        0.12120248830890255
      ],
      [
        0.25523730548023654,
        0.2121797420686001,
        -0.07608576581288773,
        -0.002922006062039048,
        -0.00041956537663414705,
        0.00013768415619443041,
        3.1259480620835066e-07,
        -2.042423511475429e-07,
        1.5851523726950724e-171,
        2.6277340777367168e-102,
        -1.3212509608689697e-173,
        0.1936288278297198
      ],
      [
        0.10243483719657429,
        0.0972682930179154,
        -0.003820500620036622,
        0.03021694494296393,
        -2.681631541410887e-05,
        -1.7861217578233083e-05,
        5.105200134316386e-08,
        2.438901753865757e-78,
        3.89963269337578e-259,
        -1.14e-322,
        1.8472539724351365e-216,
        0.11380764489813493
      ],
      [
        0.19113669831655442,
        0.23670958329307726,
        -0.0010969681394006835,
        -0.04555343157881534,
        -0.00013360137817152644,
        -8.16602491043399e-05,
        6.125095201151422e-05,
        2.6781381527315636e-16,
        -5.689275373684615e-188,
        -2.4562061022577037e-200,
        9.202702021808917e-215,
        0.2128751512980451
      ]
    ]
  },
  "cues": [
    [
      5,
      2
    ],
    [
      6,
      0
    ],
    [
      1,
      8
    ],
    [
      1,
      5
    ],
    [
      9,
      0
    ]
  ],
  "env": {
    "delay": 0,
    "grid_size": 10,
    "max_steps": 200,
    "noise": 0.1,
    "num_cues": 5,
    "reward_sparse_prob": 1.0
  },
  "seed": 7
}