{
  "agent": {
    "action_size": 4,
    "cue_exploration_bias": 0.3333333333333333,
    "cue_regularization": 0.01666666666666667,
    "epsilon": 0.05,
    "state_size": 11,
    "target_weights": [
      [
        0.06666949421434755,
        0.06671970106718886,
        -0.03676633291460185,
        -0.027386116759850324,
        3.308317857447703e-07,
        3.169259185901121e-07,
        3.374129690465815e-296,
        1.43e-322,
        3.395989767290588e-09,
        1.43e-322,
        1.43e-322,
        0.02016073999560447
      ],
      [
        0.22521272928175734,
        0.08068621984528655,
        -0.2063253484376624,
        -0.027626792040415533,
        0.0006628685121931687,
        0.00019333037649736109,
        4.1711836571876584e-77,
        1.43e-322,
        2.26210373721029e-05,
        1.43e-322,
        2.09007015980466e-239,
        0.006672654910979205
      ],
      [
        0.07791578699481262,
        0.06459444722294255,
        -0.024089460805930493,
        -0.04430307476308058,
        -5.827678730894713e-05,
        -0.00011263887305113123,
        1.43e-322,
        1.43e-322,
        1.937464352942813e-17,
        1.43e-322,
        1.43e-322,
        0.00892803145817663
      ],
      [
        0.08086582524551043,
        0.08240354609001785,
        -0.04583720563575925,
        -0.035343115869779,
        -6.544744152741795e-05,
        -7.014770102999201e-05,
        -2.3157790857387363e-08,
        -1.43e-322,
        1.0051717232297982e-07,
        -8.0152625e-317,
        -1.5443171625140703e-10,
        0.05610516053572419
      ]
    ],
    "weights": [
      [
        0.06754697393834648,
        0.06738078780690378,
        -0.0366682377524856,
        -0.02707162861345004,
        -0.00014594151845134353,
        -4.7758752094870566e-05,
        1.1901934456273437e-298,
        1.43e-322,
        1.197904388164993e-11,
        1.43e-322,
        1.43e-322,
        0.021136314881719652
      ],
      [
        0.2277575647314518,
        0.08279719668319396,
        -0.2066920595090803,
        -0.027559644500046065,
        -0.0016531991155987829,
        0.00012115571878347466,
        0.00022946564402226722,
        1.43e-322,
        -4.2852626707665177e-05,
        1.43e-322,
        7.372531684629409e-242,
        0.008850779289256084
      ],
      [
        0.07848218197125693,
        0.0653009303691647,
        -0.023949372636152662,
        -0.04430307476308058,
        -6.03742240469295e-05,
        -3.973233418001749e-07,
        1.43e-322,
        1.43e-322,
        6.834228632423458e-20,
        1.43e-322,
        1.43e-322,
        0.009634514604398773
      ],
      [
        0.0808258919124108,
        0.08231682059062212,
        -0.04586116757386725,
        -0.035320285641590864,
        1.865332523705979e-05,
        -2.0464940956079945e-08,
        5.937486259692438e-07,
        -1.43e-322,
        3.5456514908082465e-10,
        -2.8273e-319,
        -5.447437808889656e-13,
        0.05604126526451659
      ]
    ]
  },
  "cues": [
    [
      2,
      3
    ],
    [
      0,
      9
    ],
    [
      7,
      2
    ],
    [
      1,
      5
    ],
    [
      1,
      3
    ]
  ],
  "env": {
    "delay": 0,
    "grid_size": 10,
    "max_steps": 200,
    "noise": 0.3,
    "num_cues": 5,
    "reward_sparse_prob": 1.0
  },
  "seed": 22
}