{
  "agent": {
    "action_size": 4,
    "cue_exploration_bias": 0.2333333333333333,
    "cue_regularization": 0.01916666666666667,
    "epsilon": 0.05,
    "state_size": 11,
    "target_weights": [
      [
        0.01920401938899328,
        0.01258140739470355,
        -0.011501147542794698,
        -0.02594859642970176,
        -3.8129324221491265e-06,
        -6.717692696642094e-07,
        1.0733980606638949e-11,
        1.8258059916464728e-13,
        1.5373259675053675e-08,
        1.942661773014152e-06,
        5.577660902735009e-06,
        -0.026688460648342474
      ],
      [
        0.07374625709308993,
        0.046953213543350025,
        -0.05293297366570107,
        -0.022094979073724368,
        -2.156227085984214e-05,
        2.802530554305771e-06,
        -1.3661622599832065e-05,
        -1.2956348133446402e-06,
        -0.00012584129886229439,
        -1.191559552549303e-05,
        -2.9738803805556463e-05,
        0.00733980853553581
      ],
      [
        0.001800531561028943,
        0.020733036834835107,
        -0.03831378418207535,
        -0.028111092083934575,
        -2.0776851233084953e-06,
        -1.5599500130141484e-07,
        1.6857509292659207e-06,
        8.056359836648727e-23,
        1.1806059516855925e-05,
        9.915478570755336e-09,
        1.8051390500906873e-05,
        -0.0030409297625761944
      ],
      [
        0.05846138291791693,
        0.07804290904399254,
        -0.010633468867579727,
        -0.038277224201762605,
        1.6624659667789254e-05,
        1.5407759546834357e-05,
        -4.300374643178516e-05,
        1.095434796874794e-05,
        0.0001791861898772475,
        3.8560678994289935e-05,
        1.8272678817963947e-05,
        -0.009253579044663632
      ]
    ],
    "weights": [
      [
        0.01924520700222218,
        0.012621181701787184,
        -0.011461139922304813,
        -0.02590717550306661,
        -8.580882547638727e-06,
        -1.2636244196850721e-05,
        1.674563491981026e-12,
        2.8483636864038886e-14,
        2.3983180469570315e-09,
        3.030665511305832e-07,
        8.701475864967669e-07,
        -0.02660726541462369
      ],
      [
        0.07310944787936337,
        0.04636888813010889,
        -0.05295876812717862,
        -0.022173257335687348,
        3.6415024490129715e-05,
        -1.6669134214271467e-07,
        -4.259312899073492e-06,
        1.4548041282336773e-06,
        -0.00010379064138947832,
        1.429448927716077e-06,
        -3.4119722251200466e-05,
        0.006677204860331699
      ],
      [
        0.0019962171794057444,
        0.020906979606725596,
        -0.03831378418207535,
        -0.028089349237448265,
        -1.198742267582114e-05,
        -2.433612875630833e-08,
        2.6298696319386307e-07,
        1.2568390567400584e-23,
        1.8418140460263523e-06,
        1.546872407225841e-09,
        2.8161220538833134e-06,
        -0.002845244144199393
      ],
      [
        0.059731982032062945,
        0.07953940812273888,
        -0.010378198795579488,
        -0.038247854094362634,
        4.256170454460836e-05,
        3.7241590568990653e-06,
        -6.7088349077635914e-06,
        -1.4667800643009197e-05,
        0.0005096409949397681,
        7.549630633119352e-06,
        -2.5987954123390125e-05,
        -0.007727709858517365
      ]
    ]
  },
  "cues": [
    [
      7,
      8
    ],
    [
      7,
      7
    ],
    [
      8,
      9
    ],
    [
      3,
      2
    ],
    [
      8,
      7
    ]
  ],
  "env": {
    "delay": 0,
    "grid_size": 10,
    "max_steps": 200,
    "noise": 0.0,
    "num_cues": 5,
    "reward_sparse_prob": 0.3
  },
  "seed": 11
}