{
  "agent": {
    "action_size": 4,
    "cue_exploration_bias": 0.3333333333333333,
    "cue_regularization": 0.01666666666666667,
    "epsilon": 0.05,
    "state_size": 11,
    "target_weights": [
      [
        0.06688042696996291,
        0.09311217388744147,
        -0.014561980208811698,
        0.038050784914154534,
        -0.00024297289721782504,
        -6.00650256768212e-13,
        7.284141891926936e-189,
        1.1537751381439831e-12,
        7.871934537280894e-07,
        -2.759299181407606e-233,
        -7.031608315887867e-258,
        0.09083520291258723
      ],
      [
        0.2086753615667615,
        0.16765046915165197,
        -0.06470876808621792,
        0.02329059037525679,
        0.00022028835923083544,
        4.99937248767933e-05,
        1.7081398962020503e-79,
        -9.504053000750567e-06,
        9.064585093754926e-05,
        5.859560910441969e-89,
        5.549945502380174e-128,
        0.21655494936381167
      ],
      [
        0.10529114849251418,
        0.12150262986213288,
        -0.006049669322428449,
        0.028181888424285595,
        -0.0002466638444862409,
        -7.365404300827158e-06,
        1.570607333020064e-135,
        3.2280750244037644e-12,
        1.1201903560715185e-08,
        7.790716963634823e-155,
        -2.632205105894248e-253,
        0.1066862601064538
      ],
      [
        0.1664498001275008,
        0.229605523798406,
        0.031583226062034946,
        -0.013884154213668792,
        -7.59987989295285e-05,
        -8.16306534489417e-05,
        -5.565658291898602e-28,
        1.1534312753445675e-05,
        1.1432461502537195e-05,
        1.1636983760777923e-08,
        -1.3762115686902325e-53,
        0.20549641824560144
      ]
    ],
    "weights": [
      [
        0.06688042696996291,
        0.09311217388744147,
        -0.014561980208811698,
        0.038050784914154534,
        -0.00018568208854202983,
        -4.590223660215137e-13,
        5.5666072027652525e-189,
        8.81725409753755e-13,
        6.015803665698819e-07,
        -2.1086814240715665e-233,
        -5.373618756881577e-258,
        0.09083520291258723
      ],
      [
        0.2087919610543945,
        0.16771931611674207,
        -0.06459010158691605,
        0.02345700939710153,
        0.00017040616775486467,
        3.490854805510024e-05,
        1.3053759784755713e-79,
        -7.26308337679091e-06,
        0.00010400961007439145,
        4.4779295149726e-89,
        4.2413186160945777e-128,
        0.21679021535074652
      ],
      [
        0.10529114849251418,
        0.12150262986213288,
        -0.006049669322428449,
        0.028181888424285595,
        -0.00018850274387167986,
        -5.628708671601188e-06,
        1.2002723481259045e-135,
        2.4669241687656097e-12,
        8.560596151328286e-09,
        5.9537364603701545e-155,
        -2.0115549805346057e-253,
        0.1066862601064538
      ],
      [
        0.1669639445270077,
        0.2301984999435146,
        0.03164488814897214,
        -0.013901323872333296,
        -0.0003364666971003782,
        -0.00013566969244107306,
        -4.253326472147705e-28,
        8.814626266882426e-06,
        8.73679061852058e-06,
        8.893088380527448e-09,
        -1.0517133444765076e-53,
        0.20607222473204553
      ]
    ]
  },
  "cues": [
    [
      3,
      5
    ],
    [
      6,
      2
    ],
    [
      3,
      0
    ],
    [
      1,
      2
    ],
    [
      3,
      8
    ]
  ],
  "env": {
    "delay": 10,
    "grid_size": 10,
    "max_steps": 200,
    "noise": 0.0,
    "num_cues": 5,
    "reward_sparse_prob": 1.0
  },
  "seed": 8
}