{
  "agent": {
    "action_size": 4,
    "cue_exploration_bias": 0.3333333333333333,
    "cue_regularization": 0.01666666666666667,
    "epsilon": 0.05,
    "state_size": 11,
    "target_weights": [
      [
        0.05286441482633144,
        0.07287087433027813,
        -0.0021861519734557334,
        -5.7532915176614684e-05,
        -8.510745079700826e-06,
        2.1861328192992875e-06,
        5.2873404234999944e-08,
        1.43e-322,
        8.082868091661554e-189,
        3.6518405431610185e-13,
        1.7830856367053192e-06,
        0.05494409913652754
      ],
      [
        0.20384043190770398,
        0.16587921103225803,
        -0.017481898645293415,
        -0.044176440135201195,
        3.973982718037632e-05,
        9.589062952057741e-05,
        -1.2036694431882047e-05,
        -1.7255796867544102e-11,
        -4.592341910121099e-182,
        -1.1477244500920633e-05,
        5.690293057790924e-07,
        0.1533474829013006
      ],
      [
        0.12250587518035082,
        0.0889201522048823,
        0.0011675660901766332,
        -0.023162309964515237,
        -3.779590683105455e-05,
        -3.3771139763502453e-07,
        4.7244792563968086e-05,
        9.172998537039785e-166,
        8.014717622787615e-176,
        4.882032658034405e-13,
        1.3825898796372605e-12,
        0.09578467348536779
      ],
      [
        0.1704013491275934,
        0.21840349490743155,
        -0.03144083716513117,
        -0.12629030341548922,
        -3.633142220637964e-05,
        -1.0790576979416527e-05,
        1.9566457946468407e-05,
        3.0750386307468483e-80,
        1.2374472226855018e-125,
        -0.00018265424291564084,
        -1.1672580335439539e-05,
        0.14957829365476238
      ]
    ],
    "weights": [
      [
        0.05286441482633144,
        0.07287087433027813,
        -0.0021861519734557334,
        -5.7532915176614684e-05,
        -8.510745079700826e-06,
        2.1861328192992875e-06,
        5.2873404234999944e-08,
        1.43e-322,
        8.082868091661554e-189,
        3.6518405431610185e-13,
        1.7830856367053192e-06,
        0.05494409913652754
      ],
      [
        0.20384043190770398,
        0.16587921103225803,
        -0.017481898645293415,
        -0.044176440135201195,
        3.973982718037632e-05,
        9.589062952057741e-05,
        -1.2036694431882047e-05,
        -1.7255796867544102e-11,
        -4.592341910121099e-182,
        -1.1477244500920633e-05,
        5.690293057790924e-07,
        0.1533474829013006
      ],
      [
        0.12250587518035082,
        0.0889201522048823,
        0.0011675660901766332,
        -0.023162309964515237,
        -3.779590683105455e-05,
        -3.3771139763502453e-07,
        4.7244792563968086e-05,
        9.172998537039785e-166,
        8.014717622787615e-176,
        4.882032658034405e-13,
        1.3825898796372605e-12,
        0.09578467348536779
      ],
      [
        0.1704013491275934,
        0.21840349490743155,
        -0.03144083716513117,
        -0.12629030341548922,
        -3.633142220637964e-05,
        -1.0790576979416527e-05,
        1.9566457946468407e-05,
        3.0750386307468483e-80,
        1.2374472226855018e-125,
        -0.00018265424291564084,
        -1.1672580335439539e-05,
        0.14957829365476238
      ]
    ]
  },
  "cues": [
    [
      2,
      6
    ],
    [
      6,
      4
    ],
    [
      7,
      3
    ],
    [
      7,
      8
    ],
    [
      2,
      8
    ]
  ],
  "env": {
    "delay": 0,
    "grid_size": 10,
    "max_steps": 200,
    "noise": 0.2,
    "num_cues": 5,
    "reward_sparse_prob": 1.0
  },
  "seed": 21
}