{
  "agent": {
    "action_size": 4,
    "cue_exploration_bias": 0.10000000000000002,
    "cue_regularization": 0.022500000000000003,
    "epsilon": 0.05,
    "state_size": 11,
    "target_weights": [
      [
        0.06264565781744091,
        0.06778135095494586,
        0.0005501993065911632,
        0.0013431706437073737,
        -7.855860986437695e-06,
        7.57239297909997e-06,
        1.1e-322,
        2.210479157691531e-233,
        4.462812466762346e-05,
        1.5725542607129336e-33,
        4.681720843243638e-106,
        0.037414988744514106
      ],
      [
        0.1627634382249907,
        0.13910427389505967,
        -0.055523512590377445,
        -0.003302503262454565,
        2.459194086282635e-05,
        3.700863193273304e-05,
        3.096138275590371e-139,
        2.962265613350553e-106,
        1.0892476157156386e-06,
        5.737349104895354e-06,
        3.735413072729308e-83,
        0.13698364066187455
      ],
      [
        0.05722451811531759,
        0.07003775849582461,
        -0.008553680523470206,
        -0.005224721224548519,
        -9.793827817593148e-06,
        8.610765046457999e-08,
        4.526350088183041e-140,
        1.1e-322,
        7.504544175254201e-14,
        1.1986381850380613e-92,
        1.0824063421480423e-89,
        0.06008466027764264
      ],
      [
        0.1292934575673258,
        0.1823491373720725,
        -0.0021560021541811173,
        -0.06611005819604474,
        0.00046348855322775095,
        9.169247210242446e-05,
        -6.710623706148829e-152,
        -3.0751187665518543e-06,
        -3.1396586806232846e-05,
        -3.494403962069939e-05,
        -1.112504541022498e-86,
        0.11864961997251972
      ]
    ],
    "weights": [
      [
        0.06399900425049922,
        0.06901291791421123,
        0.0006788648910521282,
        0.0015936157019612682,
        -7.144949981550814e-05,
        6.660709400473282e-08,
        1.1e-322,
        1.9443469648000507e-235,
        3.9255090209867065e-07,
        1.3832254844663227e-35,
        4.118061769516218e-108,
        0.03889700076203337
      ],
      [
        0.16404526694227722,
        0.13996398894224704,
        -0.05559814837439461,
        -0.0029550253763726206,
        -0.00016012784215169667,
        3.79621344399864e-05,
        2.723376530286865e-141,
        2.6056215613743702e-108,
        1.4196212759799232e-05,
        5.0465969241489997e-08,
        3.285685388601698e-85,
        0.138190833595144
      ],
      [
        0.05802073958048933,
        0.07099232853487018,
        -0.00839533194959637,
        -0.005224721224548519,
        -1.2225303892438436e-05,
        -4.356030892674152e-06,
        3.981396985788395e-142,
        1.1e-322,
        6.60102930108677e-16,
        1.0543272977095512e-94,
        9.520892692938759e-92,
        0.061039230316688224
      ],
      [
        0.12985540882176158,
        0.18309876490063062,
        -0.001547654574665008,
        -0.0656893868906509,
        -6.61425952238001e-05,
        1.1116156327716509e-05,
        -5.9026934452491844e-154,
        -2.7048876798227385e-08,
        -2.51383132627317e-05,
        -7.471078584473283e-06,
        -9.785637743458077e-89,
        0.11981991880647158
      ]
    ]
  },
  "cues": [
    [
      0,
      8
    ],
    [
      1,
      8
    ],
    [
      3,
      6
    ],
    [
      5,
      8
    ],
    [
      4,
      9
    ]
  ],
  "env": {
    "delay": 0,
    "grid_size": 10,
    "max_steps": 200,
    "noise": 0.0,
    "num_cues": 5,
    "reward_sparse_prob": 0.7
  },
  "seed": 19
}