{
  "agent": {
    "action_size": 4,
    "cue_exploration_bias": 0.16666666666666666,
    "cue_regularization": 0.020833333333333336,
    "epsilon": 0.05,
    "state_size": 11,
    "target_weights": [
      [
        0.09890725786988072,
        0.12542694133394233,
        0.03953689859915387,
        0.025279049110350758,
        2.1796398800315466e-06,
        -3.288683901345813e-06,
        1.14e-322,
        9.298208870382032e-106,
        -4.670913338985584e-249,
        1.745363598362335e-09,
        4.404479139261592e-05,
        0.1405218487579968
      ],
      [
        0.28949459384188003,
        0.19791453231300493,
        -0.04488289405684206,
        0.017655896022786277,
        -0.0002586247009507099,
        -2.578042921888431e-05,
        1.14e-322,
        1.3326478771254288e-104,
        -1.14e-322,
        -0.00014747172493257074,
        -0.00013466627656973456,
        0.22502391745557004
      ],
      [
        0.10041450175182058,
        0.09459072248132845,
        0.013227884639870303,
        0.04294174733937865,
        -2.982447483379792e-07,
        7.430502187775683e-07,
        -1.14e-322,
        3.4522535844298736e-163,
        -1.14e-322,
        2.5750464763286703e-06,
        5.89097638711397e-11,
        0.13019335762531667
      ],
      [
        0.21917830517997744,
        0.2536552733197884,
        0.045438328318417515,
        -0.033289344824267826,
        1.4979277791997696e-05,
        -8.55057834715723e-06,
        -1.14e-322,
        -5.749821034544313e-113,
        1.14e-322,
        -0.00012032169135598371,
        5.296169632893841e-10,
        0.23115071318037783
      ]
    ],
    "weights": [
      [
        0.10015035397260687,
        0.12658137921847495,
        0.03985932836476552,
        0.02569013709415592,
        -4.229806701180805e-06,
        -9.441591106226334e-06,
        1.14e-322,
        5.942760556312355e-108,
        -2.9853189942092844e-251,
        1.5022611473015349e-05,
        4.687301586103875e-05,
        0.1420873746263346
      ],
      [
        0.2948759969359695,
        0.20253129750965437,
        -0.04510174742070228,
        0.018201680556366246,
        -0.0002648443858937782,
        -3.120772476006449e-05,
        1.14e-322,
        8.517347104194472e-107,
        -1.14e-322,
        -0.0001373088986711954,
        -0.00013931319172059856,
        0.2301864671857994
      ],
      [
        0.10318444284354084,
        0.09724731024755849,
        0.013958581947307825,
        0.04378579797230641,
        -5.924929145711768e-05,
        -1.4945485327966824e-05,
        -1.14e-322,
        2.206437467466233e-165,
        -1.14e-322,
        0.0004392949940300676,
        3.679526666080799e-06,
        0.13369399602447443
      ],
      [
        0.22098622252608682,
        0.255654754452093,
        0.04626425597236306,
        -0.032654980956517685,
        -6.519577420513117e-05,
        -9.512139900334321e-05,
        -1.14e-322,
        -3.674880842781188e-115,
        1.14e-322,
        1.2750848406806974e-06,
        1.4913016009382194e-05,
        0.23378455818043284
      ]
    ]
  },
  "cues": [
    [
      2,
      9
    ],
    [
      1,
      4
    ],
    [
      1,
      7
    ],
    [
      7,
      7
    ],
    [
      6,
      3
    ]
  ],
  "env": {
    "delay": 3,
    "grid_size": 10,
    "max_steps": 200,
    "noise": 0.0,
    "num_cues": 5,
    "reward_sparse_prob": 1.0
  },
  "seed": 1
}