{
  "agent": {
    "action_size": 4,
    "cue_exploration_bias": 0.3333333333333333,
    "cue_regularization": 0.01666666666666667,
    "epsilon": 0.05,
    "state_size": 11,
    "target_weights": [
      [
        0.04229922899856086,
        0.04848594487021986,
        -0.028358923656051343,
        -0.06541603606829606,
        -1.0205680306967647e-05,
        -6.7356001779764185e-06,
        1.43e-322,
        -8.60479621779027e-15,
        -4.7177346911355153e-271,
        8.169568707382658e-28,
        -1.1365348076634031e-07,
        0.03213968614180026
      ],
      [
        0.190665498375571,
        0.04084164902773542,
        -0.1438170298945078,
        -0.06653144273110205,
        -0.0005062737646261746,
        -0.00039815995038648043,
        -3.4419416417370454e-102,
        -4.152129686766535e-05,
        7.57269393933607e-08,
        -7.845908609016954e-05,
        6.291574305286187e-12,
        0.011515655528155973
      ],
      [
        0.032179006447572454,
        0.027258187710117343,
        -0.02052645553662864,
        -0.050531113376475,
        -7.745539490148538e-06,
        -2.358900012236257e-06,
        1.43e-322,
        5.2295779408302616e-18,
        1.055768601241542e-196,
        1.4726922705117014e-54,
        7.482287724571567e-23,
        -0.021152922221785723
      ],
      [
        0.06451173505023561,
        0.06674771864400564,
        -0.03976820717333754,
        -0.04869509733934647,
        -3.257623995043706e-06,
        -6.2075641909498056e-06,
        1.43e-322,
        1.13014694356868e-06,
        -8.39266069728811e-09,
        3.5323490030532476e-10,
        1.2006908981295667e-05,
        0.025517921016501473
      ]
    ],
    "weights": [
      [
        0.042429301471612856,
        0.048645563579124425,
        -0.02834695485822968,
        -0.06543361350632697,
        -1.5544157618563928e-05,
        -1.8414191365553073e-05,
        1.43e-322,
        -2.242856512471637e-15,
        -1.2296865269453105e-271,
        2.1294136334751124e-28,
        -5.679995994812879e-06,
        0.03228172741267392
      ],
      [
        0.19179929042069407,
        0.04206370428267528,
        -0.14400772230025832,
        -0.06681039834666945,
        -0.0002345218713848761,
        -0.0001030948834390265,
        -8.971486402846743e-103,
        -0.00010225462211095116,
        1.9738370890968123e-08,
        -2.0450510127838872e-05,
        1.639910818008203e-12,
        0.012458755167528424
      ],
      [
        0.032179006447572454,
        0.027258187710117343,
        -0.02052645553662864,
        -0.050531113376475,
        -2.0188896109090058e-06,
        -6.148517781019771e-07,
        1.43e-322,
        1.3630994442168487e-18,
        2.751880954556477e-197,
        3.838600434203003e-55,
        1.950272537139931e-23,
        -0.021152922221785723
      ],
      [
        0.06474827596131495,
        0.06699416315743202,
        -0.03969562741270962,
        -0.048632421181065616,
        8.944592881266752e-06,
        -2.246282494753946e-05,
        1.43e-322,
        2.9457495195439494e-07,
        -4.429923411020562e-06,
        7.79541977991851e-05,
        5.3214100646413705e-06,
        0.02582704168820871
      ]
    ]
  },
  "cues": [
    [
      9,
      0
    ],
    [
      6,
      7
    ],
    [
      3,
      7
    ],
    [
      7,
      4
    ],
    [
      2,
      0
    ]
  ],
  "env": {
    "delay": 0,
    "grid_size": 10,
    "max_steps": 200,
    "noise": 0.3,
    "num_cues": 5,
    "reward_sparse_prob": 1.0
  },
  "seed": 10
}