{
  "agent": {
    "action_size": 4,
    "cue_exploration_bias": 0.16666666666666666,
    "cue_regularization": 0.020833333333333336,
    "epsilon": 0.05,
    "state_size": 11,
    "target_weights": [
      [
        0.07936716894456541,
        0.08320334079567776,
        -0.009809105042337412,
        -0.018521989155281294,
        -7.186002919359019e-05,
        -0.0001654602370663662,
        1.14e-322,
        1.7813380051269333e-22,
        2.8550007638315586e-301,
        9.11850379456232e-13,
        -1.14e-322,
        0.05885940871663866
      ],
      [
        0.19783459753454297,
        0.14803292058660977,
        -0.033003702004939975,
        -0.00028684524679065896,
        -4.990263714416514e-05,
        0.00033812142249884037,
        -2.100406845587601e-06,
        2.00562552408877e-06,
        -1.5501271012967271e-121,
        2.3822814508824743e-12,
        -1.14e-322,
        0.1611604962061361
      ],
      [
        0.010366445569000033,
        0.050322447888388924,
        -0.02839174254490568,
        -0.03527743812289319,
        -7.818681920788642e-11,
        -1.2112742465219009e-05,
        -1.14e-322,
        9.407999895287894e-35,
        4.5813300879153366e-306,
        1.1367156371686522e-09,
        -1.14e-322,
        0.0473279375055186
      ],
      [
        0.1620808612576773,
        0.19913668108692129,
        -0.011351770149529542,
        -0.10024976861742987,
        9.628001968191279e-05,
        -0.00018680971039436925,
        5.0292129870663826e-08,
        4.519360301053372e-06,
        8.562930448488884e-228,
        -1.2850025033004875e-05,
        -1.14e-322,
        0.1532484101849649
      ]
    ],
    "weights": [
      [
        0.07968475081895306,
        0.08369280243684762,
        -0.009452256679184565,
        -0.01833702055891067,
        3.524693427212591e-07,
        -7.866434009777034e-07,
        1.14e-322,
        2.112831742684524e-25,
        3.386295145475238e-304,
        1.0815389447421423e-15,
        -1.14e-322,
        0.05953383895417915
      ],
      [
        0.19977554406548725,
        0.14956258940742076,
        -0.03230737278652342,
        0.0008207616817593052,
        -2.8316709471698033e-05,
        -0.0001423956713675754,
        -8.040542991972893e-07,
        1.9674404426495123e-05,
        -1.8385942114236155e-124,
        1.046710243702869e-07,
        -1.14e-322,
        0.163797771955497
      ],
      [
        0.011129418870837803,
        0.05118079285295642,
        -0.02829637088217596,
        -0.03527743812289319,
        4.1085083665598704e-05,
        -0.0002876099531419859,
        -1.14e-322,
        1.1158758616684047e-37,
        5.433881501210925e-309,
        1.3482499523972476e-12,
        -1.14e-322,
        0.04818628247008609
      ],
      [
        0.16286033461301477,
        0.2003076492627523,
        -0.01114231844032402,
        -0.10043181172871792,
        0.00010583115205827913,
        -0.0003155011138025064,
        5.965112072617529e-11,
        2.7204365581593515e-06,
        1.0156428038865053e-230,
        -1.2400840177616383e-05,
        -1.14e-322,
        0.15423733524950803
      ]
    ]
  },
  "cues": [
    [
      2,
      4
    ],
    [
      1,
      5
    ],
    [
      9,
      2
    ],
    [
      0,
      6
    ],
    [
      6,
      1
    ]
  ],
  "env": {
    "delay": 3,
    "grid_size": 10,
    "max_steps": 200,
    "noise": 0.0,
    "num_cues": 5,
    "reward_sparse_prob": 1.0
  },
  "seed": 20
}