{
  "agent": {
    "action_size": 4,
    "cue_exploration_bias": 0.08333333333333333,
    "cue_regularization": 0.02291666666666667,
    "epsilon": 0.05,
    "state_size": 11,
    "target_weights": [
      [
        0.049609495009791726,
        0.02555729672652739,
        -0.00701096598982802,
        -0.01382916424714955,
        -0.00010139290989410378,
        -4.223053000519624e-05,
        8.535895592899611e-64,
        6.33644199228555e-06,
        1.522323791215682e-173,
        1.2092544692710626e-106,
        1.5611292568556935e-14,
        0.06079790981925453
      ],
      [
        0.22887907486646222,
        0.1505542228591392,
        -0.045845793864448904,
        -0.040059204041554365,
        -9.071360902283678e-05,
        4.924608094402398e-06,
        -1.2861760238401064e-27,
        -5.330673486565102e-07,
        2.4930846215092186e-26,
        -2.044044592987508e-05,
        5.1769207086783585e-05,
        0.1477004680491083
      ],
      [
        0.08822416574389369,
        0.06244452456905413,
        -0.023102152284713448,
        -0.03224798768717481,
        -6.19479676502133e-05,
        -4.5848437236555405e-05,
        4.0372703050709194e-58,
        5.619514243321358e-06,
        1.04e-322,
        1.05284107621904e-23,
        2.9662865593115793e-10,
        0.03231654032645211
      ],
      [
        0.16890306567382626,
        0.19877490167722195,
        -0.014729994441022024,
        -0.051292737016656736,
        9.78798605419594e-05,
        1.4348745560012545e-06,
        1.3633713470061266e-53,
        -5.07081303335275e-06,
        -2.8473744229163076e-14,
        5.2037613734306327e-05,
        4.636872591194767e-06,
        0.15494746437240836
      ]
    ],
    "weights": [
      [
        0.049609495009791726,
        0.02555729672652739,
        -0.006660631138473288,
        -0.013478829395794818,
        1.596872838681487e-05,
        -5.3202111587946236e-08,
        1.075353943653148e-66,
        7.982663108955638e-09,
        1.9178267524295026e-176,
        1.5234213542777168e-109,
        1.9667139606399612e-17,
        0.06114824467060926
      ],
      [
        0.230021982188639,
        0.15108193973793138,
        -0.04564221158262529,
        -0.03924043131634595,
        -0.0001287573939478189,
        1.1587549098917604e-07,
        -1.6203272924508102e-30,
        6.8498781465669534e-06,
        3.140793312691219e-29,
        -9.43450791467626e-06,
        2.8677229493441222e-05,
        0.14904695765310888
      ],
      [
        0.08861462490049986,
        0.0626676440871148,
        -0.022990592525683116,
        -0.031969088289598976,
        -7.80421815015726e-08,
        -5.775995881870381e-08,
        5.0861617236311286e-61,
        7.0794760048346395e-09,
        1.04e-322,
        0.00026230407090172746,
        3.736934121141788e-13,
        0.03281855924208862
      ],
      [
        0.1689800827891543,
        0.19848382266521322,
        -0.014148978052394099,
        -0.05034362450069216,
        5.6889194457856884e-05,
        1.1544991144141197e-05,
        1.7175781248850897e-56,
        -1.2100672108858714e-06,
        -3.587128358607338e-17,
        3.801261110580484e-05,
        2.856618741157609e-05,
        0.15560549787636435
      ]
    ]
  },
  "cues": [
    [
      9,
      0
    ],
    [
      6,
      7
    ],
    [
      3,
      7
    ],
    [
      7,
      4
    ],
    [
      2,
      0
    ]
  ],
  "env": {
    "delay": 0,
    "grid_size": 10,
    "max_steps": 200,
    "noise": 0.05,
    "num_cues": 5,
    "reward_sparse_prob": 1.0
  },
  "seed": 10
}