{
  "agent": {
    "action_size": 4,
    "cue_exploration_bias": 0.3333333333333333,
    "cue_regularization": 0.01666666666666667,
    "epsilon": 0.05,
    "state_size": 11,
    "target_weights": [
      [
        -0.03881643241907807,
        -0.059489926418308275,
        -0.03705264647780399,
        -0.05884544683338029,
        3.774237289443051e-07,
        1.1882184912788354e-06,
        -1.43e-322,
        -1.43e-322,
        2.8830803276697725e-06,
        -1.43e-322,
        -1.43e-322,
        -0.11273156249272236
      ],
      [
        -0.0655957143974612,
        -0.05704294258901173,
        -0.06213470014123683,
        -0.049554946208651814,
        2.925661773664404e-07,
        4.945578813682603e-07,
        1.43e-322,
        1.43e-322,
        2.6253523542620623e-06,
        1.43e-322,
        -1.43e-322,
        -0.09782567314960074
      ],
      [
        -0.06798318102612716,
        -0.04975177478408613,
        -0.06742802314276872,
        -0.04534020802824115,
        -4.051812458688181e-06,
        2.4113908308468178e-05,
        -1.43e-322,
        -1.43e-322,
        0.00018152878812272656,
        -1.43e-322,
        1.43e-322,
        -0.09431828240570654
      ],
      [
        -0.04706737158178958,
        -0.0717453402089781,
        -0.03951208314894621,
        -0.06300113605113772,
        2.1584005062161493e-08,
        -7.3284309616982765e-09,
        1.43e-322,
        1.43e-322,
        3.0294133843378544e-06,
        1.43e-322,
        -1.43e-322,
        -0.10591213878788909
      ]
    ],
    "weights": [
      [
        -0.03881991926839217,
        -0.059455141024026895,
        -0.0367700586010603,
        -0.058601131200232075,
        7.914978347892069e-07,
        -1.2037138592108445e-06,
        -1.43e-322,
        -1.43e-322,
        -4.6105112669552323e-07,
        -1.43e-322,
        -1.43e-322,
        -0.11245246146529277
      ],
      [
        -0.06559477961255242,
        -0.05704135175572886,
        -0.06208313782016216,
        -0.04950403993595123,
        3.7003643310039667e-07,
        2.3586722371452284e-07,
        1.43e-322,
        1.43e-322,
        2.4658047885923278e-06,
        1.43e-322,
        -1.43e-322,
        -0.09777317604361727
      ],
      [
        -0.06799464725036797,
        -0.04977381748348334,
        -0.06777914718459731,
        -0.04568075559491335,
        -1.837780199972076e-06,
        -1.3959453881660362e-06,
        -1.43e-322,
        -1.43e-322,
        -2.6388859692364892e-05,
        -1.43e-322,
        1.43e-322,
        -0.09468087267177593
      ],
      [
        -0.04706674025270781,
        -0.0717447458160288,
        -0.039496916803033064,
        -0.06298593276909209,
        -2.2438339990113513e-07,
        -1.9482105059742601e-07,
        1.43e-322,
        1.43e-322,
        2.5620502595490134e-06,
        1.43e-322,
        -1.43e-322,
        -0.10589634111289417
      ]
    ]
  },
  "cues": [
    [
      7,
      4
    ],
    [
      4,
      3
    ],
    [
      1,
      1
    ],
    [
      4,
      8
    ],
    [
      5,
      4
    ]
  ],
  "env": {
    "delay": 6,
    "grid_size": 10,
    "max_steps": 200,
    "noise": 0.0,
    "num_cues": 5,
    "reward_sparse_prob": 1.0
  },
  "seed": 27
}