{
  "agent": {
    "action_size": 4,
    "cue_exploration_bias": 0.16666666666666666,
    "cue_regularization": 0.020833333333333336,
    "epsilon": 0.05,
    "state_size": 11,
    "target_weights": [
      [
        0.10710845616476146,
        0.10893537514313147,
        0.009142607278667468,
        -0.007571648447060299,
        -8.830407403713924e-06,
        -8.882945921076531e-06,
        1.7339613006575913e-47,
        2.0864526830885245e-16,
        5.258083461747936e-09,
        7.2753707939224565e-308,
        8.704612675931767e-269,
        0.10063266885111864
      ],
      [
        0.22104323122069205,
        0.20335719772239916,
        -0.036802029985801676,
        -0.012749774220829457,
        -7.531371223977984e-05,
        -2.156396559359257e-05,
        -3.857176541979022e-06,
        5.180678339180012e-05,
        -3.4086845492628816e-05,
        -7.599484034179082e-62,
        -4.1848861634228524e-20,
        0.20126782668531504
      ],
      [
        0.0979940912834678,
        0.09575541773993583,
        0.011883775108137477,
        0.0024388664880098223,
        -3.6727222703730296e-06,
        -7.206176305697784e-06,
        5.080903314600531e-15,
        9.382629318836987e-13,
        2.8438447734879043e-11,
        -1.9866766665735922e-299,
        6.84257132355584e-236,
        0.08634149534705667
      ],
      [
        0.20928291527558762,
        0.25708561891917264,
        -0.009148588164540292,
        -0.08560566701389125,
        2.5284272801976972e-05,
        -0.00023699048667346885,
        8.792185517471671e-07,
        2.1356486409267127e-06,
        -7.209567836051683e-05,
        4.263976953828661e-91,
        1.4732802975617394e-78,
        0.1715119917351566
      ]
    ],
    "weights": [
      [
        0.10710845616476146,
        0.10893537514313147,
        0.009142607278667468,
        -0.007571648447060299,
        -8.830407403713924e-06,
        -8.882945921076531e-06,
        1.7339613006575913e-47,
        2.0864526830885245e-16,
        5.258083461747936e-09,
        7.2753707939224565e-308,
        8.704612675931767e-269,
        0.10063266885111864
      ],
      [
        0.22104323122069205,
        0.20335719772239916,
        -0.036802029985801676,
        -0.012749774220829457,
        -7.531371223977984e-05,
        -2.156396559359257e-05,
        -3.857176541979022e-06,
        5.180678339180012e-05,
        -3.4086845492628816e-05,
        -7.599484034179082e-62,
        -4.1848861634228524e-20,
        0.20126782668531504
      ],
      [
        0.0979940912834678,
        0.09575541773993583,
        0.011883775108137477,
        0.0024388664880098223,
        -3.6727222703730296e-06,
        -7.206176305697784e-06,
        5.080903314600531e-15,
        9.382629318836987e-13,
        2.8438447734879043e-11,
        -1.9866766665735922e-299,
        6.84257132355584e-236,
        0.08634149534705667
      ],
      [
        0.20928291527558762,
        0.25708561891917264,
        -0.009148588164540292,
        -0.08560566701389125,
        2.5284272801976972e-05,
        -0.00023699048667346885,
        8.792185517471671e-07,
        2.1356486409267127e-06,
        -7.209567836051683e-05,
        4.263976953828661e-91,
        1.4732802975617394e-78,
        0.1715119917351566
      ]
    ]
  },
  "cues": [
    [
      6,
      6
    ],
    [
      0,
      4
    ],
    [
      8,
      7
    ],
    [
      6,
      4
    ],
    [
      7,
      5
    ]
  ],
  "env": {
    "delay": 0,
    "grid_size": 10,
    "max_steps": 200,
    "noise": 0.1,
    "num_cues": 5,
    "reward_sparse_prob": 1.0
  },
  "seed": 0
}