{
  "agent": {
    "action_size": 4,
    "cue_exploration_bias": 0.05555555555555555,
    "cue_regularization": 0.02361111111111111,
    "epsilon": 0.05,
    "state_size": 11,
    "target_weights": [
      [
        0.08018144807219175,
        0.10816871796301249,
        0.033420010083847165,
        0.027567818755252365,
        3.273616975950937e-07,
        1.6556346621595932e-10,
        3.888508548872173e-125,
        2.5850668603910217e-123,
        1.04e-322,
        3.6680771768513435e-12,
        8.31751329839964e-243,
        0.11786729443969025
      ],
      [
        0.28059323862065116,
        0.19905665721963153,
        -0.017484439818272465,
        -0.0006036207826055779,
        -0.0001043750423184577,
        6.95821485630486e-05,
        1.9963571135509514e-105,
        -1.465031844366851e-05,
        -1.0425160913187272e-110,
        -3.2635752739984e-05,
        -1.04e-322,
        0.23009774844126915
      ],
      [
        0.1132585672896803,
        0.07868617436565323,
        0.03810115780331607,
        0.014757951697182385,
        -7.731107221508263e-05,
        -6.465882069905146e-05,
        4.8997109156141836e-272,
        1.707261014379327e-18,
        8.570923966436295e-157,
        1.7480801763142096e-05,
        -1.04e-322,
        0.12347095730783651
      ],
      [
        0.2077148341039672,
        0.2672055097855199,
        0.024377731695652022,
        -0.08196026445642195,
        3.843223183627131e-05,
        -2.370975999869826e-05,
        -2.3110308955639104e-08,
        2.3449274817676617e-12,
        2.4860851145683226e-150,
        -6.95082212080619e-05,
        -1.7293633908620046e-138,
        0.2427103474919186
      ]
    ],
    "weights": [
      [
        0.08075789882122998,
        0.10886599840863209,
        0.033948057945836364,
        0.02797503692066019,
        -3.7486360180654236e-05,
        8.842130378151404e-05,
        2.69979882819121e-127,
        1.794816802576878e-125,
        1.04e-322,
        2.5467529103544012e-14,
        5.7748651891217325e-245,
        0.11897179305071767
      ],
      [
        0.283101297345182,
        0.20115458548083762,
        -0.017384010146246125,
        -9.30606472541882e-05,
        8.843573972976256e-06,
        7.903060030589133e-05,
        1.386074513679362e-107,
        -3.7922320205144836e-05,
        -7.238208907960674e-113,
        -2.1829295940443128e-05,
        -1.04e-322,
        0.2327062368378266
      ],
      [
        0.1132585672896803,
        0.07868617436565323,
        0.038229394706951726,
        0.014886188600818041,
        2.5821533463430975e-06,
        8.907849328742744e-06,
        3.4018785408836475e-274,
        1.1853545461214733e-20,
        5.950808694457451e-159,
        1.21369536733209e-07,
        -1.04e-322,
        0.12359919421147217
      ],
      [
        0.20914594581740853,
        0.26901954066637374,
        0.02483738229612483,
        -0.08188353302336207,
        -3.68878458646473e-05,
        -0.00011279954895317582,
        -1.604553114732585e-10,
        1.6280875785411095e-14,
        1.7260935895439653e-152,
        -9.366837973626293e-05,
        -1.2007002678495311e-140,
        0.2446011098058327
      ]
    ]
  },
  "cues": [
    [
      2,
      6
    ],
    [
      6,
      4
    ],
    [
      7,
      3
    ],
    [
      7,
      8
    ],
    [
      2,
      8
    ]
  ],
  "env": {
    "delay": 1,
    "grid_size": 10,
    "max_steps": 200,
    "noise": 0.0,
    "num_cues": 5,
    "reward_sparse_prob": 1.0
  },
  "seed": 21
}