{
  "agent": {
    "action_size": 4,
    "cue_exploration_bias": 0.08333333333333333,
    "cue_regularization": 0.02291666666666667,
    "epsilon": 0.05,
    "state_size": 11,
    "target_weights": [
      [
        0.10197085759917511,
        0.10253368969911733,
        -0.0026625195044175315,
        -0.05033388005539925,
        -1.6444118191687868e-07,
        -8.301535209493925e-06,
        1.04e-322,
        2.6885460036691076e-148,
        7.321054994101136e-05,
        4.683377426239417e-11,
        1.04e-322,
        0.047572399885148685
      ],
      [
        0.20661429880115836,
        0.15859307450956142,
        -0.05545793460614542,
        -0.021101873505191104,
        -1.4751720023692946e-05,
        5.85380836409269e-06,
        -3.564923359157704e-107,
        8.45200688400736e-96,
        -1.1340067395061908e-05,
        -4.2256601050240154e-05,
        -1.04e-322,
        0.1743293414392272
      ],
      [
        0.07569461303888199,
        0.079836656965606,
        0.02173025794104331,
        -0.04235451638025133,
        -0.00015285466770834614,
        -6.487677823124577e-05,
        1.04e-322,
        7.285245302457211e-103,
        3.9305624247650513e-07,
        3.981569690280874e-09,
        1.04e-322,
        0.05044065414697665
      ],
      [
        0.16409155892017943,
        0.19841274631822675,
        -0.02723961142644843,
        -0.0804894099054988,
        0.00010966898121861293,
        -1.5114900029286721e-05,
        1.0424745713969123e-95,
        -2.2579058191612754e-20,
        -6.1156089382015595e-06,
        -5.4049649884964207e-05,
        1.3038402634241802e-105,
        0.16683663337343352
      ]
    ],
    "weights": [
      [
        0.10197085759917511,
        0.10259756877596592,
        -0.0024708822738717744,
        -0.05020612190170208,
        2.864703497085362e-05,
        -1.433407935882898e-05,
        1.04e-322,
        3.387035977974487e-151,
        9.223080664385096e-08,
        5.900128850113867e-14,
        1.04e-322,
        0.04776403711569444
      ],
      [
        0.20676282615656233,
        0.15766558197461472,
        -0.056008498908898044,
        -0.0205764179175931,
        6.774802424532737e-05,
        3.700879546805549e-05,
        -4.491098035782344e-110,
        1.0647856262512485e-98,
        -6.764662080703011e-06,
        -3.691283815381753e-05,
        -1.04e-322,
        0.17392730449187857
      ],
      [
        0.07571106326618691,
        0.07986955742021586,
        0.021861859759482724,
        -0.04223936478911684,
        2.944131046941479e-05,
        -9.959690938353478e-06,
        1.04e-322,
        9.177967538631386e-106,
        4.951730908894783e-10,
        5.015989970560243e-12,
        1.04e-322,
        0.05058870619272099
      ],
      [
        0.16986601008634294,
        0.20513422837560644,
        -0.026182704973068564,
        -0.0803795343433352,
        -0.00031321893577203964,
        -0.0002042435174197545,
        1.3133116839459664e-98,
        -2.844514556916775e-23,
        -3.602722563787202e-05,
        -0.0001752724961917563,
        1.6425807390770444e-108,
        0.1736679909929768
      ]
    ]
  },
  "cues": [
    [
      4,
      1
    ],
    [
      0,
      9
    ],
    [
      4,
      6
    ],
    [
      6,
      8
    ],
    [
      5,
      2
    ]
  ],
  "env": {
    "delay": 0,
    "grid_size": 10,
    "max_steps": 200,
    "noise": 0.05,
    "num_cues": 5,
    "reward_sparse_prob": 1.0
  },
  "seed": 23
}