{
  "agent": {
    "action_size": 4,
    "cue_exploration_bias": 0.16666666666666666,
    "cue_regularization": 0.020833333333333336,
    "epsilon": 0.05,
    "state_size": 11,
    "target_weights": [
      [
        0.07764680573379884,
        0.0814907137776476,
        0.005962664389666158,
        0.03453252456094787,
        -1.772304673404144e-05,
        1.8916473355369123e-05,
        1.4214801168244464e-114,
        6.620326927908086e-187,
        5.965722799321962e-08,
        3.2048152823441913e-07,
        1.5036006231217146e-165,
        0.10535009295641355
      ],
      [
        0.2889571733678758,
        0.21189506971427707,
        -0.03117642520094498,
        -0.005027919093086583,
        -0.0001335285416200058,
        6.54199511801867e-05,
        1.0634274842849092e-72,
        -1.8292368807643667e-133,
        -1.7096605071817534e-05,
        -0.0002029526537442999,
        6.981581153374738e-117,
        0.23471494763369738
      ],
      [
        0.11568836510297119,
        0.1001590114203095,
        0.025958055736380024,
        0.0017053660374753523,
        1.7335641389330294e-07,
        0.00011288697949523664,
        1.0107664256763042e-121,
        2.256154582920355e-188,
        2.3837971974775583e-45,
        1.4274540449127507e-05,
        5.110419912499699e-168,
        0.15777393035194306
      ],
      [
        0.23177611071532564,
        0.2626932865739438,
        0.007322499464492073,
        -0.06561833256860747,
        -0.00013435417308561718,
        -0.00014453485822308918,
        -8.400159921017026e-11,
        2.951664038251208e-144,
        -4.402515628168302e-08,
        0.001173326823314416,
        -1.5707722706702016e-97,
        0.24331292539181695
      ]
    ],
    "weights": [
      [
        0.07922544675194304,
        0.08290611357136571,
        0.006366876816777434,
        0.03509997821248524,
        -2.2859967428545286e-05,
        1.826273759198004e-05,
        4.631712368453306e-117,
        2.157149421386053e-189,
        1.943854982517206e-10,
        1.0442483441134882e-09,
        4.899291605207191e-168,
        0.10733294640166903
      ],
      [
        0.29294871221290175,
        0.2153273534809926,
        -0.031489384468284434,
        -0.00478162328211529,
        -0.00037906424392615746,
        0.00015380371106517632,
        3.465043354189881e-75,
        -5.960335980213807e-136,
        -1.8231320351376867e-05,
        -8.324515131147387e-05,
        2.274859521192998e-119,
        0.23839352721138413
      ],
      [
        0.11670816421024222,
        0.10117881052758053,
        0.026155713959052494,
        0.0019030242601478222,
        -7.136878889995013e-05,
        0.00011437540679411696,
        3.2934539850482168e-124,
        7.351393074846212e-191,
        7.767300317999965e-48,
        4.6511776541701824e-08,
        1.6651654030584073e-170,
        0.15899138768188656
      ],
      [
        0.2327699084877258,
        0.2640441246581301,
        0.007623578666219903,
        -0.06567429367866572,
        0.0001123479278685807,
        -3.8212122995233735e-05,
        -2.737085390267572e-13,
        9.617622273907172e-147,
        -2.853402348810513e-05,
        0.0006837769236083737,
        -5.118161884908853e-100,
        0.24460780236594515
      ]
    ]
  },
  "cues": [
    [
      3,
      9
    ],
    [
      8,
      2
    ],
    [
      5,
      9
    ],
    [
      7,
      9
    ],
    [
      1,
      9
    ]
  ],
  "env": {
    "delay": 0,
    "grid_size": 10,
    "max_steps": 200,
    "noise": 0.1,
    "num_cues": 5,
    "reward_sparse_prob": 1.0
  },
  "seed": 3
}