{
  "agent": {
    "action_size": 4,
    "cue_exploration_bias": 0.3333333333333333,
    "cue_regularization": 0.01666666666666667,
    "epsilon": 0.05,
    "state_size": 11,
    "target_weights": [
      [
        0.10791514276647421,
        0.13733382975367778,
        0.042565348267400424,
        0.025408495255455136,
        -0.00010648429458822211,
        -0.00021738300983030045,
        2.008565914964091e-233,
        7.288511800795393e-75,
        5.49306193969938e-138,
        3.3021740776928084e-06,
        3.4892552554142885e-87,
        0.1525581833228369
      ],
      [
        0.27869822725044724,
        0.19735322227848207,
        -0.015603231064291342,
        0.036700502458424024,
        2.6690876166161254e-06,
        0.00010700539155506914,
        5.3188053127216585e-233,
        1.6044624131826996e-11,
        -6.287714076013465e-233,
        -9.565440701219534e-05,
        -1.927284814148484e-05,
        0.2435072138566849
      ],
      [
        0.12485297945856494,
        0.12032180177276068,
        0.012151637002069244,
        0.040572898116889806,
        5.808579273817457e-07,
        -3.0847254928618404e-06,
        -3.536558890279128e-233,
        3.0209831699371977e-78,
        2.027488486533097e-79,
        1.083705595212834e-15,
        1.7143761642450678e-64,
        0.1535555876942597
      ],
      [
        0.2142191801065758,
        0.26427303414705966,
        0.057747975175821135,
        -0.03655658386753507,
        -4.72563609952941e-05,
        -8.403324572616919e-05,
        -5.023105564050828e-233,
        -1.481188505099152e-05,
        2.9346085361182085e-233,
        -0.00022543339770064418,
        5.020303699142785e-41,
        0.23850123496438133
      ]
    ],
    "weights": [
      [
        0.10856793439773349,
        0.13791408898146382,
        0.042565348267400424,
        0.02548102765892839,
        -6.442403164085555e-05,
        -5.130677354259239e-05,
        2.336595465786659e-234,
        8.478837313325392e-76,
        6.390163014299843e-139,
        3.841469637461815e-07,
        4.059104034392146e-88,
        0.1532109749540962
      ],
      [
        0.2785942299517071,
        0.19720899405817402,
        -0.01498798475859302,
        0.03735597968569026,
        2.126881885292801e-06,
        0.00017210606444414007,
        6.187447613502701e-234,
        1.8664956782037397e-12,
        -7.314594004966317e-234,
        -9.911845664591094e-05,
        -2.2420399173702696e-06,
        0.24401846286364315
      ],
      [
        0.12507441753070192,
        0.12054323984489766,
        0.012490007655181061,
        0.04091126877000162,
        -8.352701852852735e-05,
        1.3849312103581077e-05,
        -4.114133076713809e-234,
        3.514355951429787e-79,
        2.3586083828633438e-80,
        1.2606913027632506e-16,
        1.9943600268151343e-65,
        0.15411539641950847
      ],
      [
        0.21461340596492892,
        0.26482650097507626,
        0.057973422615438794,
        -0.03649037739758111,
        -3.5162874572845676e-05,
        -0.00011432702368784681,
        -5.843455570806466e-234,
        -2.821354619882872e-07,
        3.4138750181246686e-234,
        -6.39793996912675e-05,
        5.840196118482249e-42,
        0.23912090826235208
      ]
    ]
  },
  "cues": [
    [
      2,
      9
    ],
    [
      1,
      4
    ],
    [
      1,
      7
    ],
    [
      7,
      7
    ],
    [
      6,
      3
    ]
  ],
  "env": {
    "delay": 6,
    "grid_size": 10,
    "max_steps": 200,
    "noise": 0.0,
    "num_cues": 5,
    "reward_sparse_prob": 1.0
  },
  "seed": 1
}