{
  "agent": {
    "action_size": 4,
    "cue_exploration_bias": 0.3,
    "cue_regularization": 0.017499999999999998,
    "epsilon": 0.05,
    "state_size": 11,
    "target_weights": [
      [
        -0.006519730624184996,
        -0.008952104365745908,
        -0.03743929237932135,
        -0.057445000276659705,
        -3.259035356213356e-05,
        -9.116415311961028e-05,
        3.63222220235128e-08,
        1.4e-322,
        -1.4e-322,
        9.059567907778907e-10,
        1.4e-322,
        -0.035284444337906236
      ],
      [
        0.0027078353138506976,
        0.012419585355261532,
        -0.06935634003997669,
        -0.04027245236166858,
        -0.00038771763582490134,
        -0.0011286161612109142,
        -1.7245955512125482e-05,
        2.710332779414388e-135,
        -3.499867052335176e-86,
        -3.220544917416266e-06,
        1.4e-322,
        -0.008593500958502504
      ],
      [
        0.0016301209707601278,
        -0.023201679450213286,
        -0.024679539427989547,
        -0.04349671456279739,
        -8.860264445874956e-06,
        -9.460833605068844e-06,
        2.820187288053769e-06,
        -1.4e-322,
        -1.4e-322,
        3.6671937564521695e-11,
        1.4e-322,
        -0.06418883218769414
      ],
      [
        0.028983005168573616,
        0.04270806072607174,
        -0.015350830559173254,
        -0.051322484479708004,
        -9.262297237095465e-05,
        -0.0009983534788735647,
        -5.07434079313606e-05,
        -1.257245503974432e-38,
        1.4e-322,
        1.0698501675018893e-05,
        1.4e-322,
        -0.061244769003874815
      ]
    ],
    "weights": [
      [
        -0.006394749908716501,
        -0.008833506842747323,
        -0.03711402848272932,
        -0.05711335318759777,
        1.467089901722093e-06,
        4.271520121102001e-08,
        2.2487926566804043e-10,
        1.4e-322,
        -1.4e-322,
        1.7161631925149076e-07,
        1.4e-322,
        -0.03483419972584571
      ],
      [
        0.002603341701537597,
        0.012420474571662893,
        -0.0692493740091926,
        -0.040270869159598946,
        -4.655589264662541e-07,
        1.2357977994088404e-05,
        -6.704234818255941e-06,
        1.6780296226265388e-137,
        -2.1668485263798437e-88,
        1.810903117571273e-06,
        1.4e-322,
        -0.008591028540031525
      ],
      [
        0.002326014761080459,
        -0.02247663239732958,
        -0.024613372750241107,
        -0.04345970114761232,
        -2.8973416972789117e-05,
        -0.0001026688876818967,
        1.746043086167277e-08,
        -1.4e-322,
        -1.4e-322,
        2.2704443535407654e-13,
        1.4e-322,
        -0.06342677171962535
      ],
      [
        0.027820830257299662,
        0.0416678553505123,
        -0.015231479605841227,
        -0.051325103062090476,
        4.5286479734128826e-05,
        0.0001371189234944234,
        1.965466078661222e-08,
        -7.783897293375775e-41,
        1.4e-322,
        5.98570799934157e-06,
        1.4e-322,
        -0.06228759296181676
      ]
    ]
  },
  "cues": [
    [
      3,
      4
    ],
    [
      1,
      6
    ],
    [
      7,
      2
    ],
    [
      1,
      1
    ],
    [
      0,
      6
    ]
  ],
  "env": {
    "delay": 0,
    "grid_size": 10,
    "max_steps": 200,
    "noise": 0.0,
    "num_cues": 5,
    "reward_sparse_prob": 0.1
  },
  "seed": 4
}