{
  "agent": {
    "action_size": 4,
    "cue_exploration_bias": 0.3,
    "cue_regularization": 0.017499999999999998,
    "epsilon": 0.05,
    "state_size": 11,
    "target_weights": [
      [
        0.005878548567954077,
        -0.0004397928062882621,
        -0.02637224620888678,
        -0.0671624332856845,
        -1.9600579364657898e-05,
        5.127411439823844e-07,
        1.4e-322,
        1.0347343035978172e-52,
        3.644470842799743e-05,
        1.0975771595154978e-05,
        1.4e-322,
        -0.07222963585054128
      ],
      [
        0.012475307689178499,
        -0.004717575930613591,
        -0.05557007628339777,
        -0.05204235585424759,
        -0.0005764213399466899,
        2.2371766239561472e-05,
        -1.4e-322,
        6.383677077019904e-50,
        -1.2310685276307417e-05,
        -2.0778214025021616e-05,
        -1.4e-322,
        -0.01992179135000318
      ],
      [
        0.002908353141171087,
        -0.018701057711344993,
        -0.022473332100638645,
        -0.060806651642693006,
        -6.173787081751891e-07,
        -4.8770842189154206e-08,
        1.4e-322,
        1.2727148119221746e-82,
        5.839398367952392e-06,
        1.8238944591278804e-13,
        1.4e-322,
        -0.06654919579241644
      ],
      [
        -0.0014760158501229323,
        0.008997502535388533,
        -0.04804506596233236,
        -0.07744719542884897,
        -0.0002996163459332779,
        -0.00016779059315220443,
        1.4e-322,
        -4.250108959462494e-76,
        -5.1498377853135855e-06,
        -1.0692149046801761e-05,
        8.005326493365679e-12,
        -0.01953639593275212
      ]
    ],
    "weights": [
      [
        0.005954294157159489,
        -0.0003223656363299843,
        -0.026300094338932642,
        -0.06713196299648322,
        1.4573987682674348e-06,
        -4.097728999076187e-06,
        1.4e-322,
        1.0799319875899416e-53,
        3.8036630536877232e-06,
        7.003436163431264e-05,
        1.4e-322,
        -0.07208173839138173
      ],
      [
        0.012312390024270977,
        -0.004881300609103022,
        -0.05553942230818452,
        -0.052010894865452434,
        -4.894170365578569e-05,
        1.7652791344666597e-05,
        -1.4e-322,
        6.662519112344034e-51,
        8.868616633286525e-06,
        -3.3072238628210166e-06,
        -1.4e-322,
        -0.020054055039697483
      ],
      [
        0.0029327371017642784,
        -0.01864243731573209,
        -0.022380228044532928,
        -0.060747784021607,
        8.441040445927614e-06,
        -1.9038651357953622e-06,
        1.4e-322,
        1.328307597124464e-83,
        8.802821454288419e-06,
        1.9035630321248468e-14,
        1.4e-322,
        -0.06643170777571754
      ],
      [
        -0.001614314122327134,
        0.008823608128452919,
        -0.048094579708425296,
        -0.07746111304021051,
        -3.220654193371413e-05,
        -1.657084993294836e-05,
        1.4e-322,
        -4.435755729859454e-77,
        -1.2489402388984214e-05,
        -1.7374012817915725e-05,
        8.355002942520645e-13,
        -0.01972420795104928
      ]
    ]
  },
  "cues": [
    [
      4,
      1
    ],
    [
      0,
      9
    ],
    [
      4,
      6
    ],
    [
      6,
      8
    ],
    [
      5,
      2
    ]
  ],
  "env": {
    "delay": 0,
    "grid_size": 10,
    "max_steps": 200,
    "noise": 0.0,
    "num_cues": 5,
    "reward_sparse_prob": 0.1
  },
  "seed": 23
}