{
  "agent": {
    "action_size": 4,
    "cue_exploration_bias": 0.3333333333333333,
    "cue_regularization": 0.01666666666666667,
    "epsilon": 0.05,
    "state_size": 11,
    "target_weights": [
      [
        0.10427709635314417,
        0.10599455776465262,
        0.03045874489151578,
        0.044709804234950065,
        -3.8136657295704116e-06,
        -5.597685174053365e-05,
        5.820685566081351e-137,
        3.6575849543091224e-85,
        1.43e-322,
        5.478634319135743e-12,
        4.547865011460366e-11,
        0.08644248349652452
      ],
      [
        0.25353636092842835,
        0.19284765460762227,
        -0.029882204399293406,
        0.01926754873330299,
        4.6005799755842346e-05,
        -0.0005492502655729745,
        -1.1283500065453684e-21,
        7.784393629425889e-06,
        1.43e-322,
        7.935246976196771e-05,
        4.2096491136042486e-07,
        0.20121040721198372
      ],
      [
        0.07474407295394302,
        0.07990049464354962,
        -0.012264652965689914,
        0.005311521021057594,
        -1.2096455304468258e-05,
        -5.060044229655553e-06,
        1.710105115429721e-111,
        8.132910658851582e-86,
        -1.43e-322,
        1.9509036821031707e-08,
        1.858018458979115e-07,
        0.09599560566316982
      ],
      [
        0.16502524952187544,
        0.27105872742627096,
        0.02976868791578653,
        -0.015537658522739424,
        -0.0002131414776520043,
        -3.8849471664788566e-05,
        -9.853132771932917e-145,
        -1.7916731641033954e-06,
        -1.43e-322,
        6.116735250873956e-05,
        1.7856160132339666e-05,
        0.20725524994367925
      ]
    ],
    "weights": [
      [
        0.10427709635314417,
        0.10599455776465262,
        0.03045874489151578,
        0.044709804234950065,
        -2.914437889066122e-06,
        -4.277801705542377e-05,
        4.448220624737e-137,
        2.7951595470632545e-85,
        1.43e-322,
        4.186821964028242e-12,
        3.475519629574685e-11,
        0.08644248349652452
      ],
      [
        0.2542088374583369,
        0.19343725286603075,
        -0.02980080070646767,
        0.019431830697628744,
        7.044675836786384e-05,
        -0.000676862733391566,
        -8.622952939229573e-22,
        5.948904111100305e-06,
        1.43e-322,
        9.8830903493119e-05,
        3.2170519773750193e-07,
        0.20196428743471798
      ],
      [
        0.07474407295394302,
        0.07990049464354962,
        -0.012264652965689914,
        0.005311521021057594,
        -9.244220695427435e-06,
        -3.86693162667923e-06,
        1.3068778168073981e-111,
        6.215243981337813e-86,
        -1.43e-322,
        1.4908982622555557e-08,
        1.419914533527552e-07,
        0.09599560566316982
      ],
      [
        0.16504918450729994,
        0.2710623438770595,
        0.029834681513402933,
        -0.015451346390487085,
        -0.0001205064254905297,
        -2.4689631063326548e-05,
        -7.529853299375334e-145,
        -1.369212858326238e-06,
        -1.43e-322,
        8.984076888440822e-05,
        1.364583928775131e-05,
        0.20734517852672016
      ]
    ]
  },
  "cues": [
    [
      9,
      4
    ],
    [
      5,
      8
    ],
    [
      0,
      7
    ],
    [
      3,
      0
    ],
    [
      2,
      1
    ]
  ],
  "env": {
    "delay": 10,
    "grid_size": 10,
    "max_steps": 200,
    "noise": 0.0,
    "num_cues": 5,
    "reward_sparse_prob": 1.0
  },
  "seed": 5
}