{
  "agent": {
    "action_size": 4,
    "cue_exploration_bias": 0.3333333333333333,
    "cue_regularization": 0.01666666666666667,
    "epsilon": 0.05,
    "state_size": 11,
    "target_weights": [
      [
        0.04124666607647951,
        0.024383750053455087,
        -0.03303877992345523,
        -0.020950349731086334,
        -0.00015333922792751123,
        5.964992766972274e-07,
        1.7433419197977348e-30,
        -1.43e-322,
        5.6102330901316576e-18,
        1.3224918485632446e-10,
        3.4810302069350415e-120,
        0.0002941845031828608
      ],
      [
        0.1800082226160261,
        0.1294721416571282,
        -0.09251992260174045,
        -0.02744199069476422,
        -1.1507728319753767e-05,
        0.00014680584164785258,
        7.654723222281907e-08,
        6.693371738559439e-42,
        -1.958352979894356e-05,
        8.014860154612537e-13,
        1.0067938190771019e-24,
        0.11847675709524062
      ],
      [
        0.08689256123005468,
        0.050897152174447645,
        -0.031812931186650614,
        -0.03818675657997703,
        -0.00031925436326451736,
        -1.3670595249241292e-05,
        8.220953044876092e-13,
        1.43e-322,
        3.2186085460288846e-08,
        1.3974705223247882e-23,
        2.8277662164358136e-47,
        0.06446095779191907
      ],
      [
        0.12568880199393778,
        0.13994477914251888,
        0.0008825744901345951,
        -0.041262437678214484,
        -0.0005215817710175221,
        -1.1811391985279968e-05,
        -4.017322477999951e-05,
        -1.43e-322,
        1.5381591842601045e-05,
        -7.928793112484714e-06,
        -2.1288479108295167e-22,
        0.15408927786184864
      ]
    ],
    "weights": [
      [
        0.04175137086611889,
        0.024573014349569853,
        -0.03297569182475031,
        -0.0205718211388568,
        -1.945836747786712e-06,
        -2.197047851295453e-06,
        1.3778496036274669e-32,
        -1.43e-322,
        4.4340455258440976e-20,
        1.0452309146302382e-12,
        2.751230860895703e-122,
        0.0008619773915271584
      ],
      [
        0.18140906350280767,
        0.13019944948972936,
        -0.09276424700563765,
        -0.02701278204448134,
        -0.0007347538237743503,
        0.0002173009474370463,
        2.628704452119311e-06,
        5.290103732476886e-44,
        -7.490092109985376e-06,
        6.3345415846156704e-15,
        7.957191006517617e-27,
        0.11963327357812492
      ],
      [
        0.08921441009009923,
        0.05303821293438933,
        -0.031184865728143694,
        -0.037377903021367266,
        -0.0003844655354938705,
        -6.327631312213955e-06,
        6.497427019730449e-15,
        1.43e-322,
        2.5438260039616394e-10,
        1.104490280076371e-25,
        2.2349239218198072e-49,
        0.06741087211047053
      ],
      [
        0.12712835864396407,
        0.14168703936486954,
        0.0017262537795529997,
        -0.0407214619611204,
        4.778459560169722e-05,
        -1.610680338118359e-05,
        -3.0115411822122335e-05,
        -1.43e-322,
        5.987306415663144e-06,
        2.407045821781119e-05,
        -1.682534112677068e-24,
        0.15637251380129344
      ]
    ]
  },
  "cues": [
    [
      6,
      0
    ],
    [
      3,
      4
    ],
    [
      7,
      0
    ],
    [
      4,
      0
    ],
    [
      4,
      9
    ]
  ],
  "env": {
    "delay": 6,
    "grid_size": 10,
    "max_steps": 200,
    "noise": 0.0,
    "num_cues": 5,
    "reward_sparse_prob": 1.0
  },
  "seed": 25
}