{
  "agent": {
    "action_size": 4,
    "cue_exploration_bias": 0.16666666666666666,
    "cue_regularization": 0.020833333333333336,
    "epsilon": 0.05,
    "state_size": 11,
    "target_weights": [
      [
        0.0334291319595212,
        0.03618428480928529,
        -0.015875960048399203,
        -0.012702448423542404,
        -1.29618987656684e-05,
        8.017336137010883e-06,
        2.829400021751004e-145,
        8.873698421988074e-297,
        1.8639581906499512e-75,
        3.5620285035988497e-63,
        3.546133324386282e-159,
        -0.008227696468395197
      ],
      [
        0.10118156519487076,
        0.08055603433943617,
        -0.06305422082839672,
        -0.013866844974970064,
        -0.00018228205655421983,
        -6.295672479984084e-06,
        2.611205438285271e-113,
        4.061869102858749e-123,
        3.063105408283056e-13,
        2.176325682253495e-06,
        -2.4639632188307353e-61,
        0.06787105939373603
      ],
      [
        0.029155596998670805,
        0.04095883880933221,
        -0.024569540635258437,
        -0.020230582766491315,
        -9.903687751538465e-06,
        -1.5017645196490584e-06,
        7.943254605877069e-193,
        4.0235273909327426e-252,
        6.569619324565807e-18,
        8.912746825295562e-63,
        1.6172884266337062e-93,
        0.015999879049207986
      ],
      [
        0.08330667406300145,
        0.10811128050572374,
        -0.018324689350259177,
        -0.05402767203009812,
        -0.0003340703485681802,
        -0.0002117023052185532,
        -3.2586793623077086e-140,
        -2.138431843309696e-77,
        -1.4983492603672776e-05,
        -4.088111875122737e-06,
        -4.882261464447754e-73,
        0.05649414927211762
      ]
    ],
    "weights": [
      [
        0.03387036166553312,
        0.03662162857721138,
        -0.015759886830330805,
        -0.012582489267388168,
        -0.00014705379377047398,
        9.45879242022324e-07,
        1.8083533163952578e-147,
        5.671443361396023e-299,
        8.051742659627795e-06,
        2.276597868120141e-65,
        2.266438788519248e-161,
        -0.0076703935443148755
      ],
      [
        0.10129166314328826,
        0.08043193709295539,
        -0.06307137314554362,
        -0.013649802097218729,
        1.887940563268013e-05,
        2.987029306408622e-05,
        1.6688986985976855e-115,
        2.596060792553589e-125,
        1.957721347619465e-15,
        3.5108232890208404e-06,
        -1.5747918371369194e-63,
        0.06796400502500663
      ],
      [
        0.029908468859533237,
        0.041643741524974624,
        -0.02448483946255215,
        -0.02007791244856501,
        -0.00010138700163146261,
        1.2900357908196707e-05,
        5.0767691733529716e-195,
        2.5715554693809558e-254,
        4.198838199513691e-20,
        5.696400351951693e-65,
        1.0336569122031728e-95,
        0.01683745208277671
      ],
      [
        0.08154000672691997,
        0.1061595600237794,
        -0.018038794806359927,
        -0.05355672434033596,
        0.00012816197394471812,
        0.00011000719381340294,
        -2.0827184514726482e-142,
        -1.3667350979028954e-79,
        -1.4115744535382813e-06,
        -6.864276879171252e-06,
        -3.12039783801197e-75,
        0.055013376479935434
      ]
    ]
  },
  "cues": [
    [
      0,
      8
    ],
    [
      1,
      8
    ],
    [
      3,
      6
    ],
    [
      5,
      8
    ],
    [
      4,
      9
    ]
  ],
  "env": {
    "delay": 0,
    "grid_size": 10,
    "max_steps": 200,
    "noise": 0.0,
    "num_cues": 5,
    "reward_sparse_prob": 0.5
  },
  "seed": 19
}