{
  "agent": {
    "action_size": 4,
    "cue_exploration_bias": 0.16666666666666666,
    "cue_regularization": 0.020833333333333336,
    "epsilon": 0.05,
    "state_size": 11,
    "target_weights": [
      [
        0.030488338399569638,
        0.041801108094372375,
        -0.02865313923369015,
        -0.017830830366266825,
        -3.376011519495594e-05,
        1.687683141232207e-05,
        1.14e-322,
        1.1826382297080359e-90,
        1.14e-322,
        1.6336157244755241e-13,
        2.482810267238477e-184,
        0.006101035449530277
      ],
      [
        0.13609505242470482,
        0.06377285372708695,
        -0.03925805123487305,
        -0.03159161490260778,
        -0.0004953317939040865,
        4.739932527115678e-05,
        3.1097570227303224e-84,
        9.353620358268963e-06,
        -4.912227043732889e-64,
        -7.709510431082154e-06,
        5.8506127339991285e-176,
        0.06382595082872343
      ],
      [
        0.055016770670011345,
        0.017015457750329307,
        -0.008161686946132897,
        -0.028075973056611456,
        -1.4285207000991957e-06,
        9.92394620907842e-08,
        1.14e-322,
        1.1453291591988096e-13,
        1.534582843782186e-227,
        1.2613072631192465e-05,
        8.036467113858406e-186,
        0.018966315938718826
      ],
      [
        0.08149620692172539,
        0.0968160882282842,
        -0.007677357142707608,
        -0.06984455891978725,
        5.294229144088419e-05,
        1.563158408228688e-05,
        -4.5487096796219156e-126,
        1.8987500479677368e-05,
        1.1123395899900683e-92,
        -2.855401228303087e-05,
        -3.2154262682106597e-167,
        0.08443663147131783
      ]
    ],
    "weights": [
      [
        0.031274738225079576,
        0.04251718503695845,
        -0.028498547316444835,
        -0.01760591556609765,
        -4.1762019997169615e-05,
        -5.761617235340928e-06,
        1.14e-322,
        7.004516195951246e-05,
        1.14e-322,
        1.7219823410025814e-05,
        1.5868375437285601e-186,
        0.0070420271922855306
      ],
      [
        0.134459910850396,
        0.06226298028779202,
        -0.039020810016572524,
        -0.03147964181932129,
        2.095872091145156e-05,
        3.1372834339887534e-05,
        1.9875377755025383e-86,
        1.0371531060711138e-05,
        -3.1395497268440255e-66,
        8.860288112799955e-06,
        3.7392998017735664e-178,
        0.06242805047271505
      ],
      [
        0.055016770670011345,
        0.017015457750329307,
        -0.008161686946132897,
        -0.028075973056611456,
        -9.130098698327482e-09,
        6.34268781400838e-10,
        1.14e-322,
        7.320137723472558e-16,
        9.807973257593338e-230,
        8.061388120169611e-08,
        5.136344046697763e-188,
        0.018966315938718826
      ],
      [
        0.08139330663661809,
        0.09690644979999533,
        -0.007520705014178527,
        -0.06988116864807663,
        4.2450350876625425e-05,
        2.500757206565436e-06,
        -2.9072150177524084e-128,
        1.1851813185114051e-05,
        7.109291620318302e-95,
        -1.7998910131355534e-05,
        -2.05507411855632e-169,
        0.08449038331473957
      ]
    ]
  },
  "cues": [
    [
      2,
      6
    ],
    [
      6,
      4
    ],
    [
      7,
      3
    ],
    [
      7,
      8
    ],
    [
      2,
      8
    ]
  ],
  "env": {
    "delay": 0,
    "grid_size": 10,
    "max_steps": 200,
    "noise": 0.0,
    "num_cues": 5,
    "reward_sparse_prob": 0.5
  },
  "seed": 21
}