{
  "agent": {
    "action_size": 4,
    "cue_exploration_bias": 0.3333333333333333,
    "cue_regularization": 0.01666666666666667,
    "epsilon": 0.05,
    "state_size": 11,
    "target_weights": [
      [
        0.09479661820797973,
        0.07054305808466435,
        0.010564553706736052,
        -0.010694339188044156,
        0.0001589283095271877,
        0.00010385020250932846,
        -1.353405382231799e-264,
        3.783319455898201e-21,
        2.225954470324792e-33,
        -8.95551045644094e-281,
        4.887498865627237e-07,
        0.07275695724808044
      ],
      [
        0.2633607739059785,
        0.17777311691214068,
        -0.013128989675297832,
        0.021002543599941432,
        0.0001478122643346218,
        -0.0004953537605057834,
        -1.0444670982618138e-135,
        4.462904721853184e-07,
        -2.7686563967558945e-21,
        4.970278054764869e-94,
        -8.116991831923186e-05,
        0.19562478723404317
      ],
      [
        0.08891008189953768,
        0.07552051125502168,
        0.034220890764501445,
        0.007560200503441818,
        -2.985802793298082e-05,
        3.1471651144246985e-06,
        1.447892719482976e-121,
        1.2799098328133545e-08,
        5.9835897333787645e-108,
        -1.114905186862315e-284,
        4.226462541749953e-05,
        0.10582401615589883
      ],
      [
        0.17505357249132367,
        0.25897266604961044,
        0.003280959447052317,
        -0.020774177448781617,
        -0.0006614905595064896,
        0.0002164264523077147,
        5.574491294769657e-122,
        -5.860308229326927e-07,
        1.2387660107117459e-12,
        -2.0931934625234667e-74,
        -0.00012762424771491757,
        0.20462718078123013
      ]
    ],
    "weights": [
      [
        0.09606582719121697,
        0.07181692305942088,
        0.01142160363290394,
        -0.00984194525339557,
        2.2299447179483927e-05,
        -5.8332371709447e-06,
        -2.7880980481182234e-267,
        7.793869988165055e-24,
        4.585602654895944e-36,
        -1.8448900493014917e-283,
        1.5048912893602154e-06,
        0.07488321615748557
      ],
      [
        0.26662767620500083,
        0.18022570085681403,
        -0.0127406720990118,
        0.022205179530576567,
        0.0002428502446146259,
        -0.0005329569277651236,
        -2.151666245914715e-138,
        2.178766503209304e-05,
        -5.703601889757405e-24,
        1.0239077459735818e-96,
        -9.228093899696996e-05,
        0.19928000710935165
      ],
      [
        0.09097691897368469,
        0.0773699916727064,
        0.03445071829418763,
        0.008007384689590304,
        -6.557643849969021e-07,
        -3.548419504307978e-05,
        2.9827477547179345e-124,
        2.6366927112035418e-11,
        1.2326561631418359e-110,
        -2.2967730261289256e-287,
        8.706771908698967e-08,
        0.10812068075973202
      ],
      [
        0.17939205406267622,
        0.26419928487870165,
        0.003997279508932946,
        -0.020945994644639622,
        -0.0004929260614635671,
        0.00010670459059610402,
        1.1483793771064962e-124,
        -5.464997048028597e-06,
        2.551933915650028e-15,
        -4.312106840872576e-77,
        -0.0001696627928894505,
        0.20968198241446317
      ]
    ]
  },
  "cues": [
    [
      8,
      1
    ],
    [
      5,
      9
    ],
    [
      9,
      4
    ],
    [
      1,
      8
    ],
    [
      5,
      6
    ]
  ],
  "env": {
    "delay": 6,
    "grid_size": 10,
    "max_steps": 200,
    "noise": 0.0,
    "num_cues": 5,
    "reward_sparse_prob": 1.0
  },
  "seed": 29
}