{
  "agent": {
    "action_size": 4,
    "cue_exploration_bias": 0.05555555555555555,
    "cue_regularization": 0.02361111111111111,
    "epsilon": 0.05,
    "state_size": 11,
    "target_weights": [
      [
        0.1311935159293538,
        0.0955371089732243,
        0.028406340864778078,
        0.018550294802811777,
        -6.602237850136267e-06,
        -9.466293722141573e-09,
        1.6297563290841983e-225,
        8.878642816575575e-103,
        7.88059383771574e-214,
        6.075349542060349e-208,
        2.4554652853231074e-148,
        0.1269956421274964
      ],
      [
        0.29298889106958115,
        0.19170652479302036,
        -0.05557752542787105,
        -0.005751282869911027,
        3.375457344520506e-05,
        -0.00011502079997930842,
        -9.016247748717315e-28,
        -5.332382610644112e-55,
        -1.5849729679253526e-05,
        9.626660881063306e-195,
        3.8156088043252154e-06,
        0.18280436864507027
      ],
      [
        0.09862026592075837,
        0.06440637783622792,
        0.022281761039464106,
        0.01644538821841928,
        2.9866979921779777e-07,
        -1.0747687427332758e-06,
        4.1184086242567856e-221,
        7.096086267556884e-138,
        3.7717483588455053e-119,
        5.035282433344976e-226,
        1.3208736727853881e-253,
        0.10359507045208234
      ],
      [
        0.18390843683991043,
        0.25479024669595896,
        0.0033853668964134755,
        -0.007632486297181297,
        3.790901721629011e-05,
        0.00016613488276883591,
        8.755891418349125e-117,
        -1.443826777458392e-85,
        1.85062550459891e-36,
        -2.4344765538934487e-224,
        -3.5110534869337914e-07,
        0.2135864525791797
      ]
    ],
    "weights": [
      [
        0.13162183516568882,
        0.09585834840047557,
        0.028459880769319955,
        0.01871091451643741,
        4.357548668356148e-06,
        -9.138466978082437e-06,
        5.22167686886077e-227,
        2.84468315875424e-104,
        2.5249120878340257e-215,
        1.946518728468241e-209,
        7.86721674513582e-150,
        0.1274775012683733
      ],
      [
        0.293646997395536,
        0.19216349974822647,
        -0.055573117811988995,
        -0.005545743883280024,
        0.0001814376303841629,
        -0.0002335353137136453,
        -1.1737424950435953e-06,
        -1.7084749687434565e-56,
        -6.778477144729514e-05,
        3.084345282172433e-196,
        1.2225064494986318e-07,
        0.1834668825869073
      ],
      [
        0.09862026592075837,
        0.06440637783622792,
        0.022281761039464106,
        0.01644538821841928,
        9.569265994992151e-09,
        -3.443517894763138e-08,
        1.3195223522698386e-222,
        2.273558866530903e-139,
        1.208453730725144e-120,
        1.6132852096456007e-227,
        4.232028666362861e-255,
        0.10359507045208234
      ],
      [
        0.1858322569538502,
        0.25687130614216214,
        0.003780600043408323,
        -0.007394492482449897,
        -0.00022065665416175106,
        8.4867796671857e-05,
        2.805354080823951e-118,
        -4.625965705396428e-87,
        5.929333249295015e-38,
        -7.79996965337299e-226,
        -1.1249280920637527e-08,
        0.21590550584011425
      ]
    ]
  },
  "cues": [
    [
      8,
      1
    ],
    [
      5,
      9
    ],
    [
      9,
      4
    ],
    [
      1,
      8
    ],
    [
      5,
      6
    ]
  ],
  "env": {
    "delay": 1,
    "grid_size": 10,
    "max_steps": 200,
    "noise": 0.0,
    "num_cues": 5,
    "reward_sparse_prob": 1.0
  },
  "seed": 29
}