{
  "agent": {
    "action_size": 4,
    "cue_exploration_bias": 0.16666666666666666,
    "cue_regularization": 0.020833333333333336,
    "epsilon": 0.05,
    "state_size": 11,
    "target_weights": [
      [
        0.10194149633991513,
        0.05580749950311973,
        -0.029602148709344606,
        0.007595438414560118,
        -6.310650939192096e-06,
        -1.2516582907324185e-06,
        -1.14e-322,
        8.802277881174273e-09,
        1.3509888273107252e-08,
        1.14e-322,
        -1.14e-322,
        0.10241631133983212
      ],
      [
        0.2536628168807478,
        0.1531808846452692,
        -0.09964686786312799,
        -0.03729228846436104,
        0.00016890834466897088,
        0.0002698866150593485,
        2.3287189625682343e-115,
        1.0475151345649538e-05,
        -3.3210929302300468e-06,
        1.14e-322,
        1.14e-322,
        0.13156231879628294
      ],
      [
        0.08852128585228199,
        0.10630842982158706,
        -0.05658578820226211,
        0.009694636181462216,
        -3.4641004373929695e-05,
        -1.1056710058668334e-06,
        1.14e-322,
        5.951487557732435e-10,
        1.0582070876527993e-30,
        1.14e-322,
        1.14e-322,
        0.08718807086232672
      ],
      [
        0.20899899738811373,
        0.1779703152854705,
        0.002580576885992584,
        -0.030848586194506252,
        5.014414690162129e-05,
        -2.628439922198415e-05,
        -1.5207264758729237e-10,
        -0.00010951494053521042,
        1.1251761417903664e-05,
        -1.14e-322,
        -1.14e-322,
        0.14416410041062264
      ]
    ],
    "weights": [
      [
        0.10436259065502829,
        0.05765345601283584,
        -0.02925089233018776,
        0.008521832599114007,
        -0.00010231811911971444,
        -0.00013711969793001215,
        -1.14e-322,
        5.870292064800815e-07,
        8.920286162311548e-07,
        1.14e-322,
        -1.14e-322,
        0.10518866203410214
      ],
      [
        0.2548115773588895,
        0.15431539677759912,
        -0.09959164063817635,
        -0.03722281289359836,
        -0.0002315454283196577,
        0.00017710300040515932,
        7.178924314518639e-119,
        2.396215676502736e-05,
        -1.9752156388001914e-05,
        1.14e-322,
        1.14e-322,
        0.13276630649937565
      ],
      [
        0.09155996959123913,
        0.10966708857446619,
        -0.05600503413725218,
        0.00995541523255016,
        -8.304639165008349e-06,
        1.111490687170209e-05,
        1.14e-322,
        6.1323653418056066e-06,
        3.2622178603159974e-34,
        1.14e-322,
        1.14e-322,
        0.09080750866629379
      ],
      [
        0.2121272988863125,
        0.18182170759093416,
        0.0030075412027146006,
        -0.031144712685048943,
        -0.00011603573396092049,
        -4.8018737917590097e-05,
        -1.2911141066236536e-05,
        -2.5457774774366114e-06,
        4.08948061508878e-06,
        -1.14e-322,
        -1.14e-322,
        0.1477193662255434
      ]
    ]
  },
  "cues": [
    [
      3,
      3
    ],
    [
      6,
      9
    ],
    [
      8,
      0
    ],
    [
      2,
      7
    ],
    [
      0,
      9
    ]
  ],
  "env": {
    "delay": 0,
    "grid_size": 10,
    "max_steps": 200,
    "noise": 0.1,
    "num_cues": 5,
    "reward_sparse_prob": 1.0
  },
  "seed": 26
}