{
  "agent": {
    "action_size": 4,
    "cue_exploration_bias": 0.10000000000000002,
    "cue_regularization": 0.022500000000000003,
    "epsilon": 0.05,
    "state_size": 11,
    "target_weights": [
      [
        0.08531490844571513,
        0.1116835991306042,
        0.010453319203363176,
        -0.0036535375062675965,
        -9.426112073517271e-07,
        -7.3262770122699796e-06,
        1.1e-322,
        5.951030906373504e-187,
        -1.1e-322,
        2.643671171134913e-42,
        9.894345861510626e-21,
        0.09784591993804051
      ],
      [
        0.21787336149090633,
        0.13970436091204677,
        -0.047062481690718694,
        0.002065247438890042,
        -1.2409177241907617e-05,
        2.3006279155678536e-05,
        1.1e-322,
        8.607231306454234e-197,
        -1.1e-322,
        -8.510586997149334e-05,
        -6.68814040795427e-05,
        0.15122309747071525
      ],
      [
        0.07556865593527701,
        0.07556021586514648,
        0.0007444714566367155,
        0.024642994955783523,
        -0.00014774223586526904,
        -4.7286194749652204e-05,
        -1.1e-322,
        7.759326263121e-193,
        1.2379490179532016e-207,
        3.713292815308116e-21,
        2.9464548935259955e-14,
        0.09286409862553939
      ],
      [
        0.16515365588098005,
        0.19525965637977877,
        0.02519317460852929,
        -0.04916353089314187,
        8.200954239433482e-05,
        9.982248283432388e-06,
        -1.1e-322,
        -6.238561932488631e-200,
        -1.1411990209633893e-212,
        -0.00014256613996723035,
        8.544891116363696e-06,
        0.15688091017149347
      ]
    ],
    "weights": [
      [
        0.08574785973120003,
        0.1120624924774019,
        0.010506889366063083,
        -0.0035459094048804892,
        -3.915423272641494e-06,
        1.1515915498275614e-05,
        1.1e-322,
        4.0922046778763024e-190,
        -1.1e-322,
        1.8179108298191718e-45,
        6.803810811272331e-24,
        0.09833244138622531
      ],
      [
        0.21273586157351862,
        0.13502400461500808,
        -0.04591338515589541,
        0.00275720035336428,
        3.824946492989743e-05,
        3.21663013235882e-05,
        1.1e-322,
        5.918731186240738e-200,
        -1.1e-322,
        1.8765915671135355e-05,
        1.965856152226273e-05,
        0.14723469408815076
      ],
      [
        0.07639636668835818,
        0.07629514912821146,
        0.0009912329684567745,
        0.024982533957619808,
        -5.9548715821593514e-06,
        -7.401183394603918e-05,
        -1.1e-322,
        5.335672378563053e-196,
        8.512711229267644e-211,
        2.553432248663673e-24,
        9.402325781248236e-05,
        0.09393857089044065
      ],
      [
        0.1614095105734776,
        0.1915302809145639,
        0.02507084754092257,
        -0.049300627803036276,
        0.00018055947531129743,
        0.00029923721316503694,
        -1.1e-322,
        -4.289924338320797e-203,
        -7.847413406932029e-216,
        2.721653837534669e-05,
        6.327826128027293e-06,
        0.15301443779638407
      ]
    ]
  },
  "cues": [
    [
      2,
      9
    ],
    [
      1,
      4
    ],
    [
      1,
      7
    ],
    [
      7,
      7
    ],
    [
      6,
      3
    ]
  ],
  "env": {
    "delay": 0,
    "grid_size": 10,
    "max_steps": 200,
    "noise": 0.0,
    "num_cues": 5,
    "reward_sparse_prob": 0.7
  },
  "seed": 1
}