{
  "agent": {
    "action_size": 4,
    "cue_exploration_bias": 0.3333333333333333,
    "cue_regularization": 0.01666666666666667,
    "epsilon": 0.05,
    "state_size": 11,
    "target_weights": [
      [
        0.1753671537728324,
        0.13195926281334414,
        -0.006032390971410934,
        -0.008136953030018075,
        5.462358928706543e-05,
        -4.299638693269951e-06,
        9.537339032152177e-258,
        2.7400002464831212e-104,
        2.3736626048721382e-122,
        4.943881094599328e-244,
        1.753026398246575e-05,
        0.1367305481347863
      ],
      [
        0.27137448792511576,
        0.2235469906809654,
        -0.029120418010794694,
        -0.032749044485241595,
        0.00011308387845158085,
        2.0459032559915103e-05,
        -8.270046099015695e-152,
        -1.9269750098485542e-15,
        -1.7268848629312472e-18,
        7.48342488277663e-106,
        -0.00021630159071935493,
        0.1876470729176846
      ],
      [
        0.13400356833242666,
        0.10099290372216448,
        0.004941564253744503,
        -0.002098032041568723,
        -5.985842379630666e-05,
        -3.1926888887346104e-06,
        1.0027503983522219e-225,
        5.5670739303156305e-96,
        8.811373795369152e-127,
        3.0334608132305417e-219,
        1.262021984694164e-08,
        0.1216381760780309
      ],
      [
        0.20000589789597722,
        0.2860351216876862,
        -0.027458416578939018,
        -0.05362368370819379,
        -0.00019619207050974806,
        4.253113613231943e-05,
        3.298038355682458e-161,
        -9.659894019942517e-09,
        1.8487240146249568e-36,
        -4.6332626021456135e-112,
        1.2053890609104693e-05,
        0.19884013015989288
      ]
    ],
    "weights": [
      [
        0.1753671537728324,
        0.13195926281334414,
        -0.006040284988443721,
        -0.008144847047050863,
        1.6658192935107153e-05,
        -2.884078510927102e-06,
        4.256609025587028e-258,
        1.2228892922829085e-104,
        1.0593891685653085e-122,
        2.2065031784816178e-244,
        7.823930725030374e-06,
        0.13672265411775353
      ],
      [
        0.27132822698217907,
        0.2235635057290361,
        -0.028889776126782393,
        -0.03258117859223654,
        0.00011899792405905264,
        5.777095799235869e-05,
        -3.6910036173000883e-152,
        -8.600280635248714e-16,
        -7.707258459537036e-19,
        3.339926764786659e-106,
        -9.653754576627133e-05,
        0.18783145385876032
      ],
      [
        0.13400356833242666,
        0.10099290372216448,
        0.004840477189189669,
        -0.0021991191061235564,
        -8.707240003248126e-05,
        -8.969552682284963e-06,
        4.4753745060836684e-226,
        2.4846403234702216e-96,
        3.932603538444802e-127,
        1.3538636545090851e-219,
        5.63252931706488e-09,
        0.12153708901347607
      ],
      [
        0.20023607077603894,
        0.28636589291005154,
        -0.02735870355778363,
        -0.053624569029342,
        -0.0002656040515172845,
        0.00010872795334270729,
        1.4719472364570288e-161,
        -4.311306532449312e-09,
        8.251038680645819e-37,
        -2.067871063796861e-112,
        -4.3874067876380034e-05,
        0.19917001606110996
      ]
    ]
  },
  "cues": [
    [
      8,
      1
    ],
    [
      5,
      9
    ],
    [
      9,
      4
    ],
    [
      1,
      8
    ],
    [
      5,
      6
    ]
  ],
  "env": {
    "delay": 0,
    "grid_size": 10,
    "max_steps": 200,
    "noise": 0.3,
    "num_cues": 5,
    "reward_sparse_prob": 1.0
  },
  "seed": 29
}