{
  "agent": {
    "action_size": 4,
    "cue_exploration_bias": 0.16666666666666666,
    "cue_regularization": 0.020833333333333336,
    "epsilon": 0.05,
    "state_size": 11,
    "target_weights": [
      [
        -0.008910752328195598,
        -0.021405454283791044,
        -0.038955100671281426,
        -0.05733079525627225,
        1.6092571559257416e-05,
        -1.7087539634780425e-05,
        8.344068835190758e-172,
        1.7345739267374226e-13,
        -1.14e-322,
        4.239538236765404e-287,
        3.2288334220808924e-38,
        -0.029666472200185135
      ],
      [
        0.07924464859371448,
        0.030687115993692393,
        -0.02801256345353311,
        -0.05199329303793867,
        6.025053670521459e-06,
        -8.45167917708748e-07,
        -1.9396471191597725e-78,
        2.058014389782352e-05,
        5.624056449836016e-11,
        -7.4795499140782435e-06,
        -4.824437889593066e-12,
        0.015899272187274854
      ],
      [
        0.020798297582110513,
        0.0007466851047050044,
        -0.03590445751344298,
        -0.0507783216133393,
        -4.9751633950673496e-08,
        7.264243070220351e-10,
        1.1673594533342524e-181,
        9.610014608684926e-08,
        1.14e-322,
        -1.14e-322,
        1.14e-322,
        -0.047911633064061813
      ],
      [
        0.047811616077186855,
        0.07093395157093639,
        -0.03323501190899652,
        -0.06304825397498427,
        -5.413982000305314e-06,
        -7.728130319522368e-05,
        7.14817180845861e-46,
        -1.6319856135115147e-05,
        -6.730764543894128e-06,
        -2.0069984063907795e-16,
        6.230354242436009e-37,
        0.015350997307792798
      ]
    ],
    "weights": [
      [
        -0.008910752328195598,
        -0.021405454283791044,
        -0.038955100671281426,
        -0.05733079525627225,
        8.204220174849467e-06,
        -8.71146894664947e-06,
        4.2539240932332136e-172,
        8.843102764592399e-14,
        -1.14e-322,
        2.1613764466442717e-287,
        1.6461048630494135e-38,
        -0.029666472200185135
      ],
      [
        0.0792614915118936,
        0.03073664057338787,
        -0.027971772088666788,
        -0.05198518333458873,
        1.574617962049281e-06,
        -2.436928646716764e-06,
        -9.888594851669296e-79,
        1.0492047908321999e-05,
        2.8672233782110384e-11,
        -3.813180142024856e-06,
        -2.4595665472333032e-12,
        0.015956906470320276
      ],
      [
        0.020798297582110513,
        0.0007466851047050044,
        -0.03590445751344298,
        -0.0507783216133393,
        -2.5364085378575518e-08,
        3.703413673337262e-10,
        5.95136330019095e-182,
        4.899321121105467e-08,
        1.14e-322,
        -1.14e-322,
        1.14e-322,
        -0.047911633064061813
      ],
      [
        0.04690588319117105,
        0.07000433940884954,
        -0.03326793303266451,
        -0.06305729582258127,
        0.00021296089042841044,
        9.983537483649951e-05,
        3.64423890540416e-46,
        -1.545608917208157e-05,
        -3.4314387889989783e-06,
        1.826574843796061e-05,
        3.1763225525536325e-37,
        0.014412343298108981
      ]
    ]
  },
  "cues": [
    [
      9,
      0
    ],
    [
      6,
      7
    ],
    [
      3,
      7
    ],
    [
      7,
      4
    ],
    [
      2,
      0
    ]
  ],
  "env": {
    "delay": 0,
    "grid_size": 10,
    "max_steps": 200,
    "noise": 0.0,
    "num_cues": 5,
    "reward_sparse_prob": 0.5
  },
  "seed": 10
}