{
  "agent": {
    "action_size": 4,
    "cue_exploration_bias": 0.3,
    "cue_regularization": 0.017499999999999998,
    "epsilon": 0.05,
    "state_size": 11,
    "target_weights": [
      [
        0.00850180059172648,
        0.00891290513655001,
        -0.03053609561556955,
        -0.014978679405450323,
        -1.7913528064264474e-06,
        -1.2818459384577556e-06,
        4.0759599820820885e-147,
        2.0099363962528026e-67,
        -1.4e-322,
        2.1109202193317885e-101,
        9.528429884021473e-125,
        -0.07032765277197862
      ],
      [
        0.03574179638038031,
        0.013107086167568227,
        -0.04550732467627311,
        -0.03441156765167085,
        0.00010163762501155669,
        2.4490896766204847e-05,
        -3.693784890847168e-11,
        2.909388953568567e-07,
        -1.4e-322,
        -2.3460815753119137e-109,
        -7.481497475944404e-07,
        -0.032209277613044984
      ],
      [
        -0.006801892812917107,
        -0.012557465377536313,
        -0.05748117488781339,
        -0.02899300664684001,
        -3.2514368035818124e-07,
        -1.617729198144493e-05,
        1.0396404765102043e-132,
        2.1848519256657316e-28,
        1.4e-322,
        -4.6777824633632244e-125,
        -2.876897189669991e-113,
        -0.030766882025813715
      ],
      [
        -0.0023727087141457415,
        0.04842574029032008,
        -0.04695846237371619,
        -0.037029779912313404,
        1.9051129796682985e-05,
        2.760829032013921e-05,
        2.3249549018948297e-82,
        -3.958249947797623e-07,
        -7.439673895896832e-87,
        1.637537118392478e-122,
        3.718232368710181e-13,
        -0.0368698585818452
      ]
    ],
    "weights": [
      [
        0.008611703581625685,
        0.009036546000186614,
        -0.03053179234569545,
        -0.014988114009313627,
        -1.5186122174269669e-05,
        -4.752590413280307e-06,
        7.484375699035062e-148,
        3.6906935266416012e-68,
        -1.4e-322,
        3.8761224500781726e-102,
        1.7496332002136311e-125,
        -0.07021344651220532
      ],
      [
        0.035354376795571046,
        0.012666870255255697,
        -0.045601066050883564,
        -0.03445251269877805,
        6.130578613865286e-05,
        2.035953760122592e-05,
        -6.782616609596203e-12,
        3.6989640448542074e-06,
        -1.4e-322,
        -4.307931384853509e-110,
        -1.3737705509254625e-07,
        -0.03269043857246474
      ],
      [
        -0.00668051419867816,
        -0.012416485261730375,
        -0.057426139987949425,
        -0.028957573248543037,
        -1.176803018787337e-05,
        -2.6677639508115167e-05,
        1.9090128343584643e-133,
        4.01187762645537e-29,
        1.4e-322,
        -8.589456606069056e-126,
        -5.2826277759452995e-114,
        -0.030590468511710805
      ],
      [
        -5.063547302714811e-05,
        0.05100102536472861,
        -0.04661231890543055,
        -0.03693684827731771,
        -0.0006168292646619546,
        -0.0002098719642869127,
        4.269138079271669e-83,
        -1.4023406135843602e-05,
        -1.3660908046195435e-87,
        3.0068850207170005e-123,
        6.827507656128799e-14,
        -0.034201641872440985
      ]
    ]
  },
  "cues": [
    [
      9,
      4
    ],
    [
      5,
      8
    ],
    [
      0,
      7
    ],
    [
      3,
      0
    ],
    [
      2,
      1
    ]
  ],
  "env": {
    "delay": 0,
    "grid_size": 10,
    "max_steps": 200,
    "noise": 0.0,
    "num_cues": 5,
    "reward_sparse_prob": 0.1
  },
  "seed": 5
}