{
  "agent": {
    "action_size": 4,
    "cue_exploration_bias": 0.10000000000000002,
    "cue_regularization": 0.022500000000000003,
    "epsilon": 0.05,
    "state_size": 11,
    "target_weights": [
      [
        0.06768327650218997,
        0.0779674977399766,
        0.008678324354180575,
        0.01436262387133693,
        -2.9788981589789038e-05,
        -1.3471640687884512e-05,
        4.957502003659021e-205,
        7.350134329870224e-55,
        1.1e-322,
        2.788247263834882e-176,
        8.40212690443211e-10,
        0.02806824310823562
      ],
      [
        0.17457248400446018,
        0.13417033479793025,
        -0.034908099462735216,
        -0.0060449034444151365,
        6.325808497984838e-05,
        -0.00011122217629613294,
        -8.783971817148336e-128,
        7.356501924551778e-07,
        1.1e-322,
        -4.591023585661008e-141,
        -1.4766117113866087e-05,
        0.11722063522457377
      ],
      [
        0.05164774997137758,
        0.04204328488157599,
        -0.022926274188275704,
        0.009410786577879922,
        -7.182023757787322e-07,
        -1.556813960362653e-05,
        1.0157690500199125e-158,
        4.1307224980795054e-23,
        -1.1e-322,
        3.5349634619269866e-177,
        2.1857519531646824e-39,
        0.062237661458018116
      ],
      [
        0.10288038014020451,
        0.20442365887472683,
        -0.004791735796961384,
        -0.04560788306561506,
        0.00017042471336524605,
        7.652974522964401e-05,
        5.2945645658034384e-132,
        -3.33515596859467e-05,
        -1.1e-322,
        1.0266270056445464e-177,
        7.820159667329523e-06,
        0.11054995684925996
      ]
    ],
    "weights": [
      [
        0.06848328632983389,
        0.0788243481082345,
        0.008956875234471725,
        0.014584334211014087,
        -5.897884602683913e-05,
        -1.3342722981206665e-05,
        4.360640063157619e-207,
        6.465209737639212e-57,
        1.1e-322,
        2.4525542734413484e-178,
        7.390546926286455e-12,
        0.02914680381617068
      ],
      [
        0.17284052878998152,
        0.1323321564869561,
        -0.03472728420485382,
        -0.005757865090038338,
        0.00015838155628104027,
        4.400901823737139e-05,
        -7.72641935217239e-130,
        6.470810701280548e-09,
        1.1e-322,
        -4.038284072050552e-143,
        3.864383056861096e-06,
        0.11566949526797665
      ],
      [
        0.052220832639836096,
        0.042616367550034506,
        -0.022710745917246304,
        0.009626314848909322,
        -3.8097818213107305e-05,
        2.6187532394320184e-05,
        8.934748208196657e-161,
        3.6334012576530058e-25,
        -1.1e-322,
        3.1093690496745915e-179,
        1.9225968094536492e-41,
        0.06302627239750602
      ],
      [
        0.10445330917773891,
        0.20614407290070824,
        -0.004567915272621012,
        -0.04553154752972175,
        -0.0002201977400014765,
        -5.925704222025379e-05,
        4.657121741065699e-134,
        -8.785879741017128e-05,
        -1.1e-322,
        9.030255252401221e-180,
        6.878646044011132e-08,
        0.11234670641113471
      ]
    ]
  },
  "cues": [
    [
      9,
      4
    ],
    [
      5,
      8
    ],
    [
      0,
      7
    ],
    [
      3,
      0
    ],
    [
      2,
      1
    ]
  ],
  "env": {
    "delay": 0,
    "grid_size": 10,
    "max_steps": 200,
    "noise": 0.0,
    "num_cues": 5,
    "reward_sparse_prob": 0.7
  },
  "seed": 5
}