{
  "agent": {
    "action_size": 4,
    "cue_exploration_bias": 0.08333333333333333,
    "cue_regularization": 0.02291666666666667,
    "epsilon": 0.05,
    "state_size": 11,
    "target_weights": [
      [
        0.09065788804708509,
        0.07954341776249713,
        0.012492583958537048,
        0.018730341981293606,
        2.06691583165135e-06,
        -0.0003620616812913503,
        2.025097655871001e-20,
        8.049540827046156e-100,
        2.0295525986707256e-182,
        2.711727307422709e-284,
        1.625785893181364e-236,
        0.09245181682003197
      ],
      [
        0.23817623444359212,
        0.17932347976156027,
        -0.045474214555406345,
        -0.0037062800631591413,
        -4.4436034727821014e-05,
        -0.0004364653160559493,
        3.757430364294871e-06,
        7.912804835833958e-100,
        -2.1227142981423566e-119,
        6.946617913665315e-147,
        -1.4566119646387036e-40,
        0.18903162056471862
      ],
      [
        0.06497894741532753,
        0.07388800556770013,
        -0.028403843279641284,
        -0.0042425946906119155,
        -2.405980632000061e-06,
        -9.363724585163295e-06,
        3.4968549301310535e-47,
        5.28562559385196e-293,
        9.914132211633194e-170,
        -1.04e-322,
        3.0318334189365685e-233,
        0.10192833861711074
      ],
      [
        0.191456438460139,
        0.21720088112012245,
        0.004225951197356002,
        -0.07336067010128466,
        0.00010433773439730137,
        -0.000562539350184009,
        -1.5964332153793746e-05,
        -1.5112975259583504e-23,
        1.958430354993404e-116,
        -6.41366279457203e-180,
        1.5051519420606781e-123,
        0.19820170873431203
      ]
    ],
    "weights": [
      [
        0.09138548820798276,
        0.0803455275465359,
        0.012731497551389189,
        0.018894745951004644,
        4.669516411094053e-05,
        -0.0003281553114534665,
        5.7859016940802446e-24,
        2.299832394391021e-103,
        5.798629900553275e-186,
        7.747669637764951e-288,
        4.6450290070204e-240,
        0.09341833057378178
      ],
      [
        0.23972883799863287,
        0.1806618867895345,
        -0.044916424929180125,
        -0.002934293909866353,
        -4.280928094852363e-05,
        -0.0001869027444494141,
        -8.641866278146632e-06,
        2.260765586876688e-103,
        -6.064801970445118e-123,
        1.984716551237996e-150,
        -4.1616825783129027e-44,
        0.19114201374598555
      ],
      [
        0.0651691690668025,
        0.07431133839465467,
        -0.02793107035749985,
        -0.004002932943950077,
        9.631241778998462e-07,
        2.888759462637981e-06,
        9.990855900475623e-51,
        1.5101548307599297e-296,
        2.832564355221302e-173,
        -1.04e-322,
        8.662244047312088e-237,
        0.10259133319072714
      ],
      [
        0.19347822769845227,
        0.219796961172448,
        0.004447606227679648,
        -0.07371330588497325,
        0.00014101375263855193,
        -0.000388604704863758,
        -8.162101626210884e-06,
        -4.3179245654406764e-27,
        5.59542670737077e-120,
        -1.8324460709729675e-183,
        4.3003660323094036e-127,
        0.20044515300294904
      ]
    ]
  },
  "cues": [
    [
      2,
      4
    ],
    [
      1,
      5
    ],
    [
      9,
      2
    ],
    [
      0,
      6
    ],
    [
      6,
      1
    ]
  ],
  "env": {
    "delay": 0,
    "grid_size": 10,
    "max_steps": 200,
    "noise": 0.05,
    "num_cues": 5,
    "reward_sparse_prob": 1.0
  },
  "seed": 20
}