{
  "agent": {
    "action_size": 4,
    "cue_exploration_bias": 0.3333333333333333,
    "cue_regularization": 0.01666666666666667,
    "epsilon": 0.05,
    "state_size": 11,
    "target_weights": [
      [
        0.09924919101724665,
        0.1388136267102886,
        0.03186237236844385,
        0.02778816135277492,
        -1.3021379381272457e-05,
        -1.1061700536188408e-05,
        6.851250043064229e-48,
        6.217853269929331e-17,
        1.1193168132833917e-207,
        1.1342367974638882e-209,
        1.4386226080173244e-76,
        0.11736059063129974
      ],
      [
        0.26386918233769796,
        0.2216313020931157,
        -0.04638984852068162,
        -0.009691815556108312,
        -0.0015105858246342112,
        1.625844600847529e-05,
        -2.061022747595996e-05,
        -1.847965331401832e-05,
        4.539085829251083e-07,
        3.446576105688593e-154,
        -3.5339171879180134e-05,
        0.22422554712914977
      ],
      [
        0.16290117025458942,
        0.17554284840953266,
        0.012529746574619367,
        0.026148758638988263,
        -0.00016662967311101756,
        -4.331431287655509e-05,
        7.473456720908017e-81,
        2.235856891856111e-77,
        -1.1010307877314893e-29,
        2.577806622407291e-214,
        3.421241492427365e-26,
        0.1401106362701762
      ],
      [
        0.24492223436930777,
        0.2800094594408912,
        -0.011599308828758141,
        -0.06565514635162768,
        0.00047316909815955515,
        3.751670045584367e-05,
        2.331594302908227e-06,
        9.41137011318523e-09,
        3.298947297451265e-11,
        -7.429484712486039e-07,
        2.0049241772119852e-06,
        0.18636503388201284
      ]
    ],
    "weights": [
      [
        0.09927717440545271,
        0.13886959348670072,
        0.03192177861044555,
        0.027819584206570554,
        -8.263216821398152e-06,
        -1.5107563044388563e-05,
        2.3367838278202702e-48,
        6.761467699758189e-05,
        3.8176995600033914e-208,
        3.8685877592738484e-210,
        4.906768872280067e-77,
        0.1174479802615075
      ],
      [
        0.2634061344715393,
        0.22092630411486722,
        -0.04674294241124574,
        -0.0098029593345825,
        -0.00017850270377596302,
        0.00018430292612435373,
        -7.029614442736045e-06,
        -6.393777372439549e-05,
        1.5481645381808547e-07,
        1.175537785732712e-154,
        -0.00011061167068603049,
        0.22340940537242707
      ],
      [
        0.1633083353762154,
        0.1760009091713619,
        0.012580642214822616,
        0.026148758638988263,
        -0.0003579853975679167,
        -5.7795151638063825e-05,
        2.549002400081992e-81,
        7.625928397546994e-78,
        -3.755330665982288e-30,
        8.792230306332844e-215,
        1.1668968057391633e-26,
        0.14056869703200545
      ],
      [
        0.2453106066175446,
        0.28054482096817956,
        -0.011448649703916847,
        -0.06565147650583784,
        -0.0001473745471533844,
        -8.828641201109713e-05,
        7.952463894657402e-07,
        3.2099744338459704e-09,
        1.1251854252961525e-11,
        -2.5340046876191004e-07,
        6.838276758060674e-07,
        0.18690406525509098
      ]
    ]
  },
  "cues": [
    [
      4,
      4
    ],
    [
      2,
      3
    ],
    [
      2,
      2
    ],
    [
      1,
      8
    ],
    [
      3,
      4
    ]
  ],
  "env": {
    "delay": 0,
    "grid_size": 10,
    "max_steps": 200,
    "noise": 0.2,
    "num_cues": 5,
    "reward_sparse_prob": 1.0
  },
  "seed": 13
}