{
  "agent": {
    "action_size": 4,
    "cue_exploration_bias": 0.3333333333333333,
    "cue_regularization": 0.01666666666666667,
    "epsilon": 0.05,
    "state_size": 11,
    "target_weights": [
      [
        0.08028685613059632,
        0.11013514870917546,
        -0.020668653837375824,
        -0.029904211246532343,
        -9.16392990155515e-06,
        3.235680472008408e-06,
        1.6298539772131615e-08,
        3.136006498022895e-05,
        3.3351118217896614e-173,
        2.3626224199277676e-129,
        6.307290269399354e-258,
        0.07813501692435221
      ],
      [
        0.2179692024545192,
        0.16349427391582422,
        -0.08821128867589458,
        -0.022310170182997965,
        -0.0003556531251682598,
        -0.00023916439310688509,
        1.1054866456687921e-11,
        -6.665156475816268e-05,
        9.634955078221114e-09,
        -8.724122187559387e-05,
        7.439421132806151e-272,
        0.11745913195037322
      ],
      [
        0.05584352940279123,
        0.07546988708755892,
        -0.04818051651112797,
        -0.004694675063144941,
        -0.00010170514920769908,
        -4.952951482625707e-05,
        5.10399615215486e-15,
        0.00011743878375900562,
        1.074765978189063e-138,
        0.00020347000478904218,
        3.270981137147587e-283,
        0.04248879752697585
      ],
      [
        0.1715750786079069,
        0.1835415219733534,
        -0.020494888584453492,
        -0.05737191442592951,
        -0.00015520176633180508,
        -0.00019489017551057268,
        -3.950049740377729e-05,
        -7.778642292901106e-05,
        -1.3318104394129457e-08,
        -9.541550222349314e-07,
        -3.192023030803769e-76,
        0.14763362421285872
      ]
    ],
    "weights": [
      [
        0.0826365398998896,
        0.1126754721430837,
        -0.020155994302251273,
        -0.029582191376022735,
        2.9696447932661544e-06,
        -2.9229533138213465e-05,
        2.205685452203663e-10,
        0.0001271468679394273,
        4.5134151461666933e-175,
        3.1973428132472116e-131,
        8.535671651903086e-260,
        0.08099736022877008
      ],
      [
        0.22096198074810258,
        0.1668322463263823,
        -0.08839796271596786,
        -0.022842038340045976,
        -9.211044253261465e-05,
        -6.912214108362276e-05,
        1.496057834657281e-13,
        -2.8460766035188097e-05,
        1.3039008736847526e-10,
        3.7193969724704536e-05,
        1.0067787172875638e-273,
        0.12026523620388331
      ],
      [
        0.056739245432799124,
        0.07602970960631385,
        -0.04806855200737698,
        -0.004246817048140994,
        -3.8270748303191754e-05,
        -6.702841594053608e-07,
        6.90725072203146e-17,
        0.0003336386318315438,
        1.4544834787398985e-140,
        2.7535646493336422e-06,
        4.426626930699225e-285,
        0.04349647806073473
      ],
      [
        0.17323559117915194,
        0.18532011179314337,
        -0.020000679995793653,
        -0.05699578308581459,
        -0.00012941335995027346,
        -0.00021514901990541356,
        2.2490205899460272e-05,
        -2.179171967375467e-06,
        -1.8023423891807394e-10,
        -2.4248524721943615e-05,
        -4.319772728463335e-78,
        0.14978834537276353
      ]
    ]
  },
  "cues": [
    [
      2,
      1
    ],
    [
      7,
      5
    ],
    [
      3,
      3
    ],
    [
      7,
      7
    ],
    [
      2,
      7
    ]
  ],
  "env": {
    "delay": 0,
    "grid_size": 10,
    "max_steps": 200,
    "noise": 0.2,
    "num_cues": 5,
    "reward_sparse_prob": 1.0
  },
  "seed": 18
}