{
  "agent": {
    "action_size": 4,
    "cue_exploration_bias": 0.10000000000000002,
    "cue_regularization": 0.022500000000000003,
    "epsilon": 0.05,
    "state_size": 11,
    "target_weights": [
      [
        0.06761879295023367,
        0.06264713217287983,
        -0.009405291144963137,
        -0.051542158818649604,
        -0.00013709413671515134,
        -1.7728878741679174e-05,
        1.1e-322,
        3.301801065975454e-129,
        1.0968903567091367e-12,
        1.969343261649837e-10,
        1.1e-322,
        0.006477563595661558
      ],
      [
        0.13047980293761965,
        0.10440618624356297,
        -0.04437755921434715,
        -0.03196910571093246,
        -2.1261450015644024e-05,
        1.8757192767442844e-05,
        -9.199648477810712e-79,
        5.869706003441355e-35,
        -2.083196002384525e-06,
        -8.807766277711091e-06,
        -8.225221318889787e-97,
        0.10927522096748651
      ],
      [
        0.05529215365095495,
        0.04284239246927812,
        -0.0017827114239568145,
        -0.04927568063685082,
        7.053480894832949e-06,
        -3.6827058166109406e-06,
        -1.1e-322,
        1.091436643900617e-159,
        1.7798098448356473e-23,
        4.3834566527278657e-13,
        1.1e-322,
        0.006525225394048484
      ],
      [
        0.10320949314749377,
        0.14127926424990658,
        -0.026409331570142122,
        -0.08340771375355716,
        -0.0002590579448291762,
        -0.00018928778900346652,
        7.943140514555485e-82,
        -4.3984770555985894e-41,
        -5.252681216920994e-05,
        -2.6212109832980397e-05,
        2.7418826445449944e-96,
        0.10678484745705588
      ]
    ],
    "weights": [
      [
        0.0696022817641643,
        0.06445467182437975,
        -0.00914208507471341,
        -0.05110300358596916,
        1.72854096707841e-05,
        -7.39141451282721e-07,
        1.1e-322,
        3.267742210286842e-132,
        1.0855756743224947e-15,
        1.949029022054649e-13,
        1.1e-322,
        0.00872425847984192
      ],
      [
        0.1328671276608734,
        0.10641712003783234,
        -0.04410276755468362,
        -0.03131792312228459,
        -0.00024652757220076227,
        2.026470503337143e-05,
        -9.104751936913525e-82,
        5.809158603488674e-38,
        1.511452020655215e-06,
        7.747225308496036e-06,
        -8.140376223649567e-100,
        0.11193733735040384
      ],
      [
        0.05644094126024993,
        0.04407320318854133,
        -0.0010240047403096521,
        -0.04859899706317189,
        -3.2138941230190294e-05,
        1.0711611356562775e-06,
        -1.1e-322,
        1.08017821784614e-162,
        1.7614506870768425e-26,
        6.938471934367326e-05,
        1.1e-322,
        0.008432719686990619
      ],
      [
        0.1030296824471695,
        0.1417274567329714,
        -0.02616527328291845,
        -0.0837916586497226,
        8.243521851388119e-05,
        -4.931240029728933e-05,
        7.86120514925215e-85,
        -4.3531057287703047e-44,
        -2.056564491409206e-05,
        -8.74837490466847e-05,
        2.7135994792543855e-99,
        0.10684909504395532
      ]
    ]
  },
  "cues": [
    [
      4,
      1
    ],
    [
      0,
      9
    ],
    [
      4,
      6
    ],
    [
      6,
      8
    ],
    [
      5,
      2
    ]
  ],
  "env": {
    "delay": 0,
    "grid_size": 10,
    "max_steps": 200,
    "noise": 0.0,
    "num_cues": 5,
    "reward_sparse_prob": 0.7
  },
  "seed": 23
}