{
  "agent": {
    "action_size": 4,
    "cue_exploration_bias": 0.3333333333333333,
    "cue_regularization": 0.01666666666666667,
    "epsilon": 0.05,
    "state_size": 11,
    "target_weights": [
      [
        -0.050866466802539013,
        -0.06066446242725696,
        -0.05449402308057511,
        -0.06515052510970366,
        4.835993471733943e-07,
        6.4299018557307e-07,
        -1.43e-322,
        -1.43e-322,
        2.433275207528929e-07,
        1.43e-322,
        -1.43e-322,
        -0.10414009371959704
      ],
      [
        -0.06759358332972937,
        -0.03642192490706731,
        -0.06393603207495409,
        -0.03280023111630965,
        -1.9136572856459964e-06,
        8.422010770074269e-06,
        1.43e-322,
        1.43e-322,
        -1.0951156888881306e-06,
        -1.43e-322,
        1.43e-322,
        -0.11886756441190151
      ],
      [
        -0.05764417016984146,
        -0.0449757316446291,
        -0.06116029040659851,
        -0.047650667740698545,
        1.4605669570587578e-07,
        6.774051751037681e-07,
        -2.766961358682483e-06,
        -1.43e-322,
        2.9932220762814094e-06,
        1.43e-322,
        1.43e-322,
        -0.1131756496343008
      ],
      [
        -0.08589410643690487,
        -0.08284996026514746,
        -0.04473739266942468,
        -0.04784139580168902,
        -1.9003468526817181e-06,
        5.577499187596622e-06,
        1.3582153161005587e-279,
        1.43e-322,
        -8.619181424641347e-07,
        -1.9414562610020784e-25,
        1.43e-322,
        -0.09466688101993984
      ]
    ],
    "weights": [
      [
        -0.05087801407001391,
        -0.06074260161593454,
        -0.054563979700252015,
        -0.06515388980817792,
        -1.188393282266451e-06,
        5.075906985251833e-06,
        -1.43e-322,
        -1.43e-322,
        -1.3953901908754166e-06,
        1.43e-322,
        -1.43e-322,
        -0.10422159760674882
      ],
      [
        -0.06763038868649694,
        -0.0362568994639262,
        -0.0638087220036326,
        -0.0328747518448969,
        -4.243773896253717e-06,
        4.1209582995745976e-05,
        1.43e-322,
        1.43e-322,
        -4.675487900449965e-06,
        -1.43e-322,
        1.43e-322,
        -0.11877705969734763
      ],
      [
        -0.05764846816385698,
        -0.045065523110292535,
        -0.061174979258374236,
        -0.04757986312082636,
        -6.884681916034641e-07,
        1.9632640146136885e-06,
        -7.45883598056723e-09,
        -1.43e-322,
        -1.2895551666266628e-06,
        1.43e-322,
        1.43e-322,
        -0.11319463648009204
      ],
      [
        -0.0859333149097689,
        -0.08298910801551387,
        -0.04484181571899084,
        -0.04784587957375278,
        -1.2677125130057947e-06,
        1.014381671203694e-05,
        3.6613107144771205e-282,
        1.43e-322,
        -6.537329000430119e-06,
        -5.23354031266815e-28,
        1.43e-322,
        -0.09481051254236998
      ]
    ]
  },
  "cues": [
    [
      7,
      4
    ],
    [
      8,
      5
    ],
    [
      2,
      6
    ],
    [
      0,
      5
    ],
    [
      7,
      9
    ]
  ],
  "env": {
    "delay": 6,
    "grid_size": 10,
    "max_steps": 200,
    "noise": 0.0,
    "num_cues": 5,
    "reward_sparse_prob": 1.0
  },
  "seed": 12
}