{
  "agent": {
    "action_size": 4,
    "cue_exploration_bias": 0.05555555555555555,
    "cue_regularization": 0.02361111111111111,
    "epsilon": 0.05,
    "state_size": 11,
    "target_weights": [
      [
        0.10941835484529734,
        0.10262251524047844,
        0.02506255245598189,
        0.026981679798969427,
        3.6806619876917774e-05,
        -0.000539469055494158,
        1.6224499936014364e-07,
        1.04e-322,
        1.8809350273564457e-239,
        4.1916989565432367e-274,
        3.1372056074122425e-276,
        0.12378225211568906
      ],
      [
        0.25364111899596076,
        0.18201997775057713,
        -0.03316194304538822,
        0.021374378010211553,
        -1.3666841622292692e-05,
        0.00012675290445904785,
        9.795939311214437e-06,
        6.69070664385057e-105,
        -1.1129893594082306e-262,
        1.230943666456235e-213,
        -2.475311420953355e-292,
        0.2168087766271046
      ],
      [
        0.07305536244791158,
        0.09782117491509616,
        0.005740417765578821,
        0.014044912039796222,
        -0.00010727651380684463,
        -4.0842352469440624e-05,
        0.0001697928574438756,
        2.5748913891901303e-248,
        1.3450306210087263e-239,
        1.0445747514018705e-268,
        2.067568794242298e-236,
        0.14414901469491456
      ],
      [
        0.19771681028569385,
        0.23341671209417478,
        0.024250103573298692,
        -0.06329197687383899,
        0.0001500876789989279,
        -0.0007433089635889569,
        1.0908140009986046e-06,
        -1.3245666519271154e-108,
        -1.047043054511665e-243,
        -1.770864692914058e-160,
        -1.04e-322,
        0.22448623293580994
      ]
    ],
    "weights": [
      [
        0.11016054274846519,
        0.1035004708701393,
        0.025364956080733612,
        0.027148315697228153,
        7.67563231253259e-05,
        -0.0003561265601258078,
        1.126470094245891e-09,
        1.04e-322,
        1.3059367412818493e-241,
        2.9103045007546824e-276,
        2.1781677772427812e-278,
        0.12482684364360865
      ],
      [
        0.25585198361924777,
        0.18380723725388196,
        -0.03317098951109353,
        0.021788936664488577,
        -1.6891529936854213e-05,
        -0.0003242822647659114,
        2.2332712714640234e-05,
        4.6453702569531726e-107,
        -7.727506139059804e-265,
        8.54646512023697e-216,
        -1.7186133937230207e-294,
        0.21901059478468635
      ],
      [
        0.07395585964428844,
        0.09869717830650825,
        0.005934718608919923,
        0.014263706688102102,
        -8.274332506779921e-06,
        -0.00011760478898990658,
        1.178875015448196e-06,
        1.7877519537076555e-250,
        9.338573000010199e-242,
        7.252502223791819e-271,
        1.4355169180530895e-238,
        0.14524381273463255
      ],
      [
        0.19768771823176481,
        0.23358491184805205,
        0.02435591447996971,
        -0.06338345777497417,
        1.003390917261083e-05,
        3.910064531496719e-05,
        9.697387329376428e-06,
        -9.196491276253428e-111,
        -7.269639698892335e-246,
        -1.2295147002315941e-162,
        -1.04e-322,
        0.22456295178855193
      ]
    ]
  },
  "cues": [
    [
      2,
      4
    ],
    [
      1,
      5
    ],
    [
      9,
      2
    ],
    [
      0,
      6
    ],
    [
      6,
      1
    ]
  ],
  "env": {
    "delay": 1,
    "grid_size": 10,
    "max_steps": 200,
    "noise": 0.0,
    "num_cues": 5,
    "reward_sparse_prob": 1.0
  },
  "seed": 20
}