{
  "agent": {
    "action_size": 4,
    "cue_exploration_bias": 0.3333333333333333,
    "cue_regularization": 0.01666666666666667,
    "epsilon": 0.05,
    "state_size": 11,
    "target_weights": [
      [
        -0.04079043739863349,
        -0.05942383173429195,
        -0.03721293140233282,
        -0.06104583142148029,
        -1.2009042006932999e-06,
        2.0173391975547633e-07,
        -1.43e-322,
        1.43e-322,
        -2.132699276962544e-05,
        -1.43e-322,
        -1.43e-322,
        -0.11486585239680605
      ],
      [
        -0.06679436976756092,
        -0.05702050006911588,
        -0.062456662052590296,
        -0.051098006010001196,
        -1.3741795704057852e-06,
        -9.824075664120396e-07,
        -1.43e-322,
        1.43e-322,
        1.5407065087957805e-06,
        1.43e-322,
        1.43e-322,
        -0.09934629043105608
      ],
      [
        -0.07009598529584696,
        -0.049682966867723305,
        -0.06759037105621352,
        -0.04768416812776819,
        -9.369508779199601e-07,
        2.1852113693187354e-06,
        -1.43e-322,
        -1.3901531365612143e-241,
        -5.926306938402052e-06,
        -1.43e-322,
        -1.43e-322,
        -0.09659343458887042
      ],
      [
        -0.05093953656157645,
        -0.07258180675295474,
        -0.03847359770835887,
        -0.06499834904636183,
        -7.088687615662969e-07,
        -1.9250370329616436e-06,
        -1.43e-322,
        3.2560522000097175e-304,
        8.463292584056265e-06,
        -1.43e-322,
        -1.43e-322,
        -0.108745818327089
      ]
    ],
    "weights": [
      [
        -0.04079043739863349,
        -0.05942406885532009,
        -0.03719137931295288,
        -0.06102404221107222,
        1.429643868339206e-06,
        2.7079340626865753e-06,
        -1.43e-322,
        1.43e-322,
        -1.8155713979979998e-05,
        -1.43e-322,
        -1.43e-322,
        -0.11484430030742614
      ],
      [
        -0.06679452628068665,
        -0.05702050006911588,
        -0.06245720984853031,
        -0.051098710319066924,
        -9.79410653405411e-07,
        -8.215145790221767e-07,
        -1.43e-322,
        1.43e-322,
        1.1774218674563847e-06,
        1.43e-322,
        1.43e-322,
        -0.09934699474012182
      ],
      [
        -0.07009631750818322,
        -0.04968614544696957,
        -0.0676047975583768,
        -0.04769574826302147,
        -1.6398482254528963e-06,
        3.12384347969532e-06,
        -1.43e-322,
        -1.0623676169055581e-241,
        -2.8723812464737546e-05,
        -1.43e-322,
        -1.43e-322,
        -0.09660819330336998
      ],
      [
        -0.05093953656157645,
        -0.07258180675295474,
        -0.03847359770835887,
        -0.06499834904636183,
        -5.417239274709359e-07,
        -1.4711307347198534e-06,
        -1.43e-322,
        2.488304579739445e-304,
        6.467724840688745e-06,
        -1.43e-322,
        -1.43e-322,
        -0.108745818327089
      ]
    ]
  },
  "cues": [
    [
      7,
      4
    ],
    [
      4,
      3
    ],
    [
      1,
      1
    ],
    [
      4,
      8
    ],
    [
      5,
      4
    ]
  ],
  "env": {
    "delay": 10,
    "grid_size": 10,
    "max_steps": 200,
    "noise": 0.0,
    "num_cues": 5,
    "reward_sparse_prob": 1.0
  },
  "seed": 27
}