{
  "agent": {
    "action_size": 4,
    "cue_exploration_bias": 0.3333333333333333,
    "cue_regularization": 0.01666666666666667,
    "epsilon": 0.05,
    "state_size": 11,
    "target_weights": [
      [
        0.11587761370821845,
        0.08376740720176927,
        0.021853484449257648,
        0.008874784318848555,
        -2.6093123868158907e-05,
        -6.388217488980938e-06,
        4.973254328596707e-274,
        2.424543042998163e-260,
        4.6496513157062076e-104,
        7.356173405267315e-13,
        1.0141800400597626e-265,
        0.11468784468572712
      ],
      [
        0.2189244078452784,
        0.21466031480311118,
        -0.040083522557836086,
        -0.00571323317645458,
        5.5542906810011485e-05,
        -8.282671489774625e-05,
        -1.7067930771813335e-20,
        -6.356175929871776e-221,
        8.908450575234183e-09,
        5.919355932368346e-05,
        -5.19993633861169e-209,
        0.19331817344981397
      ],
      [
        0.11667472869172894,
        0.13594707910408071,
        -0.0007433747785116687,
        0.008855176193478153,
        -9.497455671389481e-05,
        1.4067272940906337e-07,
        1.9114828239120857e-286,
        7.520408351241586e-274,
        6.463416175070506e-66,
        4.4467621014992065e-07,
        2.4763756320056334e-218,
        0.13112466223481425
      ],
      [
        0.2026489158286011,
        0.25541474061574987,
        -0.03226363382828762,
        -0.08391303707832823,
        -0.0005306990130575704,
        -9.476890446734663e-06,
        4.29775767839705e-170,
        2.4471788374953252e-200,
        -5.60642707920508e-06,
        2.140267499816552e-05,
        1.1506521011701325e-212,
        0.19322070312120423
      ]
    ],
    "weights": [
      [
        0.116171395873597,
        0.08411015306137758,
        0.022000375531946923,
        0.008972711707308071,
        -1.1674386681706546e-06,
        -5.502720657885161e-06,
        1.3406290698729468e-276,
        6.535786569191444e-263,
        1.2533961279168339e-106,
        1.982987247087029e-15,
        2.7339024991562733e-268,
        0.11512851793379494
      ],
      [
        0.21955851177509889,
        0.21530075427466452,
        -0.039767208225463715,
        -0.0054032543858149665,
        -0.0002541150869207717,
        -4.508269225761217e-06,
        -4.6009640053394306e-23,
        -1.7134201594747816e-223,
        2.4014311393672938e-11,
        5.531081622500083e-06,
        -1.4017352333956702e-211,
        0.19426859171200686
      ],
      [
        0.117179226394949,
        0.13687756184834352,
        -0.00028302938827128406,
        0.008889536542675826,
        -4.281234999076804e-05,
        1.7079346684620755e-06,
        5.152741587262559e-289,
        2.027259694927884e-276,
        1.74232867303039e-68,
        3.1009891408988745e-05,
        6.675510522560611e-221,
        0.13208950532827465
      ],
      [
        0.20311230280563425,
        0.2564235908988574,
        -0.032134042531721994,
        -0.0843289090878371,
        -0.0008796858801721496,
        -6.430137285194499e-05,
        1.1585369454762074e-172,
        6.596805375223677e-203,
        -0.00015267069012867132,
        2.841541165317319e-05,
        3.101787188459228e-215,
        0.19381368139480296
      ]
    ]
  },
  "cues": [
    [
      5,
      2
    ],
    [
      6,
      0
    ],
    [
      1,
      8
    ],
    [
      1,
      5
    ],
    [
      9,
      0
    ]
  ],
  "env": {
    "delay": 0,
    "grid_size": 10,
    "max_steps": 200,
    "noise": 0.2,
    "num_cues": 5,
    "reward_sparse_prob": 1.0
  },
  "seed": 7
}