{
  "agent": {
    "action_size": 4,
    "cue_exploration_bias": 0.05555555555555555,
    "cue_regularization": 0.02361111111111111,
    "epsilon": 0.05,
    "state_size": 11,
    "target_weights": [
      [
        0.09588907147857743,
        0.10052698385626836,
        0.010710568643935546,
        -0.008814680481113283,
        1.374595782840663e-05,
        -0.0001362868834376275,
        2.6139351331157017e-06,
        2.4014915869610586e-59,
        1.5598582333290984e-06,
        7.93704e-318,
        1.1242585243606473e-251,
        0.09098124553020256
      ],
      [
        0.23417159459781806,
        0.19061579395465303,
        -0.03939432232786435,
        0.010527700581977597,
        -5.523694493024234e-06,
        4.322988458256296e-05,
        -9.150203344406777e-06,
        4.593871027603115e-05,
        -1.6017152355379702e-05,
        -5.454464576474624e-100,
        -4.982849399247106e-06,
        0.21180389772037764
      ],
      [
        0.09403461542794056,
        0.08951992950058663,
        0.020540743616521202,
        0.01337184738021529,
        6.859331397091076e-09,
        -6.163275984317741e-10,
        6.589411856982307e-11,
        3.886591980015048e-15,
        2.1774807203796147e-25,
        1.3081428590708835e-08,
        2.6141976406834487e-222,
        0.09103898799991303
      ],
      [
        0.19944599390842463,
        0.2634341134127496,
        0.01768891824949072,
        -0.07495357646059804,
        5.343527559114432e-06,
        -0.0002069291729863686,
        -6.711082908607776e-05,
        -1.0705671604057888e-05,
        -8.450584237133492e-05,
        2.2243620891635325e-79,
        1.8781474092240723e-86,
        0.18851257678202454
      ]
    ],
    "weights": [
      [
        0.09660767295813734,
        0.10116574072698828,
        0.010710568643935546,
        -0.008734835872273293,
        -4.238771368405766e-06,
        -7.5185075279450135e-06,
        5.714093995972629e-08,
        5.249689819990478e-61,
        3.409869071620817e-08,
        1.73496e-319,
        2.4576428093351108e-253,
        0.09169984700976247
      ],
      [
        0.23662490531361582,
        0.19293797562113757,
        -0.03888534244740585,
        0.01116780951174933,
        -5.663581534788614e-05,
        -3.313368129802397e-05,
        5.686995873192836e-06,
        1.6720637130213028e-05,
        -4.065180681911193e-05,
        -1.1923525910349919e-101,
        -1.089256939637048e-07,
        0.21476618831663394
      ],
      [
        0.09518799996536624,
        0.09064854084600463,
        0.0209665396757009,
        0.013822416631402663,
        3.244524900262871e-05,
        -1.8704971173153145e-06,
        1.4404534470636705e-12,
        8.496137343441995e-17,
        4.759999340854555e-27,
        0.0001873458995614246,
        5.714667840708778e-224,
        0.0926181685965184
      ],
      [
        0.2005630591869,
        0.26518964943154516,
        0.018255842712158136,
        -0.0750251227382511,
        2.940850388050915e-05,
        -3.955371778581056e-06,
        -4.56262539843771e-05,
        -1.0403565093568647e-05,
        -8.966596197576692e-05,
        4.862482583264575e-81,
        4.1056530816840997e-88,
        0.19019656652316727
      ]
    ]
  },
  "cues": [
    [
      6,
      6
    ],
    [
      0,
      4
    ],
    [
      8,
      7
    ],
    [
      6,
      4
    ],
    [
      7,
      5
    ]
  ],
  "env": {
    "delay": 1,
    "grid_size": 10,
    "max_steps": 200,
    "noise": 0.0,
    "num_cues": 5,
    "reward_sparse_prob": 1.0
  },
  "seed": 0
}