{
  "agent": {
    "action_size": 4,
    "cue_exploration_bias": 0.16666666666666666,
    "cue_regularization": 0.020833333333333336,
    "epsilon": 0.05,
    "state_size": 11,
    "target_weights": [
      [
        0.04603774756114412,
        0.07535125493467124,
        -0.0042918614538831786,
        -0.0323985382712771,
        6.374051760406381e-07,
        -3.934545454358442e-06,
        4.4542448087603175e-09,
        1.747337826044777e-20,
        1.14e-322,
        4.3838026747512745e-16,
        3.119630317223334e-36,
        0.020493719945586582
      ],
      [
        0.18201098159579818,
        0.16909608566260748,
        -0.02057846209100302,
        0.00641661353976972,
        -0.000354195374338662,
        8.292139114218788e-05,
        4.12792791310006e-05,
        -3.961537958162539e-05,
        -1.14e-322,
        5.080370360443365e-09,
        7.883734437546192e-08,
        0.14131952388429125
      ],
      [
        0.050936331236294305,
        0.09278719963609916,
        -0.004272785009510491,
        -0.01333172574083224,
        -1.564502608242351e-05,
        3.2119555523538956e-05,
        5.275902397438098e-06,
        1.8498921528366248e-33,
        1.14e-322,
        0.0002376452306771268,
        3.560047150286062e-06,
        0.033228094573367895
      ],
      [
        0.15527584973016592,
        0.2252354662061356,
        -0.020362847766913262,
        -0.08579964367234964,
        -0.0001784020880218962,
        -0.00013851726670165957,
        5.251957046822614e-06,
        6.368130758753981e-23,
        1.14e-322,
        -1.3829999111324074e-05,
        -5.158253208575264e-05,
        0.11014366214888123
      ]
    ],
    "weights": [
      [
        0.04603774756114412,
        0.07535125493467124,
        -0.0042918614538831786,
        -0.0323985382712771,
        1.6566825648016752e-07,
        -1.0226294199781863e-06,
        1.1577047051718832e-09,
        4.5415133419661554e-21,
        1.14e-322,
        1.1393960594898518e-16,
        8.108244723198036e-37,
        0.020493719945586582
      ],
      [
        0.1818296327941482,
        0.1688795899575304,
        -0.020526431413342087,
        0.006503791120857771,
        -2.700952128609763e-05,
        2.0777007432125747e-05,
        5.6398686060376354e-05,
        -1.2864054879851371e-05,
        -1.14e-322,
        8.397787036340062e-06,
        2.0490648459021334e-08,
        0.1411902057603022
      ],
      [
        0.052016829076629974,
        0.0941209840023056,
        -0.0035145704138975723,
        -0.01282679767109009,
        -0.00032333084573773894,
        5.803256071709549e-05,
        0.00024449417011023275,
        4.808062738688024e-34,
        1.14e-322,
        6.176647524524769e-05,
        9.252934029162613e-07,
        0.035066807009316484
      ],
      [
        0.15719584502159198,
        0.22731940872943107,
        -0.020117849336421065,
        -0.08571859247372683,
        -0.0003738748831762795,
        -3.6102557329048107e-06,
        1.365038439851576e-06,
        1.6551436346874527e-23,
        1.14e-322,
        -4.922543572333728e-05,
        -1.3406838345056217e-05,
        0.11230865587079945
      ]
    ]
  },
  "cues": [
    [
      0,
      1
    ],
    [
      1,
      5
    ],
    [
      2,
      4
    ],
    [
      4,
      9
    ],
    [
      3,
      9
    ]
  ],
  "env": {
    "delay": 3,
    "grid_size": 10,
    "max_steps": 200,
    "noise": 0.0,
    "num_cues": 5,
    "reward_sparse_prob": 1.0
  },
  "seed": 2
}