{
  "agent": {
    "action_size": 4,
    "cue_exploration_bias": 0.16666666666666666,
    "cue_regularization": 0.020833333333333336,
    "epsilon": 0.05,
    "state_size": 11,
    "target_weights": [
      [
        0.06458584586017556,
        0.04540629959950055,
        -0.021723084702976812,
        -0.007318024272957894,
        -9.392576127500066e-05,
        -4.821270127322449e-07,
        7.8233629882775e-310,
        2.4562960445518966e-20,
        1.989622289017904e-274,
        1.14e-322,
        1.14e-322,
        0.034949059507356904
      ],
      [
        0.21452270009937066,
        0.17052495622703856,
        -0.06582765924787308,
        -0.007288064427461701,
        3.1260260897273846e-05,
        4.315671915744704e-05,
        -9.728309212044108e-251,
        -2.9053054586558076e-07,
        -2.9977098423254997e-186,
        -3.142914021107266e-43,
        1.818383971593041e-05,
        0.1796834979324551
      ],
      [
        0.10979218520608541,
        0.07632112300596071,
        -0.019230415774781514,
        -0.028128588023590355,
        -1.8473637751270502e-05,
        4.64570424253551e-06,
        -5.030922707416696e-301,
        3.1251898954901054e-05,
        -1.5822181903847862e-300,
        2.825419100849152e-305,
        1.5128612388904486e-12,
        0.0999430971798182
      ],
      [
        0.17559257491198313,
        0.19892478509834716,
        -0.015785395459687473,
        -0.0670066406658195,
        -7.019761668806637e-05,
        -3.503634066890025e-05,
        9.866741456869626e-242,
        2.288420638915324e-05,
        7.404011654318045e-185,
        7.862950882871362e-29,
        -4.069468723225591e-06,
        0.1873250808300736
      ]
    ],
    "weights": [
      [
        0.06480931449266268,
        0.04562976823198768,
        -0.021443748912367906,
        -0.007038688482348987,
        -1.9561189306360075e-06,
        -5.718472595175816e-10,
        9.27923258176e-313,
        1.660242856167296e-05,
        2.3598761807645375e-277,
        1.14e-322,
        1.14e-322,
        0.03545186393045294
      ],
      [
        0.2149366611563087,
        0.170310279187006,
        -0.0655641715695527,
        -0.0063959386521706876,
        -0.0004414526455656921,
        0.00012950512097068028,
        -1.1538675112022013e-253,
        3.6963588902755396e-05,
        -3.555561320756652e-189,
        6.055911575233827e-07,
        1.3126883401132227e-06,
        0.1803609466677134
      ],
      [
        0.11036350048640907,
        0.07697667589681018,
        -0.01898354072691256,
        -0.0279659505862472,
        -5.87014541001003e-05,
        5.510235206627024e-09,
        -5.967139959193171e-304,
        3.7067644625018283e-08,
        -1.876657213216328e-303,
        3.351208555299352e-308,
        1.7943934495334642e-15,
        0.10076128750801082
      ],
      [
        0.17926615360086556,
        0.20338342018452843,
        -0.0147521304280224,
        -0.06675843203145332,
        -0.0001754897492632221,
        -4.082750409709424e-05,
        1.1702868566737856e-244,
        8.952333792554932e-06,
        8.781843087289105e-188,
        9.326187488665928e-32,
        -4.826766548261127e-09,
        0.19203192455062118
      ]
    ]
  },
  "cues": [
    [
      6,
      0
    ],
    [
      3,
      4
    ],
    [
      7,
      0
    ],
    [
      4,
      0
    ],
    [
      4,
      9
    ]
  ],
  "env": {
    "delay": 0,
    "grid_size": 10,
    "max_steps": 200,
    "noise": 0.1,
    "num_cues": 5,
    "reward_sparse_prob": 1.0
  },
  "seed": 25
}