{
  "agent": {
    "action_size": 4,
    "cue_exploration_bias": 0.05555555555555555,
    "cue_regularization": 0.02361111111111111,
    "epsilon": 0.05,
    "state_size": 11,
    "target_weights": [
      [
        0.10657210225815149,
        0.13343828081994524,
        0.04033704185564723,
        0.025732697269111704,
        1.195059056087455e-06,
        4.91261575850667e-06,
        1.04e-322,
        9.379988347905643e-99,
        -1.04e-322,
        0.00013896661456214084,
        3.4582707124679603e-128,
        0.1489868364027609
      ],
      [
        0.306012125299448,
        0.21541642234377753,
        -0.034968982913799115,
        0.026585448592619434,
        -4.568369932017886e-05,
        4.066569450566008e-05,
        1.04e-322,
        1.7530857360161627e-109,
        -1.04e-322,
        -5.42760803040405e-05,
        -8.305500900124442e-11,
        0.2514553600561764
      ],
      [
        0.107058554625781,
        0.12136740718922832,
        0.024236349288374204,
        0.03381758015394298,
        -1.1145349947995164e-05,
        -2.9918270839158332e-05,
        -1.04e-322,
        8.327831702624944e-20,
        7.316280982964562e-146,
        1.1137953995118687e-08,
        5.329847358510517e-149,
        0.14784587514778064
      ],
      [
        0.24185871441143908,
        0.28507431295715896,
        0.03879727074804612,
        -0.04866903280054768,
        4.959744453434835e-06,
        -3.543166877462232e-05,
        -1.04e-322,
        -1.2919781800716911e-11,
        1.04e-322,
        -3.5897229580003444e-05,
        3.906933132643077e-69,
        0.24719006484146855
      ]
    ],
    "weights": [
      [
        0.11002634284846274,
        0.13684536708118455,
        0.04092577304202797,
        0.026368582784564477,
        -0.00020260375596048446,
        -0.00024358333480752493,
        1.04e-322,
        4.482367362345559e-102,
        -1.04e-322,
        1.6493649312056616e-05,
        1.6525862502998748e-131,
        0.15302980817945294
      ],
      [
        0.30949273886159684,
        0.21828428407186146,
        -0.03441924026181518,
        0.027747943078668215,
        -0.00015114211720875369,
        -2.3152816076449995e-06,
        1.04e-322,
        8.377381714196809e-113,
        -1.04e-322,
        -8.818627408471773e-05,
        -3.968907506261648e-14,
        0.25548571627030914
      ],
      [
        0.10779860998690657,
        0.12216485700460834,
        0.02482150071353728,
        0.03434533712485162,
        8.261289692286908e-07,
        2.9366993342595738e-06,
        -1.04e-322,
        3.979578613366549e-23,
        3.496194011702806e-149,
        5.322437472128999e-12,
        2.5469470707184245e-152,
        0.1491710819340693
      ],
      [
        0.2442753925289599,
        0.2880249386936736,
        0.039090260747588215,
        -0.04890999041999947,
        -9.723262833341852e-05,
        -0.0002092790964940707,
        -1.04e-322,
        -2.479175845882037e-06,
        1.04e-322,
        -7.514588686782046e-05,
        1.866986280908971e-72,
        0.24989973295853146
      ]
    ]
  },
  "cues": [
    [
      2,
      9
    ],
    [
      1,
      4
    ],
    [
      1,
      7
    ],
    [
      7,
      7
    ],
    [
      6,
      3
    ]
  ],
  "env": {
    "delay": 1,
    "grid_size": 10,
    "max_steps": 200,
    "noise": 0.0,
    "num_cues": 5,
    "reward_sparse_prob": 1.0
  },
  "seed": 1
}