{
  "agent": {
    "action_size": 4,
    "cue_exploration_bias": 0.3333333333333333,
    "cue_regularization": 0.01666666666666667,
    "epsilon": 0.05,
    "state_size": 11,
    "target_weights": [
      [
        0.07585970570400438,
        0.08756104853427252,
        -0.011418525929059443,
        0.015179751903786733,
        -3.8587925633342187e-05,
        -0.00018772927033426371,
        2.303187948233345e-46,
        -1.43e-322,
        3.643482619518621e-181,
        1.628303362024743e-11,
        1.3061833581092953e-16,
        0.08108954981890255
      ],
      [
        0.22122047144839688,
        0.17590042238604367,
        -0.031042307340587882,
        -0.034884319007992805,
        8.081412727293662e-06,
        2.506354537435128e-06,
        7.775446069396182e-05,
        -8.677248192893184e-92,
        6.400961878841739e-07,
        -0.00026892254689622644,
        -7.824555613308017e-05,
        0.17923113147071695
      ],
      [
        0.08425449640308348,
        0.07739697574573347,
        -0.01928084505209102,
        0.0020354151488306787,
        -5.153002419623227e-05,
        -4.503377288897194e-09,
        3.9575463386782567e-10,
        2.1744170932034692e-202,
        -1.43e-322,
        2.15717587471646e-09,
        0.0004638102550430242,
        0.10160330888565805
      ],
      [
        0.18622278136168374,
        0.2288151544846111,
        -0.029850542862024133,
        -0.11514422585455848,
        8.945492116660147e-05,
        6.139605318864384e-05,
        -0.00012182850462038237,
        6.40742913560458e-13,
        1.6918496616946316e-17,
        -1.5207026198864747e-05,
        -8.870595507604783e-05,
        0.16459907002307805
      ]
    ],
    "weights": [
      [
        0.07651413094872131,
        0.08831992617897982,
        -0.011190740665540828,
        0.015303084767314972,
        -5.0913972404026094e-05,
        -0.00013795053974975793,
        7.855577180854294e-47,
        -1.43e-322,
        1.242697494430877e-181,
        5.553720765186097e-12,
        4.4550529147417414e-17,
        0.0819717603271381
      ],
      [
        0.2211423879677594,
        0.17584126334330566,
        -0.030954694192695646,
        -0.03481563029800004,
        1.209520596701951e-05,
        6.410344598526405e-06,
        2.6520031402805642e-05,
        -2.9595844728601704e-92,
        8.941455291349643e-06,
        -0.0001570245540688722,
        -6.584764098208487e-05,
        0.17924066113797174
      ],
      [
        0.08471893056921756,
        0.07780335564110077,
        -0.019222790781324262,
        0.0021515236903641966,
        -1.7575555764578005e-05,
        -1.5359852805140717e-09,
        1.3498164895375106e-10,
        7.416373167518032e-203,
        -1.43e-322,
        7.357567839615647e-10,
        0.0003456167590603706,
        0.10212579732255889
      ],
      [
        0.18731753672287493,
        0.22976284465571475,
        -0.029687695922035708,
        -0.11483431372448248,
        -2.8511231136951005e-05,
        -7.524404037158998e-05,
        -0.00024089809609456248,
        2.1854080186640795e-13,
        5.770460724249105e-18,
        5.1287845311917535e-05,
        7.343424435247809e-05,
        0.1658566723242576
      ]
    ]
  },
  "cues": [
    [
      7,
      9
    ],
    [
      5,
      4
    ],
    [
      2,
      2
    ],
    [
      0,
      5
    ],
    [
      8,
      7
    ]
  ],
  "env": {
    "delay": 0,
    "grid_size": 10,
    "max_steps": 200,
    "noise": 0.2,
    "num_cues": 5,
    "reward_sparse_prob": 1.0
  },
  "seed": 9
}