{
  "agent": {
    "action_size": 4,
    "cue_exploration_bias": 0.08333333333333333,
    "cue_regularization": 0.02291666666666667,
    "epsilon": 0.05,
    "state_size": 11,
    "target_weights": [
      [
        0.1579281638807244,
        0.07174169628966148,
        0.022079646517852523,
        0.01637213354138865,
        -4.547581198918338e-05,
        -1.2290001771255432e-05,
        7.070659972533898e-05,
        4.312240789823915e-205,
        9.140303543599329e-285,
        8.149039038946802e-262,
        1.0363835498481197e-18,
        0.1282184501530388
      ],
      [
        0.2783908196619387,
        0.1964805096020679,
        -0.06372560834911066,
        -0.009554329025670856,
        -2.5720509003058497e-05,
        1.1249268849357041e-05,
        6.801526545626044e-07,
        -2.997827311422562e-204,
        1.3547379722942306e-85,
        6.664674341676718e-107,
        -6.123815367543235e-05,
        0.21370690458628286
      ],
      [
        0.10379930482174678,
        0.06983537980027223,
        0.01342827883841395,
        0.014653613296836508,
        -0.00016619376540990942,
        -0.00011914619440162364,
        8.696823466735016e-06,
        1.5882151592190187e-212,
        4.791277585939251e-22,
        1.8085437390095024e-254,
        2.0079813120868017e-64,
        0.14485505737964752
      ],
      [
        0.19838523375196723,
        0.269618587534046,
        -0.00297436994333268,
        -0.02096142253225558,
        0.00012010238619925492,
        -8.58184557035039e-05,
        1.1370876134113033e-05,
        2.831767027143733e-204,
        -1.3896549367469967e-40,
        -1.0930293666783772e-18,
        3.414924202839304e-06,
        0.21679916026251136
      ]
    ],
    "weights": [
      [
        0.1599585347732609,
        0.07366325818001805,
        0.02286199331886721,
        0.01726328934458329,
        -2.2453205051132378e-05,
        -9.670792390681685e-05,
        6.356812289513277e-07,
        2.5871208255816154e-208,
        5.483708077152358e-288,
        4.8890007849023155e-265,
        6.217763793314891e-22,
        0.13103116784659002
      ],
      [
        0.282448864021308,
        0.2003041876413238,
        -0.06424016451895867,
        -0.009834518875405592,
        -1.792221518202462e-05,
        -0.000657140946001125,
        -1.59035972248053e-05,
        -1.7985409087499866e-207,
        8.12772521794112e-89,
        3.9984589510307373e-110,
        -1.6451753625283837e-05,
        0.217250392775804
      ],
      [
        0.10568521234644415,
        0.07144918325068698,
        0.013854235557533873,
        0.015351674090239045,
        -5.039978737659911e-05,
        -0.00024132552100479342,
        5.217643031505167e-09,
        9.528467249825652e-216,
        2.874518058680116e-25,
        1.0850324458244803e-257,
        1.204684646121206e-67,
        0.1471669216234648
      ],
      [
        0.20242613747324484,
        0.27406594818562763,
        -0.002543650698134957,
        -0.020937160217361552,
        6.576310281337969e-05,
        -0.0002994046407400816,
        -1.1554763579241584e-05,
        1.6989133506661274e-207,
        -8.337208895464449e-44,
        -6.5576093157390295e-22,
        -6.78053227643203e-06,
        0.22127078322898674
      ]
    ]
  },
  "cues": [
    [
      3,
      0
    ],
    [
      8,
      0
    ],
    [
      2,
      3
    ],
    [
      2,
      5
    ],
    [
      3,
      1
    ]
  ],
  "env": {
    "delay": 0,
    "grid_size": 10,
    "max_steps": 200,
    "noise": 0.05,
    "num_cues": 5,
    "reward_sparse_prob": 1.0
  },
  "seed": 15
}