{
  "agent": {
    "action_size": 4,
    "cue_exploration_bias": 0.16666666666666666,
    "cue_regularization": 0.020833333333333336,
    "epsilon": 0.05,
    "state_size": 11,
    "target_weights": [
      [
        0.06325499413634199,
        0.06015698737026177,
        -0.028005680970081923,
        0.01339194645911249,
        -2.945066474232727e-05,
        6.2976781440770895e-06,
        6.070572932686967e-07,
        2.7555257143849006e-20,
        -4.43375653617735e-287,
        -5.569786208954894e-307,
        9.157110944990239e-08,
        0.05189768321021755
      ],
      [
        0.15062994115205502,
        0.0774610178891499,
        -0.052559881436740875,
        -0.028553018903594907,
        8.097154504963336e-05,
        1.9653775112623103e-05,
        -6.352517417754873e-05,
        1.1475629957353403e-05,
        -4.48780150152098e-306,
        -3.853525024810746e-305,
        -8.877648374285552e-05,
        0.08712302707822174
      ],
      [
        0.04562972667019959,
        0.04287125402839578,
        -0.01920914452655335,
        -0.0019919323411779185,
        -2.5488085016750734e-05,
        -9.210634560261679e-06,
        0.00010635229310575714,
        6.3732931568384185e-44,
        3.70312412586743e-250,
        -6.901078843725817e-305,
        6.493962562031658e-05,
        0.06305023967831186
      ],
      [
        0.10064023486855271,
        0.10930072512129188,
        -0.003637031228463513,
        -0.054998831350807964,
        4.67802261799539e-05,
        4.1642675228050596e-05,
        1.1526488673053749e-07,
        -9.788574682557138e-06,
        -3.386041514395667e-07,
        -3.28005e-319,
        -0.00014576822893259167,
        0.10523003516350882
      ]
    ],
    "weights": [
      [
        0.0638223520601654,
        0.06059539913589871,
        -0.0279059694105506,
        0.013620604176830297,
        -2.8250866556964012e-05,
        3.5379863047887373e-06,
        5.743428036941676e-08,
        1.188961012286345e-05,
        -4.1948201399143864e-288,
        -5.269628851674685e-308,
        8.66363164103583e-09,
        0.05256475269357231
      ],
      [
        0.15337654662628056,
        0.07997221388847596,
        -0.052498146148506744,
        -0.028255874140461306,
        -5.520145237778717e-05,
        -0.00012400057625554356,
        -0.00012744117947077036,
        9.610288085289708e-06,
        -4.2459526067592834e-307,
        -3.645857469133169e-306,
        -0.00012714873431126506,
        0.0899313678406814
      ],
      [
        0.04616102565379043,
        0.043284486571188656,
        -0.01924609525050136,
        -0.0019108166243279646,
        -2.8476168905105102e-05,
        -2.982745477155606e-06,
        1.0062093789000566e-05,
        6.029834582422573e-45,
        3.5035617172575825e-251,
        -6.529177749068942e-306,
        0.00022172458329619996,
        0.06354458793795469
      ],
      [
        0.10037030928651175,
        0.10896450195806397,
        -0.0035413647672930897,
        -0.05483686730845055,
        9.476918750879168e-06,
        3.1377016693885547e-05,
        1.0905322931851395e-08,
        2.0055930572312794e-06,
        -3.203566777579373e-08,
        -3.1037e-320,
        -4.203524075176888e-05,
        0.1050557760426383
      ]
    ]
  },
  "cues": [
    [
      7,
      9
    ],
    [
      5,
      4
    ],
    [
      2,
      2
    ],
    [
      0,
      5
    ],
    [
      8,
      7
    ]
  ],
  "env": {
    "delay": 0,
    "grid_size": 10,
    "max_steps": 200,
    "noise": 0.0,
    "num_cues": 5,
    "reward_sparse_prob": 0.5
  },
  "seed": 9
}