{
  "agent": {
    "action_size": 4,
    "cue_exploration_bias": 0.16666666666666666,
    "cue_regularization": 0.020833333333333336,
    "epsilon": 0.05,
    "state_size": 11,
    "target_weights": [
      [
        0.0999468814085308,
        0.12324506912934517,
        0.033082326248833005,
        0.045274363205391695,
        -6.073340656341643e-05,
        -1.3812791145544072e-05,
        2.356482058209682e-210,
        1.531322799935545e-248,
        1.0667261887108113e-191,
        3.348708533249758e-36,
        1.14e-322,
        0.11927823490297332
      ],
      [
        0.23395573111194767,
        0.21633293235312284,
        -0.01786367399392464,
        -0.005780722515109843,
        -0.00022774483295044456,
        8.675041969359171e-05,
        -3.2651151191345043e-20,
        -1.1618756654187993e-06,
        8.007412532560143e-08,
        6.262553141632793e-21,
        -2.319066771721535e-73,
        0.2228382704301566
      ],
      [
        0.1472686485826156,
        0.14634942996078548,
        0.0197135600752447,
        0.04689346891638688,
        -7.884777956162944e-05,
        -1.8780403720932546e-05,
        6.748003156576997e-241,
        1.6762740955951903e-268,
        -3.246836519324339e-252,
        7.840422088425098e-290,
        -1.14e-322,
        0.13166192809882768
      ],
      [
        0.21517337728993383,
        0.2842407797583196,
        0.006594388054817021,
        -0.081441626864855,
        -1.3172504791160747e-05,
        1.616981527764727e-05,
        2.4744777388797714e-156,
        7.038981916043856e-123,
        1.2716414814273382e-255,
        -1.6228790902244915e-05,
        8.43741932938881e-35,
        0.17480987368621226
      ]
    ],
    "weights": [
      [
        0.10039601464133256,
        0.12394545648160267,
        0.03339504553761635,
        0.045335828374719306,
        -0.00016533835120123499,
        -1.8815345916112335e-05,
        2.9542089802562806e-212,
        1.9197462384575625e-250,
        1.3373036621200634e-193,
        4.198115910419122e-38,
        1.14e-322,
        0.12004008742455843
      ],
      [
        0.23551253954161483,
        0.2173374968605173,
        -0.018201283005353546,
        -0.005566087604266116,
        -0.00044624712352768074,
        6.682092582509712e-05,
        -4.0933188406475936e-22,
        1.590073628434517e-07,
        8.689716173241793e-08,
        7.851063692969367e-23,
        -2.907303223025045e-75,
        0.22405746984839472
      ],
      [
        0.14769751712275264,
        0.1467306464409073,
        0.019583045651023923,
        0.04681060655218132,
        -1.3886312549069022e-05,
        -5.212097140000879e-06,
        8.459649185321162e-243,
        2.1014647530737316e-270,
        -4.0704038332883905e-254,
        9.829162612094086e-292,
        -1.14e-322,
        0.13196028221474396
      ],
      [
        0.2158655205219648,
        0.2853570635576147,
        0.006839660710916149,
        -0.08162049477601958,
        0.0002478192221026462,
        -2.152225708882002e-05,
        3.1021345281095355e-158,
        8.824435355148384e-125,
        1.5941961751888566e-257,
        -2.6567907719767795e-05,
        1.057758953276546e-36,
        0.17574728957434244
      ]
    ]
  },
  "cues": [
    [
      4,
      4
    ],
    [
      2,
      3
    ],
    [
      2,
      2
    ],
    [
      1,
      8
    ],
    [
      3,
      4
    ]
  ],
  "env": {
    "delay": 0,
    "grid_size": 10,
    "max_steps": 200,
    "noise": 0.1,
    "num_cues": 5,
    "reward_sparse_prob": 1.0
  },
  "seed": 13
}