{
  "agent": {
    "action_size": 4,
    "cue_exploration_bias": 0.16666666666666666,
    "cue_regularization": 0.020833333333333336,
    "epsilon": 0.05,
    "state_size": 11,
    "target_weights": [
      [
        0.08369603568492683,
        0.10902968019867429,
        0.011348868946409197,
        0.04260407377556518,
        -1.9925604944517768e-05,
        -1.998761800307544e-05,
        1.8325924014553985e-29,
        1.0741707892202898e-223,
        -1.2416740813439056e-234,
        3.4521881603636124e-13,
        9.197780128231264e-216,
        0.11730537907994977
      ],
      [
        0.26373112154645023,
        0.2156365847956088,
        -0.02565947250326361,
        -0.004440168666693354,
        -8.098049313682124e-05,
        3.7877828436627055e-05,
        -0.00016902035546260334,
        -2.74317802847172e-05,
        3.518383842737823e-07,
        7.034533809082091e-06,
        5.422580100675263e-186,
        0.22794780362284328
      ],
      [
        0.12795182335157307,
        0.11429786578107928,
        0.0362877187306873,
        0.007517677073939881,
        -6.451354264481829e-06,
        2.3784353057581214e-07,
        5.6309544401772156e-05,
        1.952438162906489e-28,
        4.7673097973888126e-54,
        5.215710348751459e-09,
        3.282079813883981e-277,
        0.12984632049876527
      ],
      [
        0.23192442922097212,
        0.3037344672520942,
        0.00436755875709914,
        -0.0490363772731149,
        -6.35798886828021e-05,
        -7.738259086486702e-05,
        -6.072587525673798e-05,
        8.467961421724548e-10,
        1.0641607735143009e-153,
        1.6029441777582468e-05,
        -1.8012904169070908e-14,
        0.1858211693452683
      ]
    ],
    "weights": [
      [
        0.08391164088143775,
        0.10941292832606252,
        0.011797322323959736,
        0.04288488422223843,
        -5.265837964523066e-05,
        -6.602887333148917e-05,
        6.3113922342368405e-31,
        3.699411375898363e-225,
        -4.276287595770552e-236,
        0.00011858140843864019,
        3.1676873715854252e-217,
        0.11796943765401124
      ],
      [
        0.2659182468560387,
        0.21773935942695563,
        -0.025420130395405832,
        -0.004116475880593931,
        -0.00017983867090111744,
        2.79550333122368e-05,
        -0.00012420378905870458,
        -9.44742130998458e-07,
        3.6028057350738857e-07,
        7.88146189401426e-06,
        1.8675200175308623e-187,
        0.23037427104028954
      ],
      [
        0.1285076946068398,
        0.11487091015147884,
        0.03642482177843101,
        0.007637607006550797,
        -6.356644204598741e-05,
        3.275017872172585e-05,
        1.9392835033503157e-06,
        1.925743995029151e-05,
        1.6418469273115808e-55,
        1.796274707075928e-10,
        1.1303382592354935e-278,
        0.13053929480177573
      ],
      [
        0.23284398735817288,
        0.3048666208007415,
        0.004097266995851016,
        -0.04951926444580942,
        -0.00019963346452672582,
        -6.610195386134582e-05,
        -0.00017469695254565285,
        2.9163400390858935e-11,
        3.664937187671236e-155,
        -1.1433401521520041e-05,
        -6.203589155910479e-16,
        0.18647043572122088
      ]
    ]
  },
  "cues": [
    [
      6,
      9
    ],
    [
      2,
      3
    ],
    [
      2,
      1
    ],
    [
      2,
      4
    ],
    [
      0,
      7
    ]
  ],
  "env": {
    "delay": 0,
    "grid_size": 10,
    "max_steps": 200,
    "noise": 0.1,
    "num_cues": 5,
    "reward_sparse_prob": 1.0
  },
  "seed": 24
}