{
  "agent": {
    "action_size": 4,
    "cue_exploration_bias": 0.2333333333333333,
    "cue_regularization": 0.01916666666666667,
    "epsilon": 0.05,
    "state_size": 11,
    "target_weights": [
      [
        0.004926722828114606,
        0.01041876510957379,
        -0.023639045449604032,
        -0.020205216659134252,
        5.966136118667305e-08,
        2.196767605133906e-08,
        8.143927569523494e-20,
        3.591445129190735e-16,
        3.477128127489167e-65,
        -2.407401569989699e-298,
        5.926241918781821e-11,
        -0.02690381566070387
      ],
      [
        0.09142082463290797,
        0.049946541487031676,
        -0.044882408714619786,
        -0.01938870282787518,
        3.2165955565677164e-05,
        -4.102013103279719e-05,
        8.871671209782313e-06,
        2.350962491849343e-06,
        1.0201369034847514e-05,
        -1.2236604230894109e-162,
        3.83252720318324e-05,
        0.0023525804210444085
      ],
      [
        -0.002066965731733165,
        0.014338430196857278,
        -0.046574633007757306,
        -0.026077338446106265,
        -4.4045661889538996e-05,
        -3.7795566941040503e-07,
        1.3e-322,
        -2.774233988219714e-249,
        2.9031080073322513e-277,
        -1.3e-322,
        7.443825962632691e-33,
        0.00235840170620725
      ],
      [
        0.052844061348275156,
        0.06905671143810467,
        -0.022078708233485893,
        -0.059126329161501845,
        9.048500663942818e-05,
        2.3075941290356314e-05,
        3.8490694350783144e-06,
        2.032143301303507e-12,
        2.8081512165285983e-21,
        2.3063967321644996e-148,
        7.758838870451677e-06,
        0.028749373311250256
      ]
    ],
    "weights": [
      [
        0.005575426808018744,
        0.01106718740423391,
        -0.02346830532140712,
        -0.020034194845693326,
        -2.9474753272472055e-07,
        1.6094156212173163e-06,
        1.6645746527353674e-22,
        7.340719177209711e-19,
        7.107061422048367e-68,
        -4.920598320835327e-301,
        1.211291726230225e-13,
        -0.026084371552602823
      ],
      [
        0.09552765833661359,
        0.053541033984678854,
        -0.04516945608854154,
        -0.019163408995738547,
        -1.3563009320173543e-05,
        5.030163586947419e-05,
        1.8133215082203644e-08,
        -9.513911346986598e-07,
        -1.0322647575688764e-05,
        -2.5010955788120394e-165,
        -3.706866670275938e-05,
        0.006172366750828243
      ],
      [
        -0.0013513869724347987,
        0.015055933910106211,
        -0.04651706054944941,
        -0.026021690941748936,
        -7.64454767873604e-05,
        -2.5655643214927417e-05,
        1.3e-322,
        -5.670383900304856e-252,
        5.933795410021183e-280,
        -1.3e-322,
        1.521477679042867e-35,
        0.0031315529238135137
      ],
      [
        0.05235170200121297,
        0.06919107283257853,
        -0.02200487346706936,
        -0.05967921513662134,
        0.0003249151195333268,
        0.00012262804450553872,
        -4.309885116536991e-06,
        7.859686015530465e-08,
        5.739708876554992e-24,
        4.714149907078977e-151,
        -4.1388545242751434e-07,
        0.028330848730604607
      ]
    ]
  },
  "cues": [
    [
      5,
      7
    ],
    [
      7,
      4
    ],
    [
      6,
      3
    ],
    [
      7,
      0
    ],
    [
      6,
      4
    ]
  ],
  "env": {
    "delay": 0,
    "grid_size": 10,
    "max_steps": 200,
    "noise": 0.0,
    "num_cues": 5,
    "reward_sparse_prob": 0.3
  },
  "seed": 16
}