{
  "agent": {
    "action_size": 4,
    "cue_exploration_bias": 0.3333333333333333,
    "cue_regularization": 0.01666666666666667,
    "epsilon": 0.05,
    "state_size": 11,
    "target_weights": [
      [
        -0.059904331932344075,
        -0.05285409185085603,
        -0.06521362490792973,
        -0.051651129819996255,
        1.0374107484915329e-07,
        -2.848165395696683e-06,
        1.1090534533566992e-88,
        -6.1765669027962015e-06,
        1.43e-322,
        -1.43e-322,
        -1.43e-322,
        -0.10660114220914364
      ],
      [
        -0.0513348437666028,
        -0.05314467137816397,
        -0.05736146868792272,
        -0.04412545112216143,
        3.109938950026244e-08,
        -1.1213534263019387e-05,
        2.6785056921782864e-25,
        2.7512847580829937e-11,
        1.43e-322,
        1.43e-322,
        1.43e-322,
        -0.12099509428277587
      ],
      [
        -0.06582448919839078,
        -0.04370181304358916,
        -0.07977613716883676,
        -0.03878661419088698,
        2.8376628147595372e-08,
        -8.236274866684132e-06,
        1.43e-322,
        -1.4976967561115622e-06,
        1.43e-322,
        -1.43e-322,
        1.43e-322,
        -0.11077484173191403
      ],
      [
        -0.07176027377567494,
        -0.06586320111569346,
        -0.027102516182433728,
        -0.057910171318443796,
        1.8664855804499137e-06,
        -8.666072665539979e-06,
        4.729324041172436e-06,
        2.2874262583951476e-16,
        -1.43e-322,
        1.43e-322,
        -1.43e-322,
        -0.10230935576870409
      ]
    ],
    "weights": [
      [
        -0.059994952771888176,
        -0.0528998987619171,
        -0.06523929489096951,
        -0.05172161373151902,
        -1.244982138649766e-09,
        -2.6193115687682577e-06,
        2.989650641962057e-91,
        -6.177580068319601e-06,
        1.43e-322,
        -1.43e-322,
        -1.43e-322,
        -0.10671743303172743
      ],
      [
        -0.05135251031900604,
        -0.05313137372753993,
        -0.05736679025944859,
        -0.04416173689671459,
        -1.4152726573520268e-08,
        -2.1758027466772042e-05,
        7.220388014557075e-28,
        7.416576918207156e-14,
        1.43e-322,
        1.43e-322,
        1.43e-322,
        -0.12101808240670506
      ],
      [
        -0.06589760394516767,
        -0.04373372365588821,
        -0.0797927388120519,
        -0.03884441996857993,
        -1.686781544004188e-07,
        -3.1518181421506706e-06,
        1.43e-322,
        -1.3040121466942224e-06,
        1.43e-322,
        -1.43e-322,
        1.43e-322,
        -0.11086455812190596
      ],
      [
        -0.07188293096211025,
        -0.06593770310142097,
        -0.02713299998136283,
        -0.05798881031808063,
        -4.788202002898115e-06,
        -5.975832193482954e-06,
        8.642102692736762e-07,
        6.166163913158518e-19,
        -1.43e-322,
        1.43e-322,
        -1.43e-322,
        -0.1024624967540685
      ]
    ]
  },
  "cues": [
    [
      2,
      1
    ],
    [
      7,
      5
    ],
    [
      3,
      3
    ],
    [
      7,
      7
    ],
    [
      2,
      7
    ]
  ],
  "env": {
    "delay": 10,
    "grid_size": 10,
    "max_steps": 200,
    "noise": 0.0,
    "num_cues": 5,
    "reward_sparse_prob": 1.0
  },
  "seed": 18
}