{
  "agent": {
    "action_size": 4,
    "cue_exploration_bias": 0.3,
    "cue_regularization": 0.017499999999999998,
    "epsilon": 0.05,
    "state_size": 11,
    "target_weights": [
      [
        -0.003880869166734511,
        0.022131459220170943,
        -0.023181517495228954,
        -0.03693201190687622,
        -6.649364306122751e-07,
        -2.8625906281517014e-05,
        -1.2276920382433668e-220,
        -2.9641296569563544e-67,
        -4.821966802969698e-165,
        2.9153586905168767e-07,
        3.204553858406048e-53,
        -0.02498469437300136
      ],
      [
        0.056388381929131356,
        0.005087509208461177,
        -0.049423861186318106,
        -0.027164259914898344,
        -1.2093657480190713e-05,
        4.6932894066962924e-05,
        1.1204728831827161e-154,
        3.624790751471187e-41,
        7.617099853751176e-164,
        -0.0001082655066337711,
        -4.464307958482053e-06,
        -0.01262326158665794
      ],
      [
        -0.0032773247760355326,
        0.007467582912815831,
        -0.037293990343695946,
        -0.024148814603530987,
        -3.719324179993586e-07,
        -1.2844534946030782e-06,
        3.0379338655776055e-180,
        -4.106475471435732e-153,
        9.921428908963302e-178,
        3.3480295268294877e-15,
        3.233482411635139e-09,
        -0.024020343886105737
      ],
      [
        0.03733501922769095,
        0.023417188449058563,
        -0.017506174534252045,
        -0.047839048758491355,
        -5.40709162597353e-06,
        -2.1494017543450594e-05,
        -5.324205579708819e-306,
        -2.192447077220843e-33,
        -3.6640979519256596e-129,
        -2.8858064558992884e-05,
        1.6556347133781982e-06,
        -0.013637075624577617
      ]
    ],
    "weights": [
      [
        -0.0038200168658901615,
        0.02218157318015447,
        -0.023211385498035773,
        -0.03695114156882222,
        -1.6606245026675363e-06,
        -6.315206970080027e-06,
        -5.4906003288328293e-222,
        -1.3256460710191171e-68,
        -2.1565255527671796e-166,
        7.357912943387419e-06,
        1.4331708539791725e-54,
        -0.02495371007496383
      ],
      [
        0.055649435123737746,
        0.0043987204933620475,
        -0.04942069077788259,
        -0.02721124759675729,
        3.8102192316902104e-05,
        5.416135530093392e-05,
        5.011084693237835e-156,
        1.621113167798573e-42,
        3.406591364850753e-165,
        -2.3950147117439537e-05,
        -1.5666493191214073e-05,
        -0.013359037983616028
      ],
      [
        -0.0030228361248986315,
        0.007746479352106714,
        -0.03724297547939818,
        -0.0241222075273872,
        -7.254666418672071e-06,
        -1.6850146507946033e-05,
        1.3586534865192546e-181,
        -1.836536759338294e-154,
        4.4371551767974293e-179,
        8.78291375843985e-05,
        1.4461085548784601e-10,
        -0.023714840370671068
      ],
      [
        0.03713849661928449,
        0.02318544297126065,
        -0.01751808762998198,
        -0.047815738984829846,
        9.487349537155214e-06,
        1.2074070722347e-05,
        -2.381141523777474e-307,
        -9.805268966606316e-35,
        -1.6386925053700396e-130,
        -8.948733570945155e-06,
        7.404485993660383e-08,
        -0.013845511328714019
      ]
    ]
  },
  "cues": [
    [
      2,
      9
    ],
    [
      1,
      4
    ],
    [
      1,
      7
    ],
    [
      7,
      7
    ],
    [
      6,
      3
    ]
  ],
  "env": {
    "delay": 0,
    "grid_size": 10,
    "max_steps": 200,
    "noise": 0.0,
    "num_cues": 5,
    "reward_sparse_prob": 0.1
  },
  "seed": 1
}