{
  "agent": {
    "action_size": 4,
    "cue_exploration_bias": 0.16666666666666666,
    "cue_regularization": 0.020833333333333336,
    "epsilon": 0.05,
    "state_size": 11,
    "target_weights": [
      [
        0.1416374318484107,
        0.0630988662221111,
        0.0350466132933577,
        0.02169119835213075,
        2.8207356473286595e-05,
        -9.048975756825924e-05,
        3.866820876303885e-13,
        1.1377347940536556e-148,
        6.029016484001366e-190,
        3.6516510905494896e-207,
        8.362309636842719e-144,
        0.12489468489623048
      ],
      [
        0.28039015632363623,
        0.18159611303474246,
        -0.07766129656171913,
        -0.006606284009256814,
        -7.117868059208809e-05,
        0.000520436235867269,
        3.3576339429762145e-07,
        -5.433015861382571e-10,
        4.5908311729282393e-57,
        1.2736256219214005e-200,
        1.0817125659291186e-06,
        0.2017705530353711
      ],
      [
        0.09717814150862276,
        0.06400838549276558,
        0.019396944624571196,
        0.019828110077376428,
        -4.360562135802454e-06,
        -0.00012659482289281712,
        2.149976476527978e-09,
        4.470949682198613e-157,
        2.5244948903512157e-201,
        1.0544452579267292e-166,
        4.9247826679697235e-56,
        0.14420255985268082
      ],
      [
        0.1854962144279676,
        0.2508824152772311,
        0.011914456303585574,
        -0.00022544335252194634,
        0.00010540123703954953,
        1.6110920493087198e-06,
        -7.381281801669052e-05,
        3.8907380195183956e-102,
        -1.1791203241142376e-168,
        -3.2001540848622882e-251,
        -4.6906924888045044e-07,
        0.21879896718542824
      ]
    ],
    "weights": [
      [
        0.14218794195452905,
        0.06336062912277013,
        0.03526398346765516,
        0.022197315731887535,
        9.587270518461808e-06,
        -0.0001337452716873272,
        1.2599544564422522e-15,
        3.70716428268465e-151,
        1.9644784255541386e-192,
        1.1898441153829299e-209,
        2.7247523560390467e-146,
        0.1256625651766463
      ],
      [
        0.28103362592423387,
        0.1819038843419701,
        -0.07796903314038058,
        -0.006578322294548238,
        -5.702922060743875e-05,
        0.0002695299329267433,
        6.95857375437201e-07,
        -1.7702791945753551e-12,
        1.4958640133943414e-59,
        4.1499472810149226e-203,
        3.524622969695762e-09,
        0.2021062860573074
      ],
      [
        0.10015180585792899,
        0.06626466443715366,
        0.019744277784375947,
        0.020892828642099282,
        -4.571221492052134e-05,
        -0.00016624284690992832,
        7.005425204584916e-12,
        1.456802152676832e-159,
        8.225745875262891e-204,
        3.4357759107504526e-169,
        1.6046778653603166e-58,
        0.14752355736179176
      ],
      [
        0.18740913489186534,
        0.25322877260011883,
        0.012566808681276827,
        -6.527833820681643e-06,
        5.572133088878213e-05,
        -0.0003915179355909283,
        -1.3644805278963642e-05,
        1.267747553702889e-104,
        -3.8420137745543033e-171,
        -1.0427295521322846e-253,
        -1.621886913285357e-05,
        0.22136424002701713
      ]
    ]
  },
  "cues": [
    [
      3,
      0
    ],
    [
      8,
      0
    ],
    [
      2,
      3
    ],
    [
      2,
      5
    ],
    [
      3,
      1
    ]
  ],
  "env": {
    "delay": 3,
    "grid_size": 10,
    "max_steps": 200,
    "noise": 0.0,
    "num_cues": 5,
    "reward_sparse_prob": 1.0
  },
  "seed": 15
}