{
  "agent": {
    "action_size": 4,
    "cue_exploration_bias": 0.3333333333333333,
    "cue_regularization": 0.01666666666666667,
    "epsilon": 0.05,
    "state_size": 11,
    "target_weights": [
      [
        0.046018324630780816,
        0.07023192088350147,
        -0.04101894952801303,
        -0.008643696437830351,
        -8.565902823414313e-05,
        0.00015346144919055135,
        2.9820196287948534e-08,
        4.362874517689541e-32,
        4.376474716500765e-162,
        1.7051661476690202e-06,
        1.0596497769878121e-229,
        0.02725984955138197
      ],
      [
        0.19745365914548463,
        0.1667707361562207,
        -0.04033782322465543,
        -0.03653013314966297,
        2.1215839182140376e-05,
        -2.755351727814698e-05,
        -6.318021917588176e-05,
        -5.3414338748701745e-05,
        -8.808247576558672e-08,
        -1.352747167772249e-05,
        4.675498365763405e-33,
        0.14699199050048561
      ],
      [
        0.11017129457289113,
        0.07389342362887533,
        -0.008530522397447204,
        -0.014676650680672847,
        5.5123335114181305e-05,
        2.7079450661384207e-05,
        0.0004182304039604944,
        2.6929765403341156e-13,
        8.608197153968779e-61,
        9.447628353783745e-08,
        5.880904714270516e-219,
        0.06724755059194866
      ],
      [
        0.18307745597749933,
        0.2309535084760177,
        -0.02029746319344524,
        -0.04976741369105564,
        -0.00028651619699614206,
        -5.169261975402648e-05,
        -4.828464548750263e-05,
        9.19769597162695e-09,
        6.413424443833499e-50,
        3.886006479271847e-06,
        -3.1848945731168607e-22,
        0.11230917415125065
      ]
    ],
    "weights": [
      [
        0.04677490061787664,
        0.07090443287203109,
        -0.04101894952801303,
        -0.008559632439264149,
        -0.00018420491953608114,
        7.593242979116676e-05,
        3.4690290677632264e-09,
        5.07539869111629e-33,
        5.0912200105160404e-163,
        1.9836458735921376e-07,
        1.232706801297995e-230,
        0.028016425538477795
      ],
      [
        0.19801334775987933,
        0.16717692991545982,
        -0.040443787648772024,
        -0.0364826027186239,
        -6.175397206919856e-06,
        -1.3300035638119061e-05,
        -6.19540306220583e-05,
        -6.213771766132981e-06,
        -1.0246769197654766e-08,
        -6.0492229676157775e-05,
        5.439078797636079e-34,
        0.1474457146907638
      ],
      [
        0.11057024396811403,
        0.0744063585655905,
        -0.008416536855954945,
        -0.014676650680672847,
        -4.59864878678907e-05,
        3.1501939348858844e-06,
        0.0005202450110754012,
        3.132780819755689e-14,
        1.0014047479701786e-61,
        1.0990570640188947e-08,
        6.841346449082578e-220,
        0.06776048552866383
      ],
      [
        0.18354032199418413,
        0.23150553843710187,
        -0.020450128113444183,
        -0.05000924255545379,
        -5.4598460640000876e-05,
        -6.329521580580738e-05,
        -9.841721555304192e-05,
        -3.1522375783051046e-05,
        7.460834799586147e-51,
        -6.428774329386013e-05,
        -3.7050365950705876e-23,
        0.11261937524793647
      ]
    ]
  },
  "cues": [
    [
      6,
      9
    ],
    [
      2,
      3
    ],
    [
      2,
      1
    ],
    [
      2,
      4
    ],
    [
      0,
      7
    ]
  ],
  "env": {
    "delay": 0,
    "grid_size": 10,
    "max_steps": 200,
    "noise": 0.2,
    "num_cues": 5,
    "reward_sparse_prob": 1.0
  },
  "seed": 24
}