{
  "agent": {
    "action_size": 4,
    "cue_exploration_bias": 0.10000000000000002,
    "cue_regularization": 0.022500000000000003,
    "epsilon": 0.05,
    "state_size": 11,
    "target_weights": [
      [
        0.07388001467305275,
        0.07226224286461273,
        0.005763716176281066,
        -0.015788263764472572,
        1.0447315312102548e-06,
        -6.816709430273174e-06,
        2.3543190261629753e-06,
        1.0888487929545001e-63,
        0.00014480990793232454,
        9.383786781020153e-273,
        1.1139960623731313e-10,
        0.03583803585794488
      ],
      [
        0.18737640514055226,
        0.1380025305109327,
        -0.050362053049927566,
        -0.006106266899056514,
        -0.00029356085478036823,
        -0.0004612913630823292,
        -3.4152497196722223e-05,
        2.1984789399200993e-05,
        9.047687480364432e-06,
        -7.30230829716248e-09,
        1.039202288986451e-05,
        0.11967203542511909
      ],
      [
        0.06253019770764344,
        0.0396925208277376,
        -0.015908513677543725,
        -0.017231942592562118,
        2.1242943019429898e-07,
        -6.173402546468865e-07,
        5.546404763390877e-06,
        7.879149709295647e-28,
        7.248332582008026e-15,
        7.030642911257373e-281,
        2.0192693990888156e-06,
        0.03564486639212416
      ],
      [
        0.1284135368114921,
        0.19496464155335183,
        -0.003041404622044393,
        -0.04193518381184222,
        -4.887496714412937e-06,
        -0.00031769471766380277,
        8.388544685719967e-06,
        -2.950280638695349e-05,
        2.1900548905104316e-05,
        4.968750442656172e-41,
        1.6527249185284084e-05,
        0.11983617982028089
      ]
    ],
    "weights": [
      [
        0.07532246351389492,
        0.0737008329923727,
        0.005980129268614579,
        -0.015567991959056856,
        -3.2293763309987826e-06,
        -4.899430208180192e-05,
        5.430442572243812e-10,
        2.511524892883011e-67,
        3.340167072429578e-08,
        2.1644524237465455e-276,
        2.5695292673577772e-14,
        0.03749689779112057
      ],
      [
        0.18495220009031046,
        0.13537237328884982,
        -0.05014562112456054,
        -0.005683882801848221,
        4.676527618892726e-05,
        0.00014962544873869122,
        -1.2985953844891374e-05,
        3.17561706878076e-05,
        6.736494772242348e-05,
        -1.6843412218941662e-12,
        2.5294738700162873e-05,
        0.11746426230024444
      ],
      [
        0.06315661924947541,
        0.040237130408694824,
        -0.015651884089055153,
        -0.0168935010431988,
        -1.9735993844615105e-08,
        -3.2009456495943495e-07,
        1.2793267274020098e-09,
        1.817394734484028e-31,
        1.6718912515127197e-18,
        1.6216792266152828e-284,
        5.240755402008844e-06,
        0.0365279175224447
      ],
      [
        0.1294433112728821,
        0.19618605111633644,
        -0.0021535471073382616,
        -0.04123896139873068,
        2.042464035941005e-05,
        -0.0005388859887490375,
        1.6056324332306271e-06,
        -3.037496051613669e-06,
        3.692130379812388e-05,
        1.1460857103393886e-44,
        1.6029825055614776e-05,
        0.1217538117963771
      ]
    ]
  },
  "cues": [
    [
      8,
      6
    ],
    [
      4,
      5
    ],
    [
      4,
      2
    ],
    [
      8,
      4
    ],
    [
      1,
      0
    ]
  ],
  "env": {
    "delay": 0,
    "grid_size": 10,
    "max_steps": 200,
    "noise": 0.0,
    "num_cues": 5,
    "reward_sparse_prob": 0.7
  },
  "seed": 17
}