{
  "agent": {
    "action_size": 4,
    "cue_exploration_bias": 0.10000000000000002,
    "cue_regularization": 0.022500000000000003,
    "epsilon": 0.05,
    "state_size": 11,
    "target_weights": [
      [
        0.03551404782506565,
        0.06515782950420226,
        -0.011961436225409936,
        -0.040398387348413604,
        -0.00015325642367603842,
        6.12396233988406e-05,
        2.0976883002401653e-28,
        8.715109915701309e-06,
        1.1e-322,
        3.872632831977964e-58,
        3.683539333677189e-201,
        0.0023004454379808668
      ],
      [
        0.14499510777154756,
        0.13306442853183864,
        -0.032921269607710114,
        -0.006910410670418272,
        -0.00037759986186623745,
        9.021493409071961e-05,
        -1.1815632137989712e-05,
        2.0448951047801264e-05,
        -6.407164177433958e-06,
        1.4124278766911554e-08,
        9.752798673862018e-27,
        0.09196084254333539
      ],
      [
        0.05005828641572914,
        0.08846859519153913,
        -0.015259787869888379,
        -0.020878168977215054,
        -5.1236112557634934e-05,
        -2.2432572412186408e-05,
        5.3575290646338574e-24,
        6.149790116106299e-07,
        1.1e-322,
        1.300080854942175e-55,
        3.771155570224676e-101,
        0.02136304689242512
      ],
      [
        0.12567426459006567,
        0.18922703628526807,
        -0.017952710406092417,
        -0.07698266153076022,
        0.00045461648600388424,
        -0.00012370540964652105,
        3.429655586757635e-05,
        -1.9323144158954723e-05,
        1.4636630830620724e-46,
        -2.1540118613046606e-06,
        -7.499571596293875e-06,
        0.08295221436960254
      ]
    ],
    "weights": [
      [
        0.036367374569255144,
        0.06594884482171408,
        -0.011815174273364733,
        -0.04018981396969073,
        -5.258983803261969e-05,
        7.606760464362487e-05,
        2.0760501513420353e-31,
        8.625211504198558e-09,
        1.1e-322,
        3.832685712171591e-61,
        3.645542757844118e-204,
        0.0033000341342155712
      ],
      [
        0.14759493938915702,
        0.1359425936374066,
        -0.03220235308632138,
        -0.006469827636988012,
        -0.0003159013572213529,
        6.573033318003956e-05,
        -2.3058226298930606e-05,
        7.0675242250931726e-06,
        -1.670282212938772e-05,
        3.607958662474537e-05,
        9.652196258405752e-30,
        0.09527959068233353
      ],
      [
        0.05072520463792434,
        0.08937349612557806,
        -0.014738706053735222,
        -0.020595069872905634,
        -1.6467238389996383e-06,
        7.795913189597314e-07,
        5.3022648904410854e-27,
        3.6560429287240767e-07,
        1.1e-322,
        1.2866702147075768e-58,
        3.732255212274842e-104,
        0.02255104693077348
      ],
      [
        0.12150370764529925,
        0.185426649818853,
        -0.01781793427305929,
        -0.07721805587607833,
        0.0001930123383563952,
        -3.778292661982155e-05,
        3.394277881572805e-08,
        1.4874595523385459e-05,
        1.4485650536149132e-49,
        -2.2494327526125067e-08,
        -7.4222117488588745e-09,
        0.07891643355786919
      ]
    ]
  },
  "cues": [
    [
      0,
      1
    ],
    [
      1,
      5
    ],
    [
      2,
      4
    ],
    [
      4,
      9
    ],
    [
      3,
      9
    ]
  ],
  "env": {
    "delay": 0,
    "grid_size": 10,
    "max_steps": 200,
    "noise": 0.0,
    "num_cues": 5,
    "reward_sparse_prob": 0.7
  },
  "seed": 2
}