{
  "agent": {
    "action_size": 4,
    "cue_exploration_bias": 0.16666666666666666,
    "cue_regularization": 0.020833333333333336,
    "epsilon": 0.05,
    "state_size": 11,
    "target_weights": [
      [
        0.08636266690374454,
        0.08507495663895373,
        0.019202239085859683,
        -0.0019481322882495722,
        -4.0157149239248e-05,
        -0.00030849841307866983,
        1.2704801369420853e-05,
        3.1971999529108026e-06,
        1.14e-322,
        6.657374698781972e-52,
        3.3468256742765334e-17,
        0.1142394846552043
      ],
      [
        0.20090309447268373,
        0.18054044713740397,
        -0.05032911956015154,
        0.00882916549484691,
        -8.211772083006139e-06,
        5.0246995872825515e-05,
        -2.2282017066763416e-05,
        4.806185108061696e-06,
        -1.2815363456011486e-215,
        1.8043814369959502e-05,
        8.831121046031515e-71,
        0.20862897868015717
      ],
      [
        0.08149010044139661,
        0.058741068948879246,
        0.03474274327483164,
        0.013842799211567926,
        -1.1214590242898155e-06,
        -1.5004187244941307e-06,
        1.0077756168354499e-11,
        3.9123786273886456e-14,
        1.7946108738464898e-235,
        5.436507612811201e-53,
        2.0500907220280026e-09,
        0.07509342998576289
      ],
      [
        0.20424888799548063,
        0.26303497905769235,
        0.01644960099759172,
        -0.06458308842765696,
        -0.00018939494298520057,
        -0.0019194854114738264,
        2.882564163355141e-06,
        -4.2620263915935664e-05,
        3.910908141571795e-257,
        1.183106650576591e-19,
        -3.5054333993184414e-05,
        0.1458215453797983
      ]
    ],
    "weights": [
      [
        0.08636266690374454,
        0.08507495663895373,
        0.019202239085859683,
        -0.0019481322882495722,
        -2.8672714051435922e-05,
        -0.0002202717810177928,
        9.071389370181229e-06,
        2.282841330914967e-06,
        1.14e-322,
        4.7534500005014406e-52,
        2.389675994349351e-17,
        0.1142394846552043
      ],
      [
        0.20095697139111757,
        0.18064942236578174,
        -0.05020067099169674,
        0.008902515753357786,
        -1.3187459548712077e-05,
        1.8201284355051252e-05,
        -1.8079537160312305e-05,
        6.285621769869266e-05,
        -9.150332102765569e-216,
        3.447538382091551e-05,
        6.305532471886719e-71,
        0.2088113041670458
      ],
      [
        0.08149010044139661,
        0.058741068948879246,
        0.03474274327483164,
        0.013842799211567926,
        -8.00735971876134e-07,
        -1.0713180058805905e-06,
        7.195645765932716e-12,
        2.793487978335503e-14,
        1.2813749330867973e-235,
        3.8817354113433874e-53,
        1.4637907860939462e-09,
        0.07509342998576289
      ],
      [
        0.20406898583930738,
        0.26287481881228386,
        0.016454970287587866,
        -0.06459746104842562,
        -9.831831521577602e-05,
        -0.0012704950199077135,
        2.058187385224518e-06,
        -3.739381753986413e-05,
        2.792438032805454e-257,
        8.447531592003508e-20,
        -2.502923922367874e-05,
        0.1456470125136212
      ]
    ]
  },
  "cues": [
    [
      3,
      4
    ],
    [
      1,
      6
    ],
    [
      7,
      2
    ],
    [
      1,
      1
    ],
    [
      0,
      6
    ]
  ],
  "env": {
    "delay": 3,
    "grid_size": 10,
    "max_steps": 200,
    "noise": 0.0,
    "num_cues": 5,
    "reward_sparse_prob": 1.0
  },
  "seed": 4
}