{
  "agent": {
    "action_size": 4,
    "cue_exploration_bias": 0.16666666666666666,
    "cue_regularization": 0.020833333333333336,
    "epsilon": 0.05,
    "state_size": 11,
    "target_weights": [
      [
        0.10928063210407289,
        0.09557841066594777,
        -0.015281923013720512,
        -0.006456413837426644,
        1.2630078814055521e-05,
        -8.197058243968427e-05,
        -1.14e-322,
        -1.14e-322,
        1.6738562280343134e-07,
        -1.14e-322,
        2.1497741312736946e-06,
        0.08330005390476261
      ],
      [
        0.2366895257409699,
        0.1659088684575451,
        -0.08487033752937474,
        -0.031174500435731386,
        -6.66631618268406e-05,
        -0.0003250636663697489,
        2.156760820880923e-217,
        5.31711381162352e-295,
        -6.3293066124814946e-06,
        1.6813513872682816e-232,
        6.468228907472147e-06,
        0.14814878888813032
      ],
      [
        0.03487042348974664,
        0.04542875803699128,
        -0.03181043764747266,
        -0.00929846545331509,
        1.699951777458674e-06,
        3.255116420427562e-07,
        1.14e-322,
        -1.14e-322,
        7.291327203816896e-296,
        -1.14e-322,
        1.551058538939551e-06,
        0.06841322032369838
      ],
      [
        0.1858756735358582,
        0.17696531219359543,
        -0.010980584086875505,
        -0.05391240138326946,
        2.008961772631214e-06,
        0.00023208166917675234,
        -3.96623856200599e-275,
        -1.14e-322,
        -8.742342762228691e-48,
        -1.14e-322,
        1.5687467805756844e-05,
        0.17741440852580023
      ]
    ],
    "weights": [
      [
        0.11051079872361698,
        0.09691328188554162,
        -0.015128152186277501,
        -0.006407347610033387,
        1.2109491631556544e-06,
        -7.98916384934141e-06,
        -1.14e-322,
        -1.14e-322,
        7.638586763221316e-10,
        -1.14e-322,
        9.810422154564046e-09,
        0.08468399135174971
      ],
      [
        0.23813305207060995,
        0.16718244460137024,
        -0.08524232574719758,
        -0.03137653846773903,
        -8.774187351996272e-05,
        -0.0003194654682032182,
        9.842305678285317e-220,
        2.426447056788444e-297,
        -5.819190233646642e-06,
        7.672790671032481e-235,
        -1.3130981186863828e-05,
        0.1492203269999479
      ],
      [
        0.037503644924203,
        0.047509336472626076,
        -0.03142473404515551,
        -0.00836011885217637,
        5.7063562021965756e-05,
        -0.0002459221233280987,
        1.14e-322,
        -1.14e-322,
        3.3273727177152435e-298,
        -1.14e-322,
        7.078203627105164e-09,
        0.0714321453604719
      ],
      [
        0.18684526347140462,
        0.1780967962674948,
        -0.010416158407135532,
        -0.053509869841882385,
        3.4152749091140464e-05,
        5.124434981881528e-05,
        -1.809979666837658e-277,
        -1.14e-322,
        -3.989538801759911e-50,
        -1.14e-322,
        4.660431186898014e-06,
        0.17894842414108666
      ]
    ]
  },
  "cues": [
    [
      2,
      4
    ],
    [
      1,
      5
    ],
    [
      9,
      2
    ],
    [
      0,
      6
    ],
    [
      6,
      1
    ]
  ],
  "env": {
    "delay": 0,
    "grid_size": 10,
    "max_steps": 200,
    "noise": 0.1,
    "num_cues": 5,
    "reward_sparse_prob": 1.0
  },
  "seed": 20
}