{
  "agent": {
    "action_size": 4,
    "cue_exploration_bias": 0.08333333333333333,
    "cue_regularization": 0.02291666666666667,
    "epsilon": 0.05,
    "state_size": 11,
    "target_weights": [
      [
        0.1300138697741513,
        0.11359011517751699,
        0.021871694736928165,
        0.01585736769466311,
        -7.714262459143158e-06,
        -2.1987968760394514e-05,
        3.5019042396801214e-30,
        1.7261216667963366e-156,
        9.577233498961804e-215,
        7.082682414258943e-31,
        4.982298590152744e-170,
        0.16056014317667971
      ],
      [
        0.25969667639434296,
        0.22408130250457414,
        -0.058826197038357515,
        0.01558481457112946,
        -3.277722854154508e-05,
        -6.219577654428849e-05,
        -8.088639106132376e-05,
        3.584360223963627e-126,
        -3.8041636646474368e-118,
        4.74181423124936e-05,
        1.0368127682307063e-176,
        0.2589254831236096
      ],
      [
        0.14785212511418563,
        0.0929157503959003,
        0.025149943361859873,
        0.036437342524364404,
        -1.4690969592037284e-05,
        -1.7359671231561992e-05,
        1.4425700021838777e-21,
        3.1259780489907457e-178,
        1.4778561269880132e-184,
        1.2115801512966925e-16,
        3.0022363751681676e-173,
        0.13186265474558043
      ],
      [
        0.24292614225480763,
        0.2937789958048912,
        0.04097365590052613,
        -0.03212579601259419,
        3.7364213572766836e-05,
        -0.00013746103571237597,
        1.084547360310145e-06,
        -3.16370685607433e-126,
        2.1909157318289982e-104,
        3.13486710353705e-05,
        -8.747062856654672e-180,
        0.20902285454205996
      ]
    ],
    "weights": [
      [
        0.1300138697741513,
        0.11359011517751699,
        0.021873842441342963,
        0.015859515399077907,
        -3.5518893023437567e-06,
        -1.0349372257274431e-05,
        1.6676911992324115e-30,
        8.220207394316348e-157,
        4.560909415578813e-215,
        3.3729440672246196e-31,
        2.3726906682933045e-170,
        0.1605622908810945
      ],
      [
        0.26083133543121356,
        0.22505682998348545,
        -0.05886570572457053,
        0.015704437442875724,
        -0.00023719702729987124,
        -0.0006360766301544325,
        -3.852004888716276e-05,
        1.7069587262411473e-126,
        -1.811634422234159e-118,
        2.940407475410616e-05,
        4.937552287232401e-177,
        0.2600206334742671
      ],
      [
        0.14785212511418563,
        0.0929157503959003,
        0.02524400286824618,
        0.03653140203075071,
        5.582528954701953e-07,
        -7.126471443375709e-07,
        6.869866027914248e-22,
        1.4886660869321097e-178,
        7.037907058631429e-185,
        5.769836686530103e-17,
        1.4297373195278215e-173,
        0.13195671425196673
      ],
      [
        0.24278539429772253,
        0.29365947525141023,
        0.041049031058315734,
        -0.032071648258408844,
        4.342698460776398e-05,
        -3.846202662454664e-06,
        2.454838037499059e-05,
        -1.5066334541770172e-126,
        1.0433668753217559e-104,
        1.4928992689444538e-05,
        -4.165562147555521e-180,
        0.20895748174276446
      ]
    ]
  },
  "cues": [
    [
      3,
      4
    ],
    [
      1,
      6
    ],
    [
      7,
      2
    ],
    [
      1,
      1
    ],
    [
      0,
      6
    ]
  ],
  "env": {
    "delay": 0,
    "grid_size": 10,
    "max_steps": 200,
    "noise": 0.05,
    "num_cues": 5,
    "reward_sparse_prob": 1.0
  },
  "seed": 4
}