{
  "agent": {
    "action_size": 4,
    "cue_exploration_bias": 0.3,
    "cue_regularization": 0.017499999999999998,
    "epsilon": 0.05,
    "state_size": 11,
    "target_weights": [
      [
        -0.021676437976378665,
        -0.03159112628476177,
        -0.04807271398687374,
        -0.05861252333233644,
        -1.715947001126528e-05,
        -1.687416364389727e-05,
        8.402980119628301e-87,
        2.723216218786608e-06,
        7.20317259399665e-23,
        2.0406784404130733e-35,
        2.8701568242740134e-11,
        -0.06852875579973589
      ],
      [
        -0.009309519642552892,
        0.01287971077759798,
        -0.0649854556246465,
        -0.02486722666349177,
        -0.0004526960597966876,
        0.00022919024435030856,
        -1.207880067105295e-09,
        -4.9966562075008253e-14,
        1.0923509642472664e-05,
        1.909016676831055e-06,
        -0.00011925451564141424,
        -0.06163292427441873
      ],
      [
        -0.028624013893324047,
        -0.009988853677024246,
        -0.053595822598687684,
        -0.04605292162387566,
        -3.697805540841711e-06,
        -7.940634384010541e-07,
        2.1875575890724868e-05,
        2.7630586038261366e-07,
        3.310067294069967e-09,
        4.665992985865664e-19,
        5.314840964432502e-06,
        -0.07659102554987177
      ],
      [
        -0.016968667487508235,
        -0.0040460320749059085,
        -0.0551037397007867,
        -0.06808623207389597,
        -2.4846738250800544e-05,
        1.535994594106165e-05,
        7.701085248970975e-06,
        -1.1387880491284529e-05,
        -4.776333403910163e-05,
        -7.263508766871485e-06,
        0.0007083686023666711,
        -0.036107789101908545
      ]
    ],
    "weights": [
      [
        -0.021676437976378665,
        -0.03159112628476177,
        -0.04807271398687374,
        -0.05861252333233644,
        -4.3619044907772166e-07,
        -4.2893801573186185e-07,
        2.1360214910865854e-88,
        6.9223635964773e-08,
        1.831032710507394e-24,
        5.187365604897071e-37,
        7.295883808076055e-13,
        -0.06852875579973589
      ],
      [
        -0.009207623933719152,
        0.01294892325276459,
        -0.06493542168661894,
        -0.024784509491797068,
        -1.110769815304765e-05,
        1.0447796570992964e-05,
        -4.9232923709345475e-06,
        -1.2701404609850538e-15,
        2.666522550522828e-06,
        2.7736717362145596e-06,
        -7.979059288859707e-05,
        -0.06148099462755743
      ],
      [
        -0.028216804485472192,
        -0.00954098626134369,
        -0.05350395655128172,
        -0.046001713584298394,
        -3.420517020284411e-05,
        1.3963802911208806e-05,
        5.560729594413307e-07,
        7.02364217799123e-09,
        8.414127817059515e-11,
        1.7416201500753298e-06,
        6.0854224235610335e-05,
        -0.07609195009461393
      ],
      [
        -0.01666552793373709,
        -0.003680444008053256,
        -0.055044197729528475,
        -0.06808913861571918,
        7.3307111541813425e-06,
        -1.1599106365710997e-05,
        5.552535324121915e-06,
        1.7143157547689418e-05,
        -8.3712408407512e-06,
        -2.8871036287686094e-06,
        0.00013225706235070044,
        -0.03574510757687918
      ]
    ]
  },
  "cues": [
    [
      7,
      4
    ],
    [
      8,
      5
    ],
    [
      2,
      6
    ],
    [
      0,
      5
    ],
    [
      7,
      9
    ]
  ],
  "env": {
    "delay": 0,
    "grid_size": 10,
    "max_steps": 200,
    "noise": 0.0,
    "num_cues": 5,
    "reward_sparse_prob": 0.1
  },
  "seed": 12
}