{
  "agent": {
    "action_size": 4,
    "cue_exploration_bias": 0.3333333333333333,
    "cue_regularization": 0.01666666666666667,
    "epsilon": 0.05,
    "state_size": 11,
    "target_weights": [
      [
        0.042267388918355825,
        0.04733268140376344,
        -0.01460571484493513,
        -0.024547719592173674,
        -4.769617924115862e-07,
        -2.834232826739541e-05,
        1.43e-322,
        6.4065110066075415e-27,
        1.6803133584932426e-193,
        4.503415141538085e-09,
        1.43e-322,
        0.016963018887830552
      ],
      [
        0.07131829326837476,
        0.0887138946523582,
        0.027158140283521308,
        -0.007322281290245919,
        1.2237320135433315e-05,
        8.889904305529904e-06,
        -4.4962399823452217e-13,
        1.603600451596181e-06,
        -6.277110481616818e-178,
        -1.8201866846097538e-06,
        -2.4407902600085618e-225,
        0.09480603422842827
      ],
      [
        -0.002501264048928907,
        0.015556389323416627,
        -0.040046079406793084,
        -0.025033426037736627,
        5.051179318224017e-13,
        -1.330654914828542e-05,
        -1.43e-322,
        4.219792250521809e-69,
        3.8328784770224354e-216,
        3.082251857519987e-05,
        1.43e-322,
        0.02280589102570273
      ],
      [
        0.05703977581819143,
        0.16121845795771678,
        0.001134640932656643,
        -0.15488621984552828,
        0.000304355535152008,
        -0.0005368216056459477,
        6.421990029147376e-07,
        3.0839150233848643e-20,
        1.3208278732592764e-164,
        8.305526105060647e-06,
        1.43e-322,
        0.06069373582766625
      ]
    ],
    "weights": [
      [
        0.04262507150083636,
        0.04786983659998212,
        -0.01435909783166966,
        -0.02448057519264634,
        -1.2432099903757943e-07,
        -0.0002513447739434903,
        1.43e-322,
        1.6698692879772694e-27,
        4.3797687518711146e-194,
        1.1738237284085161e-09,
        1.43e-322,
        0.01756731848357656
      ],
      [
        0.07132051723980408,
        0.0887778890069725,
        0.027324898255916837,
        -0.0072172937010353795,
        1.706366742284037e-05,
        1.1371509842070841e-05,
        3.6431333207025813e-06,
        3.934483934970798e-06,
        -1.6361407948384498e-178,
        1.4052570771499754e-05,
        -6.361966270531119e-226,
        0.09497501617225314
      ],
      [
        -0.0020304369660308005,
        0.01597490228599272,
        -0.040046079406793084,
        -0.024981111917414617,
        1.3165995036719305e-13,
        -0.00017776815030196643,
        -1.43e-322,
        1.0998968820194395e-69,
        9.990470705080522e-217,
        8.033948133976601e-06,
        1.43e-322,
        0.023276718108600835
      ],
      [
        0.05678062036205642,
        0.16099155920515282,
        0.0010239618594631045,
        -0.1550291556222929,
        0.00019943188068382464,
        -9.662430784020515e-05,
        1.6739039246649322e-07,
        8.038283207459977e-21,
        3.4427629921890097e-165,
        2.164851187960172e-06,
        1.43e-322,
        0.06032390129833771
      ]
    ]
  },
  "cues": [
    [
      2,
      4
    ],
    [
      1,
      5
    ],
    [
      9,
      2
    ],
    [
      0,
      6
    ],
    [
      6,
      1
    ]
  ],
  "env": {
    "delay": 10,
    "grid_size": 10,
    "max_steps": 200,
    "noise": 0.0,
    "num_cues": 5,
    "reward_sparse_prob": 1.0
  },
  "seed": 20
}