{
  "agent": {
    "action_size": 4,
    "cue_exploration_bias": 0.3333333333333333,
    "cue_regularization": 0.01666666666666667,
    "epsilon": 0.05,
    "state_size": 11,
    "target_weights": [
      [
        0.08031664304689068,
        0.1158492855695529,
        0.05284850112919368,
        0.02324452308115265,
        -8.897598071983041e-09,
        0.00013231764191258197,
        5.639136740536231e-99,
        2.6480744212817877e-20,
        1.1825261808055101e-23,
        1.0252596020068632e-16,
        2.8510248694879128e-101,
        0.10738427579656609
      ],
      [
        0.2060573759074208,
        0.18085559973751497,
        -0.008667760171648062,
        0.04509586099624929,
        -8.068665985315639e-05,
        1.2455251011027915e-05,
        4.5230094783945456e-39,
        2.6977665842207386e-06,
        -6.984551590251559e-06,
        -3.847390059975805e-05,
        -4.0510676376788786e-92,
        0.22713333076303324
      ],
      [
        0.10079182385472912,
        0.14276274514241735,
        0.049980562050713065,
        0.024151840442453425,
        -3.122843937069363e-05,
        4.204633806438213e-05,
        5.0430808876721565e-21,
        3.2704261134711975e-47,
        1.4576945778663884e-05,
        6.6666008679271e-05,
        1.1799841504623086e-127,
        0.16218620859123772
      ],
      [
        0.18256297569575095,
        0.2503042108589468,
        0.014074085234434463,
        -0.06456552616587911,
        -8.49630174904854e-05,
        -9.740744251453482e-05,
        -1.4388188254110907e-05,
        -8.40033282246603e-06,
        -3.205140686617257e-05,
        -0.00041639220054621995,
        -3.374506221408193e-24,
        0.18814922548956003
      ]
    ],
    "weights": [
      [
        0.08034560160335202,
        0.11608691979834511,
        0.053237329081917084,
        0.02342467536154518,
        -9.201949508402814e-11,
        2.334698426469383e-05,
        5.83202917659197e-101,
        6.7933597178900795e-06,
        1.2229756974975943e-25,
        1.0603296546266249e-18,
        2.948547089223752e-103,
        0.10780206230575085
      ],
      [
        0.2061702597766899,
        0.1811162667858807,
        -0.008161610406804663,
        0.045454227581996035,
        2.8089511033655468e-05,
        4.6145438232493804e-05,
        9.60969822168587e-06,
        2.7900464476614382e-08,
        4.452735125928241e-06,
        -1.2375305601293656e-05,
        -4.189638546882288e-94,
        0.22775236439714583
      ],
      [
        0.1011889189408151,
        0.14329537865925165,
        0.05048925517366981,
        0.024524995134661852,
        -5.9129552048695496e-05,
        4.5674513542570404e-05,
        2.2807504715427106e-05,
        3.3822943814337503e-49,
        1.507556510833661e-07,
        6.89463876464665e-07,
        1.220346714408257e-129,
        0.16309199680028044
      ],
      [
        0.18452946585232322,
        0.25257642617365206,
        0.014021568107398324,
        -0.06492376845104822,
        -0.00035722373309422583,
        -0.0001799661764834828,
        -3.106396085340555e-07,
        -8.728928728491275e-05,
        -1.673020229647563e-05,
        -0.0003433233993325248,
        -9.398307412927822e-06,
        0.19006319851909645
      ]
    ]
  },
  "cues": [
    [
      0,
      8
    ],
    [
      1,
      8
    ],
    [
      3,
      6
    ],
    [
      5,
      8
    ],
    [
      4,
      9
    ]
  ],
  "env": {
    "delay": 10,
    "grid_size": 10,
    "max_steps": 200,
    "noise": 0.0,
    "num_cues": 5,
    "reward_sparse_prob": 1.0
  },
  "seed": 19
}