{
  "agent": {
    "action_size": 4,
    "cue_exploration_bias": 0.3333333333333333,
    "cue_regularization": 0.01666666666666667,
    "epsilon": 0.05,
    "state_size": 11,
    "target_weights": [
      [
        0.05963731026243863,
        0.047553171320103726,
        -0.04173800486012182,
        -0.020727994845858102,
        -1.041097601703297e-06,
        -2.602744002662857e-07,
        8.696180230078439e-35,
        1.43e-322,
        -1.43e-322,
        1.43e-322,
        9.548182819715719e-247,
        0.00970781236310241
      ],
      [
        0.11032315959264138,
        0.09388584993579999,
        -0.02848168996651348,
        -0.028024957568804194,
        -0.0006934349777715453,
        -0.000162879077420601,
        7.411184084284535e-06,
        -6.142062615237365e-36,
        -1.43e-322,
        -1.43e-322,
        -3.9378044281152924e-08,
        0.03765563412888453
      ],
      [
        0.0639098890957758,
        0.06046868472807077,
        -0.06261813226166808,
        -0.022274237403721867,
        -3.325939859079722e-05,
        -1.1760385298517356e-06,
        4.388932234177703e-08,
        1.43e-322,
        1.43e-322,
        -1.43e-322,
        -1.43e-322,
        0.05229175727980551
      ],
      [
        0.06739440560741948,
        0.1718814257195149,
        -0.02809828661555184,
        -0.15342027756583185,
        0.0002958411837630215,
        -7.3309531492517085e-06,
        -0.00010821870949331745,
        2.439572823955119e-161,
        1.43e-322,
        1.43e-322,
        7.563711392426993e-170,
        0.03728013918832835
      ]
    ],
    "weights": [
      [
        0.05963731026243863,
        0.047553171320103726,
        -0.04173800486012182,
        -0.020727994845858102,
        -1.041097601703297e-06,
        -2.602744002662857e-07,
        8.696180230078439e-35,
        1.43e-322,
        -1.43e-322,
        1.43e-322,
        9.548182819715719e-247,
        0.00970781236310241
      ],
      [
        0.11032315959264138,
        0.09388584993579999,
        -0.02848168996651348,
        -0.028024957568804194,
        -0.0006934349777715453,
        -0.000162879077420601,
        7.411184084284535e-06,
        -6.142062615237365e-36,
        -1.43e-322,
        -1.43e-322,
        -3.9378044281152924e-08,
        0.03765563412888453
      ],
      [
        0.0639098890957758,
        0.06046868472807077,
        -0.06261813226166808,
        -0.022274237403721867,
        -3.325939859079722e-05,
        -1.1760385298517356e-06,
        4.388932234177703e-08,
        1.43e-322,
        1.43e-322,
        -1.43e-322,
        -1.43e-322,
        0.05229175727980551
      ],
      [
        0.06739440560741948,
        0.1718814257195149,
        -0.02809828661555184,
        -0.15342027756583185,
        0.0002958411837630215,
        -7.3309531492517085e-06,
        -0.00010821870949331745,
        2.439572823955119e-161,
        1.43e-322,
        1.43e-322,
        7.563711392426993e-170,
        0.03728013918832835
      ]
    ]
  },
  "cues": [
    [
      5,
      7
    ],
    [
      7,
      4
    ],
    [
      6,
      3
    ],
    [
      7,
      0
    ],
    [
      6,
      4
    ]
  ],
  "env": {
    "delay": 0,
    "grid_size": 10,
    "max_steps": 200,
    "noise": 0.2,
    "num_cues": 5,
    "reward_sparse_prob": 1.0
  },
  "seed": 16
}