{
  "agent": {
    "action_size": 4,
    "cue_exploration_bias": 0.3333333333333333,
    "cue_regularization": 0.01666666666666667,
    "epsilon": 0.05,
    "state_size": 11,
    "target_weights": [
      [
        -0.056584560946161676,
        -0.06572479062305957,
        -0.04848992680959498,
        -0.06178777877159377,
        -1.921455772508724e-06,
        -1.2655762238710028e-06,
        -1.544117717245394e-286,
        -1.43e-322,
        1.43e-322,
        -2.903893067044304e-06,
        -8.984527213042424e-247,
        -0.09639990909015383
      ],
      [
        -0.07845818806558079,
        -0.0657729658015657,
        -0.07078567757973964,
        -0.04467526212403482,
        -5.413734779572696e-07,
        -6.79223799414532e-07,
        1.43e-322,
        1.43e-322,
        -1.43e-322,
        1.7805630981758958e-09,
        7.588615979724336e-247,
        -0.09118886187769795
      ],
      [
        -0.03827197665188444,
        -0.06145294205615665,
        -0.03531362268877797,
        -0.05578163284028678,
        2.9824521192719805e-05,
        -1.1825548041677954e-06,
        -8.6342335e-316,
        -1.290741701926782e-247,
        1.43e-322,
        0.0002331875724235649,
        -7.70438794379032e-209,
        -0.11472501307112767
      ],
      [
        -0.03735169477446795,
        -0.045239119950609884,
        -0.02686809207074725,
        -0.04122726525764258,
        -2.3516063524662245e-06,
        5.69648439483754e-07,
        3.5588225e-315,
        -1.43e-322,
        1.43e-322,
        1.9878387602057484e-05,
        -1.0117062206048201e-284,
        -0.13909673045848978
      ]
    ],
    "weights": [
      [
        -0.056437351892292466,
        -0.06565255928695883,
        -0.04829835775098261,
        -0.06152123199521294,
        -6.43391310705456e-06,
        -5.253402582034273e-06,
        -4.1624436682069875e-289,
        -1.43e-322,
        1.43e-322,
        -1.0674162335637273e-05,
        -2.4219389488307025e-249,
        -0.09606113097767227
      ],
      [
        -0.07845838214835829,
        -0.0657729658015657,
        -0.07083397557853997,
        -0.044723754205612656,
        -1.0326285914681699e-06,
        -1.0475851175890875e-06,
        1.43e-322,
        1.43e-322,
        -1.43e-322,
        -1.3125953494941673e-07,
        2.0456462731097573e-249,
        -0.0912373539592758
      ],
      [
        -0.03831205693600489,
        -0.06147178347457307,
        -0.03550783612691557,
        -0.05599708514412841,
        2.5969184252200815e-06,
        -2.020305401207665e-06,
        -2.32749e-318,
        -3.4794235986491186e-250,
        1.43e-322,
        -1.307177940023497e-05,
        -2.076854663079016e-211,
        -0.11495930679338569
      ],
      [
        -0.03733611927042574,
        -0.04524124545697648,
        -0.026792638878589303,
        -0.04113411105507584,
        1.7323709333024629e-09,
        3.743004607637564e-06,
        9.593426e-318,
        -1.43e-322,
        1.43e-322,
        -1.05030540703456e-05,
        -2.727233879263166e-287,
        -0.1390057017622896
      ]
    ]
  },
  "cues": [
    [
      3,
      4
    ],
    [
      1,
      6
    ],
    [
      7,
      2
    ],
    [
      1,
      1
    ],
    [
      0,
      6
    ]
  ],
  "env": {
    "delay": 6,
    "grid_size": 10,
    "max_steps": 200,
    "noise": 0.0,
    "num_cues": 5,
    "reward_sparse_prob": 1.0
  },
  "seed": 4
}