{
  "agent": {
    "action_size": 4,
    "cue_exploration_bias": 0.16666666666666666,
    "cue_regularization": 0.020833333333333336,
    "epsilon": 0.05,
    "state_size": 11,
    "target_weights": [
      [
        0.12011908722613261,
        0.0773635282469201,
        0.01938469622933305,
        0.016627802190449858,
        -4.1463664320753055e-06,
        -8.244241626808666e-06,
        4.635333992441228e-28,
        2.2148798491127842e-66,
        1.8571001202300247e-13,
        1.4770697976717482e-231,
        -1.14e-322,
        0.1068995687888302
      ],
      [
        0.30769454416346464,
        0.20356138369759413,
        -0.07312144131861814,
        -0.020444404571347972,
        0.00018216523639768466,
        1.7099789924903554e-05,
        -2.019700700502373e-05,
        -8.15179380549858e-06,
        -2.9089841083314933e-05,
        9.162921509961952e-184,
        1.3594408382410952e-09,
        0.17996610584820805
      ],
      [
        0.11396012713826721,
        0.10704132436356278,
        0.03228390674049291,
        -0.0008475513903780116,
        -0.00011257074218990208,
        1.4736046529075226e-06,
        3.020914077648496e-29,
        3.2766972493282217e-46,
        1.3617753733576286e-59,
        1.2763780656488254e-162,
        1.14e-322,
        0.12893707737061996
      ],
      [
        0.20466381635976735,
        0.2598630879986444,
        -0.015202580534548133,
        -0.010537895510970455,
        3.9198084075453705e-05,
        4.878779950165874e-05,
        9.593970208178715e-120,
        -7.464708784485961e-07,
        2.6415464477510907e-05,
        -2.089985909430395e-170,
        -5.857921109092944e-09,
        0.2157538846680739
      ]
    ],
    "weights": [
      [
        0.12156908126477667,
        0.0784913013880877,
        0.01938469622933305,
        0.016950023087926314,
        -9.64660289905819e-09,
        -0.00010961797892824096,
        1.0784195526878684e-30,
        5.152961447940081e-69,
        4.3205798853348646e-16,
        3.4364318797554765e-234,
        -1.14e-322,
        0.10834956282747425
      ],
      [
        0.3072582354831347,
        0.20274231747022334,
        -0.072953580012137,
        -0.019893785717826316,
        0.00013865712075131903,
        -0.0003246153557778277,
        1.1838788517189306e-07,
        1.0028505452938764e-05,
        -1.492126232810736e-05,
        2.131771676474836e-186,
        3.1627657965364424e-12,
        0.1796976584743588
      ],
      [
        0.11466144392566421,
        0.10767650895689099,
        0.03276241856729213,
        -0.00030290736950999085,
        3.907671015782928e-05,
        4.6835673966574545e-06,
        5.682461208762124e-05,
        7.623300473442455e-49,
        3.1681971383129227e-62,
        2.969518625545011e-165,
        1.14e-322,
        0.13011690598481618
      ],
      [
        0.20624819624105512,
        0.261522339828408,
        -0.014928132508792397,
        -0.010338319433690171,
        -2.967046115291766e-05,
        4.237772807640806e-05,
        2.23205600228084e-122,
        -1.7366791522332007e-09,
        6.145609665308447e-08,
        -4.862393245550915e-173,
        -7.807450839808341e-07,
        0.21761271257511744
      ]
    ]
  },
  "cues": [
    [
      8,
      1
    ],
    [
      5,
      9
    ],
    [
      9,
      4
    ],
    [
      1,
      8
    ],
    [
      5,
      6
    ]
  ],
  "env": {
    "delay": 0,
    "grid_size": 10,
    "max_steps": 200,
    "noise": 0.1,
    "num_cues": 5,
    "reward_sparse_prob": 1.0
  },
  "seed": 29
}