{
  "agent": {
    "action_size": 4,
    "cue_exploration_bias": 0.3333333333333333,
    "cue_regularization": 0.01666666666666667,
    "epsilon": 0.05,
    "state_size": 11,
    "target_weights": [
      [
        0.05327358453792251,
        0.034818650011076695,
        -0.025836788661976036,
        -0.012156339965786191,
        2.6220156294453753e-10,
        -7.10432755430146e-07,
        1.2840916862167118e-09,
        1.43e-322,
        1.3113569064899227e-140,
        4.9819650954563125e-273,
        1.3774641128116302e-138,
        0.019523094226104463
      ],
      [
        0.21184664960569247,
        0.07225290814096616,
        -0.20534131304499312,
        -0.0512057206321877,
        -0.00018930467960589492,
        0.0001260131991079935,
        6.970045389524126e-29,
        1.43e-322,
        -8.323323047383453e-06,
        4.045930026011587e-10,
        4.508810211962647e-115,
        0.03749379364165639
      ],
      [
        0.07810777044306134,
        0.040324902652891924,
        -0.03346634748553929,
        -0.03805271414430284,
        -3.5431181189465734e-05,
        3.375742379946062e-06,
        9.266105347754225e-222,
        1.43e-322,
        1.7683358329443708e-17,
        1.0251908723668666e-14,
        2.243491546954044e-83,
        0.0540227507060366
      ],
      [
        0.1026879902805255,
        0.06049544044979393,
        -0.04311043623117772,
        -0.028806921420214918,
        -2.190158029135258e-05,
        1.2606063083637287e-06,
        -2.0642405812574743e-05,
        -8.894754508157817e-49,
        2.2056008836769814e-05,
        -7.2119313153288586e-06,
        -2.1189555613976333e-06,
        0.08709545542712492
      ]
    ],
    "weights": [
      [
        0.054229169507455724,
        0.03580679542138823,
        -0.025568818794963914,
        -0.011920930539552383,
        -2.5807787161436346e-05,
        1.2268740105871417e-06,
        4.276743388741934e-06,
        1.43e-322,
        7.9204951152073e-143,
        3.0090686987965525e-275,
        8.319777570014068e-141,
        0.020746649062649804
      ],
      [
        0.2094791364833045,
        0.06839793489980786,
        -0.20657308515854877,
        -0.05095003262697314,
        0.00034273576592695987,
        8.706216386287587e-06,
        4.209853944969735e-31,
        1.43e-322,
        -2.274102271563477e-05,
        2.4437106975912096e-12,
        2.723286778946891e-117,
        0.03389450840571272
      ],
      [
        0.07875598452789952,
        0.04091082886035778,
        -0.03329591418850604,
        -0.037819992969897256,
        -5.977101750071258e-05,
        5.440507291636721e-06,
        7.029637099923192e-06,
        1.43e-322,
        1.785589439373752e-05,
        6.192074222166984e-17,
        1.3550516835437096e-85,
        0.05484139808790804
      ],
      [
        0.10280438833294274,
        0.06057330134415577,
        -0.04311032446618727,
        -0.028768272497169043,
        -5.1887531000539186e-05,
        2.7630817003470497e-05,
        9.344960358075897e-06,
        -5.372363487329036e-51,
        1.383067120545267e-05,
        -5.938845985563042e-06,
        -1.2798329036382977e-08,
        0.0872119652445326
      ]
    ]
  },
  "cues": [
    [
      6,
      0
    ],
    [
      3,
      4
    ],
    [
      7,
      0
    ],
    [
      4,
      0
    ],
    [
      4,
      9
    ]
  ],
  "env": {
    "delay": 0,
    "grid_size": 10,
    "max_steps": 200,
    "noise": 0.2,
    "num_cues": 5,
    "reward_sparse_prob": 1.0
  },
  "seed": 25
}