{
  "agent": {
    "action_size": 4,
    "cue_exploration_bias": 0.2333333333333333,
    "cue_regularization": 0.01916666666666667,
    "epsilon": 0.05,
    "state_size": 11,
    "target_weights": [
      [
        0.031028515657170526,
        0.016825825074960315,
        -0.04308744407199963,
        -0.019454330482197715,
        -2.961855674821348e-05,
        -6.081604662555691e-05,
        1.3e-322,
        1.3e-322,
        2.118975673112668e-06,
        2.4222319816849244e-165,
        1.3e-322,
        -0.0218013497189722
      ],
      [
        0.07182784968589018,
        0.052399445027728545,
        -0.06797814644330355,
        -0.014377694824365744,
        7.02689392302468e-05,
        0.00010397552388216296,
        3.3581084340484674e-130,
        1.3e-322,
        -5.6933889222016225e-06,
        1.3821128038256727e-147,
        7.10273243689547e-157,
        -0.008365022690528159
      ],
      [
        0.038209143095403915,
        0.00822154284872993,
        -0.026953847776216358,
        -0.03050120125856266,
        -8.853188666818152e-06,
        -1.4740749170647892e-07,
        1.8843227389880973e-183,
        1.3e-322,
        1.3567113181739568e-236,
        1.3e-322,
        1.3e-322,
        -0.033642999411517126
      ],
      [
        0.038906035453988894,
        0.05443114714991262,
        -0.03926136798154893,
        -0.0427546690669839,
        0.00046048799029771583,
        9.543096797273343e-05,
        -2.11036890174865e-120,
        -1.349316207695548e-94,
        -2.349189275755258e-13,
        -4.2355776015405616e-150,
        -6.361015557326655e-142,
        0.020721208398413966
      ]
    ],
    "weights": [
      [
        0.031576003163063554,
        0.017305306399684924,
        -0.04302287594737686,
        -0.01932175617640652,
        -1.982467677028504e-05,
        -7.752306523175546e-05,
        1.3e-322,
        1.3e-322,
        3.7838251921949546e-08,
        4.3253457365918526e-167,
        1.3e-322,
        -0.021189294088456396
      ],
      [
        0.0706068743038152,
        0.051305821577393634,
        -0.06798692566170023,
        -0.014513825974502452,
        0.0001863116355178674,
        0.00021316419281438526,
        5.996527214590313e-132,
        1.3e-322,
        -1.436766852326265e-05,
        2.468019483153695e-149,
        1.268324986887018e-158,
        -0.009594777290999768
      ],
      [
        0.03838963068144675,
        0.008381976258545783,
        -0.026953847776216358,
        -0.030481147082335677,
        -1.2758536660749622e-06,
        -3.3559227816386534e-06,
        3.364808733049504e-185,
        1.3e-322,
        2.4226604058656806e-238,
        1.3e-322,
        1.3e-322,
        -0.03346251182547429
      ],
      [
        0.039297898966824396,
        0.05504199792468201,
        -0.03911710586597771,
        -0.04282939421334656,
        0.00023082070072572006,
        0.00013151351020941108,
        -3.7684562010716193e-122,
        -2.4094550606215975e-96,
        -4.1949143992670655e-15,
        -7.563411621740556e-152,
        -1.1358776421628531e-143,
        0.0212573340268207
      ]
    ]
  },
  "cues": [
    [
      2,
      3
    ],
    [
      0,
      9
    ],
    [
      7,
      2
    ],
    [
      1,
      5
    ],
    [
      1,
      3
    ]
  ],
  "env": {
    "delay": 0,
    "grid_size": 10,
    "max_steps": 200,
    "noise": 0.0,
    "num_cues": 5,
    "reward_sparse_prob": 0.3
  },
  "seed": 22
}