{
  "agent": {
    "action_size": 4,
    "cue_exploration_bias": 0.16666666666666666,
    "cue_regularization": 0.020833333333333336,
    "epsilon": 0.05,
    "state_size": 11,
    "target_weights": [
      [
        0.07346921470759972,
        0.05121357860801107,
        -0.004151832200847283,
        -0.002350693755104235,
        -4.906406750878912e-05,
        -9.255226769348046e-05,
        3.0514044533119346e-13,
        3.370089670935916e-11,
        1.556346237492666e-220,
        2.0276612395188976e-221,
        8.13156426902731e-08,
        0.07053777867026846
      ],
      [
        0.2182960327746835,
        0.19826551116413124,
        -0.09006621518079444,
        -0.007728234188938381,
        -6.107866846425708e-05,
        0.00013320290575365843,
        -0.0001016045027768804,
        -7.431281843950579e-05,
        4.946290277986862e-170,
        1.0583384825031817e-168,
        -0.000608474907409654,
        0.1408918685866686
      ],
      [
        0.06748148557922205,
        0.06824118008872179,
        -0.024413994968541138,
        0.001004371713070079,
        -2.4230572627003008e-05,
        1.14856013303087e-05,
        1.2492354871546048e-20,
        2.451166548311262e-39,
        -1.14e-322,
        1.14e-322,
        3.39529461055809e-08,
        0.0486963015528193
      ],
      [
        0.17371085042984752,
        0.2027868228839717,
        -0.024415409061420656,
        -0.05355123847605057,
        -9.821399283074338e-05,
        2.2000204147823276e-05,
        -1.655470990992891e-06,
        1.203278470415601e-06,
        -3.5566737843669713e-178,
        -8.990567218082783e-167,
        0.0009753696168594632,
        0.18526005945481513
      ]
    ],
    "weights": [
      [
        0.0765840549165348,
        0.053506208916090654,
        -0.0038187718237193257,
        -0.0011954234771207836,
        -1.0629885880560543e-05,
        1.009480742477624e-05,
        1.3174560672124307e-16,
        2.1895097509011664e-05,
        6.719587077493008e-224,
        8.754508434161233e-225,
        3.510835369768891e-11,
        0.07398567925633151
      ],
      [
        0.2225919199440166,
        0.2020160207967164,
        -0.08943556179983449,
        -0.00655220327123035,
        -0.0001682972872502973,
        3.937321658901992e-05,
        -2.2120623209296548e-05,
        -3.3843312832635435e-05,
        2.1355805946519925e-173,
        4.5694186931688197e-172,
        0.0008476253399183659,
        0.1458184091369618
      ],
      [
        0.06916565080967621,
        0.0697136061903634,
        -0.024186773735541636,
        0.001443332074882122,
        3.5982313868873365e-05,
        4.16426402488687e-05,
        5.3936241396730475e-24,
        1.0583009529647232e-42,
        -1.14e-322,
        1.14e-322,
        5.729445300531382e-05,
        0.050607688016272946
      ],
      [
        0.17392499411502035,
        0.20399587585925089,
        -0.023482960918211167,
        -0.053613699622947444,
        -3.940419148562178e-05,
        8.177752071575606e-05,
        6.125225540662646e-06,
        -2.2714592536840282e-05,
        -1.5356081201309863e-181,
        -3.881713325904196e-170,
        0.0009747640956106659,
        0.18640665128319747
      ]
    ]
  },
  "cues": [
    [
      7,
      4
    ],
    [
      8,
      5
    ],
    [
      2,
      6
    ],
    [
      0,
      5
    ],
    [
      7,
      9
    ]
  ],
  "env": {
    "delay": 0,
    "grid_size": 10,
    "max_steps": 200,
    "noise": 0.1,
    "num_cues": 5,
    "reward_sparse_prob": 1.0
  },
  "seed": 12
}