{
  "agent": {
    "action_size": 4,
    "cue_exploration_bias": 0.16666666666666666,
    "cue_regularization": 0.020833333333333336,
    "epsilon": 0.05,
    "state_size": 11,
    "target_weights": [
      [
        0.07403232167296026,
        0.08941191333719682,
        0.0006879048574177473,
        0.007443391755407363,
        2.877330896074925e-07,
        -9.38074479028061e-06,
        5.411075129396055e-06,
        6.358834189578843e-29,
        1.14e-322,
        9.255333342685625e-05,
        5.013774621145261e-252,
        0.07898606281402963
      ],
      [
        0.26296352941216966,
        0.19084442620128683,
        -0.02906774906317895,
        -0.02160440821765082,
        -4.8379264693696756e-05,
        3.59076735680229e-05,
        1.0838180799466522e-09,
        -1.9117710885631435e-05,
        1.14e-322,
        -9.636595826166544e-05,
        -1.14e-322,
        0.20088472998788034
      ],
      [
        0.11451164169173994,
        0.08615056457012743,
        0.012903348587337469,
        -0.016651173321210574,
        -8.745928741525565e-07,
        -5.547632310929086e-12,
        6.595670521202213e-06,
        9.313391856959229e-103,
        -1.14e-322,
        1.6667238113202346e-12,
        4.677865056964588e-270,
        0.09952622249391772
      ],
      [
        0.2012692496019926,
        0.24099076162050723,
        -0.007067669450508956,
        -0.09363650193954468,
        4.0420526530806784e-05,
        0.00010419814325639586,
        -4.0910954363322615e-05,
        2.978333296518299e-14,
        1.5583772106536378e-155,
        -9.771354766558289e-05,
        -3.190741256046064e-13,
        0.2048193618437842
      ]
    ],
    "weights": [
      [
        0.07514542113780245,
        0.09079129641241358,
        0.0012879258929304454,
        0.007777129180545501,
        -0.00013691799145561608,
        4.587057479992919e-07,
        1.7563357373509598e-05,
        7.542165879547632e-32,
        1.14e-322,
        1.0977681955513677e-07,
        5.946800741764301e-255,
        0.08069918331438454
      ],
      [
        0.2638317920648418,
        0.19135586866411183,
        -0.02882210695977448,
        -0.021001945924399315,
        -8.958332910949996e-05,
        5.8031919180740386e-05,
        -3.992394980551315e-05,
        -1.5058379725192583e-05,
        1.14e-322,
        -9.014815359271489e-05,
        -1.14e-322,
        0.20199863474395696
      ],
      [
        0.11585830417304367,
        0.08727459104586371,
        0.012903348587337469,
        -0.01642853731564313,
        -9.479889441998279e-05,
        4.691941499134137e-05,
        7.823075688822809e-09,
        1.1046544726945777e-105,
        -1.14e-322,
        1.976888700914787e-15,
        5.548380909127504e-273,
        0.10087288497522146
      ],
      [
        0.20388133394099064,
        0.2437938600402148,
        -0.006696186061644099,
        -0.09345603263138945,
        -7.679779783758142e-05,
        -0.00012192468019655077,
        -0.0001873786784587015,
        3.532578944067217e-17,
        1.8483796046952656e-158,
        -4.325065357117752e-06,
        -3.784514443112002e-16,
        0.2078029295716471
      ]
    ]
  },
  "cues": [
    [
      2,
      6
    ],
    [
      6,
      4
    ],
    [
      7,
      3
    ],
    [
      7,
      8
    ],
    [
      2,
      8
    ]
  ],
  "env": {
    "delay": 0,
    "grid_size": 10,
    "max_steps": 200,
    "noise": 0.1,
    "num_cues": 5,
    "reward_sparse_prob": 1.0
  },
  "seed": 21
}