{
  "agent": {
    "action_size": 4,
    "cue_exploration_bias": 0.2333333333333333,
    "cue_regularization": 0.01916666666666667,
    "epsilon": 0.05,
    "state_size": 11,
    "target_weights": [
      [
        0.008057197680055295,
        0.03355964192943228,
        -0.044278293274308614,
        0.009063774516759346,
        -2.4545158536029112e-05,
        -8.538908698499714e-06,
        -4.5878803012620873e-262,
        1.6999368634199599e-12,
        4.063999969417548e-06,
        -3.945999335993212e-299,
        3.6501245218573957e-252,
        0.0022956605571829345
      ],
      [
        0.06601741096507457,
        0.04709339725407123,
        -0.09056205069781384,
        -0.024663570940445363,
        1.2340817016034614e-05,
        1.4300108987986503e-05,
        2.12647434411199e-62,
        -2.7591769516999286e-05,
        5.303397615281206e-06,
        5.053555870458871e-187,
        4.46608321466439e-184,
        0.04804371615052955
      ],
      [
        0.02475913156120086,
        0.04136928407530581,
        -0.03341521647901942,
        0.0004176701232082077,
        -2.1571328453155086e-05,
        -4.9679285016054425e-06,
        -1.3e-322,
        1.2190374960623535e-27,
        -2.5860407383870224e-19,
        -1.5919213519867404e-07,
        7.64566252214331e-232,
        -0.001211303981450373
      ],
      [
        0.05010290647193306,
        0.07409485922224074,
        -0.026791995358494722,
        -0.03309560471360229,
        0.00010298712862246056,
        -1.4275310847428674e-05,
        -1.5964767979980484e-84,
        1.787409288079282e-05,
        1.3889072128254421e-05,
        -6.124986798953921e-10,
        -2.3560932395458987e-231,
        0.03077430316950388
      ]
    ],
    "weights": [
      [
        0.008279965328271905,
        0.033756295985841185,
        -0.04433711784355294,
        0.009031063539322723,
        -0.00014294187858435905,
        -1.7230481749481084e-06,
        -7.157360479411221e-263,
        2.6520005154426593e-13,
        6.340076649653615e-07,
        -6.155988788864283e-300,
        5.694406846334905e-253,
        0.002459603636155213
      ],
      [
        0.06555066561273613,
        0.046648345891353464,
        -0.09062417374429653,
        -0.024747387976548706,
        0.00010743812086685038,
        1.264388198749174e-05,
        3.317423827915075e-63,
        -3.5326377300855835e-06,
        8.273609162770736e-07,
        7.883841489449664e-188,
        6.967349930556665e-185,
        0.04751484775170843
      ],
      [
        0.02475913156120086,
        0.04136928407530581,
        -0.03345183859989921,
        0.00038104800232841414,
        -9.968258144565282e-06,
        -7.75025780688957e-07,
        -1.3e-322,
        1.9017694936018473e-28,
        -4.0343741692622046e-20,
        -2.4834900265175604e-08,
        1.1927678836749567e-232,
        -0.0012479261023301666
      ],
      [
        0.049814816204070904,
        0.07367768046045894,
        -0.026773612544183426,
        -0.03294813340537139,
        0.00023242546980980775,
        3.348807897487651e-05,
        -2.490596787615587e-85,
        3.914631326375727e-05,
        4.216928539551904e-06,
        -9.555336140676669e-11,
        -3.675642678361678e-232,
        0.030504595715953035
      ]
    ]
  },
  "cues": [
    [
      3,
      5
    ],
    [
      6,
      2
    ],
    [
      3,
      0
    ],
    [
      1,
      2
    ],
    [
      3,
      8
    ]
  ],
  "env": {
    "delay": 0,
    "grid_size": 10,
    "max_steps": 200,
    "noise": 0.0,
    "num_cues": 5,
    "reward_sparse_prob": 0.3
  },
  "seed": 8
}