{
  "agent": {
    "action_size": 4,
    "cue_exploration_bias": 0.3333333333333333,
    "cue_regularization": 0.01666666666666667,
    "epsilon": 0.05,
    "state_size": 11,
    "target_weights": [
      [
        0.12402361636879515,
        0.13303465789740465,
        0.04371749953992788,
        0.01153670626212514,
        -2.8935834452117583e-05,
        -3.1975293154980215e-05,
        2.884080736772416e-09,
        0.00010087613345439557,
        4.219616256740634e-07,
        1.4673799833808927e-173,
        2.586051781952486e-15,
        0.12393542091733431
      ],
      [
        0.24843963494841703,
        0.16911105908922003,
        -0.02820312284525341,
        0.04600736453519389,
        -9.383394487820521e-05,
        -6.52441337247445e-05,
        -0.000264745100785282,
        -1.1248445928591404e-05,
        -7.33470815296617e-05,
        -5.813140261389218e-08,
        -1.641034528636303e-06,
        0.20289419543765674
      ],
      [
        0.08378790958199374,
        0.03960284776497794,
        0.015894525962949855,
        0.035918481985041294,
        -3.569552191702446e-06,
        -7.018926970787096e-06,
        3.023329712891019e-06,
        9.687257262311822e-18,
        1.004423704955117e-09,
        8.057210957733724e-167,
        1.0321640716212916e-05,
        0.08870561790696774
      ],
      [
        0.17007550663354598,
        0.2376621521322455,
        0.037282972184499955,
        -0.002646347762136583,
        2.4992501295112067e-05,
        -0.00030022081522815226,
        2.5288880491960266e-05,
        -0.0001261146060413295,
        2.4982407525250483e-05,
        1.6602848379396706e-156,
        7.772374885418904e-05,
        0.20182252644887969
      ]
    ],
    "weights": [
      [
        0.12523436778659655,
        0.1342171621635844,
        0.04397820741798368,
        0.011825661291802599,
        1.077696866047748e-05,
        -3.529219362866472e-05,
        3.9030336539454076e-11,
        1.36515922987999e-06,
        0.00010531313906692242,
        1.9858089911417804e-175,
        3.499710326106079e-17,
        0.12540688021319152
      ],
      [
        0.24981821720129346,
        0.17003922261515936,
        -0.02832319359305466,
        0.04633771251432975,
        -0.00012446447738753732,
        -6.92694108361323e-05,
        -0.0002942221366067682,
        -5.761140157523967e-06,
        -5.183913331990756e-06,
        -7.86693721365731e-10,
        4.1271864094613704e-05,
        0.20415270694273183
      ],
      [
        0.08378790958199374,
        0.03960284776497794,
        0.015894525962949855,
        0.035918481985041294,
        -4.830683883461833e-08,
        -9.498731374706616e-08,
        4.091479640612398e-08,
        1.3109789413018664e-19,
        1.3592891049394034e-11,
        1.0903843683712364e-168,
        1.3968302123329605e-07,
        0.08870561790696774
      ],
      [
        0.17133496783666136,
        0.2390820887611768,
        0.03816343924870172,
        -0.0019263561237507088,
        2.0734382523782162e-05,
        -7.289556930893128e-05,
        2.773625368592971e-06,
        3.5167558266312665e-05,
        0.00010184878330133226,
        2.2468676119191375e-158,
        7.222042253907337e-05,
        0.20396245471619662
      ]
    ]
  },
  "cues": [
    [
      8,
      6
    ],
    [
      4,
      5
    ],
    [
      4,
      2
    ],
    [
      8,
      4
    ],
    [
      1,
      0
    ]
  ],
  "env": {
    "delay": 10,
    "grid_size": 10,
    "max_steps": 200,
    "noise": 0.0,
    "num_cues": 5,
    "reward_sparse_prob": 1.0
  },
  "seed": 17
}