{
  "agent": {
    "action_size": 4,
    "cue_exploration_bias": 0.2333333333333333,
    "cue_regularization": 0.01916666666666667,
    "epsilon": 0.05,
    "state_size": 11,
    "target_weights": [
      [
        0.0018756215529578152,
        -0.008011500854344334,
        -0.03939348331395088,
        -0.0535855891062429,
        -8.71245107119457e-08,
        1.3612223979446447e-07,
        1.9759284091296987e-07,
        3.3296673706469e-10,
        4.952161099130489e-14,
        4.228874363893473e-214,
        3.0631315347241492e-28,
        -0.038875773103324164
      ],
      [
        0.04434886801994532,
        0.04490969350456605,
        -0.078613312570375,
        -0.013063407374157496,
        -0.0001835002033794716,
        0.00018531371375696008,
        3.097364106679299e-05,
        -8.006507087367145e-05,
        2.324905011803656e-05,
        4.23449740372647e-09,
        -1.2743218053793907e-06,
        0.004609912100129726
      ],
      [
        -0.015792252105758107,
        -0.002863329686454787,
        -0.05468215790348098,
        -0.047888236288685895,
        4.107183807088985e-07,
        -5.073905837011287e-06,
        1.5379636402261272e-239,
        2.9345771576108694e-06,
        1.497872206210494e-22,
        5.599029570082483e-179,
        4.58446970910174e-05,
        -0.037278918381555344
      ],
      [
        0.029351206452264814,
        0.0637940444352106,
        -0.05213810405207752,
        -0.03067966216526057,
        1.9597313305173145e-05,
        -5.6112029993234344e-05,
        -4.643832207617426e-06,
        0.0022443089289475074,
        2.5151504028065232e-08,
        -8.74585980243367e-18,
        3.6119766332506855e-06,
        0.005700610815837083
      ]
    ],
    "weights": [
      [
        0.0021764609993261174,
        -0.0077598847898430225,
        -0.03925131232351627,
        -0.053394194733941296,
        1.1220204676735256e-05,
        -7.445892524781456e-06,
        2.588807556809695e-09,
        4.362439454266461e-12,
        6.488186523728708e-16,
        5.5405559530712756e-216,
        4.013231465247605e-30,
        -0.03843276266652125
      ],
      [
        0.04336641051442739,
        0.044250160334855584,
        -0.07810367383164757,
        -0.012876692971237533,
        6.621101836466684e-05,
        -4.0049210668686606e-05,
        2.5931635214870612e-05,
        2.773285091779961e-05,
        3.8509509078235066e-06,
        5.5479231066303975e-11,
        -3.5477668838412443e-06,
        0.004137093333339222
      ],
      [
        -0.01546705757668616,
        -0.0025105193774604085,
        -0.05433780024696652,
        -0.047571494412093865,
        -3.0444536720347516e-05,
        -1.3130503715605825e-05,
        2.0149980513057137e-241,
        3.844803023511496e-08,
        1.962471346965893e-24,
        7.335695966947877e-181,
        6.006447284249099e-07,
        -0.03660936619596893
      ],
      [
        0.02804527091747416,
        0.06244987205315207,
        -0.05201650648541922,
        -0.030519827751334386,
        1.4184614674291751e-05,
        -3.394460358713057e-05,
        4.1682513454196705e-06,
        -6.435662066807076e-05,
        5.153614647875537e-07,
        -1.1458587185003754e-19,
        4.732313357090685e-08,
        0.0045162728477047085
      ]
    ]
  },
  "cues": [
    [
      1,
      2
    ],
    [
      8,
      9
    ],
    [
      2,
      3
    ],
    [
      2,
      7
    ],
    [
      6,
      3
    ]
  ],
  "env": {
    "delay": 0,
    "grid_size": 10,
    "max_steps": 200,
    "noise": 0.0,
    "num_cues": 5,
    "reward_sparse_prob": 0.3
  },
  "seed": 28
}