{
  "agent": {
    "action_size": 4,
    "cue_exploration_bias": 0.3333333333333333,
    "cue_regularization": 0.01666666666666667,
    "epsilon": 0.05,
    "state_size": 11,
    "target_weights": [
      [
        0.04367051745004701,
        0.05687014446189196,
        0.002335774552898129,
        0.02154991575618366,
        -1.4603189000351115e-05,
        7.411920393165644e-06,
        6.413524183784531e-194,
        5.471884375064459e-182,
        5.520689194060455e-81,
        2.5852536223307608e-14,
        2.820212965762577e-166,
        0.06774691483589372
      ],
      [
        0.23761315899855953,
        0.1644871690362742,
        -0.00634212694978182,
        0.01587026546676191,
        8.503221540911716e-05,
        -1.3603379849768735e-05,
        3.474580654352735e-138,
        -2.1205109820236733e-128,
        -1.1371864276711788e-05,
        -0.0001257400919226349,
        6.714011996617896e-136,
        0.20820523151554382
      ],
      [
        0.10628501507701085,
        0.0848144742982926,
        0.01228144171829118,
        -0.006030060884556689,
        -2.993943525390291e-06,
        3.631435318007449e-05,
        1.1001941041581815e-189,
        2.0922449295922208e-91,
        5.486285931250735e-25,
        2.1153496531198094e-05,
        4.0189136123138295e-159,
        0.134693966307894
      ],
      [
        0.1813069614899373,
        0.23805587430502584,
        0.025559055130940693,
        -0.07321351385862855,
        -0.00012082851985375195,
        -0.0001852285578212945,
        -3.708692670164954e-32,
        5.635949680486071e-94,
        -8.346526729668052e-05,
        0.0027093430967724654,
        -1.7278604692655465e-140,
        0.21108033183287744
      ]
    ],
    "weights": [
      [
        0.04367051745004701,
        0.05687014446189196,
        0.002335774552898129,
        0.02154991575618366,
        -4.4279840498636177e-07,
        2.2474450805921386e-07,
        1.9447110345918026e-195,
        1.659186684148293e-183,
        1.6739852983458848e-82,
        7.839015029016944e-16,
        8.551459567711543e-168,
        0.06774691483589372
      ],
      [
        0.23812513193399965,
        0.16531328346439383,
        -0.0052780827666428385,
        0.01662016815722132,
        6.916439754912648e-05,
        0.0001478158831662311,
        1.053563554992588e-139,
        -6.429820778006564e-130,
        -3.4481806428228014e-07,
        -4.591351767117797e-06,
        2.0358250537538183e-137,
        0.20978124863412284
      ],
      [
        0.10683832000638292,
        0.08548120370363048,
        0.01254978095353702,
        -0.005875146125276653,
        -2.3824913333507282e-06,
        1.1011250806835256e-06,
        3.3360123907519665e-191,
        6.3441123554722275e-93,
        1.663553529026111e-26,
        8.775906249045291e-05,
        1.2186163839061118e-160,
        0.1355156104725119
      ],
      [
        0.1813832378082664,
        0.2386313355930073,
        0.025469676984654695,
        -0.07380207697456656,
        0.0002731977848542275,
        -0.00018924142254838342,
        -1.1245510818864056e-33,
        1.7089346231447263e-95,
        -2.530836739142516e-06,
        0.00032928021259072854,
        -5.239224526994581e-142,
        0.21106723000492048
      ]
    ]
  },
  "cues": [
    [
      3,
      9
    ],
    [
      8,
      2
    ],
    [
      5,
      9
    ],
    [
      7,
      9
    ],
    [
      1,
      9
    ]
  ],
  "env": {
    "delay": 6,
    "grid_size": 10,
    "max_steps": 200,
    "noise": 0.0,
    "num_cues": 5,
    "reward_sparse_prob": 1.0
  },
  "seed": 3
}