{
  "agent": {
    "action_size": 4,
    "cue_exploration_bias": 0.3333333333333333,
    "cue_regularization": 0.01666666666666667,
    "epsilon": 0.05,
    "state_size": 11,
    "target_weights": [
      [
        0.11407033192977052,
        0.08643323495867815,
        0.01411451065864861,
        0.032815197916850544,
        -0.00015562969591313822,
        2.800505096409627e-05,
        4.3537024399662104e-11,
        3.371525190623449e-71,
        1.283319834297385e-259,
        4.794656005787588e-108,
        9.477774608955299e-260,
        0.15826180629768122
      ],
      [
        0.27351990743552673,
        0.17472481493453612,
        -0.018297982906435296,
        0.042369756757844775,
        -0.0006508301726350608,
        0.00024162555234413577,
        -5.407945078667345e-05,
        -5.511764958241209e-07,
        -7.846324108713714e-105,
        2.9853408360018524e-123,
        2.3711913389689816e-259,
        0.23276829430775461
      ],
      [
        0.1114793659737917,
        0.1493607113776027,
        0.0028646113102013177,
        0.04905083425941957,
        -1.1123175712233771e-05,
        1.3532304334306481e-05,
        9.412792844570582e-06,
        7.924616925691833e-17,
        -3.444977294629753e-259,
        1.5830497602772948e-155,
        4.2771454372800864e-260,
        0.16959655049629951
      ],
      [
        0.21807938582135167,
        0.24568498744495118,
        0.06523582576241521,
        -0.02682762104432549,
        -0.00014241684554753008,
        -0.00010793665566960633,
        -8.692479172449835e-05,
        -6.0698405254849285e-05,
        -5.03384835334082e-260,
        -1.0498592566769403e-98,
        -3.086512473825666e-259,
        0.21589973772028187
      ]
    ],
    "weights": [
      [
        0.1165288974964931,
        0.08902684033990962,
        0.014949460025368178,
        0.03351510746906121,
        -0.00017230205285059276,
        -1.0518730799458185e-05,
        9.835544401617096e-05,
        1.0223150414224642e-72,
        3.8912868668657287e-261,
        1.4538372623746584e-109,
        2.873854114717501e-261,
        0.16155532123112337
      ],
      [
        0.27526027893308336,
        0.1760889249193884,
        -0.018252701636019282,
        0.04279129954096492,
        -8.48465817868829e-05,
        6.486471272486259e-05,
        -7.963232637208951e-05,
        -1.6712792884555867e-08,
        -2.3791651263713227e-106,
        9.052160870413215e-125,
        7.189934628578001e-261,
        0.2345539470757273
      ],
      [
        0.11190482996171551,
        0.149839358364017,
        0.002917794308691794,
        0.04905083425941957,
        -1.1337604059658171e-05,
        4.1032700288114177e-07,
        2.8541503215103704e-07,
        2.402905101577399e-18,
        -1.044587213956902e-260,
        4.80012899133178e-157,
        1.2969175277241018e-261,
        0.1700751974827138
      ],
      [
        0.2200251855595463,
        0.2479535593379622,
        0.06554412589143509,
        -0.026842093070121986,
        -0.0002058552724628403,
        -4.0182301838049474e-07,
        -7.047585170437699e-05,
        -2.9581495897727938e-05,
        -1.5263652492266896e-261,
        -3.183386891079329e-100,
        -9.358933862649135e-261,
        0.21815383758749643
      ]
    ]
  },
  "cues": [
    [
      3,
      3
    ],
    [
      6,
      9
    ],
    [
      8,
      0
    ],
    [
      2,
      7
    ],
    [
      0,
      9
    ]
  ],
  "env": {
    "delay": 6,
    "grid_size": 10,
    "max_steps": 200,
    "noise": 0.0,
    "num_cues": 5,
    "reward_sparse_prob": 1.0
  },
  "seed": 26
}