{
  "agent": {
    "action_size": 4,
    "cue_exploration_bias": 0.8177777777777777,
    "cue_regularization": 0.0045555555555555575,
    "epsilon": 0.05,
    "state_size": 11,
    "target_weights": [
      [
        0.008716159143276437,
        -0.011045973036878742,
        -0.01928603535941545,
        -0.044612809816118336,
        -3.685304933742447e-05,
        -4.096627957997799e-05,
        9.989230606809032e-15,
        8.099495685363081e-11,
        5.796385690633059e-107,
        -5.013218005077917e-110,
        1.1278816732761477e-08,
        -0.03361312968788788
      ],
      [
        0.023731753827542515,
        0.014878836218357547,
        -0.06778524538070801,
        -0.028826131432309453,
        -1.8293511564781793e-05,
        0.00042647322871317456,
        2.392453014628414e-08,
        5.538787475412378e-05,
        3.193540063741014e-102,
        -3.0750183058455453e-148,
        -5.174204686423057e-05,
        -0.02957620339079424
      ],
      [
        -0.007582117360136162,
        0.00836615598421902,
        -0.03901477487128037,
        -0.026092146831293943,
        -0.00011856322980762072,
        -1.3303276794422748e-05,
        2.8924081108688578e-11,
        3.8845400499977066e-09,
        2.7699605529426815e-108,
        -2.9651092889575452e-148,
        -5.118384738074126e-110,
        -0.031403583909819434
      ],
      [
        -0.001811546365516517,
        0.009603155606225044,
        -0.025480255105906614,
        -0.03577853554054011,
        -0.0002818093834214415,
        2.2903719710497278e-05,
        -7.254365154889754e-05,
        -0.0002822104787942206,
        -2.1893016596989007e-05,
        -1.891498997165165e-38,
        -1.5924799151982862e-05,
        -0.004456380350532217
      ]
    ],
    "weights": [
      [
        0.008904630072199592,
        -0.010955838792146023,
        -0.019269451701352452,
        -0.04449788947386489,
        -1.963071354392118e-05,
        -3.517732340048737e-05,
        1.7300970489242779e-15,
        1.4028020910309023e-11,
        1.0039121302250744e-107,
        -8.68270442198749e-111,
        1.943676907805837e-05,
        -0.03340807510090172
      ],
      [
        0.022725304613284883,
        0.014096840740568314,
        -0.06763259159872757,
        -0.028897931386797464,
        0.0003680890310554802,
        0.00015277622456974304,
        4.143638347358997e-09,
        3.319814758829983e-05,
        5.53109088915581e-103,
        -5.3258156766399475e-149,
        -3.677734124717837e-05,
        -0.030429998823071472
      ],
      [
        -0.007313633585583206,
        0.008698310318342353,
        -0.03894438259132352,
        -0.02608542511090747,
        -0.00010457831977324014,
        -1.470113476205867e-05,
        5.009541709336295e-12,
        6.727876791980514e-10,
        4.7974671592987185e-109,
        -5.135457406566088e-149,
        -8.864849235300464e-111,
        -0.031064707855309622
      ],
      [
        -0.0012126495850755808,
        0.010854306680333978,
        -0.02535657663331903,
        -0.03630711136162053,
        -0.0002360905653318346,
        1.3865571692601703e-05,
        -5.986510122504182e-05,
        -0.0003015912632233822,
        -3.791787866092761e-06,
        -3.2760048915159106e-39,
        -3.4831301780587396e-05,
        -0.0037338050975037
      ]
    ]
  },
  "cues": [
    [
      5,
      2
    ],
    [
      6,
      0
    ],
    [
      1,
      8
    ],
    [
      1,
      5
    ],
    [
      9,
      0
    ]
  ],
  "env": {
    "delay": 5,
    "grid_size": 10,
    "max_steps": 200,
    "noise": 0.16,
    "num_cues": 5,
    "reward_sparse_prob": 0.18
  },
  "seed": 7
}