{
  "agent": {
    "action_size": 4,
    "cue_exploration_bias": 0.8177777777777777,
    "cue_regularization": 0.0045555555555555575,
    "epsilon": 0.05,
    "state_size": 11,
    "target_weights": [
      [
        -0.010186642199255257,
        0.0071406380892024965,
        -0.024684509009235533,
        -0.02974995532243506,
        -3.453451418612597e-05,
        -6.207562492571268e-05,
        -6.689637902083033e-67,
        3.0258366731113363e-05,
        -1.4425428174430842e-37,
        1.1130216837380185e-10,
        1.6736050939664052e-109,
        -0.03279345891952841
      ],
      [
        0.05068025026992653,
        -0.0045184475840699505,
        -0.040462917797194874,
        -0.014305491392449323,
        -0.00011921338165911477,
        -3.5821081222394575e-05,
        2.998179823812001e-81,
        3.278202333088879e-05,
        4.423502178152935e-21,
        -0.00018379895661193313,
        -1.6888180443324316e-07,
        -0.009370449856740015
      ],
      [
        -0.0004410306857135506,
        0.005240180691215546,
        -0.037723281274700635,
        -0.01951440922261335,
        -7.432812632444165e-05,
        -2.184986947593939e-05,
        -6.824511632459452e-78,
        5.1994447493132783e-05,
        2.266018985795047e-08,
        5.937468347205026e-06,
        -1.0478234830225702e-109,
        -0.02161334072678829
      ],
      [
        0.03412436034248851,
        0.015147781491275422,
        -0.020525097499440034,
        -0.045799223651099064,
        0.0002599678217059352,
        0.00020975291837291226,
        3.6747834235267386e-88,
        1.1434939766112557e-05,
        -5.765880113351051e-07,
        -5.307844854642224e-05,
        2.1754172210093363e-109,
        -0.019866657474967565
      ]
    ],
    "weights": [
      [
        -0.01007107932881565,
        0.007270646318447056,
        -0.024670063650430583,
        -0.02974995532243506,
        -2.5481942643697507e-05,
        -4.734028326772549e-05,
        -3.466207204854164e-67,
        1.5678243023863286e-05,
        -7.474473776188821e-38,
        5.767074146315656e-11,
        8.671713057863174e-110,
        -0.03266345069028385
      ],
      [
        0.049835747106176796,
        -0.005388162436885988,
        -0.040579518374359476,
        -0.014396880280547638,
        3.6541567874517695e-05,
        8.816459818294375e-05,
        1.5534940244687355e-81,
        -3.1938942895791445e-05,
        2.292018692944121e-21,
        -0.00013268432605019977,
        -8.750538308104888e-08,
        -0.010331553597654357
      ],
      [
        -9.686255821766138e-05,
        0.005546523708894725,
        -0.03768641914495298,
        -0.019439721983048983,
        -9.94175364443008e-05,
        -1.6726441939968862e-05,
        -3.536091450133079e-78,
        3.027481941502873e-05,
        1.1741280245457503e-08,
        3.0764737740539336e-06,
        -5.42925246392976e-110,
        -0.021232310469544744
      ],
      [
        0.03405442112101992,
        0.014990793001769226,
        -0.020395921866466722,
        -0.045582998750088144,
        0.00015897778786925257,
        0.00020838793231134183,
        1.9040732795030333e-88,
        6.542112109840062e-05,
        -2.987566066169227e-07,
        7.147452786842925e-06,
        1.1271831084726468e-109,
        -0.019807421063462855
      ]
    ]
  },
  "cues": [
    [
      2,
      9
    ],
    [
      1,
      4
    ],
    [
      1,
      7
    ],
    [
      7,
      7
    ],
    [
      6,
      3
    ]
  ],
  "env": {
    "delay": 5,
    "grid_size": 10,
    "max_steps": 200,
    "noise": 0.16,
    "num_cues": 5,
    "reward_sparse_prob": 0.18
  },
  "seed": 1
}