{
  "agent": {
    "action_size": 4,
    "cue_exploration_bias": 0.5666666666666667,
    "cue_regularization": 0.010833333333333334,
    "epsilon": 0.05,
    "state_size": 11,
    "target_weights": [
      [
        -0.014436185183548845,
        -0.02529550234370688,
        -0.04522603087504971,
        -0.043303123427781955,
        1.0091377465517987e-06,
        1.0636703818811575e-06,
        -8.640607950907726e-161,
        0.00019556914524075772,
        2.5461903887322796e-08,
        2.883047316272771e-148,
        -5.419594826506461e-197,
        -0.02958525234933688
      ],
      [
        0.057465963303822934,
        0.01662513897060159,
        -0.04758608322966837,
        -0.04487261173315838,
        -0.0003688939700408156,
        0.00020362796552594038,
        6.224191118948236e-13,
        -0.00011460758266083922,
        2.820850735714991e-06,
        3.702063975515488e-133,
        4.907453265587015e-137,
        -0.012573750147183102
      ],
      [
        -0.01768635052823856,
        0.02451444562143315,
        -0.06063913392021242,
        -0.018772361716855295,
        -5.643445079858983e-05,
        1.0574450765866501e-05,
        3.330149348391178e-174,
        9.829876588782809e-05,
        1.0859541984248278e-63,
        3.5542656278351424e-169,
        2.6346191033281857e-169,
        -0.023072911236144265
      ],
      [
        0.046848639911175695,
        0.02922099377558503,
        -0.00031920421627859336,
        -0.04714940326382924,
        5.9123942629260925e-05,
        -7.924935383973013e-06,
        -6.948631921373524e-10,
        -6.561318619437007e-05,
        7.000149848003899e-10,
        -8.796970090340054e-170,
        -4.564953265459329e-157,
        -0.02088603816858782
      ]
    ],
    "weights": [
      [
        -0.014436185183548845,
        -0.02529550234370688,
        -0.04522603087504971,
        -0.043303123427781955,
        5.025701812074594e-07,
        5.297284918670731e-07,
        -4.303190440025238e-161,
        9.739722956363579e-05,
        1.268052225205502e-08,
        1.4358135121987664e-148,
        -2.6990633967813374e-197,
        -0.02958525234933688
      ],
      [
        0.05711019808489003,
        0.016247002970793727,
        -0.04755136383012854,
        -0.044815521552743605,
        -0.00011084911472378553,
        0.00011817711668384453,
        3.099767964490776e-13,
        -9.393631460819424e-05,
        1.4048384080881377e-06,
        1.843699702418104e-133,
        2.4440069607748154e-137,
        -0.012894795966576188
      ],
      [
        -0.017668371675138426,
        0.02451444562143315,
        -0.06057620793436195,
        -0.018691456877904692,
        -2.1031527626983858e-05,
        2.6488053819580277e-05,
        1.6584790006989916e-174,
        4.895469300749187e-05,
        5.4082626494771925e-64,
        1.7700932570842687e-169,
        1.3120914411304474e-169,
        -0.022992006397193662
      ],
      [
        0.04682717153312351,
        0.0291991015073004,
        -0.00024114087805236474,
        -0.04707091603537056,
        5.243974371609477e-05,
        1.3439567400214632e-05,
        -3.460553542666814e-10,
        -4.827672420041546e-05,
        3.4862104698906066e-10,
        -4.381061819841336e-170,
        -2.2734353141231145e-157,
        -0.020829443208413772
      ]
    ]
  },
  "cues": [
    [
      3,
      3
    ],
    [
      6,
      9
    ],
    [
      8,
      0
    ],
    [
      2,
      7
    ],
    [
      0,
      9
    ]
  ],
  "env": {
    "delay": 3,
    "grid_size": 10,
    "max_steps": 200,
    "noise": 0.1,
    "num_cues": 5,
    "reward_sparse_prob": 0.3
  },
  "seed": 26
}