{
  "agent": {
    "action_size": 4,
    "cue_exploration_bias": 0.85,
    "cue_regularization": 0.0037500000000000007,
    "epsilon": 0.05,
    "state_size": 11,
    "target_weights": [
      [
        -0.03813304240618223,
        -0.03129658438072953,
        -0.04433253785516163,
        -0.05604570814244602,
        2.4825927912200497e-05,
        4.838132063888262e-06,
        5.2586026272500205e-64,
        3.835443247842059e-16,
        -1.3522653856897737e-05,
        2.365021216279709e-11,
        9.622212908667591e-11,
        -0.09316423544693354
      ],
      [
        -0.06020513327482352,
        -0.060034060688732994,
        -0.021155699657286406,
        -0.03841159243316102,
        6.080777815613831e-05,
        1.190139727946351e-05,
        -9.06328325353116e-06,
        -2.51467756057618e-05,
        1.0851711016098225e-28,
        -1.955366999297007e-05,
        -3.5110999557040715e-05,
        -0.08503123225557763
      ],
      [
        -0.06488221900858603,
        -0.04484167798422719,
        -0.06497143459925593,
        -0.05194166888221319,
        -1.3921700082527776e-05,
        4.269813453805801e-06,
        4.3127739799689804e-120,
        1.6454369878180025e-59,
        -3.544574889815411e-05,
        4.0242681642229813e-60,
        6.683113379692067e-124,
        -0.0645004191264175
      ],
      [
        -0.03133566553615165,
        -0.01774801457601229,
        -0.049453508425576456,
        -0.11488333802437176,
        1.4406062112600334e-06,
        0.00029936504318781417,
        3.5253793743149086e-18,
        7.975032884898705e-08,
        3.280802644550911e-15,
        3.305625844061817e-07,
        -4.600965730142354e-164,
        -0.07826985488491126
      ]
    ],
    "weights": [
      [
        -0.038193918119996756,
        -0.03131969403670995,
        -0.04436566791203463,
        -0.056116604257153126,
        1.7215562562517786e-05,
        1.565057164044115e-05,
        2.1343744382519904e-64,
        1.5567390441595875e-16,
        -1.3097851615433197e-05,
        9.59920569733334e-12,
        3.905487204006221e-11,
        -0.09325824121762105
      ],
      [
        -0.06035461924946326,
        -0.06011755533724825,
        -0.021205416761827092,
        -0.038527300863826185,
        5.791965018727682e-05,
        3.507998217676568e-05,
        -3.6786274746700862e-06,
        -1.5527789067226932e-05,
        4.404518889492498e-29,
        -1.4627300200549858e-05,
        -5.648803776701393e-05,
        -0.0852304353347581
      ],
      [
        -0.06484424315420292,
        -0.04478341097458839,
        -0.06496690112186566,
        -0.05195742656007861,
        -1.1377330904258065e-05,
        -2.8896564294075452e-05,
        1.7504792039435526e-120,
        6.678539710063015e-60,
        -2.4589188056301215e-05,
        1.6333797609804459e-60,
        2.7125583309218614e-124,
        -0.06445790979464416
      ],
      [
        -0.03155698666120748,
        -0.01801749268550874,
        -0.04955023547150941,
        -0.1149319080858641,
        1.3109049886199154e-05,
        0.00022890230188800712,
        1.4308895642136509e-18,
        3.2369257653241447e-08,
        1.3316201656296129e-15,
        1.341695466287845e-07,
        -1.8674511732073403e-164,
        -0.07858790305590009
      ]
    ]
  },
  "cues": [
    [
      2,
      4
    ],
    [
      1,
      5
    ],
    [
      9,
      2
    ],
    [
      0,
      6
    ],
    [
      6,
      1
    ]
  ],
  "env": {
    "delay": 6,
    "grid_size": 10,
    "max_steps": 200,
    "noise": 0.2,
    "num_cues": 5,
    "reward_sparse_prob": 0.1
  },
  "seed": 20
}