{
  "agent": {
    "action_size": 4,
    "cue_exploration_bias": 0.25555555555555554,
    "cue_regularization": 0.018611111111111113,
    "epsilon": 0.05,
    "state_size": 11,
    "target_weights": [
      [
        0.050044511299903734,
        0.05608838182939982,
        -0.019491034456063934,
        -0.03722285617125334,
        -6.211369243621623e-05,
        -0.00015820811893710988,
        4.659990994274407e-220,
        -1.3e-322,
        2.33713224768649e-22,
        -1.3e-322,
        1.3e-322,
        0.031965923132039456
      ],
      [
        0.1345683866083821,
        0.12237409005398979,
        -0.018537026112205843,
        -0.01666704174121204,
        -0.000295875431750002,
        -0.00038139660677529265,
        -4.5908120158730876e-237,
        -4.981682667228524e-186,
        1.4960863519893734e-16,
        -9.269043384791439e-49,
        -1.3e-322,
        0.09007847843508736
      ],
      [
        0.02968017055794658,
        0.05743703333293432,
        -0.015633464534031836,
        -0.022535585602943994,
        -1.7721348926200628e-05,
        -5.1852577185710245e-09,
        3.627738998611946e-234,
        1.3599805161832472e-237,
        3.611513954366095e-21,
        -1.3e-322,
        -1.3e-322,
        0.029495979297285226
      ],
      [
        0.1060753144980443,
        0.17603850096508705,
        -0.02066436773481523,
        -0.07997769769638256,
        8.438974645920243e-05,
        -0.00019325746061881589,
        3.6633119867580356e-211,
        1.2052418597016648e-213,
        -1.9294901975526324e-05,
        4.2727621574795166e-42,
        1.3e-322,
        0.05747696505119673
      ]
    ],
    "weights": [
      [
        0.050044511299903734,
        0.05608838182939982,
        -0.019491034456063934,
        -0.03722285617125334,
        -1.8664660466974253e-05,
        -4.754025573527339e-05,
        1.400289473639092e-220,
        -1.3e-322,
        7.022892724382693e-23,
        -1.3e-322,
        1.3e-322,
        0.031965923132039456
      ],
      [
        0.13598549178426425,
        0.12346669873621058,
        -0.018709079869458523,
        -0.01651459900480333,
        -0.00032885607814684656,
        -0.0004702838773570896,
        -1.379501752080938e-237,
        -1.4969552105361082e-186,
        4.495618066472305e-17,
        -2.785272310263011e-49,
        -1.3e-322,
        0.09132352985371686
      ],
      [
        0.02968017055794658,
        0.05743703333293432,
        -0.015633464534031836,
        -0.022535585602943994,
        -5.3251215271732546e-06,
        -1.558127861264551e-09,
        1.0901061266229549e-234,
        4.086631076123318e-238,
        1.0852306325083292e-21,
        -1.3e-322,
        -1.3e-322,
        0.029495979297285226
      ],
      [
        0.10874178980680384,
        0.17902349890529945,
        -0.02035018111240321,
        -0.07998203370542344,
        -0.00011928487417509272,
        -0.0007433906760807076,
        1.1007955208531278e-211,
        3.6216539718704515e-214,
        -1.3133274873019156e-05,
        1.28393035090267e-42,
        1.3e-322,
        0.06045762698236822
      ]
    ]
  },
  "cues": [
    [
      9,
      1
    ],
    [
      7,
      4
    ],
    [
      2,
      9
    ],
    [
      7,
      5
    ],
    [
      5,
      0
    ]
  ],
  "env": {
    "delay": 1,
    "grid_size": 10,
    "max_steps": 200,
    "noise": 0.05,
    "num_cues": 5,
    "reward_sparse_prob": 0.65
  },
  "seed": 6
}