{
  "agent": {
    "action_size": 4,
    "cue_exploration_bias": 0.85,
    "cue_regularization": 0.0037500000000000007,
    "epsilon": 0.05,
    "state_size": 11,
    "target_weights": [
      [
        -0.05270409625822155,
        -0.05816346658617708,
        -0.05231277876974797,
        -0.06730790609563901,
        -9.722383274311054e-08,
        1.4971272852103456e-06,
        -4.453031835774133e-07,
        -6.57e-322,
        1.6004658986164862e-06,
        3.35884810277539e-15,
        6.57e-322,
        -0.103796478864456
      ],
      [
        -0.07604121350471106,
        -0.03960712479761079,
        -0.05550114554246024,
        -0.029627774868254807,
        2.0481644855690465e-05,
        3.7674272710497656e-05,
        2.998445607548945e-13,
        8.856744454276493e-266,
        0.00017015535821673897,
        -4.192305218721786e-06,
        6.57e-322,
        -0.11888030805438987
      ],
      [
        -0.05946586264529448,
        -0.041765564688734776,
        -0.0591897293101688,
        -0.05071196607561754,
        -1.1983558578224013e-06,
        2.2849408139440163e-05,
        -1.4446403237739664e-06,
        -5.575970850507072e-132,
        1.7228243985682308e-06,
        1.2139100578247897e-143,
        -6.57e-322,
        -0.11302678101332446
      ],
      [
        -0.08792901969467938,
        -0.08452892584969067,
        -0.04343523269512425,
        -0.046895183500619456,
        -1.6010936080656877e-05,
        6.835363738938424e-06,
        2.9611819880360894e-23,
        6.57e-322,
        2.955053440923248e-06,
        -7.275647349417129e-06,
        6.57e-322,
        -0.09539963430341636
      ]
    ],
    "weights": [
      [
        -0.05271408051227317,
        -0.058148790588795525,
        -0.05229323470890595,
        -0.06731302228623015,
        1.598070468476798e-07,
        -3.214164211999105e-06,
        -2.109479137852785e-06,
        -6.57e-322,
        1.960321009537973e-06,
        8.950433587831066e-16,
        6.57e-322,
        -0.10378691905766557
      ],
      [
        -0.0760670092701814,
        -0.03984621112885634,
        -0.05572059066522169,
        -0.029633929425241016,
        2.6416916445967002e-06,
        5.4510176470536566e-05,
        7.990057143374561e-14,
        2.3600859764063538e-266,
        1.9142883829850162e-05,
        -1.1171374319988454e-06,
        6.57e-322,
        -0.1191255489426216
      ],
      [
        -0.05947174969661943,
        -0.04168451816471171,
        -0.059100032282546656,
        -0.050709202623343407,
        -2.8524249834267e-06,
        -8.303218379669108e-06,
        -3.7347496363315834e-06,
        -1.4858473874989265e-132,
        2.6145013245340376e-06,
        3.2347462647040377e-144,
        -6.57e-322,
        -0.11294297103702736
      ],
      [
        -0.08800286542778415,
        -0.08452922656157992,
        -0.04340925045410209,
        -0.04694274628081284,
        -1.2068085153245414e-05,
        1.3343415216651528e-06,
        7.89075954446962e-24,
        6.57e-322,
        7.874428602359407e-07,
        -1.938765803539279e-06,
        6.57e-322,
        -0.09544749779549898
      ]
    ]
  },
  "cues": [
    [
      7,
      4
    ],
    [
      8,
      5
    ],
    [
      2,
      6
    ],
    [
      0,
      5
    ],
    [
      7,
      9
    ]
  ],
  "env": {
    "delay": 6,
    "grid_size": 10,
    "max_steps": 200,
    "noise": 0.2,
    "num_cues": 5,
    "reward_sparse_prob": 0.1
  },
  "seed": 12
}