{
  "agent": {
    "action_size": 4,
    "cue_exploration_bias": 0.5666666666666667,
    "cue_regularization": 0.010833333333333334,
    "epsilon": 0.05,
    "state_size": 11,
    "target_weights": [
      [
        -0.014464134677476247,
        0.002352615569965106,
        -0.02851960172855026,
        -0.04412952141985913,
        1.0130882653669924e-07,
        4.241278536449467e-06,
        5.055369622160977e-05,
        2.8944260823427364e-06,
        2.27e-322,
        4.95922726751683e-07,
        7.8977842993531e-09,
        -0.06423590256770222
      ],
      [
        0.00441423863679456,
        0.009995854966993923,
        -0.02692608387048392,
        -0.018427520503100328,
        6.451738172749799e-06,
        -9.358273864581714e-06,
        0.00010645856316584904,
        -3.48172798004789e-05,
        -4.3923082231042513e-13,
        2.389328242211339e-07,
        7.91652728683172e-16,
        -0.04262484085419291
      ],
      [
        0.0011393675551072005,
        0.020998163367395187,
        -0.040077762846134325,
        -0.027144630989939834,
        2.289270643306337e-06,
        -1.0747288649862874e-06,
        3.291435067191686e-07,
        1.5997105964096737e-17,
        2.27e-322,
        7.593792593220768e-07,
        7.517136653101217e-16,
        -0.05237384694444365
      ],
      [
        0.006279084013601215,
        0.06074226102540803,
        -0.04022160493458084,
        -0.09016196137585439,
        -0.0014173366431355268,
        -0.00015962143190458597,
        9.118416023475807e-07,
        8.600708699913093e-20,
        2.27e-322,
        -5.833150608164063e-05,
        -8.952565781790272e-05,
        -0.058711860735350625
      ]
    ],
    "weights": [
      [
        -0.014464134677476247,
        0.002352615569965106,
        -0.02851960172855026,
        -0.04412952141985913,
        1.0130882653669924e-07,
        4.241278536449467e-06,
        5.055369622160977e-05,
        2.8944260823427364e-06,
        2.27e-322,
        4.95922726751683e-07,
        7.8977842993531e-09,
        -0.06423590256770222
      ],
      [
        0.00441423863679456,
        0.009995854966993923,
        -0.02692608387048392,
        -0.018427520503100328,
        6.451738172749799e-06,
        -9.358273864581714e-06,
        0.00010645856316584904,
        -3.48172798004789e-05,
        -4.3923082231042513e-13,
        2.389328242211339e-07,
        7.91652728683172e-16,
        -0.04262484085419291
      ],
      [
        0.0011393675551072005,
        0.020998163367395187,
        -0.040077762846134325,
        -0.027144630989939834,
        2.289270643306337e-06,
        -1.0747288649862874e-06,
        3.291435067191686e-07,
        1.5997105964096737e-17,
        2.27e-322,
        7.593792593220768e-07,
        7.517136653101217e-16,
        -0.05237384694444365
      ],
      [
        0.006279084013601215,
        0.06074226102540803,
        -0.04022160493458084,
        -0.09016196137585439,
        -0.0014173366431355268,
        -0.00015962143190458597,
        9.118416023475807e-07,
        8.600708699913093e-20,
        2.27e-322,
        -5.833150608164063e-05,
        -8.952565781790272e-05,
        -0.058711860735350625
      ]
    ]
  },
  "cues": [
    [
      0,
      1
    ],
    [
      1,
      5
    ],
    [
      2,
      4
    ],
    [
      4,
      9
    ],
    [
      3,
      9
    ]
  ],
  "env": {
    "delay": 3,
    "grid_size": 10,
    "max_steps": 200,
    "noise": 0.1,
    "num_cues": 5,
    "reward_sparse_prob": 0.3
  },
  "seed": 2
}