{
  "agent": {
    "action_size": 4,
    "cue_exploration_bias": 0.5666666666666667,
    "cue_regularization": 0.010833333333333334,
    "epsilon": 0.05,
    "state_size": 11,
    "target_weights": [
      [
        -0.0026275761521944926,
        -0.011317513973600622,
        -0.035390528401500546,
        -0.04158792732745215,
        2.3727839806457787e-07,
        3.4909580673214177e-07,
        4.290779389691168e-160,
        2.2630406012491293e-06,
        -1.16124921064134e-06,
        4.38752484716696e-245,
        1.4090878310486588e-238,
        -0.05363649914600566
      ],
      [
        -0.012251123668229329,
        -0.01740137873805796,
        -0.04280568887240373,
        -0.03128921153589723,
        1.6371441558333788e-05,
        -2.5187088242790907e-05,
        -1.791407073849115e-06,
        -7.102199116792735e-05,
        5.542478262873082e-05,
        -4.7397682514831365e-226,
        -7.559468428428656e-07,
        -0.038030187090209625
      ],
      [
        -0.002288864090166359,
        -0.014677449377865583,
        -0.03806176414637532,
        -0.03735676102233561,
        -1.0956751662889982e-06,
        -7.76231079221316e-09,
        1.1050025392945491e-14,
        1.5840604813692687e-86,
        9.748817412833324e-06,
        2.120178191722905e-239,
        4.886644856183032e-81,
        -0.06388699928109005
      ],
      [
        0.0003290270152011219,
        0.019196461334968384,
        -0.03426851537199477,
        -0.08179032489752552,
        -0.0001848273020481848,
        -0.0001830559405210981,
        3.0696193627476145e-06,
        2.1865064200174844e-09,
        -0.00017297730829468331,
        1.3394127462890882e-161,
        1.2909988312065037e-14,
        -0.06256182373268657
      ]
    ],
    "weights": [
      [
        -0.0026275761521944926,
        -0.011317513973600622,
        -0.035390528401500546,
        -0.04158792732745215,
        1.99328669621073e-07,
        2.932622745846202e-07,
        3.60452259607673e-160,
        1.9010954053334996e-06,
        -9.755218433018177e-07,
        3.6857948209730036e-245,
        1.1837217590525465e-238,
        -0.05363649914600566
      ],
      [
        -0.012251123668229329,
        -0.01740946386759945,
        -0.04279510270724082,
        -0.03127054024119284,
        1.3753033113084649e-05,
        -9.721341626241397e-06,
        -1.5048937943476025e-06,
        -6.951084859346271e-05,
        4.65602780343085e-05,
        -3.981701274058684e-226,
        -6.350425479824297e-07,
        -0.03801960092504672
      ],
      [
        -0.002288864090166359,
        -0.014677449377865583,
        -0.03806176414637532,
        -0.03735676102233561,
        -9.204355517175827e-07,
        -6.52082573052455e-09,
        9.282711274270496e-15,
        1.330709710307124e-86,
        8.1896153258332e-06,
        1.781082061253298e-239,
        4.105086792724071e-81,
        -0.06388699928109005
      ],
      [
        0.0001977605574690014,
        0.019059113888726695,
        -0.03429969988617777,
        -0.08181542842319896,
        -0.00014815567411826763,
        -0.00013613965049007803,
        2.578671926354808e-06,
        1.8368019144389342e-09,
        -0.00023337666971115346,
        1.1251903374644727e-161,
        1.0845196259151944e-14,
        -0.0627242747046017
      ]
    ]
  },
  "cues": [
    [
      6,
      6
    ],
    [
      0,
      4
    ],
    [
      8,
      7
    ],
    [
      6,
      4
    ],
    [
      7,
      5
    ]
  ],
  "env": {
    "delay": 3,
    "grid_size": 10,
    "max_steps": 200,
    "noise": 0.1,
    "num_cues": 5,
    "reward_sparse_prob": 0.3
  },
  "seed": 0
}