{
  "agent": {
    "action_size": 4,
    "cue_exploration_bias": 0.25555555555555554,
    "cue_regularization": 0.018611111111111113,
    "epsilon": 0.05,
    "state_size": 11,
    "target_weights": [
      [
        0.031270827032138016,
        0.023512673481950814,
        -0.029101219548631683,
        -0.04542229419803891,
        1.2550284640713517e-06,
        1.4112316771825402e-06,
        -1.3e-322,
        7.101159085989662e-05,
        2.4516828254161315e-288,
        2.790655885056202e-128,
        1.2623589090718082e-18,
        0.0008116961411742374
      ],
      [
        0.12209166223094597,
        0.11969509900947543,
        -0.08089113081729989,
        -0.012383836914991418,
        -5.22599117522666e-05,
        -1.150392522234044e-05,
        1.829563734947016e-36,
        -0.0006330066720498748,
        4.1989073124158133e-50,
        6.220707205981695e-39,
        -6.750409677036289e-05,
        0.08007488806420478
      ],
      [
        0.01249626135984446,
        0.04042430898078947,
        -0.03023597551259532,
        -0.0384411790994431,
        -1.4051829906312132e-09,
        1.6199353036735806e-05,
        1.348043677427271e-19,
        1.1038060879772114e-09,
        1.8396049736743508e-165,
        1.6681051005817878e-117,
        2.2842185909731553e-17,
        0.015455777474932125
      ],
      [
        0.0844786414084511,
        0.14168413900680293,
        -0.03268500044256778,
        -0.03398921817115649,
        3.629121003747037e-05,
        -3.3118264272265906e-05,
        1.4373722544365577e-07,
        -0.0006711464213301784,
        -2.36928945782219e-09,
        -8.050936479208433e-20,
        3.4274542118063606e-05,
        0.08028114938153462
      ]
    ],
    "weights": [
      [
        0.03268336141202861,
        0.025101774659327735,
        -0.028924652751145356,
        -0.04542229419803891,
        8.390295485249923e-08,
        9.43456750876782e-08,
        -1.3e-322,
        0.0009501955686056646,
        1.6390340084098912e-289,
        1.865649118213308e-129,
        8.43930202283289e-20,
        0.0024007973185511565
      ],
      [
        0.12076490031391544,
        0.11843118097691228,
        -0.0809267341173185,
        -0.012482284099477445,
        5.373778684311435e-05,
        -7.009614716614952e-05,
        1.2231260712211404e-37,
        2.5209354813708357e-05,
        2.8071134699254423e-51,
        4.158756002719838e-40,
        -1.3869362688273935e-05,
        0.07871252284715564
      ],
      [
        0.013129522606252851,
        0.04097831529514304,
        -0.030081780315178334,
        -0.0382077289699713,
        -9.394129965782813e-11,
        8.786777662391714e-06,
        9.012134070605996e-21,
        8.984722386883908e-05,
        1.229838983507366e-166,
        1.1151854396139058e-118,
        6.933415844872635e-05,
        0.0162432339187575
      ],
      [
        0.08671824518638518,
        0.14378661782476804,
        -0.03213939839775927,
        -0.03330649116637902,
        -3.8151742557884763e-05,
        5.994758988597574e-05,
        9.609326228267056e-09,
        0.0016426727993271869,
        -1.5839512178654132e-10,
        -5.382327009094522e-21,
        4.799031069693086e-05,
        0.0830663552042772
      ]
    ]
  },
  "cues": [
    [
      1,
      2
    ],
    [
      8,
      9
    ],
    [
      2,
      3
    ],
    [
      2,
      7
    ],
    [
      6,
      3
    ]
  ],
  "env": {
    "delay": 1,
    "grid_size": 10,
    "max_steps": 200,
    "noise": 0.05,
    "num_cues": 5,
    "reward_sparse_prob": 0.65
  },
  "seed": 28
}