{
  "agent": {
    "action_size": 4,
    "cue_exploration_bias": 0.8177777777777777,
    "cue_regularization": 0.0045555555555555575,
    "epsilon": 0.05,
    "state_size": 11,
    "target_weights": [
      [
        -0.04093050914360951,
        -0.028029641946219094,
        -0.03902295234344151,
        -0.05680053180266314,
        -1.650214837325316e-05,
        9.031014426719404e-06,
        1.8620757613373375e-176,
        1.4120230760538278e-109,
        2.806742020761891e-38,
        8.02069780648801e-15,
        -7.222020604250555e-173,
        -0.09065211667264056
      ],
      [
        -0.0539563160954816,
        -0.05667833359313288,
        -0.022272978766709618,
        -0.03663578145884197,
        1.951280408267908e-05,
        3.997811250407072e-05,
        -1.2133979386802644e-05,
        -1.956017405529586e-05,
        2.996224548555479e-06,
        -5.9525084691886774e-05,
        -3.519304475296352e-81,
        -0.07989969418565876
      ],
      [
        -0.06353487782051077,
        -0.03814997851481461,
        -0.06265913816005739,
        -0.05497373072435177,
        -1.9363706131350787e-06,
        7.371336980328389e-06,
        1.0774818910270062e-178,
        5.966355549493747e-121,
        -1.5132951182154725e-06,
        1.2059628684089706e-35,
        -2.7700386530010775e-170,
        -0.060840781499144236
      ],
      [
        -0.03405998077343541,
        -0.015004417805879324,
        -0.048567345840279656,
        -0.11946508744649359,
        2.6459099329863364e-05,
        9.5563651108766e-05,
        3.895285316252276e-19,
        7.867467456629034e-08,
        1.3061011046756124e-45,
        5.317954614909433e-09,
        -5.173108710871019e-168,
        -0.08010800753689884
      ]
    ],
    "weights": [
      [
        -0.040928294620284404,
        -0.02802127934115424,
        -0.03903531307927627,
        -0.05681904062023765,
        -1.8505183942553395e-05,
        5.072848520949096e-07,
        7.74937290635883e-177,
        5.876395362595914e-110,
        1.1680776380016823e-38,
        3.3379618360452758e-15,
        -3.005577536735122e-173,
        -0.09066226288515022
      ],
      [
        -0.054011265190301985,
        -0.056779371206286317,
        -0.022370399420826845,
        -0.03668711359462614,
        7.058404573445933e-06,
        3.695810866902548e-05,
        -1.1711594697198746e-05,
        -6.734492782672773e-05,
        3.8686387982077535e-08,
        -3.815824883523465e-05,
        -1.4646236912778456e-81,
        -0.08005206393459637
      ],
      [
        -0.06356370985142117,
        -0.038165315025723456,
        -0.06266096394719167,
        -0.05498905203148761,
        -3.0656430193461064e-06,
        7.497883038874367e-06,
        4.4841403055588626e-179,
        2.4830092848501678e-121,
        -6.297857709077147e-07,
        5.018837671680649e-36,
        -1.152802852216733e-170,
        -0.06087143931718891
      ],
      [
        -0.03444565273526197,
        -0.015330906175249128,
        -0.0484899324922688,
        -0.11944685769093948,
        3.31629048618777e-05,
        0.00023238093428457095,
        1.621095076745067e-19,
        3.274192190025277e-08,
        5.435581475089568e-46,
        2.213165235577073e-09,
        -2.1528849318612797e-168,
        -0.08041626615071461
      ]
    ]
  },
  "cues": [
    [
      2,
      4
    ],
    [
      1,
      5
    ],
    [
      9,
      2
    ],
    [
      0,
      6
    ],
    [
      6,
      1
    ]
  ],
  "env": {
    "delay": 5,
    "grid_size": 10,
    "max_steps": 200,
    "noise": 0.16,
    "num_cues": 5,
    "reward_sparse_prob": 0.18
  },
  "seed": 20
}