{
  "agent": {
    "action_size": 4,
    "cue_exploration_bias": 0.25555555555555554,
    "cue_regularization": 0.018611111111111113,
    "epsilon": 0.05,
    "state_size": 11,
    "target_weights": [
      [
        0.03354939740110902,
        0.047189165974572,
        -0.03296731214810772,
        -0.008307460058456218,
        -5.2972262994277953e-05,
        5.279499365076806e-05,
        6.7228563199823e-07,
        3.220647142603512e-14,
        3.680319016548762e-30,
        8.12143518e-315,
        9.412102586850997e-10,
        0.017230455296959487
      ],
      [
        0.1611297222251136,
        0.09925055634873226,
        -0.047152014194101886,
        -0.03443490904747862,
        -4.249000561417631e-05,
        -6.702635510409392e-05,
        -0.0002951881142916502,
        -6.382606598153997e-05,
        8.119764174292663e-06,
        1.486668315057657e-87,
        -1.149917247189045e-05,
        0.10303067539392037
      ],
      [
        0.029760149342140683,
        0.03149348788379306,
        -0.030979419546780813,
        -0.018254018544861677,
        -1.9321801315668032e-05,
        -3.845601384692381e-05,
        4.306682334081584e-06,
        4.714404623352789e-41,
        2.8410056627308443e-29,
        -1.3e-322,
        1.6376670669406449e-06,
        0.03541038733002554
      ],
      [
        0.1099223300629458,
        0.1289882294636475,
        -0.008005714116230318,
        -0.06977292338653796,
        9.836326249078403e-05,
        3.386909655669836e-05,
        -0.00079392974932483,
        4.948480613357215e-05,
        3.357246808428142e-05,
        -1.0596428668313653e-115,
        5.3185428035550805e-06,
        0.1101434474701349
      ]
    ],
    "weights": [
      [
        0.03354939740110902,
        0.047189165974572,
        -0.03296731214810772,
        -0.008307460058456218,
        -2.1499238948196216e-05,
        2.1427292692573347e-05,
        2.7285278420765854e-07,
        1.3071267597938516e-14,
        1.4936884601460085e-30,
        3.29615285e-315,
        3.8199810822034095e-10,
        0.017230455296959487
      ],
      [
        0.1622829025390259,
        0.10022227647341121,
        -0.0472700619098743,
        -0.03437149657401771,
        -0.00010998522501283562,
        -0.00012891909133317845,
        -0.0002798464118450454,
        -5.652478534823272e-05,
        4.808316033915257e-06,
        6.033768530068161e-88,
        -5.565240932918453e-05,
        0.10406580799206022
      ],
      [
        0.030384899954361753,
        0.03219306006117067,
        -0.03075180845144609,
        -0.018101229014683494,
        -3.407542182949643e-05,
        -4.184120309014362e-05,
        0.0003257524115733213,
        1.9133808103854487e-41,
        1.153046068710087e-29,
        -1.3e-322,
        6.646609678267249e-07,
        0.03626274903758134
      ],
      [
        0.11289458070062251,
        0.13227099547100374,
        -0.007532414804295509,
        -0.06961013944428267,
        -0.00024832234407493205,
        3.082864115735986e-05,
        0.0022424344904664545,
        9.570782340092888e-05,
        3.2890778114244924e-05,
        -4.3006497940667665e-116,
        2.3913474798206647e-05,
        0.1135889974197464
      ]
    ]
  },
  "cues": [
    [
      7,
      9
    ],
    [
      5,
      4
    ],
    [
      2,
      2
    ],
    [
      0,
      5
    ],
    [
      8,
      7
    ]
  ],
  "env": {
    "delay": 1,
    "grid_size": 10,
    "max_steps": 200,
    "noise": 0.05,
    "num_cues": 5,
    "reward_sparse_prob": 0.65
  },
  "seed": 9
}