{
  "agent": {
    "action_size": 4,
    "cue_exploration_bias": 0.0,
    "cue_regularization": 0.025,
    "epsilon": 0.05,
    "state_size": 11,
    "target_weights": [
      [
        0.09047367794752423,
        0.09505878353650232,
        0.009651820870028253,
        -0.009820621466307624,
        -9.767427935986223e-07,
        -1.9808480416539893e-06,
        2.3364263230085243e-05,
        4.6223912158706745e-169,
        2.394120277447025e-12,
        -9.4e-323,
        9.4e-323,
        0.08450710422524253
      ],
      [
        0.25404387538898954,
        0.1928562571639409,
        -0.05585282108815472,
        0.011701019403571974,
        -0.00018804672598666058,
        -0.0001299089822907692,
        -0.0001507953090770549,
        5.352790820432907e-81,
        -0.0002509180808773922,
        -1.11561984425569e-10,
        -6.101743371789702e-13,
        0.21521767975126085
      ],
      [
        0.093909780123545,
        0.09671940898372157,
        0.019115405361342416,
        0.0046221943375061025,
        -2.140071896755031e-09,
        1.1619142956015514e-09,
        8.245122313359648e-09,
        7.0182228912461e-252,
        2.981605698150053e-08,
        4.9160956233773636e-307,
        2.9754731926145784e-294,
        0.08948881444033882
      ],
      [
        0.20204327323781784,
        0.2476864503916972,
        0.015034496641386647,
        -0.059263055718256394,
        1.0514390107650076e-05,
        5.747119281984114e-05,
        2.169848999472913e-05,
        -2.626442869576132e-06,
        3.009123760915345e-05,
        1.9385531673838274e-39,
        2.3387045217093866e-117,
        0.18845543450331387
      ]
    ],
    "weights": [
      [
        0.09198070672910807,
        0.09676372232581984,
        0.010372004667721885,
        -0.00929834767634766,
        -1.348431249237449e-06,
        7.071701455509829e-07,
        6.787113535308728e-06,
        3.1491693822628204e-172,
        1.0179805446588413e-06,
        -9.4e-323,
        9.4e-323,
        0.08673431680452
      ],
      [
        0.2529418081710199,
        0.1907773192192408,
        -0.0565541567162087,
        0.0119765545022485,
        -3.3853005064973325e-05,
        0.0001544580176784137,
        -2.059017439560927e-05,
        3.6467802429807135e-84,
        -1.6960088147690167e-05,
        -4.318730919291753e-06,
        -4.157030962435706e-16,
        0.21341427690523734
      ],
      [
        0.09461031756770948,
        0.09757466292658591,
        0.019571262485247355,
        0.004923334962711169,
        5.312722418984376e-05,
        -0.00010576470209803841,
        5.617284545949744e-12,
        4.781415422200512e-255,
        2.031325549069927e-11,
        3.34926601717766e-310,
        2.0271475602829634e-297,
        0.09064520900840822
      ],
      [
        0.20486652282794188,
        0.2508562436512281,
        0.016629182390760635,
        -0.05801491363828906,
        1.3062818349963684e-05,
        -5.0515086621705624e-05,
        4.2273121935390435e-05,
        -4.042972844581979e-06,
        6.964904318490228e-05,
        1.3207086971897175e-42,
        1.593326122773783e-120,
        0.19287336984281195
      ]
    ]
  },
  "cues": [
    [
      6,
      6
    ],
    [
      0,
      4
    ],
    [
      8,
      7
    ],
    [
      6,
      4
    ],
    [
      7,
      5
    ]
  ],
  "env": {
    "delay": 0,
    "grid_size": 10,
    "max_steps": 200,
    "noise": 0.0,
    "num_cues": 5,
    "reward_sparse_prob": 1.0
  },
  "seed": 0
}