{
  "agent": {
    "action_size": 4,
    "cue_exploration_bias": 0.85,
    "cue_regularization": 0.0037500000000000007,
    "epsilon": 0.05,
    "state_size": 11,
    "target_weights": [
      [
        -0.041995975465236854,
        -0.06455117521852224,
        -0.03592095436965355,
        -0.05887820763446368,
        -4.506048157698825e-05,
        -1.393380700086528e-05,
        7.095073821305319e-08,
        -7.139382582754038e-202,
        2.872711913876585e-111,
        -4.819118144550496e-161,
        -5.867442813861531e-31,
        -0.11052114450152488
      ],
      [
        -0.039204516462570345,
        -0.07156385270637695,
        -0.03019171341375196,
        -0.0492885008885455,
        0.00010298197488964505,
        3.373177915545558e-05,
        1.4274793050445395e-07,
        6.711660734762536e-246,
        1.3776373636319873e-126,
        2.014729778448757e-170,
        4.79029532875071e-219,
        -0.12400322687296154
      ],
      [
        -0.044601671224821685,
        -0.06656718997083624,
        -0.042440372478403515,
        -0.06052511463796371,
        2.5799736022905315e-06,
        -3.6157206066013685e-05,
        -3.054487809066195e-05,
        -9.41980487439399e-199,
        -2.0169507714226913e-211,
        -1.0476137178552249e-165,
        4.6566395651603935e-15,
        -0.10434900021136648
      ],
      [
        -0.0738650215089672,
        -0.041269958356403,
        -0.06045320081500643,
        -0.03318430730511756,
        3.6538606546707915e-05,
        8.863568829344582e-07,
        7.5817810042037225e-06,
        -9.147148079451815e-232,
        1.2457807274961185e-178,
        5.438992013811734e-171,
        1.3515090494875576e-18,
        -0.10802557348112081
      ]
    ],
    "weights": [
      [
        -0.042082550123328004,
        -0.06455432482892763,
        -0.035986946127727154,
        -0.05902762444022306,
        -3.935201998726349e-05,
        -1.167860812045758e-05,
        4.013562627387591e-06,
        -2.0203239638500895e-202,
        8.129286606466855e-112,
        -1.3637285520429937e-161,
        -1.6603866211063427e-31,
        -0.11067371091768965
      ],
      [
        -0.039244678792762895,
        -0.07156408615494696,
        -0.03021097244580569,
        -0.0493476888022218,
        1.6676966780223424e-05,
        5.224148121684801e-06,
        8.425304250533474e-07,
        1.8992859483994422e-246,
        3.898479661202451e-127,
        5.701342945137751e-171,
        1.3555721849074675e-219,
        -0.12406264823520782
      ],
      [
        -0.04454225217858898,
        -0.06655773272802434,
        -0.04251968758028561,
        -0.06055446793642493,
        -3.966851593327037e-05,
        -1.6199820555969287e-05,
        0.0001058891088124325,
        -2.665644725147751e-199,
        -5.707627977879398e-212,
        -2.9645688188131027e-166,
        1.3177498747905545e-15,
        -0.10436889626701583
      ],
      [
        -0.0737836013709999,
        -0.04124680737570433,
        -0.0603367909437163,
        -0.033009628276558844,
        5.695808205987188e-05,
        9.74926201147409e-07,
        3.135927183039887e-06,
        -2.5884874849602236e-232,
        3.525347785035092e-179,
        1.5391423246090057e-171,
        3.824540971702172e-19,
        -0.10782774347186347
      ]
    ]
  },
  "cues": [
    [
      8,
      1
    ],
    [
      5,
      9
    ],
    [
      9,
      4
    ],
    [
      1,
      8
    ],
    [
      5,
      6
    ]
  ],
  "env": {
    "delay": 6,
    "grid_size": 10,
    "max_steps": 200,
    "noise": 0.2,
    "num_cues": 5,
    "reward_sparse_prob": 0.1
  },
  "seed": 29
}