{
  "agent": {
    "action_size": 4,
    "cue_exploration_bias": 0.25555555555555554,
    "cue_regularization": 0.018611111111111113,
    "epsilon": 0.05,
    "state_size": 11,
    "target_weights": [
      [
        0.06792797415752551,
        0.053838757613187155,
        -0.010877038681915013,
        -0.00166453439940825,
        2.319308893487375e-05,
        -0.00020816885014287665,
        2.8604981834614383e-05,
        2.1249420726331354e-166,
        8.785459642365013e-125,
        -1.3e-322,
        8.175352953041493e-144,
        0.04635228029002046
      ],
      [
        0.14635593090682572,
        0.11394188171213318,
        -0.03482263970375387,
        -0.019493410698843968,
        -9.921291162812197e-05,
        -0.00011104305473371229,
        -4.1384711650350976e-05,
        6.650435010651468e-08,
        -4.331681595979258e-108,
        5.593204875744656e-100,
        -4.368603400940534e-53,
        0.1078628918796049
      ],
      [
        0.016147546515010307,
        0.019708247127022332,
        -0.04414760832772585,
        -0.014638002198335345,
        1.7138265494681166e-05,
        1.9777269535399046e-05,
        8.079562304798836e-177,
        2.4894153964584814e-31,
        1.9500510644823717e-114,
        -1.3e-322,
        3.644748436887658e-161,
        0.03735317266870929
      ],
      [
        0.11510601943800446,
        0.13754266556572678,
        -0.009572883178691738,
        -0.08385170794507285,
        0.00011855817908607686,
        -0.0007034811505656201,
        -7.430992770320482e-06,
        -1.3932818189881713e-05,
        4.083602959482028e-111,
        -1.3980862309809368e-58,
        1.675384059573024e-67,
        0.10805245533612962
      ]
    ],
    "weights": [
      [
        0.06879007367381273,
        0.05460588346563755,
        -0.01062168973342006,
        -0.0013142117870764743,
        -2.084011271414106e-06,
        -5.078355603921689e-05,
        9.465579845058477e-08,
        7.0315754685408e-169,
        2.90716736689953e-127,
        -1.3e-322,
        2.705278982030578e-146,
        0.04746972875480263
      ],
      [
        0.1440767715925659,
        0.11148544704853526,
        -0.03473973480170657,
        -0.01923323044745852,
        -1.1050612096153137e-05,
        0.0003003557192970331,
        2.112784347098548e-05,
        2.2006734337974235e-10,
        -1.4333824173415946e-110,
        1.8508289097064214e-102,
        -1.4456000895955141e-55,
        0.10566663746739242
      ],
      [
        0.017066675445038978,
        0.020889984322773482,
        -0.043885000062003375,
        -0.014638002198335345,
        0.00011514650220227923,
        -0.00040274882256555004,
        2.6735812157256333e-179,
        8.237642078898828e-34,
        6.452849423055039e-117,
        -1.3e-322,
        1.206071639687765e-163,
        0.03853490986446044
      ],
      [
        0.11539103290313255,
        0.13803993159546193,
        -0.009008542187324782,
        -0.08349961951831282,
        3.9374826418458974e-05,
        -8.363928444162538e-05,
        2.3073143582762675e-05,
        -7.094702000473366e-07,
        1.351291536976962e-113,
        -4.62636086474037e-61,
        5.543957929676635e-70,
        0.10890180979262466
      ]
    ]
  },
  "cues": [
    [
      2,
      4
    ],
    [
      1,
      5
    ],
    [
      9,
      2
    ],
    [
      0,
      6
    ],
    [
      6,
      1
    ]
  ],
  "env": {
    "delay": 1,
    "grid_size": 10,
    "max_steps": 200,
    "noise": 0.05,
    "num_cues": 5,
    "reward_sparse_prob": 0.65
  },
  "seed": 20
}