{
  "agent": {
    "action_size": 4,
    "cue_exploration_bias": 0.85,
    "cue_regularization": 0.0037500000000000007,
    "epsilon": 0.05,
    "state_size": 11,
    "target_weights": [
      [
        -0.031912572759511836,
        -0.023962092004263507,
        -0.04431083992125893,
        -0.0639492718622004,
        4.287541376350705e-07,
        6.713653378804451e-06,
        1.007078551451553e-46,
        1.2297716558006068e-13,
        -9.904091659791449e-07,
        -2.8165815004269193e-05,
        2.690450219420543e-161,
        -0.0748109663925712
      ],
      [
        -0.033075134824986516,
        -0.044150663550646535,
        -0.022569196356070256,
        -0.021817979813809483,
        5.0884450264353515e-05,
        -7.57031752515857e-05,
        -8.932811081695262e-13,
        -1.7763923779125896e-05,
        3.785940645963368e-08,
        -1.3444898322523367e-05,
        -2.3617384608234127e-149,
        -0.0815972132421444
      ],
      [
        -0.039834934498087525,
        -0.020230337826782147,
        -0.049923892253351226,
        -0.0486737472185808,
        8.633422495425439e-06,
        2.0635506280858443e-06,
        -3.138887574768883e-150,
        2.588603848952218e-15,
        -4.043284486174264e-06,
        -7.886941566889403e-06,
        -2.7399604370859515e-153,
        -0.07430955347806802
      ],
      [
        -0.022740504171752992,
        0.0029660484220790026,
        -0.04402695521760496,
        -0.0590836513059623,
        7.391315201141718e-05,
        -0.0011914835800499318,
        3.803026342430431e-55,
        3.3902381533624673e-18,
        -0.00033909481710177114,
        -5.5964981581681484e-05,
        1.2525636255525325e-149,
        -0.0947014411013913
      ]
    ],
    "weights": [
      [
        -0.031904742105128614,
        -0.023967489133190464,
        -0.04432221359242311,
        -0.0639474177500544,
        -1.4098370219941782e-06,
        2.635822822538949e-06,
        7.4564154710911e-47,
        9.105236515070467e-14,
        -6.49237395590326e-06,
        -2.085398586346773e-05,
        1.992010912294049e-161,
        -0.07481450940935216
      ],
      [
        -0.033017244214132095,
        -0.04406094566983391,
        -0.0224555033110586,
        -0.02173611403875604,
        7.411790607764002e-05,
        -7.09350353639715e-05,
        -6.613858537040913e-13,
        -2.0339162593361405e-05,
        2.356615503774367e-05,
        -9.954610562881466e-06,
        -1.7486325344306315e-149,
        -0.08142562958627832
      ],
      [
        -0.03982844215299283,
        -0.020217571240030673,
        -0.049917938218600806,
        -0.04867406742548716,
        3.336012806242041e-06,
        1.2734506350189351e-06,
        -2.3240341918500498e-150,
        1.916603800173555e-15,
        -2.9936501927558647e-06,
        -5.8394961380303635e-06,
        -2.0286683063419452e-153,
        -0.0742971070982229
      ],
      [
        -0.02301903802978107,
        0.0026657585344554984,
        -0.04414192965231014,
        -0.05917686971107208,
        9.851286176344277e-05,
        -0.000868896666993883,
        2.8157629229411095e-55,
        2.510134306899822e-18,
        -0.0002881676073617946,
        -7.196108979326173e-05,
        9.273988392101254e-150,
        -0.09509494939412456
      ]
    ]
  },
  "cues": [
    [
      9,
      1
    ],
    [
      7,
      4
    ],
    [
      2,
      9
    ],
    [
      7,
      5
    ],
    [
      5,
      0
    ]
  ],
  "env": {
    "delay": 6,
    "grid_size": 10,
    "max_steps": 200,
    "noise": 0.2,
    "num_cues": 5,
    "reward_sparse_prob": 0.1
  },
  "seed": 6
}