{
  "agent": {
    "action_size": 4,
    "cue_exploration_bias": 0.5666666666666667,
    "cue_regularization": 0.010833333333333334,
    "epsilon": 0.05,
    "state_size": 11,
    "target_weights": [
      [
        0.006413563339302904,
        0.006485905816347714,
        -0.02018814232302255,
        -0.014331820325446151,
        -1.450203080266902e-06,
        -7.251014253687518e-07,
        -1.3578526222172256e-106,
        1.3656146118972092e-08,
        4.1803258696421954e-14,
        7.744376417366957e-38,
        -2.27e-322,
        -0.03955544736323779
      ],
      [
        0.029031901658780335,
        0.021108991547718038,
        -0.0522152116935174,
        -0.01573045658446338,
        5.08560759086778e-05,
        3.12128962271121e-05,
        2.4256050510800935e-07,
        -2.0290293234725103e-06,
        -6.795698541423715e-07,
        -1.4490625473377247e-05,
        1.9031795518959542e-12,
        0.0065604049925240835
      ],
      [
        0.013563041205225885,
        0.015075742896427774,
        -0.03495332039870188,
        -0.020323822410475083,
        -2.3631975459751095e-05,
        -8.30370051154451e-06,
        1.9274378278762853e-06,
        4.445455835404906e-09,
        1.2210396383431106e-06,
        2.829059013831295e-10,
        5.136981540489811e-10,
        -0.00997645650768057
      ],
      [
        0.03051994071706652,
        0.04947582083427057,
        -0.036753460571386454,
        -0.06660771692570784,
        3.6956701726290814e-05,
        -1.8680980464177824e-05,
        -3.459647287435646e-05,
        -0.00017652147139389211,
        1.7614450906483837e-06,
        -7.776272605077155e-05,
        -1.8759703734090893e-05,
        -0.014721355294945724
      ]
    ],
    "weights": [
      [
        0.006413563339302904,
        0.006485905816347714,
        -0.02018814232302255,
        -0.014331820325446151,
        -1.0234154199579519e-06,
        -5.117076289889656e-07,
        -9.582432491811363e-107,
        9.6372092333322e-09,
        2.950076450433119e-14,
        5.465244386347178e-38,
        -2.27e-322,
        -0.03955544736323779
      ],
      [
        0.028964524699363454,
        0.021043045716336344,
        -0.05226184095346279,
        -0.015778516972443955,
        5.974429464676932e-05,
        -4.698969980766197e-06,
        1.711761370377445e-07,
        -1.431895936123955e-06,
        -4.795757760629494e-07,
        -1.022610540281049e-05,
        1.3430831356395367e-12,
        0.006446398773161817
      ],
      [
        0.013563041205225885,
        0.015075742896427774,
        -0.03496447787289952,
        -0.020334979884672717,
        -1.6677200882186793e-05,
        -1.3747851512246223e-05,
        1.3602023198680633e-06,
        3.1371799664486454e-09,
        8.616936560569383e-07,
        1.9964808088761756e-10,
        3.62519304510721e-10,
        -0.009987613981878203
      ],
      [
        0.03010113308413234,
        0.04903669170940041,
        -0.036799333957455674,
        -0.0666332688198411,
        0.00016834015031264534,
        1.1178447395225827e-05,
        -2.441490043536319e-05,
        -0.000128992586144741,
        1.2430604318169105e-06,
        -7.596891244506661e-05,
        -1.3238814850522824e-05,
        -0.015186036313949124
      ]
    ]
  },
  "cues": [
    [
      0,
      8
    ],
    [
      1,
      8
    ],
    [
      3,
      6
    ],
    [
      5,
      8
    ],
    [
      4,
      9
    ]
  ],
  "env": {
    "delay": 3,
    "grid_size": 10,
    "max_steps": 200,
    "noise": 0.1,
    "num_cues": 5,
    "reward_sparse_prob": 0.3
  },
  "seed": 19
}