{
  "agent": {
    "action_size": 4,
    "cue_exploration_bias": 0.25555555555555554,
    "cue_regularization": 0.018611111111111113,
    "epsilon": 0.05,
    "state_size": 11,
    "target_weights": [
      [
        0.04094292535481111,
        0.05753308632186673,
        -0.02845551380877161,
        -0.04383884421969437,
        -4.675259358648731e-07,
        -3.725769595702709e-06,
        3.3538914253926346e-05,
        4.568007310501698e-05,
        1.3e-322,
        4.59492161624089e-39,
        5.335472534636183e-79,
        -0.00876475461563681
      ],
      [
        0.12498525447623471,
        0.10265828974676482,
        -0.04447268663556951,
        -0.00806554220851704,
        5.059525716599964e-05,
        -8.000087783390928e-06,
        2.7397825995830343e-05,
        3.084308251378011e-06,
        6.224616886473517e-06,
        2.0369798026853432e-05,
        1.7275651562913007e-07,
        0.06039957222016179
      ],
      [
        0.03203677470357536,
        0.06624698241906947,
        -0.01591445450644646,
        -0.01733273455345759,
        -0.0003267848501724099,
        3.605219966867213e-05,
        1.8726598758058384e-21,
        3.5807585644281465e-15,
        6.715261457542814e-08,
        3.887160551870294e-40,
        1.5916775269013548e-58,
        0.0026868685437129633
      ],
      [
        0.1030602042002966,
        0.13689942677087544,
        -0.02371333937909789,
        -0.053029741379141605,
        0.00010552504799542411,
        -3.136270010018631e-05,
        1.683982895644045e-09,
        2.3891917211450022e-05,
        9.011975819223984e-08,
        -1.927803534290836e-06,
        -2.6821419216697822e-08,
        0.05457752500682792
      ]
    ],
    "weights": [
      [
        0.04169982337371163,
        0.05832536686594566,
        -0.028244770871941927,
        -0.043663483808043094,
        -5.134072356300118e-05,
        7.776412370048401e-07,
        5.4208938599804676e-05,
        4.124699212028317e-06,
        1.3e-322,
        4.149001584622927e-40,
        4.817684794159303e-80,
        -0.0077971136599066125
      ],
      [
        0.1243051464790466,
        0.10199857688914239,
        -0.044270109350117694,
        -0.0078833600626309,
        9.287754327534508e-05,
        1.7182440621283874e-05,
        1.912673395085572e-05,
        3.373576733482514e-05,
        -1.945183564472453e-06,
        1.8392984984367399e-06,
        1.559911391231922e-08,
        0.0599220415084255
      ],
      [
        0.03245528477238497,
        0.06664935878579566,
        -0.015788669630288563,
        -0.017190815975216274,
        -8.14986102305934e-05,
        -3.366908418661791e-06,
        1.6909252085424198e-22,
        3.2332592803005577e-16,
        6.063570340356758e-09,
        3.509926095885785e-41,
        1.4372111502361296e-59,
        0.0032311634886804685
      ],
      [
        0.10103862139218733,
        0.1351721841921007,
        -0.023657908677002855,
        -0.05326865090638109,
        0.0005434074120047226,
        -8.458428684779377e-05,
        1.5205586266825137e-10,
        6.375357880927209e-06,
        6.559412733824128e-06,
        -3.7476153603720543e-06,
        -2.4218500363223856e-09,
        0.0526113729008137
      ]
    ]
  },
  "cues": [
    [
      0,
      1
    ],
    [
      1,
      5
    ],
    [
      2,
      4
    ],
    [
      4,
      9
    ],
    [
      3,
      9
    ]
  ],
  "env": {
    "delay": 1,
    "grid_size": 10,
    "max_steps": 200,
    "noise": 0.05,
    "num_cues": 5,
    "reward_sparse_prob": 0.65
  },
  "seed": 2
}