{
  "agent": {
    "action_size": 4,
    "cue_exploration_bias": 0.25555555555555554,
    "cue_regularization": 0.018611111111111113,
    "epsilon": 0.05,
    "state_size": 11,
    "target_weights": [
      [
        0.07769772806557498,
        0.03908407231271424,
        0.009146798705105177,
        0.002671547821107593,
        -7.716546109520209e-07,
        -2.190045848111994e-07,
        7.721605577874827e-07,
        7.877427998890865e-06,
        -1.3e-322,
        1.1817186883491722e-225,
        7.557353340281989e-147,
        0.06380127329893108
      ],
      [
        0.1759538634148962,
        0.13963060077245817,
        -0.07194521485397846,
        -0.005515755872325562,
        -0.0001759406220150029,
        0.0001614283179677987,
        -2.9331535343078662e-05,
        -1.4416722245220772e-05,
        1.0997539201055177e-174,
        -1.3e-322,
        -8.524862394726107e-153,
        0.11848593672328976
      ],
      [
        0.06619090797647888,
        0.06452970954057642,
        -0.015099318376942969,
        0.01543278144330136,
        -6.2885489864119355e-06,
        -7.4061527355757305e-06,
        1.0188480845494748e-16,
        7.399156296014674e-10,
        1.3e-322,
        3.078035984896269e-213,
        -1.928039576229132e-199,
        0.06628489792113326
      ],
      [
        0.1285420396776158,
        0.16293125978078216,
        -0.008443863975775436,
        -0.041716662541833635,
        0.0003187474063265826,
        7.651276583350337e-05,
        -2.0019889800008016e-06,
        3.832407459217724e-07,
        -1.3e-322,
        -6.723917046836305e-232,
        1.2435295117741587e-122,
        0.1429335968227318
      ]
    ],
    "weights": [
      [
        0.07882991979200708,
        0.040096071613333006,
        0.00928832267090919,
        0.002933264212724929,
        -7.407046134709701e-05,
        -1.535219518001413e-05,
        1.4006497053624165e-09,
        1.4289148926843805e-08,
        -1.3e-322,
        2.1435618744891535e-228,
        1.3708554034041913e-149,
        0.06507498899116719
      ],
      [
        0.17685143641954537,
        0.1402897545316209,
        -0.07185113833775389,
        -0.005183260110614611,
        -0.0016644375322224397,
        5.626181810998506e-05,
        -9.18940784475345e-06,
        -1.3906060839918089e-06,
        1.9948830442475173e-177,
        -1.3e-322,
        -1.5463553377605378e-155,
        0.11947758624416364
      ],
      [
        0.06740105898639573,
        0.06548316759626581,
        -0.01493085399000051,
        0.01585793878447128,
        -6.111933595326467e-05,
        -8.668075959663761e-05,
        1.848125049953721e-19,
        1.342159474661452e-12,
        1.3e-322,
        5.583359771306049e-216,
        -3.497340076667913e-202,
        0.06766351331799259
      ],
      [
        0.12577748094356275,
        0.15975352246233854,
        -0.00802192315315594,
        -0.04088154313482377,
        0.0003913260453881509,
        5.454378998045616e-05,
        6.018034025383917e-05,
        2.932675679778816e-06,
        -1.3e-322,
        -1.2196754076015117e-234,
        2.2556827420280087e-125,
        0.14059097891129838
      ]
    ]
  },
  "cues": [
    [
      5,
      2
    ],
    [
      6,
      0
    ],
    [
      1,
      8
    ],
    [
      1,
      5
    ],
    [
      9,
      0
    ]
  ],
  "env": {
    "delay": 1,
    "grid_size": 10,
    "max_steps": 200,
    "noise": 0.05,
    "num_cues": 5,
    "reward_sparse_prob": 0.65
  },
  "seed": 7
}