{
  "agent": {
    "action_size": 4,
    "cue_exploration_bias": 0.85,
    "cue_regularization": 0.0037500000000000007,
    "epsilon": 0.05,
    "state_size": 11,
    "target_weights": [
      [
        -0.027603132826306245,
        -0.02109470566162628,
        -0.04777014733380276,
        -0.032143495936256684,
        -8.080569032422648e-06,
        -1.8308807282537657e-06,
        -2.1434426918644198e-86,
        -5.993383052981155e-09,
        -9.203117044457768e-07,
        -1.4278839230050575e-05,
        6.142276593355198e-69,
        -0.07110744387645801
      ],
      [
        0.006121088595756744,
        -0.04310560049856788,
        -0.04441427277485805,
        -0.05984334604588763,
        -3.4217689096222956e-05,
        0.00014669652094665217,
        -8.191747795334175e-83,
        -4.868549987791774e-06,
        -4.0091634799008e-05,
        -0.00045606143161282747,
        2.7291536931433128e-67,
        -0.07130423454021234
      ],
      [
        -0.009880388322829727,
        -0.04641190458762475,
        -0.031725845735966714,
        -0.05310992850133231,
        6.434894276016443e-06,
        -2.0766132771788736e-05,
        1.864797240065223e-76,
        -3.540367288560834e-07,
        -2.197843885515966e-06,
        3.8813934547498636e-07,
        1.8759727593500753e-76,
        -0.06949500184395566
      ],
      [
        -0.03862900717763597,
        -0.05136257249896206,
        -0.018260170472455258,
        -0.052373925621649726,
        -6.633068846718315e-07,
        6.148770159321865e-05,
        -5.056371837900983e-81,
        -1.1342956454468057e-06,
        8.981569839289745e-06,
        1.1313127331063227e-06,
        4.0890973948209984e-75,
        -0.04627139595779132
      ]
    ],
    "weights": [
      [
        -0.02771803370381474,
        -0.02121723303625378,
        -0.04781299639325694,
        -0.032178718498591864,
        -4.809785235908889e-06,
        8.750583231562693e-07,
        -5.064683230494753e-87,
        -1.4161604020288492e-09,
        -1.83530689772226e-05,
        -3.0288703377378242e-05,
        1.45134205721952e-69,
        -0.0712651938134207
      ],
      [
        0.010078905598017038,
        -0.04013070479243038,
        -0.04564981276856108,
        -0.06009596474346789,
        -0.0006467135214851173,
        6.248824790380682e-05,
        -1.935606109038707e-83,
        -4.268641360532151e-05,
        -9.577695298070146e-05,
        -0.0018062367821231014,
        6.448644041461545e-68,
        -0.06858195753165501
      ],
      [
        -0.009874433096117134,
        -0.04636005997129441,
        -0.031714570369005206,
        -0.053144542523988564,
        2.0089151205493434e-06,
        -1.7439458133736223e-05,
        4.406279368176664e-77,
        -8.36543888214225e-08,
        2.2610324659951993e-06,
        9.171240460888966e-08,
        4.432685702868457e-77,
        -0.06947777125028153
      ],
      [
        -0.03879823255896164,
        -0.05137317536245568,
        -0.01823406442772091,
        -0.05250644209474745,
        2.3447743963509506e-06,
        1.710065865531302e-05,
        -1.1947565359112913e-81,
        -2.68019674877365e-07,
        5.9543543123821605e-06,
        1.732917651689337e-05,
        9.662018528424314e-76,
        -0.046414515294382674
      ]
    ]
  },
  "cues": [
    [
      2,
      6
    ],
    [
      6,
      4
    ],
    [
      7,
      3
    ],
    [
      7,
      8
    ],
    [
      2,
      8
    ]
  ],
  "env": {
    "delay": 6,
    "grid_size": 10,
    "max_steps": 200,
    "noise": 0.2,
    "num_cues": 5,
    "reward_sparse_prob": 0.1
  },
  "seed": 21
}