{
  "agent": {
    "action_size": 4,
    "cue_exploration_bias": 0.8177777777777777,
    "cue_regularization": 0.0045555555555555575,
    "epsilon": 0.05,
    "state_size": 11,
    "target_weights": [
      [
        -0.031473340687013185,
        -0.046922434160199616,
        -0.049155459590776135,
        -0.06457676265817663,
        -5.836656690502579e-06,
        1.4091830557426006e-05,
        3.43640626571171e-122,
        -1.7363573684226043e-05,
        -3.0382489847793586e-06,
        -6.783753975011746e-06,
        3.0404043236841306e-07,
        -0.062429419478498976
      ],
      [
        0.023942875717654986,
        -0.04729524685498359,
        -0.07364698511639874,
        -0.07494712472818597,
        -3.1862474209523416e-05,
        0.0001585488379832826,
        -3.538083375496509e-13,
        -5.053507094177449e-05,
        4.282807441617725e-08,
        -3.98590536398636e-05,
        2.945469111007598e-14,
        -0.08503692235164823
      ],
      [
        -0.02576175006407853,
        -0.0431253443373005,
        -0.03296488313170435,
        -0.050526765435784535,
        -9.278436822399146e-06,
        -2.6584278667858106e-06,
        2.168828164620945e-126,
        8.187678099131853e-06,
        -8.903258298315355e-52,
        4.848951242409378e-08,
        6.624731836417155e-05,
        -0.09153210632851261
      ],
      [
        -0.05342386020081895,
        -0.05167743060870074,
        -0.02625398915000496,
        -0.034691325314361005,
        1.3523808888043138e-05,
        4.300471349572065e-06,
        2.7792106046115898e-58,
        6.682290362597639e-127,
        -1.5280373593295952e-09,
        4.638295079678714e-09,
        3.919648242650641e-05,
        -0.07890345621122187
      ]
    ],
    "weights": [
      [
        -0.03151723706882551,
        -0.04697534297494043,
        -0.049189197296458674,
        -0.0646014879309307,
        -9.900949583621397e-06,
        1.2042224876105268e-05,
        2.565631268670079e-122,
        -2.4374218177197877e-05,
        -2.2683658434491376e-06,
        -1.8722338280234033e-05,
        2.2699750259674667e-07,
        -0.06250705356599384
      ],
      [
        0.023956034473106833,
        -0.04727013094284105,
        -0.07353977702251377,
        -0.07485187379099163,
        -2.5289188759895062e-05,
        0.00010148738424925364,
        -2.641543705093791e-13,
        -6.252241640733026e-05,
        3.197556936019499e-08,
        -2.975888950570643e-05,
        8.857565011384257e-05,
        -0.08491655550231132
      ],
      [
        -0.02574371108798681,
        -0.04312083459327758,
        -0.032942334411589703,
        -0.050490687483601096,
        -1.4973819077853125e-05,
        -6.008045352191224e-06,
        1.6192536403641423e-126,
        6.112945130655915e-06,
        -6.6471994627426155e-52,
        3.620241602954233e-08,
        4.9460447432125297e-05,
        -0.09149151863230624
      ],
      [
        -0.053424134007541375,
        -0.05167743060870074,
        -0.026220387924696973,
        -0.034657997895775436,
        1.057246179608027e-05,
        3.2107448629031035e-06,
        2.0749670085746373e-58,
        4.989018112229079e-127,
        -1.1408372950280722e-09,
        3.4629650773488097e-09,
        5.295958031883709e-05,
        -0.07887012879263632
      ]
    ]
  },
  "cues": [
    [
      9,
      0
    ],
    [
      6,
      7
    ],
    [
      3,
      7
    ],
    [
      7,
      4
    ],
    [
      2,
      0
    ]
  ],
  "env": {
    "delay": 5,
    "grid_size": 10,
    "max_steps": 200,
    "noise": 0.16,
    "num_cues": 5,
    "reward_sparse_prob": 0.18
  },
  "seed": 10
}