{
  "agent": {
    "action_size": 4,
    "cue_exploration_bias": 0.5666666666666667,
    "cue_regularization": 0.010833333333333334,
    "epsilon": 0.05,
    "state_size": 11,
    "target_weights": [
      [
        0.0005443101907678643,
        0.0012067825191717035,
        -0.04974295463567684,
        -0.029792691794657798,
        -7.991465886199988e-06,
        -5.437681290094865e-05,
        2.4934928770543953e-07,
        4.217648960729088e-05,
        1.827198148070711e-218,
        7.618477481560373e-11,
        2.27e-322,
        -0.030681829813777314
      ],
      [
        0.04692496789125403,
        0.015041394616742046,
        -0.07957156342963659,
        -0.03626180020092523,
        4.756225936080978e-05,
        8.470610258968285e-05,
        2.738508496391711e-16,
        2.198881641643678e-06,
        1.676967189749422e-237,
        1.298960497813103e-06,
        2.27e-322,
        -0.044945377366635834
      ],
      [
        -0.00976363372408552,
        -0.013362642750177824,
        -0.0745960700880629,
        -0.007884861929220582,
        -3.2441643706713614e-05,
        5.0151028870804584e-06,
        3.738672023790558e-05,
        3.618062049786487e-11,
        2.3998874293491685e-219,
        4.876511891612854e-05,
        2.27e-322,
        -0.04953391917683659
      ],
      [
        0.014282626061117257,
        0.007440363638107422,
        -0.02492658404094226,
        -0.042994904093961686,
        4.7839218570965025e-05,
        4.1517526239432126e-05,
        2.09432188813561e-05,
        7.763851370045886e-09,
        -3.127707592617996e-129,
        -3.907316394395605e-06,
        -1.1629965161580619e-295,
        -0.01409052379041948
      ]
    ],
    "weights": [
      [
        0.0006351771584238667,
        0.0013107997392900776,
        -0.04972419924770976,
        -0.029787086659153084,
        -9.245543604577477e-06,
        -4.633291426027228e-05,
        1.4782327898515905e-07,
        2.500374894673186e-05,
        1.0832291685649373e-218,
        4.516509080744745e-11,
        2.27e-322,
        -0.030572207458154227
      ],
      [
        0.0485335892437458,
        0.016976039651499835,
        -0.07934185048277868,
        -0.03635811093633335,
        -0.00014141149809485663,
        -0.00038936898250598647,
        1.623486913439896e-16,
        1.3321414455071898e-05,
        9.941668212508762e-238,
        -3.804250917186625e-05,
        2.27e-322,
        -0.04310704306728615
      ],
      [
        -0.00976363372408552,
        -0.013362642750177824,
        -0.0745960700880629,
        -0.007884861929220582,
        -1.923258009888448e-05,
        2.973134433381414e-06,
        2.21642003750045e-05,
        2.1449180813502576e-11,
        1.4227400938908688e-219,
        2.8909726771704244e-05,
        2.27e-322,
        -0.04953391917683659
      ],
      [
        0.01425329982650105,
        0.007390219174853794,
        -0.02486171510897649,
        -0.042909216933358495,
        3.821541057421394e-05,
        4.245112721790827e-05,
        4.0330715949989346e-05,
        -1.14777026694964e-05,
        -1.8542182185567334e-129,
        -1.611343744447174e-05,
        -6.894664109483675e-296,
        -0.014054981093069912
      ]
    ]
  },
  "cues": [
    [
      2,
      1
    ],
    [
      7,
      5
    ],
    [
      3,
      3
    ],
    [
      7,
      7
    ],
    [
      2,
      7
    ]
  ],
  "env": {
    "delay": 3,
    "grid_size": 10,
    "max_steps": 200,
    "noise": 0.1,
    "num_cues": 5,
    "reward_sparse_prob": 0.3
  },
  "seed": 18
}