{
  "agent": {
    "action_size": 4,
    "cue_exploration_bias": 0.25555555555555554,
    "cue_regularization": 0.018611111111111113,
    "epsilon": 0.05,
    "state_size": 11,
    "target_weights": [
      [
        0.0635428831258807,
        0.061575720695131425,
        -0.005481098811931242,
        -0.025952018020082367,
        -5.729940114391633e-05,
        -0.00024430285063777973,
        2.9983322727839835e-08,
        1.1562331354313595e-70,
        2.1513178883491554e-109,
        2.4368426842129558e-05,
        3.757710202926937e-118,
        0.0667363629795493
      ],
      [
        0.14874661564901798,
        0.13062017845479787,
        -0.07286136511444645,
        -0.015939290200506502,
        3.8652900511431545e-05,
        0.00041798426690997864,
        4.463027865526332e-05,
        1.730339028477594e-89,
        -2.7945630625269782e-11,
        5.702256606825553e-05,
        7.1193763018297765e-124,
        0.1339402543021964
      ],
      [
        0.058872072590478275,
        0.02676859720467723,
        -0.00574469491904401,
        -0.01729019508902365,
        -0.00010414606864654688,
        -0.0003815769990555416,
        5.425682801023915e-05,
        1.2351757744800577e-246,
        6.606289362695415e-60,
        6.341061390308918e-21,
        1.3e-322,
        0.011987963940968554
      ],
      [
        0.15735606318843334,
        0.17467433489618917,
        0.006681752190307367,
        -0.03288311788048436,
        -0.0001463201085217452,
        -0.0011309833945832427,
        -4.6780619167614196e-05,
        -1.027592401518577e-31,
        5.700839235938805e-08,
        5.911919970663023e-06,
        -5.8340322959621025e-183,
        0.08916087176546654
      ]
    ],
    "weights": [
      [
        0.0640937646102633,
        0.06205489626717425,
        -0.005386627085255859,
        -0.02578584038106721,
        -5.2346762697629984e-05,
        -9.251623303637337e-05,
        1.4840947410813616e-09,
        5.723046546020088e-72,
        1.0648451452409338e-110,
        1.2061723262996036e-06,
        1.85996662254298e-119,
        0.06738171619060727
      ],
      [
        0.15135703012396132,
        0.13287998449864374,
        -0.07224806157656824,
        -0.014975378231530645,
        -0.00016047982237516964,
        -0.0003960731501257468,
        8.31155785412432e-05,
        8.564718045965688e-91,
        -1.3832344007909459e-12,
        9.73561384940901e-05,
        3.523901945501979e-125,
        0.13716397231501795
      ],
      [
        0.061317216064860604,
        0.029548901599013886,
        -0.005151873235803538,
        -0.01703253432573751,
        -6.0736139898117134e-05,
        -0.0004907334390408234,
        2.6855687025969934e-06,
        6.113791616280353e-248,
        3.269937555031061e-61,
        3.1386567618449975e-22,
        1.3e-322,
        0.01502592909859135
      ],
      [
        0.15914821363635273,
        0.17704102499732907,
        0.00699628410004042,
        -0.03314312562397183,
        -0.00011226562903153962,
        -0.0014254965155121257,
        -4.5229200152634975e-05,
        -5.0863091222803875e-33,
        2.821763820709345e-09,
        2.314005266742734e-06,
        -2.887690843449081e-184,
        0.09126755412311892
      ]
    ]
  },
  "cues": [
    [
      3,
      4
    ],
    [
      1,
      6
    ],
    [
      7,
      2
    ],
    [
      1,
      1
    ],
    [
      0,
      6
    ]
  ],
  "env": {
    "delay": 1,
    "grid_size": 10,
    "max_steps": 200,
    "noise": 0.05,
    "num_cues": 5,
    "reward_sparse_prob": 0.65
  },
  "seed": 4
}