{
  "agent": {
    "action_size": 4,
    "cue_exploration_bias": 0.8177777777777777,
    "cue_regularization": 0.0045555555555555575,
    "epsilon": 0.05,
    "state_size": 11,
    "target_weights": [
      [
        -0.017437337806199483,
        -0.020598259365942506,
        -0.05356586841532391,
        -0.040974523847988616,
        -5.19667112015239e-05,
        -8.313268910260284e-05,
        5.426909714195971e-182,
        -1.6630367782483104e-222,
        5.930614668871263e-06,
        1.4877009489827133e-198,
        8.101762286184678e-222,
        -0.08074562752566566
      ],
      [
        0.007568388954599868,
        -0.0065646122477332385,
        -0.07868765757432314,
        -0.030382609411212704,
        0.001429440184841307,
        -0.0014528546818993137,
        1.6955911337617542e-178,
        1.72404608513717e-219,
        -5.2469657688077896e-05,
        1.527192651730269e-194,
        6.387205815461244e-198,
        -0.0833339945528371
      ],
      [
        -0.009320370042997041,
        -0.0278691217150047,
        -0.03279163823689432,
        -0.04777784029390674,
        -0.00019666157243555655,
        4.208572192220908e-06,
        2.4090461432052105e-181,
        2.84292527256572e-219,
        2.4289160394327546e-06,
        1.0276598483915972e-195,
        3.634107046150413e-202,
        -0.08701030301059628
      ],
      [
        -0.04644484513824053,
        -0.0333134146300954,
        -0.031806641089364714,
        -0.03290626098702183,
        -0.00030872344043732366,
        -6.576356075052349e-06,
        -1.0346433431624675e-06,
        -1.284083878708839e-94,
        3.0592541930616865e-05,
        -1.3778570215043022e-74,
        8.164730876847579e-07,
        -0.05717494530163201
      ]
    ],
    "weights": [
      [
        -0.01695919174757427,
        -0.02008323185518743,
        -0.053426041789476984,
        -0.040871578674271554,
        -6.781950563222504e-05,
        -0.00016235694055660775,
        1.1702367144052123e-182,
        -3.586104795923746e-223,
        3.136722297183266e-05,
        3.208017752720218e-199,
        1.7470310320210452e-222,
        -0.08012765484119355
      ],
      [
        0.00710386777127338,
        -0.007254760246209726,
        -0.07898220449193034,
        -0.030451529513669924,
        0.0007461304510409238,
        -0.00017308168085007234,
        3.656303682660295e-179,
        3.717662781226133e-220,
        -4.226052650230397e-05,
        3.2931760525693432e-195,
        1.3773110557124198e-198,
        -0.08409306265377071
      ],
      [
        -0.009043889014609702,
        -0.02750215144295195,
        -0.032661642299814025,
        -0.04773833360049187,
        -0.0001934115281676736,
        4.073661071050428e-06,
        5.194769015781735e-182,
        6.1303683043854556e-220,
        5.237615650978317e-07,
        2.216003854573275e-196,
        7.836440466955449e-203,
        -0.08660382604512863
      ],
      [
        -0.04591776044631026,
        -0.03283934900436523,
        -0.03152579788986978,
        -0.03257239872132681,
        -0.0001329770925526187,
        -8.276226651727714e-06,
        2.1354579213010303e-06,
        -2.7689461929137045e-95,
        6.293035518553334e-05,
        -2.9711547799431884e-75,
        1.7606093225268406e-07,
        -0.056367017410206846
      ]
    ]
  },
  "cues": [
    [
      2,
      3
    ],
    [
      0,
      9
    ],
    [
      7,
      2
    ],
    [
      1,
      5
    ],
    [
      1,
      3
    ]
  ],
  "env": {
    "delay": 5,
    "grid_size": 10,
    "max_steps": 200,
    "noise": 0.16,
    "num_cues": 5,
    "reward_sparse_prob": 0.18
  },
  "seed": 22
}