{
  "agent": {
    "action_size": 4,
    "cue_exploration_bias": 0.25555555555555554,
    "cue_regularization": 0.018611111111111113,
    "epsilon": 0.05,
    "state_size": 11,
    "target_weights": [
      [
        0.054440531936211865,
        0.0773590511375991,
        -0.023806992715397046,
        0.0063185294154384985,
        -1.6471978837263534e-05,
        -0.00014517543744751763,
        1.259669692664681e-146,
        6.927821773693342e-154,
        1.2353653238414475e-117,
        2.291748015235461e-168,
        9.544505365178674e-222,
        0.06175230101326579
      ],
      [
        0.15174042252193848,
        0.10920545215458631,
        -0.03773500296129422,
        -0.021513864206637062,
        -0.00016156696380799726,
        -0.0002989604088969563,
        6.09997961715695e-134,
        -4.8514656944351917e-123,
        -1.2745632018097455e-05,
        -4.0533042140732913e-100,
        -3.713060028465002e-54,
        0.12191555770160374
      ],
      [
        0.026811006070789407,
        0.03795762642320232,
        -0.014981500227990514,
        -0.0060129061373510855,
        9.738134653281627e-06,
        -2.4875033420442346e-05,
        1.3e-322,
        1.0213467271933489e-181,
        1.8079060256800044e-37,
        7.63275100090048e-223,
        6.0362388201407144e-176,
        0.03614733219278828
      ],
      [
        0.12197506756795139,
        0.17709039482981803,
        -0.01062343456366366,
        -0.06825158191633249,
        5.04474985807267e-05,
        -0.0005689966796632627,
        -8.257129803774372e-144,
        6.271512843677156e-115,
        5.6630717116957805e-08,
        1.3965551527690407e-129,
        1.9950564990411224e-19,
        0.10128038233563728
      ]
    ],
    "weights": [
      [
        0.05489131503460831,
        0.07791827525939463,
        -0.023641560078798224,
        0.006375521028638245,
        4.091636004052644e-06,
        -1.7808244874366006e-05,
        1.3871693382916173e-148,
        7.629033231154046e-156,
        1.3604049607611852e-119,
        2.5237112525112935e-170,
        1.051056897600543e-223,
        0.062368516748261056
      ],
      [
        0.15357326031983165,
        0.11114179577467222,
        -0.03697458514589285,
        -0.020856952213428346,
        -4.9766277825596693e-05,
        -0.0002869412968927949,
        6.717399599592032e-136,
        -5.342515181783923e-125,
        1.6722071713280073e-06,
        -4.4635664073465855e-102,
        -4.088883818286737e-56,
        0.12450881331489835
      ],
      [
        0.02716001423346536,
        0.038422970640103596,
        -0.014806996146652537,
        -0.005954738110238426,
        3.71643537210157e-05,
        -0.0001485023910418869,
        1.3e-322,
        1.12472410186362e-183,
        1.9908963595296584e-39,
        8.405313088756082e-225,
        6.647207167612387e-178,
        0.036670844436802214
      ],
      [
        0.12043343848422958,
        0.1758887043211077,
        -0.010745533616772024,
        -0.06871361954445226,
        3.57034223051138e-05,
        7.229567497444518e-05,
        -9.09288947157253e-146,
        6.906294858176625e-117,
        6.236269305164705e-10,
        1.537909896884428e-131,
        2.1969895915928445e-21,
        0.09961665419880716
      ]
    ]
  },
  "cues": [
    [
      1,
      9
    ],
    [
      8,
      3
    ],
    [
      4,
      4
    ],
    [
      4,
      1
    ],
    [
      7,
      4
    ]
  ],
  "env": {
    "delay": 1,
    "grid_size": 10,
    "max_steps": 200,
    "noise": 0.05,
    "num_cues": 5,
    "reward_sparse_prob": 0.65
  },
  "seed": 14
}