{
  "agent": {
    "action_size": 4,
    "cue_exploration_bias": 0.25555555555555554,
    "cue_regularization": 0.018611111111111113,
    "epsilon": 0.05,
    "state_size": 11,
    "target_weights": [
      [
        -0.0344777303493862,
        -0.03695851876590368,
        -0.039902741599016314,
        -0.05787645083634382,
        -3.908979436205727e-06,
        -1.1935498726987718e-05,
        1.5135336866246979e-05,
        -9.044626875370216e-108,
        1.3e-322,
        1.3e-322,
        4.918794652144113e-05,
        -0.07316007578488605
      ],
      [
        -0.015859926880396457,
        0.0008535282405132093,
        -0.07504802782580533,
        -0.029454023565408285,
        -0.0002894487421930124,
        -5.111532472266918e-05,
        -2.204773756618553e-05,
        -3.1159761668294194e-06,
        1.8612095593546973e-73,
        4.794542309083283e-41,
        0.0021137987403513415,
        -0.07824590371342005
      ],
      [
        -0.03927033045216658,
        -0.017342665962400198,
        -0.04976551152929649,
        -0.04551511482795101,
        1.3499958963548888e-05,
        -9.085344149753622e-06,
        5.240415609526079e-17,
        -2.4237919973227074e-127,
        1.3e-322,
        1.3e-322,
        7.385129016126672e-07,
        -0.08340703103932498
      ],
      [
        -0.02948892144288042,
        -0.02720531712918954,
        -0.05377213691728288,
        -0.05611559819147972,
        8.591580734281402e-07,
        -4.4595588429264884e-05,
        9.169620984156367e-15,
        4.282961207032245e-09,
        -1.1932739138414259e-05,
        -1.3e-322,
        4.958806745341991e-05,
        -0.04729644027377558
      ]
    ],
    "weights": [
      [
        -0.03442671925075303,
        -0.03689887733905843,
        -0.039853603519102956,
        -0.05783594308464255,
        -1.7853677769538255e-06,
        -1.0789809964200986e-05,
        8.296758803534182e-06,
        -4.958005779194605e-108,
        1.3e-322,
        1.3e-322,
        2.6963425521081877e-05,
        -0.07305992660633953
      ],
      [
        -0.01598782901705711,
        0.0006960653600531745,
        -0.07508437730849367,
        -0.029460812304297212,
        -0.0001584732203354219,
        -2.9416697016408686e-05,
        -1.2085939174449304e-05,
        -1.7080890185799448e-06,
        1.0202618503480405e-73,
        2.628230971225659e-41,
        0.001041809337711068,
        -0.078410155332769
      ],
      [
        -0.03924751361993635,
        -0.01729703229793974,
        -0.0497369904890087,
        -0.04550941061989345,
        1.3232965159131068e-07,
        -1.2248287581558212e-05,
        2.8726459626725536e-17,
        -1.3286534531364772e-127,
        1.3e-322,
        1.3e-322,
        4.0483165139474114e-07,
        -0.08335569316680697
      ],
      [
        -0.02707112224232092,
        -0.024520872026587044,
        -0.053472792045049185,
        -0.056082899221289007,
        -0.0002603418496841807,
        -1.3676579976485988e-05,
        5.026523974833455e-15,
        7.488295542144763e-06,
        -6.5411863225654515e-06,
        -1.3e-322,
        0.002268472301464543,
        -0.04457929620098238
      ]
    ]
  },
  "cues": [
    [
      7,
      4
    ],
    [
      8,
      5
    ],
    [
      2,
      6
    ],
    [
      0,
      5
    ],
    [
      7,
      9
    ]
  ],
  "env": {
    "delay": 1,
    "grid_size": 10,
    "max_steps": 200,
    "noise": 0.05,
    "num_cues": 5,
    "reward_sparse_prob": 0.65
  },
  "seed": 12
}