{
  "agent": {
    "action_size": 4,
    "cue_exploration_bias": 0.25555555555555554,
    "cue_regularization": 0.018611111111111113,
    "epsilon": 0.05,
    "state_size": 11,
    "target_weights": [
      [
        0.04892707264857787,
        0.062241628239651264,
        0.01237619376668702,
        0.004990302650234752,
        -1.8513265879788405e-05,
        5.5889266279730716e-06,
        2.9322907961741598e-117,
        5.666197137968085e-54,
        5.2238043515860454e-05,
        3.908918095621151e-15,
        4.239840373482604e-197,
        0.035522398035746534
      ],
      [
        0.16528035948695527,
        0.1334665489491031,
        -0.0514893767691795,
        0.008886278766665473,
        9.206349937589273e-05,
        8.5842057282772e-05,
        1.8546795707410994e-71,
        9.097786836734058e-30,
        2.163996709128064e-05,
        5.743085554419287e-06,
        8.63770702540295e-182,
        0.14353469774503727
      ],
      [
        0.07547299600296938,
        0.09492360304712753,
        -0.00037100421779933697,
        -0.0036794115825289544,
        -0.00011220080366827322,
        -5.710109841659191e-06,
        4.637028800973907e-111,
        6.48601837542523e-123,
        1.176078525950795e-10,
        7.639906982889142e-12,
        5.751424076643884e-69,
        0.08651581447096535
      ],
      [
        0.14775401890932333,
        0.18097502261258097,
        -0.019886795560885656,
        -0.0640061755012609,
        0.00028541749730625195,
        6.166478530688743e-05,
        -4.974483637560096e-07,
        -4.591073569272609e-07,
        -1.2473850326421239e-06,
        -3.819290972259362e-05,
        -1.1004731511088507e-13,
        0.11937938790781205
      ]
    ],
    "weights": [
      [
        0.04953895433010435,
        0.06299396620657942,
        0.012650195628223934,
        0.005123848226369992,
        -5.501964069176602e-05,
        -5.453365657226029e-06,
        7.184073564622133e-120,
        1.3882107846849548e-56,
        4.933150859400208e-05,
        9.576797496914113e-18,
        1.0387552689213171e-199,
        0.036408281578809924
      ],
      [
        0.16303029864800622,
        0.1311816868300318,
        -0.05162192815000763,
        0.008788528665959763,
        0.0005561094167090447,
        5.357159099387993e-05,
        4.543940352842982e-74,
        2.228945710146625e-32,
        1.5766746093577197e-05,
        1.6318430267687018e-05,
        2.1162267664964056e-184,
        0.14115208552526023
      ],
      [
        0.07598943264020488,
        0.09553207884569277,
        -0.00022917034765793283,
        -0.0036296168737172826,
        -2.6649039333254564e-05,
        -8.575833337382805e-06,
        1.1360659069329736e-113,
        1.5890659006719522e-125,
        2.8813767922426224e-13,
        1.8717670792936607e-14,
        1.4090912716384768e-71,
        0.08717408497834225
      ],
      [
        0.14574301944624937,
        0.1795291549230549,
        -0.019330349968507906,
        -0.06401486168243106,
        0.0001158961051519137,
        6.86535721082069e-06,
        -1.2187418943874142e-09,
        5.312881217174543e-07,
        1.1868844959971278e-05,
        1.0555013637924962e-06,
        -3.607228721483297e-08,
        0.1179248340371158
      ]
    ]
  },
  "cues": [
    [
      0,
      8
    ],
    [
      1,
      8
    ],
    [
      3,
      6
    ],
    [
      5,
      8
    ],
    [
      4,
      9
    ]
  ],
  "env": {
    "delay": 1,
    "grid_size": 10,
    "max_steps": 200,
    "noise": 0.05,
    "num_cues": 5,
    "reward_sparse_prob": 0.65
  },
  "seed": 19
}