{
  "agent": {
    "action_size": 4,
    "cue_exploration_bias": 0.8177777777777777,
    "cue_regularization": 0.0045555555555555575,
    "epsilon": 0.05,
    "state_size": 11,
    "target_weights": [
      [
        -0.06473440666233912,
        -0.0469912027009187,
        -0.06069079809781123,
        -0.046020233844100124,
        -1.733831654295466e-05,
        9.553544720445591e-05,
        -9.66121595e-314,
        -1.095933647632143e-06,
        -2.9766547972045e-311,
        -5.4e-322,
        -1.194811083861452e-12,
        -0.10368458192719997
      ],
      [
        -0.05083346950703738,
        -0.07593504771610339,
        -0.034728959533441066,
        -0.06054097887011449,
        -5.54938309333525e-06,
        -5.1212087733534945e-05,
        -5.4e-322,
        2.0805731518081367e-08,
        -5.4e-322,
        -5.4e-322,
        2.8013073e-317,
        -0.108628229573712
      ],
      [
        -0.054105042202365075,
        -0.07386941314558776,
        -0.051039901579333316,
        -0.07105757401767603,
        -2.8618668653794623e-06,
        9.528367417176911e-07,
        4.409106741676944e-182,
        -1.8325312465765326e-06,
        -3.2169e-319,
        -5.4e-322,
        -2.5264723066166684e-169,
        -0.08901743426910662
      ],
      [
        -0.052928739770626614,
        -0.07253544108287181,
        -0.046251241373698446,
        -0.06866819623593651,
        2.0173177992441818e-07,
        -6.499130210942946e-06,
        -5.4e-322,
        1.9015403820517913e-06,
        -5.4e-322,
        -5.4e-322,
        1.4537197200576833e-178,
        -0.09496566593232761
      ]
    ],
    "weights": [
      [
        -0.06485556802297308,
        -0.04703904250261401,
        -0.0607905564860253,
        -0.04619331379125282,
        -2.1149562580055888e-05,
        -5.690365941401876e-07,
        -3.737433184e-314,
        -2.1637926183247563e-06,
        -1.1515163796394e-311,
        -5.4e-322,
        -4.622116528038716e-13,
        -0.103905501676048
      ],
      [
        -0.050868135798303064,
        -0.07591119950715193,
        -0.03464663029827843,
        -0.06051716413516902,
        2.743178197300932e-05,
        -1.0892129005635369e-05,
        -5.4e-322,
        8.048679563372001e-09,
        -5.4e-322,
        -5.4e-322,
        1.0836846e-317,
        -0.10858056662981508
      ],
      [
        -0.05411789642819126,
        -0.07386478664641946,
        -0.0510352229177893,
        -0.0710703760811265,
        -3.0835772853101382e-06,
        2.17045230422942e-06,
        1.705659197496621e-182,
        -1.981516190322189e-06,
        -1.2445e-319,
        -5.4e-322,
        -9.773636655850714e-170,
        -0.0890256098333888
      ],
      [
        -0.05293773900609637,
        -0.07254492445297504,
        -0.04627123795839083,
        -0.06868770868599543,
        -2.573686675742089e-06,
        -1.1818994301616842e-05,
        -5.4e-322,
        7.35609281444682e-07,
        -5.4e-322,
        -5.4e-322,
        5.623702387743834e-179,
        -0.09499466175248973
      ]
    ]
  },
  "cues": [
    [
      3,
      9
    ],
    [
      8,
      2
    ],
    [
      5,
      9
    ],
    [
      7,
      9
    ],
    [
      1,
      9
    ]
  ],
  "env": {
    "delay": 5,
    "grid_size": 10,
    "max_steps": 200,
    "noise": 0.16,
    "num_cues": 5,
    "reward_sparse_prob": 0.18
  },
  "seed": 3
}