{
  "agent": {
    "action_size": 4,
    "cue_exploration_bias": 0.5666666666666667,
    "cue_regularization": 0.010833333333333334,
    "epsilon": 0.05,
    "state_size": 11,
    "target_weights": [
      [
        -0.021018163813225226,
        0.019752348473790583,
        -0.04428270331140681,
        -0.028464366255519347,
        -1.8363427943747205e-05,
        6.736928593009399e-06,
        2.064936878016655e-05,
        3.322685465033469e-108,
        2.27e-322,
        -5.20284454100705e-281,
        2.9573048842928534e-40,
        -0.04304039267601743
      ],
      [
        0.04288927337857566,
        0.017158612213683016,
        -0.028804924815166076,
        -0.02994949656454427,
        -4.767108232991444e-07,
        -5.131699514581723e-08,
        7.447480753889409e-06,
        -2.695762284295088e-07,
        1.4605524243114787e-08,
        -4.765883926631963e-06,
        -3.1299982916949956e-06,
        0.003960503143066944
      ],
      [
        0.035382130668348846,
        0.01730059060102311,
        -0.0224427981842931,
        -0.046785257344208436,
        -2.370183611652459e-05,
        1.1296542865711876e-05,
        4.59194686567462e-07,
        -2.27e-322,
        2.27e-322,
        -2.27e-322,
        4.983687167466421e-11,
        -0.021453889099438937
      ],
      [
        0.034775608849677585,
        0.07902557614505612,
        -0.02776507112142224,
        -0.053608936415894946,
        0.00018631956270058993,
        -2.9672202297969344e-05,
        1.6740458163393477e-05,
        7.666822490542968e-19,
        2.27e-322,
        4.286218514048043e-09,
        2.0974772718807407e-05,
        -0.043460280904548676
      ]
    ],
    "weights": [
      [
        -0.0207905170594738,
        0.01998648545600436,
        -0.044139673906450516,
        -0.028327827079025404,
        -3.5356128857961217e-06,
        7.107822431683961e-06,
        1.2702577247913423e-06,
        2.0439689580557877e-109,
        2.27e-322,
        -3.2005595616319643e-282,
        1.8192030051031248e-41,
        -0.04266971651730971
      ],
      [
        0.04423899434583077,
        0.018277402597260604,
        -0.028771125068739172,
        -0.02968476623443981,
        -0.0003480090859968271,
        0.00011232145851448721,
        -3.0285142848257763e-06,
        -8.443498715081774e-06,
        5.591856921614054e-06,
        -7.816314058893118e-06,
        -3.5822526965739786e-05,
        0.005344023856748984
      ],
      [
        0.03557831316923656,
        0.01746110443153598,
        -0.0224427981842931,
        -0.04674958867383358,
        -2.135090042524998e-05,
        9.915116889509064e-06,
        2.824762364434622e-08,
        -2.27e-322,
        2.27e-322,
        -2.27e-322,
        3.0657436504781293e-12,
        -0.021257706598551227
      ],
      [
        0.034326800181091514,
        0.07818280690576694,
        -0.027838533859671378,
        -0.053288438583441025,
        9.942479671830502e-06,
        4.9768681197375324e-05,
        -5.871056784309099e-05,
        4.716289682699752e-20,
        2.27e-322,
        2.6366918212253826e-10,
        1.8976513928093203e-05,
        -0.04398255231138391
      ]
    ]
  },
  "cues": [
    [
      6,
      9
    ],
    [
      2,
      3
    ],
    [
      2,
      1
    ],
    [
      2,
      4
    ],
    [
      0,
      7
    ]
  ],
  "env": {
    "delay": 3,
    "grid_size": 10,
    "max_steps": 200,
    "noise": 0.1,
    "num_cues": 5,
    "reward_sparse_prob": 0.3
  },
  "seed": 24
}