{
  "agent": {
    "action_size": 4,
    "cue_exploration_bias": 0.0,
    "cue_regularization": 0.025,
    "epsilon": 0.05,
    "state_size": 11,
    "target_weights": [
      [
        0.12360509511230137,
        0.06073303391172032,
        0.0488964135150781,
        0.019874494148132672,
        -3.615153591264841e-05,
        -0.0004142545335417311,
        4.1873135194107297e-19,
        1.1507774259813108e-234,
        2.5564536414338084e-258,
        3.557476088665702e-260,
        8.078850021044595e-55,
        0.12071214838184145
      ],
      [
        0.2887446599824554,
        0.19552123172464891,
        -0.06705917549324276,
        -0.001574777971868563,
        2.232413184582687e-05,
        -0.00022350934193677047,
        -5.558340567260395e-06,
        -1.1826250073286349e-139,
        -1.0896766536897465e-269,
        9.4e-323,
        1.209400894847187e-05,
        0.22072717776266712
      ],
      [
        0.09718947995842298,
        0.07413763877773044,
        0.02027682287328034,
        0.010590073490920941,
        -1.2392711139448499e-05,
        -5.9448957454032986e-05,
        5.376562775171884e-19,
        6.096591129780961e-195,
        1.347663792209049e-265,
        2.86739255903598e-256,
        6.165569051631838e-69,
        0.14509377655119027
      ],
      [
        0.199214122402311,
        0.2723825473012239,
        0.004634993644045165,
        -0.015287130061712704,
        3.656295124772584e-06,
        0.00010378224205272166,
        -1.4719456880159887e-05,
        2.4235240400282762e-142,
        -8.633198441917807e-50,
        -1.1559879531109634e-265,
        1.1571923138675177e-05,
        0.22523741250023258
      ]
    ],
    "weights": [
      [
        0.12453902533011282,
        0.06157379692218022,
        0.04911796790057502,
        0.02018921574098114,
        -0.00015359406074306743,
        -0.0006335336242059049,
        1.862443821724643e-19,
        5.118456731896915e-235,
        1.137065870024441e-258,
        1.5823031477234567e-260,
        3.593331198771081e-55,
        0.12186763298514983
      ],
      [
        0.2885573996847035,
        0.1953689768148398,
        -0.06706054403224536,
        -0.0016111518988139915,
        1.2992070100680772e-08,
        2.6977465559660857e-05,
        -2.98242159396454e-06,
        -5.260109203922804e-140,
        -4.846691182626455e-270,
        9.4e-323,
        5.379203668784226e-06,
        0.2205385489259126
      ],
      [
        0.09718947995842298,
        0.07413763877773044,
        0.02027682287328034,
        0.010590073490920941,
        -5.512061179343487e-06,
        -2.6441856575816265e-05,
        2.391401091968572e-19,
        2.7116571115600903e-195,
        5.9941728555232856e-266,
        1.2753660625792626e-256,
        2.7423372848480583e-69,
        0.14509377655119027
      ],
      [
        0.1998828318581789,
        0.2731183746135401,
        0.00477501397517614,
        -0.01521422758702993,
        1.7593879765322877e-07,
        -0.000593742032765722,
        -6.546956992476171e-06,
        1.0779411081181738e-142,
        -3.839895681404666e-50,
        -5.1416322453032154e-266,
        3.317946417946805e-05,
        0.2260461422872315
      ]
    ]
  },
  "cues": [
    [
      3,
      0
    ],
    [
      8,
      0
    ],
    [
      2,
      3
    ],
    [
      2,
      5
    ],
    [
      3,
      1
    ]
  ],
  "env": {
    "delay": 0,
    "grid_size": 10,
    "max_steps": 200,
    "noise": 0.0,
    "num_cues": 5,
    "reward_sparse_prob": 1.0
  },
  "seed": 15
}