{
  "agent": {
    "action_size": 4,
    "cue_exploration_bias": 0.85,
    "cue_regularization": 0.0037500000000000007,
    "epsilon": 0.05,
    "state_size": 11,
    "target_weights": [
      [
        -0.03533347964246326,
        -0.029182394235670032,
        -0.038465630398687105,
        -0.03868805133085864,
        -1.1725292890501832e-05,
        -1.730569135667142e-07,
        3.8907724897768403e-07,
        2.7519543563642457e-10,
        2.866033104446331e-07,
        3.6388910536162657e-06,
        8.765281457550522e-63,
        -0.09957997842066693
      ],
      [
        -0.06264327314717731,
        -0.04849443727538849,
        -0.037495796768593936,
        -0.023082787642390894,
        -2.976932747561695e-05,
        7.112029634026587e-05,
        -1.5779316043052842e-05,
        -3.3398796784655384e-06,
        3.1354022605510964e-06,
        2.7931481216748532e-19,
        3.927531964036861e-12,
        -0.07039535488851
      ],
      [
        -0.03565457907823269,
        -0.02980754640175574,
        -0.05238142285520969,
        -0.04208625585225828,
        -4.392505672869497e-05,
        -1.8858306865027354e-06,
        2.3450538861030873e-24,
        3.588386568479501e-07,
        -1.0941539327708514e-05,
        1.964480809726932e-05,
        -1.6815913181985876e-205,
        -0.07662217924764744
      ],
      [
        -0.019671893758166463,
        0.0001098907025498265,
        -0.05604137911648279,
        -0.0867215398143151,
        -0.0004985683000459794,
        -0.00019041478294205618,
        -2.4908806220118944e-05,
        -2.9470350110287022e-05,
        -6.291230893466358e-06,
        -0.00019876688878007863,
        -7.363934465012249e-05,
        -0.08420110831527519
      ]
    ],
    "weights": [
      [
        -0.03532877359059829,
        -0.029140039768885382,
        -0.038427981983767415,
        -0.03868805133085864,
        -2.7705379994792223e-06,
        -2.8535594799342856e-06,
        9.193401931125458e-08,
        2.531407996026651e-05,
        6.77207273011166e-08,
        8.598238043311984e-07,
        2.0711248393587002e-63,
        -0.09953762395388228
      ],
      [
        -0.06262223206734005,
        -0.04849051906680211,
        -0.03746481933684095,
        -0.023034687339386975,
        -4.622278115309206e-06,
        3.4913244174716094e-05,
        1.7974724772204676e-05,
        5.772588256744377e-06,
        -3.3100464573736435e-06,
        6.599854759741519e-20,
        2.856627972414615e-05,
        -0.07034333637691965
      ],
      [
        -0.03567900677432678,
        -0.02981072361293861,
        -0.05240677951013692,
        -0.04213286299209672,
        3.3954013943920826e-06,
        -1.0235291445447868e-05,
        5.541064912363949e-25,
        8.478902350359804e-08,
        -1.1948205567988585e-05,
        4.641819000534348e-06,
        -3.9733870106029726e-206,
        -0.07667196359866872
      ],
      [
        -0.015375623145836764,
        0.004354246198053606,
        -0.05654330828219972,
        -0.08717155386320617,
        -0.0008043419506433215,
        -0.00034911041610188263,
        -8.131862209355494e-05,
        -0.00011029377287933152,
        -2.9686696515212405e-05,
        -0.0002097248192311723,
        -0.0001802890878958957,
        -0.08040676686866238
      ]
    ]
  },
  "cues": [
    [
      0,
      8
    ],
    [
      1,
      8
    ],
    [
      3,
      6
    ],
    [
      5,
      8
    ],
    [
      4,
      9
    ]
  ],
  "env": {
    "delay": 6,
    "grid_size": 10,
    "max_steps": 200,
    "noise": 0.2,
    "num_cues": 5,
    "reward_sparse_prob": 0.1
  },
  "seed": 19
}