{
  "agent": {
    "action_size": 4,
    "cue_exploration_bias": 0.5666666666666667,
    "cue_regularization": 0.010833333333333334,
    "epsilon": 0.05,
    "state_size": 11,
    "target_weights": [
      [
        0.014174313173374243,
        0.0347970379380518,
        -0.021357067814960305,
        -0.029717958604379403,
        -7.320939151976459e-06,
        -2.7977606425734602e-06,
        9.05778266773866e-141,
        6.440151082701706e-07,
        -2.7758652670034714e-43,
        5.2456372174647294e-11,
        4.5465337350255245e-77,
        -0.0051050623526237415
      ],
      [
        0.0693525377139697,
        0.014401652402479518,
        -0.03600690446659164,
        -0.010097290604351574,
        8.62069031267819e-05,
        4.6952220722767666e-05,
        8.428764396312441e-155,
        -5.097882129953421e-06,
        1.6480374631539244e-146,
        -2.0601039601670353e-05,
        -7.586711613757032e-14,
        0.013757850917906824
      ],
      [
        0.023317928274187494,
        0.03218681454019052,
        -0.03341687707770971,
        -0.018395679914696515,
        -1.153132566981556e-05,
        -5.2039105695900406e-06,
        2.335871056062689e-188,
        -1.4651603495075896e-12,
        9.00662075600191e-155,
        3.3959995427246735e-07,
        -3.5040456862784854e-256,
        0.006452022430103422
      ],
      [
        0.05169279691447698,
        0.03975625155703488,
        -0.013675687014524875,
        -0.04598984665995441,
        0.00016976880803107555,
        0.00016480167606217048,
        -1.6489440500955537e-141,
        5.009132472030045e-05,
        -2.280272563675041e-56,
        1.4623222996382928e-05,
        7.274852542095112e-256,
        0.004551189581936113
      ]
    ],
    "weights": [
      [
        0.014589250915953507,
        0.035226701248101365,
        -0.02129484539687327,
        -0.029670461753762655,
        -1.9406633298008568e-05,
        -8.507904844151696e-06,
        3.303251643467586e-142,
        5.175628588130235e-07,
        -1.0123207678555382e-44,
        2.2517335796123456e-05,
        1.658059768401718e-78,
        -0.0046279021919574375
      ],
      [
        0.06907680398916931,
        0.014319689358544534,
        -0.03646587718339275,
        -0.01075003400201801,
        0.00014724093212607143,
        0.00010238267810130266,
        3.073857131026878e-156,
        -3.269102666986198e-05,
        6.0101712067446235e-148,
        -3.9712793110322244e-05,
        -1.7476645456902563e-05,
        0.0130231444763054
      ],
      [
        0.023441028144650114,
        0.03229713284784812,
        -0.03341537097150344,
        -0.018381392245685215,
        -1.062714892584863e-05,
        -5.414237174889333e-06,
        8.518607906490851e-190,
        -5.3432429436538633e-14,
        3.2845935816408983e-156,
        1.238475406423176e-08,
        -1.2778783833278514e-257,
        0.006576628406772312
      ],
      [
        0.05259157986633193,
        0.0412022525432171,
        -0.013200776853879175,
        -0.04606215453363603,
        7.221408669535352e-05,
        -4.636027669958735e-05,
        -6.01347740751665e-143,
        1.4679617534992282e-05,
        -8.315847674665075e-58,
        -5.177251600479406e-06,
        2.653040981127826e-257,
        0.005924882694436782
      ]
    ]
  },
  "cues": [
    [
      2,
      9
    ],
    [
      1,
      4
    ],
    [
      1,
      7
    ],
    [
      7,
      7
    ],
    [
      6,
      3
    ]
  ],
  "env": {
    "delay": 3,
    "grid_size": 10,
    "max_steps": 200,
    "noise": 0.1,
    "num_cues": 5,
    "reward_sparse_prob": 0.3
  },
  "seed": 1
}