{
  "agent": {
    "action_size": 4,
    "cue_exploration_bias": 0.85,
    "cue_regularization": 0.0037500000000000007,
    "epsilon": 0.05,
    "state_size": 11,
    "target_weights": [
      [
        -0.05136059665162257,
        -0.060913553122967194,
        -0.045724670751656815,
        -0.06025094247990559,
        -2.8491761933653428e-06,
        2.101068468809237e-05,
        -2.1618524128574528e-05,
        -6.57e-322,
        -2.8055646756679534e-06,
        -1.7615991234424246e-07,
        -1.3700732185244128e-27,
        -0.09844317874561068
      ],
      [
        -0.0761360410294639,
        -0.042475390132822796,
        -0.06533649320653404,
        -0.03288641342233737,
        -6.055007494496107e-05,
        6.306446631629521e-05,
        -4.316635216206476e-05,
        6.57e-322,
        -1.1077734380222168e-08,
        4.063494932619805e-11,
        2.621708062551001e-74,
        -0.10259817758543957
      ],
      [
        -0.06467399680914539,
        -0.05515319136989455,
        -0.060789402591755616,
        -0.050587363996910044,
        1.180718427444787e-06,
        1.2570920476275754e-05,
        -7.201365280596944e-05,
        -8.69795579878458e-271,
        -8.232340717509782e-06,
        -8.709226846268373e-13,
        -8.544431915289074e-29,
        -0.09226790777321962
      ],
      [
        -0.08655932501102781,
        -0.05432140831705739,
        -0.054566612055001754,
        -0.03090324887920918,
        -1.8216302486472478e-05,
        -1.0886926172948925e-05,
        -0.00010274551579925287,
        -6.57e-322,
        9.670818701804622e-06,
        1.1295515847924707e-15,
        1.9266403094085972e-72,
        -0.11263842865037761
      ]
    ],
    "weights": [
      [
        -0.05137425003917538,
        -0.06097281622967984,
        -0.045832328398682676,
        -0.060312990407771674,
        -2.33562456593211e-06,
        2.2059536451643046e-05,
        -2.0662619422598994e-05,
        -6.57e-322,
        -1.7341362427862029e-06,
        -4.694191425246249e-08,
        -3.650879401999779e-28,
        -0.09856448978018938
      ],
      [
        -0.0761674090268909,
        -0.04251371877938483,
        -0.06549174134678559,
        -0.03303470091345384,
        -1.0166197695817464e-05,
        1.5112434109446055e-05,
        -3.290774887732758e-05,
        6.57e-322,
        -2.9519205048863106e-09,
        1.0828129291958543e-11,
        6.986152151731624e-75,
        -0.10278479372311815
      ],
      [
        -0.06461614552427428,
        -0.055166827565380515,
        -0.06065664269177404,
        -0.05038311661657139,
        -2.2474741920825677e-05,
        3.648456064320954e-05,
        -5.390162950175325e-05,
        -2.3177730383992147e-271,
        -3.905685916434443e-06,
        -2.3207764716859314e-13,
        -2.276863021592048e-29,
        -0.09207729658836693
      ],
      [
        -0.08654927344596602,
        -0.05435034731028297,
        -0.054687740418688596,
        -0.030985386684608655,
        -1.7299906200619537e-05,
        3.6580859730523934e-07,
        -8.253801986703432e-05,
        -6.57e-322,
        2.57701503259212e-06,
        3.0099534526019636e-16,
        5.133982129990085e-73,
        -0.11274950544900274
      ]
    ]
  },
  "cues": [
    [
      1,
      2
    ],
    [
      8,
      9
    ],
    [
      2,
      3
    ],
    [
      2,
      7
    ],
    [
      6,
      3
    ]
  ],
  "env": {
    "delay": 6,
    "grid_size": 10,
    "max_steps": 200,
    "noise": 0.2,
    "num_cues": 5,
    "reward_sparse_prob": 0.1
  },
  "seed": 28
}