{
  "agent": {
    "action_size": 4,
    "cue_exploration_bias": 0.25555555555555554,
    "cue_regularization": 0.018611111111111113,
    "epsilon": 0.05,
    "state_size": 11,
    "target_weights": [
      [
        0.06046032719542187,
        0.07803487135384442,
        -0.011564154161195486,
        -0.007003619757391832,
        -2.087675344202286e-05,
        -2.4402449163185672e-06,
        5.3606866923532965e-180,
        2.2824278286057636e-48,
        1.3e-322,
        1.410307336486397e-07,
        -1.3e-322,
        0.05316200931787776
      ],
      [
        0.18791806034858102,
        0.1030296462339409,
        -0.03585992922736136,
        -0.015627277478074044,
        3.6206860539012084e-05,
        6.249661105993549e-05,
        6.343887099808147e-32,
        -2.9362661059258163e-05,
        -4.785643625225287e-223,
        -3.317623646278356e-05,
        7.59036717204497e-146,
        0.11904708076011034
      ],
      [
        0.0787129754867046,
        0.04534810340374281,
        0.004646936091046835,
        -0.019903790856151855,
        -7.486634317358709e-05,
        1.705978665186009e-05,
        1.4972861410089494e-288,
        3.2993534940229277e-42,
        -1.3e-322,
        0.00036876841206095356,
        -1.3e-322,
        0.05547114379259141
      ],
      [
        0.126864505707113,
        0.13619769932949388,
        -0.003172155437085638,
        -0.05935266952998794,
        8.702006777491078e-05,
        6.0235657239177356e-05,
        -3.0701152420280764e-16,
        1.2637390891732793e-05,
        5.48656637882722e-87,
        -1.5757726475487953e-05,
        -2.7460092953008567e-18,
        0.13431013196232738
      ]
    ],
    "weights": [
      [
        0.06055357488742607,
        0.07812811904584861,
        -0.011447594546190237,
        -0.006887060142386583,
        1.6937489968195344e-05,
        -5.429056359145759e-07,
        1.1926454587359685e-180,
        5.077944936722779e-49,
        1.3e-322,
        3.1376514555155566e-08,
        -1.3e-322,
        0.053371816624887214
      ],
      [
        0.18856610282444347,
        0.10349965963884843,
        -0.03593376932799305,
        -0.015523088507750835,
        -0.0001331395273693122,
        6.475177331638368e-05,
        1.4113878640048757e-32,
        -5.77825265631855e-05,
        -1.0647098896667842e-223,
        -2.168942360192797e-05,
        1.688704723368935e-146,
        0.11962128313534108
      ],
      [
        0.07940528913065052,
        0.045997721227605926,
        0.004733475296540076,
        -0.019774555830575795,
        -3.851232677629162e-05,
        1.3658120010267947e-05,
        3.3311618809020616e-289,
        7.340400935992175e-43,
        -1.3e-322,
        0.00018998423624941402,
        -1.3e-322,
        0.056249996642030585
      ],
      [
        0.12685525014537608,
        0.1361602812479835,
        -0.0029519728440143512,
        -0.05910432441714318,
        4.4794232880741484e-05,
        0.00010732699990521252,
        -5.237532874513616e-06,
        2.8115664507675118e-06,
        1.2206511686451829e-87,
        -1.046945810374737e-05,
        -6.109320883011015e-19,
        0.13452105899366174
      ]
    ]
  },
  "cues": [
    [
      2,
      6
    ],
    [
      6,
      4
    ],
    [
      7,
      3
    ],
    [
      7,
      8
    ],
    [
      2,
      8
    ]
  ],
  "env": {
    "delay": 1,
    "grid_size": 10,
    "max_steps": 200,
    "noise": 0.05,
    "num_cues": 5,
    "reward_sparse_prob": 0.65
  },
  "seed": 21
}