{
  "agent": {
    "action_size": 4,
    "cue_exploration_bias": 0.8177777777777777,
    "cue_regularization": 0.0045555555555555575,
    "epsilon": 0.05,
    "state_size": 11,
    "target_weights": [
      [
        -0.028011867889398776,
        -0.044660221573947154,
        -0.02564715387720187,
        -0.056107328643693145,
        -3.4557741527345405e-07,
        -2.949698370354926e-06,
        5.4e-322,
        1.286619279056497e-52,
        1.613715028122154e-05,
        2.92882490430183e-15,
        1.2578330710976495e-250,
        -0.10539495997621
      ],
      [
        -0.04497244269917432,
        -0.06401146157400368,
        -0.04227238208563289,
        -0.03689852640144556,
        3.64088644832221e-05,
        -4.5126792290332836e-05,
        -3.886519092099856e-275,
        3.920316086446921e-65,
        -1.9849171338015772e-05,
        3.715076853966165e-06,
        -3.494456864588054e-24,
        -0.06407184754059271
      ],
      [
        -0.014894943224026068,
        -0.044200084545485054,
        -0.02823142267090002,
        -0.05886901174401341,
        6.607222100562221e-05,
        2.6510522941595435e-07,
        5.4e-322,
        9.95760570730239e-06,
        -4.062662519733779e-05,
        2.161650614702653e-06,
        1.7529576990307525e-34,
        -0.09011058272787582
      ],
      [
        -0.04243689413226566,
        -0.030546833231220046,
        -0.05443180524973588,
        -0.08525047723178475,
        4.539253551489776e-05,
        -3.96713364428093e-05,
        5.4e-322,
        -4.636840814758495e-06,
        -3.3710375215314573e-06,
        -3.0893190976925745e-05,
        -9.830369495118302e-286,
        -0.06688401350229742
      ]
    ],
    "weights": [
      [
        -0.027969548115207132,
        -0.04457816553105019,
        -0.02557779378081446,
        -0.05607770481601104,
        6.769849069583629e-06,
        -6.4340079335702315e-06,
        5.4e-322,
        4.626623257220209e-53,
        4.617383841934175e-05,
        1.0531918524107226e-15,
        4.523109388434374e-251,
        -0.10528328010563094
      ],
      [
        -0.04472807824437289,
        -0.06388796062392212,
        -0.04238654340943196,
        -0.0368918242205248,
        -4.663010197381744e-05,
        -4.052230576656146e-05,
        -1.3975742407906176e-275,
        1.4097274832155985e-65,
        -3.025601245483371e-05,
        1.3359244070650669e-06,
        -1.2565904820664474e-24,
        -0.06394164440959038
      ],
      [
        -0.012548307177459776,
        -0.04214781749811958,
        -0.028438163387713163,
        -0.058781383461625765,
        -0.0003558753046831773,
        -6.128654165811409e-06,
        5.4e-322,
        3.5807088313971164e-06,
        -9.195888619749519e-05,
        7.773195358382697e-07,
        6.30355458780808e-35,
        -0.0879706873981227
      ],
      [
        -0.04269410898111556,
        -0.030821510925619935,
        -0.054283937790621996,
        -0.08508514692712085,
        8.491513511924881e-05,
        -4.760745698765423e-05,
        5.4e-322,
        -4.423607526994451e-06,
        -4.201467164531933e-06,
        -3.123642277908344e-05,
        -3.534955279586268e-286,
        -0.06699336089203344
      ]
    ]
  },
  "cues": [
    [
      4,
      1
    ],
    [
      0,
      9
    ],
    [
      4,
      6
    ],
    [
      6,
      8
    ],
    [
      5,
      2
    ]
  ],
  "env": {
    "delay": 5,
    "grid_size": 10,
    "max_steps": 200,
    "noise": 0.16,
    "num_cues": 5,
    "reward_sparse_prob": 0.18
  },
  "seed": 23
}