{
  "agent": {
    "action_size": 4,
    "cue_exploration_bias": 0.8177777777777777,
    "cue_regularization": 0.0045555555555555575,
    "epsilon": 0.05,
    "state_size": 11,
    "target_weights": [
      [
        -0.05421980443387403,
        -0.03581134604583193,
        -0.05332379637488115,
        -0.036242030085550665,
        -4.504701444049011e-05,
        4.619161716312231e-05,
        -1.0466445186083894e-05,
        1.9900059376105823e-06,
        -5.4e-322,
        -1.0765600909510885e-06,
        -1.5429473354604265e-06,
        -0.12129457356314723
      ],
      [
        -0.05653758482532076,
        -0.05832505827527097,
        -0.05119064557270046,
        -0.05494301940276157,
        6.641004606144274e-06,
        -1.0600576055544664e-05,
        -1.2403330649803901e-05,
        -7.306742629576446e-07,
        4.074571154393906e-43,
        2.4582692996148275e-05,
        -3.3379154978003323e-06,
        -0.1009820170858877
      ],
      [
        -0.047962316375779204,
        -0.034379672414771106,
        -0.04632329796834512,
        -0.033645251710040264,
        1.2900771979470305e-05,
        -8.184493277386104e-06,
        -1.5635549771276455e-05,
        4.663972498123785e-06,
        2.3620138436231413e-06,
        4.8469057622062456e-05,
        -5.593730020027794e-06,
        -0.1296058949031549
      ],
      [
        -0.055911992409907026,
        -0.061164430160231875,
        -0.024949205266001747,
        -0.03866537996696295,
        -5.57787421695353e-05,
        0.00013943693473774624,
        4.984554029003881e-07,
        -6.733608593543232e-05,
        -1.2534352425780208e-05,
        -1.808593057032105e-07,
        2.8143817686977725e-23,
        -0.12781908933444505
      ]
    ],
    "weights": [
      [
        -0.054273696725996926,
        -0.035821127737753915,
        -0.053347233673518644,
        -0.03630957798438909,
        -7.244561795154813e-06,
        4.742587942103063e-06,
        -7.231364351797968e-06,
        9.5847042462356e-07,
        -5.4e-322,
        -1.5230524560746575e-06,
        -3.1549686078567095e-06,
        -0.12137190315390758
      ],
      [
        -0.05657134079850691,
        -0.05835388285875637,
        -0.051232858368553374,
        -0.054990163588315245,
        6.850681788713915e-06,
        -1.2465481383126788e-05,
        -1.7337089002793552e-05,
        -3.5192340778611546e-07,
        1.9624845688651707e-43,
        1.0170366523726536e-05,
        -6.473004967190555e-06,
        -0.10105798585492677
      ],
      [
        -0.047972978346925516,
        -0.03439791466533154,
        -0.046338598962392584,
        -0.03365297242467358,
        7.040190130227593e-06,
        -4.0266757562063115e-06,
        -1.7920241755345246e-05,
        7.146207919381e-06,
        1.1376450536537123e-06,
        2.334473348150019e-05,
        -3.094033885671036e-06,
        -0.12963185786834877
      ],
      [
        -0.056021411816673757,
        -0.06122980386790471,
        -0.025104961682106724,
        -0.03886518208216187,
        -1.6534250562533488e-05,
        2.2785792596309348e-05,
        2.4007705336170347e-07,
        -9.85826591911375e-05,
        -6.037070475449928e-06,
        -5.962829149791266e-07,
        1.355524442372002e-23,
        -0.12808426515731683
      ]
    ]
  },
  "cues": [
    [
      4,
      4
    ],
    [
      2,
      3
    ],
    [
      2,
      2
    ],
    [
      1,
      8
    ],
    [
      3,
      4
    ]
  ],
  "env": {
    "delay": 5,
    "grid_size": 10,
    "max_steps": 200,
    "noise": 0.16,
    "num_cues": 5,
    "reward_sparse_prob": 0.18
  },
  "seed": 13
}