{
  "agent": {
    "action_size": 4,
    "cue_exploration_bias": 0.85,
    "cue_regularization": 0.0037500000000000007,
    "epsilon": 0.05,
    "state_size": 11,
    "target_weights": [
      [
        -0.07443664381423053,
        -0.03371393582020305,
        -0.07064906062114991,
        -0.032527256574734764,
        -2.5342610240009844e-06,
        -4.0518099670866484e-05,
        -1.4336791006401136e-05,
        0.00033115392333357013,
        2.743456298014125e-63,
        9.699471585642055e-07,
        -1.1575971270202971e-37,
        -0.10656894828394613
      ],
      [
        -0.08090656207544651,
        -0.06000840981421263,
        -0.07462436051070388,
        -0.048548046725574806,
        8.232136038708402e-06,
        -4.18270018217666e-06,
        3.567175408628244e-07,
        -2.1326582198497297e-05,
        -8.485687797000518e-07,
        -1.210589767857128e-05,
        4.126418081579533e-07,
        -0.08294256670288369
      ],
      [
        -0.06301282313236663,
        -0.03678538782613933,
        -0.05955394110014936,
        -0.035338337290044756,
        -6.674297248624542e-06,
        -5.600050808265071e-06,
        -3.557297237543286e-08,
        -1.2322246990101176e-07,
        1.0938011579070544e-67,
        1.3175565786826058e-07,
        -2.6457800458815172e-08,
        -0.11512198329614931
      ],
      [
        -0.05976163586983949,
        -0.05071138048486766,
        -0.054687666687245624,
        -0.046049578677015646,
        -2.950895605012754e-05,
        1.8206334987470927e-05,
        -1.9299073124885697e-06,
        -1.2775409019598109e-05,
        9.508512478691434e-59,
        9.139356037734217e-06,
        -1.2678270934334542e-247,
        -0.10698591050101677
      ]
    ],
    "weights": [
      [
        -0.07450337321090983,
        -0.033814188429344055,
        -0.07080706733328193,
        -0.03265174007440519,
        -7.297690263092946e-06,
        -6.689972120627019e-06,
        -2.1004149130624097e-05,
        6.727275373111099e-05,
        6.482439282788271e-64,
        5.453640540795077e-07,
        -2.7352551944316034e-38,
        -0.10679368439275749
      ],
      [
        -0.08097471524217915,
        -0.0600472418226129,
        -0.07462412472064006,
        -0.04857713209384339,
        1.2047702906474903e-05,
        9.486486714056596e-06,
        1.8369218463263235e-06,
        -1.6599548880005254e-05,
        -1.8732473464188116e-06,
        -3.4200138121951077e-06,
        9.750202577894792e-08,
        -0.08301048407955257
      ],
      [
        -0.06284230267551712,
        -0.03660091663438173,
        -0.059399588194241515,
        -0.03519793511904499,
        -5.048153701614267e-05,
        -2.3031367136925614e-06,
        -8.76534989539193e-07,
        -9.25273091290429e-07,
        2.584513410586678e-68,
        3.113219091235648e-08,
        -6.251642687166088e-09,
        -0.11479710993339197
      ],
      [
        -0.05978277453713415,
        -0.05077554695207615,
        -0.054754845179129395,
        -0.046073729368985544,
        8.593849177455594e-06,
        1.322136908832112e-05,
        -6.249979429738224e-06,
        -1.8841685500446627e-05,
        2.24674090334041e-59,
        2.1595139183110632e-06,
        -2.995714624725537e-248,
        -0.10707422766019517
      ]
    ]
  },
  "cues": [
    [
      3,
      5
    ],
    [
      6,
      2
    ],
    [
      3,
      0
    ],
    [
      1,
      2
    ],
    [
      3,
      8
    ]
  ],
  "env": {
    "delay": 6,
    "grid_size": 10,
    "max_steps": 200,
    "noise": 0.2,
    "num_cues": 5,
    "reward_sparse_prob": 0.1
  },
  "seed": 8
}