{
  "agent": {
    "action_size": 4,
    "cue_exploration_bias": 0.85,
    "cue_regularization": 0.0037500000000000007,
    "epsilon": 0.05,
    "state_size": 11,
    "target_weights": [
      [
        -0.03954080441525307,
        -0.046027841848059727,
        -0.04604840288249458,
        -0.06199944708858715,
        2.496213152104515e-05,
        5.8730802814074925e-05,
        1.5931663576477594e-09,
        -1.2261853800972571e-05,
        2.2152794158681278e-13,
        1.3971425149091349e-15,
        1.5180938451494557e-06,
        -0.0769146286321484
      ],
      [
        -0.06502660467423609,
        -0.056997209226201044,
        -0.05773884594846157,
        -0.02697260367677727,
        4.6615101537241173e-05,
        2.7559031948588287e-05,
        -3.3247201415834256e-05,
        -6.613206427473482e-05,
        -4.910898301883821e-07,
        2.5840220821338947e-05,
        -0.00010489916938563304,
        -0.06471044685507289
      ],
      [
        -0.023679980882175253,
        -0.04095639163148583,
        -0.031678500264286175,
        -0.05805106507075693,
        1.840600281487128e-05,
        3.2085951698242086e-05,
        3.4326363884527716e-10,
        -2.3945510654365275e-06,
        -3.483316033093115e-174,
        8.04883139045268e-56,
        -5.4219103957199224e-08,
        -0.09649789487692709
      ],
      [
        -0.017566388703134588,
        -0.002771964854698485,
        -0.03370266438925502,
        -0.07074368660072791,
        3.7484373128595156e-05,
        6.876811058788285e-05,
        3.193355806972892e-26,
        7.248228808083641e-06,
        -5.121228937015839e-174,
        5.8403840034425525e-09,
        2.685874295644055e-06,
        -0.126145996705663
      ]
    ],
    "weights": [
      [
        -0.03974386633608868,
        -0.046265803649746993,
        -0.04613494847096438,
        -0.062051092796205326,
        3.813237425676665e-05,
        7.423364713957753e-05,
        5.084342351464877e-10,
        -7.374762751813288e-06,
        7.069719304804038e-14,
        4.458762781102625e-16,
        1.5203444497598502e-06,
        -0.07720423614145383
      ],
      [
        -0.06517683793152827,
        -0.05720998398967588,
        -0.057883185866890556,
        -0.027054402089023582,
        4.092068044395767e-05,
        1.807544297137251e-05,
        -4.138594155744438e-05,
        -6.107923001175024e-05,
        -1.5672367232804262e-07,
        6.052257385544861e-05,
        -0.00012234122593613708,
        -0.065005020030794
      ],
      [
        -0.023839951583527325,
        -0.041080480099348414,
        -0.03171664907902999,
        -0.05812509611899024,
        2.1596817912553022e-05,
        4.5215550078875225e-05,
        1.095472452277866e-10,
        -7.64183685922149e-07,
        -1.1116460717097082e-174,
        2.568659206355546e-56,
        -1.7303182758332744e-08,
        -0.09669601439302297
      ],
      [
        -0.017778772231707526,
        -0.002988871284771206,
        -0.03361777412966406,
        -0.07065427343963718,
        7.5055054890722e-05,
        0.00014294245812489735,
        1.0191097806421485e-26,
        5.097715596166709e-06,
        -1.6343604703316203e-174,
        1.8638676115006347e-09,
        8.571549585202341e-07,
        -0.12627348997464508
      ]
    ]
  },
  "cues": [
    [
      3,
      4
    ],
    [
      1,
      6
    ],
    [
      7,
      2
    ],
    [
      1,
      1
    ],
    [
      0,
      6
    ]
  ],
  "env": {
    "delay": 6,
    "grid_size": 10,
    "max_steps": 200,
    "noise": 0.2,
    "num_cues": 5,
    "reward_sparse_prob": 0.1
  },
  "seed": 4
}