{
  "agent": {
    "action_size": 4,
    "cue_exploration_bias": 0.8177777777777777,
    "cue_regularization": 0.0045555555555555575,
    "epsilon": 0.05,
    "state_size": 11,
    "target_weights": [
      [
        -0.05898584799921723,
        -0.061999186820866435,
        -0.05649536142819168,
        -0.06241843231943347,
        -2.85548752884008e-06,
        -3.4637080026229343e-06,
        4.2400621870427776e-39,
        -1.8249201848028547e-05,
        6.411639853934738e-192,
        2.652270544421084e-06,
        -1.916219461466264e-12,
        -0.0854042457181483
      ],
      [
        -0.03818459820711827,
        -0.06257240142518049,
        -0.04283037742479451,
        -0.05656992704344403,
        -2.5347614896920714e-05,
        -7.5806021065063535e-06,
        1.0300455859810415e-07,
        -0.00018632637181523128,
        -5.898985744222953e-07,
        2.7689569037359574e-12,
        8.278364941252808e-05,
        -0.10346860585325206
      ],
      [
        -0.07614945137336923,
        -0.03395142155946823,
        -0.07427618544906062,
        -0.03240664690993169,
        -4.1135773927450777e-05,
        1.6954836223718328e-06,
        2.7882854743793223e-39,
        -1.516043300894593e-05,
        7.421551797666974e-06,
        0.00029465770028636425,
        -1.7662083887700752e-06,
        -0.09517306361012282
      ],
      [
        -0.028723254418803634,
        -0.0637142487410252,
        -0.02165546273095695,
        -0.05112231359187759,
        3.281717470990032e-05,
        5.435030008657874e-05,
        -3.1710977103399698e-06,
        -1.011564543054933e-06,
        -2.461979995993016e-05,
        -6.128271408922525e-05,
        -7.023446308383384e-05,
        -0.11779419101324633
      ]
    ],
    "weights": [
      [
        -0.05898707509388758,
        -0.06200102746287195,
        -0.05649597497552685,
        -0.06241843231943347,
        -2.6543164718839876e-06,
        -3.219687395690719e-06,
        3.9413468947811304e-39,
        -1.872202182305757e-05,
        5.959935424056945e-192,
        2.465416263544068e-06,
        -1.7812204847487614e-12,
        -0.08540608636015382
      ],
      [
        -0.038193295771758874,
        -0.06258053356796386,
        -0.04283088209268046,
        -0.05657099713318723,
        -2.1205824744232108e-05,
        -8.417519779450545e-06,
        9.574781672296328e-08,
        -0.0001800325665636846,
        -5.483398148357565e-07,
        2.5738819887295166e-12,
        7.695148447298598e-05,
        -0.10347780808577862
      ],
      [
        -0.07615344143084304,
        -0.033957975019894275,
        -0.07427946512916692,
        -0.032407363187085765,
        -3.7675298545441834e-05,
        1.576035637073562e-06,
        2.591848848300252e-39,
        -1.8011572590512843e-05,
        6.898698377957758e-06,
        0.00027265461006929813,
        -1.641777795120128e-06,
        -0.09518033334770293
      ],
      [
        -0.02872668654286545,
        -0.06371530812423114,
        -0.021641049004603813,
        -0.051110272606380326,
        3.491588212594629e-05,
        5.614958812405061e-05,
        -2.947691699402402e-06,
        -9.402991264665689e-07,
        -2.7795061720520097e-05,
        -5.6965304805537954e-05,
        -6.630312855287527e-05,
        -0.117783209410955
      ]
    ]
  },
  "cues": [
    [
      3,
      3
    ],
    [
      6,
      9
    ],
    [
      8,
      0
    ],
    [
      2,
      7
    ],
    [
      0,
      9
    ]
  ],
  "env": {
    "delay": 5,
    "grid_size": 10,
    "max_steps": 200,
    "noise": 0.16,
    "num_cues": 5,
    "reward_sparse_prob": 0.18
  },
  "seed": 26
}