{
  "agent": {
    "action_size": 4,
    "cue_exploration_bias": 0.8177777777777777,
    "cue_regularization": 0.0045555555555555575,
    "epsilon": 0.05,
    "state_size": 11,
    "target_weights": [
      [
        -0.04714394990761139,
        -0.050154121591114764,
        -0.03377253379105416,
        -0.05393211385674416,
        -5.171085611734754e-05,
        -1.5329113502312467e-05,
        2.4075248952891707e-308,
        1.1853080654796628e-249,
        5.4e-322,
        5.4e-322,
        1.887404014672634e-150,
        -0.12472217869005359
      ],
      [
        -0.054159477296365825,
        -0.06782011972037545,
        -0.045719543204105755,
        -0.03717698925884515,
        1.0308148426431873e-05,
        5.128534732894325e-05,
        1.1872293650246155e-296,
        -3.318313571242321e-259,
        1.2968372683970924e-283,
        -5.4e-322,
        1.0627781869119997e-05,
        -0.11722133716597885
      ],
      [
        -0.04797613004214111,
        -0.06290145146275684,
        -0.04669711405888335,
        -0.05593289843319389,
        -2.2875262426713922e-05,
        -1.0730159091679157e-05,
        -6.604368327687438e-286,
        -1.297591864538298e-07,
        -5.162856912795553e-289,
        -2.5989520666851e-310,
        1.174519567332606e-216,
        -0.10565006173900081
      ],
      [
        -0.06093825721351755,
        -0.04433880072816047,
        -0.051581501010231644,
        -0.0405236319435278,
        -5.651932540116358e-06,
        -1.0649584779239255e-06,
        7.173047869675727e-286,
        5.226616885513332e-10,
        2.11998193e-316,
        5.4e-322,
        8.062771870058559e-15,
        -0.1180557105929151
      ]
    ],
    "weights": [
      [
        -0.04714367506818354,
        -0.050262486679843586,
        -0.03395187307475875,
        -0.054002813212292125,
        -6.88813544485779e-05,
        -2.506924392905041e-05,
        5.584952389099937e-309,
        2.7496659017206028e-250,
        5.4e-322,
        5.4e-322,
        4.378381125598576e-151,
        -0.1249012431343304
      ],
      [
        -0.054166608754204426,
        -0.06784658847081178,
        -0.04588559526523105,
        -0.037323704027372694,
        2.638519322654044e-05,
        7.324083348950799e-05,
        2.754122913361378e-297,
        -7.697790931988123e-260,
        3.008390241189292e-284,
        -5.4e-322,
        7.69333219369784e-06,
        -0.11739452068494269
      ],
      [
        -0.04798291488543746,
        -0.06295791650603183,
        -0.04683109414017131,
        -0.056017198314503185,
        -2.734705919868848e-05,
        9.982539113264173e-07,
        -1.5320748185153766e-286,
        -3.0101407458382216e-08,
        -1.1976744292912267e-289,
        -6.0290232439093e-311,
        2.7246388506528845e-217,
        -0.10579082666358514
      ],
      [
        -0.060938491651188156,
        -0.04435517872263661,
        -0.05161489549870526,
        -0.0405408828751959,
        -8.221660915737758e-06,
        -1.3054364793566262e-06,
        1.6639965349999856e-286,
        1.2124654045644577e-10,
        4.9179117e-317,
        5.4e-322,
        1.8703938267289572e-15,
        -0.11808933951905932
      ]
    ]
  },
  "cues": [
    [
      8,
      6
    ],
    [
      4,
      5
    ],
    [
      4,
      2
    ],
    [
      8,
      4
    ],
    [
      1,
      0
    ]
  ],
  "env": {
    "delay": 5,
    "grid_size": 10,
    "max_steps": 200,
    "noise": 0.16,
    "num_cues": 5,
    "reward_sparse_prob": 0.18
  },
  "seed": 17
}