{
  "agent": {
    "action_size": 4,
    "cue_exploration_bias": 0.5666666666666667,
    "cue_regularization": 0.010833333333333334,
    "epsilon": 0.05,
    "state_size": 11,
    "target_weights": [
      [
        -0.007449966938120199,
        -0.005509981149573565,
        -0.033172900314437356,
        -0.0399895983648157,
        -5.830182744387588e-07,
        -1.2344938118239284e-05,
        2.27e-322,
        1.914761664304765e-38,
        3.248442568304906e-11,
        5.821188869695694e-15,
        2.27e-322,
        -0.051321522438148
      ],
      [
        -0.012435783355450626,
        -0.00757061023695069,
        -0.017084330763437613,
        -0.03903432407172251,
        1.8160136001174402e-05,
        3.3974762995210683e-05,
        -1.7307590808716266e-09,
        -8.817013619277981e-06,
        -8.741937241341191e-07,
        -2.7230063203996285e-05,
        -2.353374478621468e-241,
        -0.033190513442356885
      ],
      [
        -0.04698605971845624,
        -0.028397392554001016,
        -0.058812401518491146,
        -0.044330761941543666,
        1.2104576499706166e-06,
        -6.2728614054874575e-06,
        5.103159174628241e-293,
        8.025436085858052e-12,
        2.8436224320641226e-105,
        1.2882252379398931e-68,
        -2.27e-322,
        -0.04044522675552263
      ],
      [
        -0.007496507489087065,
        0.03489733351948669,
        -0.03965814351289236,
        -0.13389416316012195,
        3.598667108165031e-06,
        0.00023778492841990945,
        1.616e-321,
        2.618554651696655e-32,
        1.3902694486551468e-146,
        4.919911342203176e-10,
        -2.27e-322,
        -0.04463533192516334
      ]
    ],
    "weights": [
      [
        -0.007449966938120199,
        -0.005509981149573565,
        -0.033172900314437356,
        -0.0399895983648157,
        -3.4563432616505774e-07,
        -7.31852594527063e-06,
        2.27e-322,
        1.1351399889578917e-38,
        1.9257942802269617e-11,
        3.4510113673429096e-15,
        2.27e-322,
        -0.051321522438148
      ],
      [
        -0.012443678308113609,
        -0.007556417972096766,
        -0.017035684505230263,
        -0.039007765031032066,
        1.5865643216337467e-05,
        2.5575250206315724e-05,
        -1.0260566004504478e-09,
        -5.227044665145215e-06,
        -5.182536672108325e-07,
        -1.6142966626569785e-05,
        -1.3951655339026884e-241,
        -0.03314976213681252
      ],
      [
        -0.04698605971845624,
        -0.028397392554001016,
        -0.058812401518491146,
        -0.044330761941543666,
        7.176030881736629e-07,
        -3.71877918766712e-06,
        3.025337386437171e-293,
        4.757768864769362e-12,
        1.6858022574343265e-105,
        7.637065278833662e-69,
        -2.27e-322,
        -0.04044522675552263
      ],
      [
        -0.007770207742005075,
        0.034587203139729086,
        -0.0397037972546325,
        -0.13390338677502256,
        5.214622981086905e-06,
        0.00031243826261462103,
        9.8e-322,
        1.5523739344822545e-32,
        8.242020278633016e-147,
        2.916701441633525e-10,
        -2.27e-322,
        -0.04495468591982149
      ]
    ]
  },
  "cues": [
    [
      2,
      4
    ],
    [
      1,
      5
    ],
    [
      9,
      2
    ],
    [
      0,
      6
    ],
    [
      6,
      1
    ]
  ],
  "env": {
    "delay": 3,
    "grid_size": 10,
    "max_steps": 200,
    "noise": 0.1,
    "num_cues": 5,
    "reward_sparse_prob": 0.3
  },
  "seed": 20
}