{
  "agent": {
    "action_size": 4,
    "cue_exploration_bias": 0.85,
    "cue_regularization": 0.0037500000000000007,
    "epsilon": 0.05,
    "state_size": 11,
    "target_weights": [
      [
        -0.06496005697561157,
        -0.0474773304807411,
        -0.060996318553152386,
        -0.04606527683289221,
        -1.0558430840266935e-05,
        -4.519614933069385e-05,
        -9.374754062086215e-161,
        -1.3359438358406219e-08,
        -1.147246650124234e-227,
        -7.76596110305e-311,
        -1.7649275222409505e-06,
        -0.1042157526958131
      ],
      [
        -0.04919023009713488,
        -0.07288202728571251,
        -0.0363651117253692,
        -0.06358691208253453,
        -5.03025944360895e-05,
        -2.2800082749331576e-05,
        1.099819888070009e-203,
        -3.983753308845469e-215,
        -1.7375261804273943e-247,
        -1.067059315310883e-308,
        1.8492862902257732e-132,
        -0.10862114235573779
      ],
      [
        -0.05446628519196949,
        -0.07391531657159642,
        -0.05057909436414958,
        -0.07091210636608955,
        0.00020495879278629444,
        -4.4919563616200126e-05,
        1.808885143713984e-140,
        -1.321197902792523e-84,
        -1.3597058081284467e-246,
        -8.519266957561875e-301,
        1.1286967328639736e-07,
        -0.08891787004352857
      ],
      [
        -0.05406021828525986,
        -0.07315163364757898,
        -0.04554457392992377,
        -0.06847681474208618,
        -1.0356201855564607e-05,
        1.698298031265236e-05,
        1.1889240810674007e-215,
        2.0420328284662623e-221,
        1.8498706427674084e-301,
        -6.57e-322,
        -2.425267638139563e-07,
        -0.09539047700318475
      ]
    ],
    "weights": [
      [
        -0.06497871937273417,
        -0.04751114729888348,
        -0.06107298021677756,
        -0.04612678407549756,
        -1.3937303683843028e-05,
        -3.668258025095494e-05,
        -3.177168087019279e-161,
        -5.303959725378538e-07,
        -3.888097138948676e-228,
        -2.631937181309e-311,
        -5.98145974009487e-07,
        -0.10431107675656086
      ],
      [
        -0.04891244371574754,
        -0.07290436645501548,
        -0.03642129066331252,
        -0.06334296546978749,
        -5.4499448119064826e-05,
        1.4119267694410553e-05,
        3.727364607864219e-204,
        -1.3501211653764334e-215,
        -5.888594723930207e-248,
        -3.616336792528003e-309,
        6.2673573580234134e-133,
        -0.10839953491229373
      ],
      [
        -0.054484410109164355,
        -0.07390750349240668,
        -0.05051715964511465,
        -0.07087610964343932,
        6.804203862306283e-05,
        5.499758542715308e-05,
        6.130435117155938e-141,
        -4.4776297976344686e-85,
        -4.6081357150388075e-247,
        -2.8872376729144813e-301,
        -1.1003725441930492e-06,
        -0.08887406024168847
      ],
      [
        -0.05406668184741413,
        -0.07317183153038366,
        -0.04560600043634923,
        -0.06852450692786126,
        -1.9566856881834983e-05,
        -9.432097025547155e-06,
        4.029344794796099e-216,
        6.920588521342963e-222,
        6.269337768639583e-302,
        -6.57e-322,
        -8.219397427758107e-08,
        -0.0954583670717645
      ]
    ]
  },
  "cues": [
    [
      3,
      9
    ],
    [
      8,
      2
    ],
    [
      5,
      9
    ],
    [
      7,
      9
    ],
    [
      1,
      9
    ]
  ],
  "env": {
    "delay": 6,
    "grid_size": 10,
    "max_steps": 200,
    "noise": 0.2,
    "num_cues": 5,
    "reward_sparse_prob": 0.1
  },
  "seed": 3
}