{
  "agent": {
    "action_size": 4,
    "cue_exploration_bias": 0.8177777777777777,
    "cue_regularization": 0.0045555555555555575,
    "epsilon": 0.05,
    "state_size": 11,
    "target_weights": [
      [
        -0.05305027426249155,
        -0.0537726719879934,
        -0.048789914099348054,
        -0.05284200220450243,
        -5.454534436114624e-07,
        -4.788817509110849e-06,
        1.8445594096401408e-06,
        -1.8096275203128795e-06,
        5.169291354542896e-07,
        -2.626018171398964e-06,
        -5.4e-322,
        -0.10975389001168273
      ],
      [
        -0.07214762267718372,
        -0.06853823366922752,
        -0.05948475685616742,
        -0.04855229491604617,
        2.3587734887779076e-06,
        2.4223113480517073e-06,
        2.1418191918690887e-06,
        1.092377321446547e-05,
        8.29245988549004e-11,
        -2.5739911390095557e-07,
        -5.4e-322,
        -0.10064392245239576
      ],
      [
        -0.052104791631563036,
        -0.07283231415714499,
        -0.0489105661922673,
        -0.070552278115618,
        1.4216083691512763e-06,
        -1.0533777998541549e-05,
        -2.2347779974779796e-05,
        -5.677260990647619e-06,
        -1.1724719940543913e-05,
        -2.122504333159316e-05,
        -2.2260087905612664e-217,
        -0.09163403007531501
      ],
      [
        -0.06048358466420852,
        -0.07402253572842744,
        -0.054436925641752586,
        -0.06878700959730137,
        -2.797983286471754e-05,
        -9.028740925910483e-07,
        -6.7200151469752785e-06,
        -7.0478625603024e-07,
        -1.94602188689356e-09,
        -3.9588288819460936e-05,
        5.4e-322,
        -0.08740260892818388
      ]
    ],
    "weights": [
      [
        -0.053069252501258136,
        -0.05377769315139825,
        -0.0488228231407706,
        -0.05288886832128668,
        1.0704620510873823e-06,
        -5.056459263721231e-06,
        -5.9131297961594415e-06,
        -3.627293933823601e-07,
        -4.523847909373327e-07,
        -1.4109395174195037e-05,
        -5.4e-322,
        -0.10980577729187183
      ],
      [
        -0.07215310402297365,
        -0.06854320917396957,
        -0.059573877840181456,
        -0.04864192174110812,
        -1.7967374655616182e-05,
        3.2956992258652722e-06,
        2.3306475223361315e-06,
        2.18960730153156e-06,
        1.6621757296171614e-11,
        -2.61855427488652e-06,
        -5.4e-322,
        -0.10073852478219975
      ],
      [
        -0.052091984364877726,
        -0.07287578402019645,
        -0.04893823975885254,
        -0.07052367455246634,
        -2.1789973487137883e-05,
        1.1241102939114533e-06,
        -4.197683347240456e-05,
        -4.32295517587056e-06,
        -1.3673849066015275e-05,
        0.00015846699147818678,
        -4.461906161354612e-218,
        -0.09164889637521483
      ],
      [
        -0.06054287327088499,
        -0.07403647381272664,
        -0.054579176930193894,
        -0.06897461140812003,
        -2.0166610827423923e-05,
        -3.6126335816067916e-06,
        -8.109412815834213e-06,
        -4.440093581016557e-07,
        -3.900688570538828e-10,
        -4.8565969517603624e-05,
        5.4e-322,
        -0.0876041488233016
      ]
    ]
  },
  "cues": [
    [
      6,
      0
    ],
    [
      3,
      4
    ],
    [
      7,
      0
    ],
    [
      4,
      0
    ],
    [
      4,
      9
    ]
  ],
  "env": {
    "delay": 5,
    "grid_size": 10,
    "max_steps": 200,
    "noise": 0.16,
    "num_cues": 5,
    "reward_sparse_prob": 0.18
  },
  "seed": 25
}