{
  "agent": {
    "action_size": 4,
    "cue_exploration_bias": 0.5666666666666667,
    "cue_regularization": 0.010833333333333334,
    "epsilon": 0.05,
    "state_size": 11,
    "target_weights": [
      [
        0.02240719450202855,
        0.02493053912982527,
        -0.02503352670564165,
        -0.049994952972336894,
        -6.910190129965163e-06,
        -2.4800322075752126e-05,
        1.0186531162998831e-20,
        7.95807104789322e-117,
        7.489533660321631e-215,
        6.1916663676667e-11,
        -7.521532046941159e-05,
        0.006048246461986975
      ],
      [
        0.022245552087677947,
        0.025785958263654436,
        -0.05738715475229821,
        -0.022131923208556576,
        5.8889941035271806e-05,
        0.00011396596956152237,
        -2.8185279530432604e-06,
        3.78177049454327e-05,
        -1.6089512005766654e-49,
        4.4887757981032174e-05,
        2.1822964693501387e-05,
        0.02291340110300356
      ],
      [
        0.009257477624294472,
        -0.011448084267000376,
        -0.006692495619158716,
        -0.02963590928364512,
        -3.963471386529188e-05,
        -7.633620650508126e-05,
        2.5296433513950472e-05,
        2.8656808891652527e-05,
        4.249220651967605e-154,
        3.4117799561064307e-07,
        1.3162730686977858e-108,
        -0.03857443172533009
      ],
      [
        0.054223819374262294,
        0.0616518683311727,
        -0.012141547924908923,
        -0.04181619524485661,
        0.0001661204970596383,
        0.0005240943772469966,
        -1.4953810154843647e-06,
        -1.6599711331058436e-05,
        2.4828002477454763e-62,
        5.913678169738877e-07,
        -5.7682202739117076e-06,
        -0.03279467216392182
      ]
    ],
    "weights": [
      [
        0.022487510065596104,
        0.024832170088252455,
        -0.02530662316559094,
        -0.0500893648271458,
        -7.057663689531898e-06,
        -1.7885200281154497e-05,
        1.5541892990192986e-22,
        1.214186523906907e-118,
        1.14270038379679e-216,
        9.446809181401786e-13,
        -5.8065033691308404e-05,
        0.005855465565605243
      ],
      [
        0.02336899197255303,
        0.026744802430615378,
        -0.05725192583112204,
        -0.021832098569466284,
        -1.7941369034187028e-05,
        1.8980461732666851e-06,
        -3.1531345376511733e-06,
        5.620530005409262e-06,
        -2.4548246096410558e-51,
        1.1444520548284496e-05,
        1.334279083817664e-06,
        0.024172069909054777
      ],
      [
        0.010144547088172326,
        -0.010612788937451184,
        -0.0065928115006440935,
        -0.029484451030801835,
        -1.3806016508899704e-05,
        -4.816112689641585e-05,
        3.8595519555806086e-07,
        2.6411050688526085e-05,
        6.483162090004021e-156,
        5.205453960274459e-09,
        2.0082768954639368e-110,
        -0.03758767814293761
      ],
      [
        0.0568083079573224,
        0.0645872545402887,
        -0.012365511032858522,
        -0.04239105597886209,
        -0.00017754887851770897,
        -0.0010649722631143582,
        1.9336495863448873e-06,
        -5.98408221950959e-05,
        3.788082041769851e-64,
        9.022674335535464e-09,
        -5.266094940642177e-05,
        -0.03043414668881129
      ]
    ]
  },
  "cues": [
    [
      3,
      4
    ],
    [
      1,
      6
    ],
    [
      7,
      2
    ],
    [
      1,
      1
    ],
    [
      0,
      6
    ]
  ],
  "env": {
    "delay": 3,
    "grid_size": 10,
    "max_steps": 200,
    "noise": 0.1,
    "num_cues": 5,
    "reward_sparse_prob": 0.3
  },
  "seed": 4
}