{
  "agent": {
    "action_size": 4,
    "cue_exploration_bias": 0.5666666666666667,
    "cue_regularization": 0.010833333333333334,
    "epsilon": 0.05,
    "state_size": 11,
    "target_weights": [
      [
        -0.01209962048412116,
        0.002764107444514157,
        -0.04565387517458075,
        -0.022217982440102178,
        -3.229975342573458e-05,
        3.04430624507882e-05,
        3.0343776171269378e-06,
        9.60323398204242e-125,
        -3.5659798803141084e-283,
        -2.1355129300592046e-307,
        3.6572624691541903e-09,
        -0.0411051256147444
      ],
      [
        0.06381020383460438,
        0.019626524030312842,
        -0.047965537645006676,
        -0.052943918570473966,
        -4.3496422626782784e-05,
        -0.00010122601938373386,
        -2.7545239811056848e-05,
        6.829852137194132e-07,
        9.768078114773535e-76,
        3.0537790082511176e-134,
        -3.8387614343984806e-05,
        0.004897633552505865
      ],
      [
        0.006599118474081678,
        0.008534421873295752,
        -0.04682203477555917,
        -0.03429859863120176,
        -1.1703678121494738e-05,
        8.059823061173426e-06,
        3.408553795060363e-05,
        8.796350921576791e-13,
        -2.27e-322,
        -2.0338940444187053e-297,
        2.3770902921058575e-06,
        -0.0035932587668115546
      ],
      [
        0.03235165487977362,
        0.0321095771280509,
        -0.01748927254932881,
        -0.059948504667210814,
        5.800835089708451e-05,
        2.8583939330266666e-05,
        0.0001413937397437966,
        -1.4819721483574843e-06,
        -1.2508245542305912e-05,
        -2.215335759051508e-295,
        -0.00015733788351861056,
        0.02308921385386434
      ]
    ],
    "weights": [
      [
        -0.011385677175108792,
        0.0033911568244479277,
        -0.045585773121885755,
        -0.022062986458328587,
        -5.821594786659486e-05,
        -3.969151284060794e-05,
        8.958815479910562e-07,
        2.8352964631008773e-125,
        -1.0528338850276707e-283,
        -6.30497212587474e-308,
        1.0797845145515324e-09,
        -0.04032308025303704
      ],
      [
        0.06538978413754337,
        0.021005125794274482,
        -0.04784816929498686,
        -0.052625571681476774,
        -0.00010652980848821202,
        -0.00016728461891772772,
        -0.0001809086756483316,
        1.8386683440583857e-05,
        2.8839656913389326e-76,
        9.016096907955002e-135,
        -3.260955713551943e-05,
        0.006594582205464684
      ],
      [
        0.006750824153115923,
        0.008655367204643234,
        -0.046794830982049035,
        -0.034240634490004855,
        -1.527735078961683e-05,
        3.401147388539678e-07,
        1.0063547902191512e-05,
        2.597069143871521e-13,
        -2.27e-322,
        -6.004948542590681e-298,
        7.018214603832608e-07,
        -0.0034143492942671737
      ],
      [
        0.03201399328209573,
        0.03186069927725133,
        -0.01748118107538297,
        -0.06002919694014328,
        4.5248140906531293e-05,
        8.929936507388523e-06,
        4.174564224404438e-05,
        -5.0092099554027574e-06,
        -7.820267407208838e-06,
        -6.540644176706567e-296,
        -8.6891724833955e-05,
        0.022759643730132315
      ]
    ]
  },
  "cues": [
    [
      7,
      9
    ],
    [
      5,
      4
    ],
    [
      2,
      2
    ],
    [
      0,
      5
    ],
    [
      8,
      7
    ]
  ],
  "env": {
    "delay": 3,
    "grid_size": 10,
    "max_steps": 200,
    "noise": 0.1,
    "num_cues": 5,
    "reward_sparse_prob": 0.3
  },
  "seed": 9
}