{
  "agent": {
    "action_size": 4,
    "cue_exploration_bias": 0.85,
    "cue_regularization": 0.0037500000000000007,
    "epsilon": 0.05,
    "state_size": 11,
    "target_weights": [
      [
        -0.039680116504086406,
        -0.06071326673237577,
        -0.036525586923848025,
        -0.05795873105036485,
        5.302830373352004e-06,
        -5.208742537856028e-05,
        -6.879101372987346e-06,
        -9.774150713925803e-06,
        1.569654006017404e-24,
        -3.3604593498412596e-216,
        6.9018490434905e-05,
        -0.11306818702377364
      ],
      [
        -0.06967738028377209,
        -0.05923249176218756,
        -0.05673232388129469,
        -0.046044686661845836,
        2.43612859060857e-05,
        4.014832121897523e-05,
        6.072416911436569e-08,
        -1.205780315602698e-05,
        4.8227299435188554e-06,
        2.7479434905553113e-269,
        -2.570219812126658e-06,
        -0.09650496277597094
      ],
      [
        -0.06937568255713297,
        -0.05166626262680615,
        -0.06746756452381954,
        -0.04485776309757796,
        -9.740669791405032e-06,
        -2.21376731115103e-06,
        -5.926022318718948e-06,
        1.5587261208824507e-05,
        4.010085872798003e-13,
        -6.520680816299063e-250,
        -2.302259480207268e-06,
        -0.09575032531776298
      ],
      [
        -0.060749426839829396,
        -0.07288347169410483,
        -0.0238266203012261,
        -0.0598595969763324,
        1.4752933296941082e-05,
        1.5621779992656088e-05,
        2.1223833461951667e-06,
        -0.00013177658201206984,
        3.802630123298078e-05,
        -2.3223642227725282e-209,
        9.974760801603754e-08,
        -0.10390873119820712
      ]
    ],
    "weights": [
      [
        -0.0397059038463007,
        -0.060724610533741626,
        -0.0365385835227907,
        -0.05798617119015596,
        3.6858970241285503e-06,
        -4.105547988274538e-05,
        -7.74338565111081e-06,
        -8.315215172829154e-06,
        1.0943696380375944e-24,
        -2.342926956021831e-216,
        3.359046314082457e-05,
        -0.11310697096493064
      ],
      [
        -0.06976639724040318,
        -0.0592465376933581,
        -0.05678579409676243,
        -0.046173127902774176,
        1.3602756588346238e-05,
        -9.031876210296563e-06,
        4.233715628989719e-08,
        -1.4280382595098183e-05,
        3.3624284093237794e-06,
        1.9158782200269406e-269,
        -1.791968494133807e-06,
        -0.09664744994806981
      ],
      [
        -0.06937143392590128,
        -0.051662597087203076,
        -0.06746258817734614,
        -0.04485220365947597,
        -6.122010217157629e-06,
        -1.614107184525882e-06,
        -3.6718874092659733e-06,
        1.5794217688500172e-05,
        2.795849409035282e-13,
        -4.546247183987863e-250,
        -1.1555572047655712e-06,
        -0.09574110034005788
      ],
      [
        -0.060736731170577034,
        -0.07288878955460314,
        -0.023761368389672046,
        -0.05977633153502769,
        1.1680763456032014e-05,
        2.268231703053821e-05,
        1.4797349514278063e-06,
        -0.00011116043553313901,
        4.708602087640565e-05,
        -1.6191624932143497e-209,
        6.954446856514222e-08,
        -0.10383078361740074
      ]
    ]
  },
  "cues": [
    [
      7,
      4
    ],
    [
      4,
      3
    ],
    [
      1,
      1
    ],
    [
      4,
      8
    ],
    [
      5,
      4
    ]
  ],
  "env": {
    "delay": 6,
    "grid_size": 10,
    "max_steps": 200,
    "noise": 0.2,
    "num_cues": 5,
    "reward_sparse_prob": 0.1
  },
  "seed": 27
}