{
  "agent": {
    "action_size": 4,
    "cue_exploration_bias": 0.8177777777777777,
    "cue_regularization": 0.0045555555555555575,
    "epsilon": 0.05,
    "state_size": 11,
    "target_weights": [
      [
        0.006297125381168281,
        -0.046548012605784235,
        -0.027460719628047484,
        -0.06650956220862092,
        7.671602099205764e-05,
        -1.3095576975543791e-05,
        3.14438785700303e-54,
        1.0081940727829574e-05,
        4.3239149549820373e-172,
        -4.252843023400103e-136,
        3.1630961108464247e-181,
        -0.07295295449241686
      ],
      [
        0.027514278108609444,
        -0.03733708628661294,
        -0.10002179427893408,
        -0.06290946062014233,
        0.0003906366976642612,
        0.000219565754106582,
        2.180715098745005e-10,
        -2.539419470578622e-05,
        3.54688662444687e-169,
        -1.0088554009669185e-157,
        5.523935719343964e-57,
        -0.0734658228968697
      ],
      [
        -0.029283813138744813,
        -0.046276265627634754,
        -0.04631601399019526,
        -0.062062152064357654,
        -7.652672882216857e-06,
        8.549078862000431e-07,
        1.2788051977192544e-05,
        1.30347585795333e-14,
        7.557947160690949e-168,
        9.349707360933848e-132,
        4.644275798352615e-18,
        -0.04797235340945372
      ],
      [
        -0.05462240297775864,
        -0.021296802687661626,
        -0.0357926106890824,
        -0.015871909786023163,
        2.5607990042251805e-05,
        1.2188239561683473e-06,
        -3.3852183581978628e-06,
        2.2871035465881817e-05,
        -6.120882941683297e-09,
        -9.397497917739523e-06,
        -3.161791408490715e-05,
        -0.06902671721296477
      ]
    ],
    "weights": [
      [
        0.006297125381168281,
        -0.046548012605784235,
        -0.027460719628047484,
        -0.06650956220862092,
        7.671602099205764e-05,
        -1.3095576975543791e-05,
        3.14438785700303e-54,
        1.0081940727829574e-05,
        4.3239149549820373e-172,
        -4.252843023400103e-136,
        3.1630961108464247e-181,
        -0.07295295449241686
      ],
      [
        0.027514278108609444,
        -0.03733708628661294,
        -0.10002179427893408,
        -0.06290946062014233,
        0.0003906366976642612,
        0.000219565754106582,
        2.180715098745005e-10,
        -2.539419470578622e-05,
        3.54688662444687e-169,
        -1.0088554009669185e-157,
        5.523935719343964e-57,
        -0.0734658228968697
      ],
      [
        -0.029283813138744813,
        -0.046276265627634754,
        -0.04631601399019526,
        -0.062062152064357654,
        -7.652672882216857e-06,
        8.549078862000431e-07,
        1.2788051977192544e-05,
        1.30347585795333e-14,
        7.557947160690949e-168,
        9.349707360933848e-132,
        4.644275798352615e-18,
        -0.04797235340945372
      ],
      [
        -0.05462240297775864,
        -0.021296802687661626,
        -0.0357926106890824,
        -0.015871909786023163,
        2.5607990042251805e-05,
        1.2188239561683473e-06,
        -3.3852183581978628e-06,
        2.2871035465881817e-05,
        -6.120882941683297e-09,
        -9.397497917739523e-06,
        -3.161791408490715e-05,
        -0.06902671721296477
      ]
    ]
  },
  "cues": [
    [
      3,
      0
    ],
    [
      8,
      0
    ],
    [
      2,
      3
    ],
    [
      2,
      5
    ],
    [
      3,
      1
    ]
  ],
  "env": {
    "delay": 5,
    "grid_size": 10,
    "max_steps": 200,
    "noise": 0.16,
    "num_cues": 5,
    "reward_sparse_prob": 0.18
  },
  "seed": 15
}