{
  "agent": {
    "action_size": 4,
    "cue_exploration_bias": 0.85,
    "cue_regularization": 0.0037500000000000007,
    "epsilon": 0.05,
    "state_size": 11,
    "target_weights": [
      [
        -0.05211666990100694,
        -0.05387440475130986,
        -0.029961286699516528,
        -0.05137330359840719,
        -2.4528138653798373e-05,
        6.4145592259957475e-06,
        1.1676899257143143e-261,
        8.565390863611081e-144,
        5.005589447683323e-157,
        6.57e-322,
        4.6216528947794287e-10,
        -0.12588365159191453
      ],
      [
        -0.05388245878099016,
        -0.06137015952607555,
        -0.043398484512450784,
        -0.04102887224611478,
        -4.5285305040582906e-05,
        -1.196574622427003e-06,
        -1.8348101569717153e-262,
        -3.382560990185643e-80,
        -4.3024381888905465e-232,
        -7.584408037619815e-276,
        2.729350842205336e-05,
        -0.11462325995894733
      ],
      [
        -0.05058457437814711,
        -0.06540726642477801,
        -0.04396318717166438,
        -0.05330160091995702,
        -7.678046996289214e-05,
        -1.6218803250589825e-05,
        -8.936848484818625e-253,
        -4.61096968003411e-07,
        -6.069990412117317e-151,
        -2.824490571260763e-259,
        1.785718707265739e-65,
        -0.10552457918778739
      ],
      [
        -0.06478679636260416,
        -0.04460536246585358,
        -0.048378748654062186,
        -0.04090285699875083,
        -4.2391095289573095e-06,
        5.354189843380295e-07,
        1.1626933620415816e-265,
        1.1815968795228923e-126,
        4.271317301453202e-229,
        4.1819458616924193e-280,
        9.466994991260686e-07,
        -0.1187014973858321
      ]
    ],
    "weights": [
      [
        -0.05211824586914356,
        -0.053916676034056456,
        -0.030025355643656635,
        -0.05139667722793732,
        -4.0090610748131116e-05,
        9.354382615322587e-06,
        8.141185232192821e-262,
        5.971827971722224e-144,
        3.489918855381981e-157,
        6.57e-322,
        3.2222366115116226e-10,
        -0.12594929650419126
      ],
      [
        -0.05388393060293154,
        -0.06139725016992189,
        -0.04343020959346975,
        -0.04103497850522881,
        -4.94636893001363e-05,
        -5.103605107492348e-06,
        -1.2792376661704738e-262,
        -2.358336316333719e-80,
        -2.9996787224477465e-232,
        -5.28788245501244e-276,
        2.932280674295456e-05,
        -0.11465645686190767
      ],
      [
        -0.05058739485344891,
        -0.06526492744305369,
        -0.04372281482916462,
        -0.05320638803448335,
        6.156403740907525e-05,
        -1.7256963244979113e-05,
        -6.230809849836002e-253,
        -3.214788227467054e-07,
        -4.2320238630517945e-151,
        -1.9692471794812643e-259,
        1.2450108927289931e-65,
        -0.10528702732058944
      ],
      [
        -0.06478717074992746,
        -0.04461228174585968,
        -0.0483908289707499,
        -0.040908392422755714,
        -6.9790651861708384e-06,
        3.732964575901378e-07,
        8.106348971736716e-266,
        8.23814512238107e-127,
        2.9779811036160456e-229,
        2.9156709449396995e-280,
        6.600430312777351e-07,
        -0.11871395208984309
      ]
    ]
  },
  "cues": [
    [
      8,
      6
    ],
    [
      4,
      5
    ],
    [
      4,
      2
    ],
    [
      8,
      4
    ],
    [
      1,
      0
    ]
  ],
  "env": {
    "delay": 6,
    "grid_size": 10,
    "max_steps": 200,
    "noise": 0.2,
    "num_cues": 5,
    "reward_sparse_prob": 0.1
  },
  "seed": 17
}