{
  "agent": {
    "action_size": 4,
    "cue_exploration_bias": 0.5666666666666667,
    "cue_regularization": 0.010833333333333334,
    "epsilon": 0.05,
    "state_size": 11,
    "target_weights": [
      [
        0.04789425020062197,
        -0.010757947899893035,
        -0.013630363845620485,
        -0.046872146312633006,
        -9.225319189721026e-06,
        -7.965678659278763e-05,
        2.985341686103561e-19,
        1.3379339782088244e-51,
        -1.291921081665267e-309,
        -4.276848841169279e-267,
        -2.27e-322,
        -0.017525473890536058
      ],
      [
        0.062135309699149724,
        0.03544624792519806,
        -0.0502499346517071,
        -0.05129990361418793,
        5.383627874668542e-05,
        0.00012011735940759811,
        2.1146783226273892e-07,
        -4.0809125966663995e-06,
        6.693995988109126e-69,
        2.1221992106859802e-97,
        -3.5790702268147584e-13,
        0.01092706832089415
      ],
      [
        -0.0008890142296950991,
        -0.020437606233151686,
        -0.03340589502502274,
        -0.046595893584618284,
        -0.00012567904927232338,
        -3.3787248721588274e-05,
        2.550672021834152e-08,
        1.383126472911139e-49,
        -2.27e-322,
        -2.8315339027569006e-300,
        1.4770742318802537e-38,
        -0.006667435535231187
      ],
      [
        0.022924085451961146,
        0.07217850004704715,
        -0.03259417631472348,
        -0.0286022897166532,
        8.579929629961207e-05,
        -0.0007909232107941018,
        -8.073916019317304e-06,
        7.687193427734822e-06,
        -1.077730711431373e-18,
        -1.705105798353112e-266,
        -4.174670577046709e-06,
        0.011718205591113568
      ]
    ],
    "weights": [
      [
        0.04816687902616025,
        -0.010545903257807712,
        -0.013630363845620485,
        -0.04681156212918006,
        -1.187149014943257e-05,
        -8.420466715468985e-05,
        2.186087510169078e-20,
        9.797340025793202e-53,
        -9.460399638336e-311,
        -3.1318243663974765e-268,
        -2.27e-322,
        -0.017252845064997784
      ],
      [
        0.061516473543057636,
        0.034650480370975935,
        -0.05013187898239613,
        -0.051004916546746944,
        -4.402202041514954e-05,
        0.00024061849186542405,
        3.0549414693656545e-05,
        -2.988345387461486e-07,
        4.901837900447169e-70,
        1.5540308870394294e-98,
        -2.6208593667111465e-14,
        0.010426287834113016
      ],
      [
        -0.0005123393762713262,
        -0.020090145046665182,
        -0.03318191909452796,
        -0.046342703987186235,
        -0.00016827838372550163,
        -0.00011075505333811388,
        1.874277427190137e-05,
        1.0128272825485764e-50,
        -2.27e-322,
        -2.073458099704579e-301,
        1.0816227653057993e-39,
        -0.006066784751312629
      ],
      [
        0.021204694562643657,
        0.07063350166904679,
        -0.03247440099704801,
        -0.028656906910294825,
        0.00012528390358580195,
        0.0006052573071673215,
        -1.4755545622216013e-05,
        5.629130366835317e-07,
        -7.891939668255551e-20,
        -1.2486043077238922e-267,
        -6.057636417611077e-06,
        0.010118590019471569
      ]
    ]
  },
  "cues": [
    [
      3,
      0
    ],
    [
      8,
      0
    ],
    [
      2,
      3
    ],
    [
      2,
      5
    ],
    [
      3,
      1
    ]
  ],
  "env": {
    "delay": 3,
    "grid_size": 10,
    "max_steps": 200,
    "noise": 0.1,
    "num_cues": 5,
    "reward_sparse_prob": 0.3
  },
  "seed": 15
}