{
  "agent": {
    "action_size": 4,
    "cue_exploration_bias": 0.25555555555555554,
    "cue_regularization": 0.018611111111111113,
    "epsilon": 0.05,
    "state_size": 11,
    "target_weights": [
      [
        0.03897600083106083,
        0.04819268321698577,
        -0.02214766815778622,
        -0.010751615374288911,
        -1.1595427709292483e-05,
        -2.4281562996700238e-05,
        6.710859641378101e-100,
        2.1821704398353546e-23,
        4.394925336053557e-26,
        3.00712829981968e-76,
        -1.3e-322,
        0.035345147304406736
      ],
      [
        0.13502280682341034,
        0.11358294270825807,
        -0.03823443820077069,
        -0.00536838413141673,
        -1.9762367183748262e-05,
        1.711207113441124e-05,
        8.446995822044063e-06,
        -7.5882674919115e-08,
        1.323869487878332e-05,
        5.244160574403542e-06,
        1.3e-322,
        0.08448958679438966
      ],
      [
        0.04851820231034024,
        0.05620161748716112,
        -0.05391216627626488,
        0.0015166176796649325,
        -3.7404057383358397e-05,
        -3.314967450320624e-05,
        7.647235462232868e-133,
        3.4167477122242868e-09,
        3.246019534515965e-62,
        1.9360851436177478e-08,
        1.3e-322,
        0.02943182066938758
      ],
      [
        0.10538540766115292,
        0.1481866620492522,
        -0.0069876969882155865,
        -0.07469953385234393,
        0.00010018999179214967,
        4.9328826515856874e-05,
        7.413987882476781e-13,
        1.7466000268847397e-06,
        3.0514165933140413e-06,
        -4.325736077869158e-05,
        -4.5369037728824895e-09,
        0.09495114486234245
      ]
    ],
    "weights": [
      [
        0.03952477209291549,
        0.04899246891845213,
        -0.02172241551436304,
        -0.010577377170477437,
        -6.357717214591442e-05,
        -7.424296514058168e-05,
        3.321697062166108e-101,
        1.0801163377719395e-24,
        2.175371168128115e-27,
        1.4884485405533472e-77,
        -1.3e-322,
        0.03631917120968458
      ],
      [
        0.13677664907520728,
        0.11529275651622396,
        -0.03774148340993297,
        -0.0048314008967479,
        -0.00025302657730211535,
        -0.00013545136714646032,
        4.1810383029336096e-07,
        -3.755990615479013e-09,
        -1.137524520405244e-07,
        1.2380665561747505e-05,
        1.3e-322,
        0.08673638383702442
      ],
      [
        0.04851820231034024,
        0.05620161748716112,
        -0.05391216627626488,
        0.0015166176796649325,
        -1.8514013727439555e-06,
        -1.6408207337570058e-06,
        3.7851781926666937e-134,
        1.6911992567806935e-10,
        1.6066933489494508e-63,
        9.583106602327736e-10,
        1.3e-322,
        0.02943182066938758
      ],
      [
        0.10388765987196755,
        0.1468789233386914,
        -0.007128902817921078,
        -0.07503074876067399,
        9.966644070494315e-05,
        6.670914139732983e-05,
        3.669726843385597e-14,
        8.645205663831895e-08,
        -1.6769426283142718e-05,
        -6.962607751161929e-05,
        -2.2456467187591743e-10,
        0.09331219124345164
      ]
    ]
  },
  "cues": [
    [
      2,
      1
    ],
    [
      7,
      5
    ],
    [
      3,
      3
    ],
    [
      7,
      7
    ],
    [
      2,
      7
    ]
  ],
  "env": {
    "delay": 1,
    "grid_size": 10,
    "max_steps": 200,
    "noise": 0.05,
    "num_cues": 5,
    "reward_sparse_prob": 0.65
  },
  "seed": 18
}