{
  "agent": {
    "action_size": 4,
    "cue_exploration_bias": 0.5666666666666667,
    "cue_regularization": 0.010833333333333334,
    "epsilon": 0.05,
    "state_size": 11,
    "target_weights": [
      [
        -0.05317308044310228,
        -0.05568389838100696,
        -0.05009624385737829,
        -0.06803992357331892,
        -1.6518369906768664e-07,
        -6.180261027203325e-06,
        1.756479453882659e-14,
        -2.3204400993979814e-285,
        5.610834732194623e-07,
        6.372037046593527e-23,
        2.27e-322,
        -0.102048928136964
      ],
      [
        -0.0686744427667186,
        -0.03151759497457128,
        -0.05927406787391621,
        -0.034123456284755806,
        -1.2973304946738822e-06,
        5.440148035161262e-06,
        4.7059180725420493e-07,
        2.27e-322,
        -1.278685869699481e-06,
        2.27e-322,
        2.27e-322,
        -0.11528645964785429
      ],
      [
        -0.057820039078898496,
        -0.03728387394685209,
        -0.057220458428548185,
        -0.05157856236948286,
        2.685830419898077e-06,
        -1.5821218201802817e-05,
        -7.063870878692406e-10,
        -4.888633043378799e-257,
        8.671158298116733e-05,
        2.27e-322,
        2.27e-322,
        -0.10941168656530799
      ],
      [
        -0.07726935875481356,
        -0.0677928704275835,
        -0.04861113687835507,
        -0.05814748216609081,
        -5.994334756500627e-06,
        2.7379901530172787e-05,
        2.334995568950564e-148,
        2.27e-322,
        -7.250618765350673e-06,
        -7.034370848026768e-08,
        2.27e-322,
        -0.08991587754678114
      ]
    ],
    "weights": [
      [
        -0.05316831325175132,
        -0.05561901730540774,
        -0.0500284082988252,
        -0.06803220189901406,
        3.6175610164479623e-07,
        -6.24776823987683e-06,
        3.797497855866528e-16,
        -5.016777328452164e-287,
        1.2130590436473144e-08,
        1.3776305193011126e-24,
        2.27e-322,
        -0.10197632538705999
      ],
      [
        -0.06864095238545068,
        -0.031358672692126395,
        -0.05913506913410559,
        -0.03410988944612219,
        3.412602976931853e-06,
        -1.3289834208604122e-05,
        2.251128617381593e-06,
        2.27e-322,
        2.020374012080171e-06,
        2.27e-322,
        2.27e-322,
        -0.11511397052677574
      ],
      [
        -0.0578818993889081,
        -0.037399402518565036,
        -0.05730908679912309,
        -0.05161352247835444,
        -2.942694883820682e-06,
        1.8161409038569184e-05,
        -2.3821924589966247e-06,
        -1.0569194794344278e-258,
        -1.3165087664421338e-05,
        2.27e-322,
        2.27e-322,
        -0.1095621752458925
      ],
      [
        -0.07728665765383842,
        -0.06791704136245853,
        -0.04872994294668074,
        -0.05815941619856631,
        -1.0262974645260834e-06,
        4.99544346987131e-06,
        5.048246164762699e-150,
        2.27e-322,
        4.919110817237195e-07,
        -1.520826682811641e-09,
        2.27e-322,
        -0.09005198251413167
      ]
    ]
  },
  "cues": [
    [
      7,
      4
    ],
    [
      8,
      5
    ],
    [
      2,
      6
    ],
    [
      0,
      5
    ],
    [
      7,
      9
    ]
  ],
  "env": {
    "delay": 3,
    "grid_size": 10,
    "max_steps": 200,
    "noise": 0.1,
    "num_cues": 5,
    "reward_sparse_prob": 0.3
  },
  "seed": 12
}