{
  "agent": {
    "action_size": 4,
    "cue_exploration_bias": 0.25555555555555554,
    "cue_regularization": 0.018611111111111113,
    "epsilon": 0.05,
    "state_size": 11,
    "target_weights": [
      [
        0.06264817109869605,
        0.05863718972445706,
        -0.023942966912798593,
        -0.010501562530966657,
        -4.2215068801822016e-05,
        -3.0510714942905267e-05,
        1.5772032729202396e-79,
        -1.3e-322,
        -4.817565980059515e-274,
        2.556184347480835e-16,
        1.8683577306691818e-11,
        0.028962782881756053
      ],
      [
        0.14164560628791364,
        0.13179028169895463,
        -0.04182769629022047,
        0.0021996752595149368,
        0.00027365715072341786,
        1.2689611340615958e-05,
        -4.152962872476347e-06,
        1.005894238598149e-87,
        -2.6311166327537515e-68,
        1.6169609652412887e-05,
        -4.3535445628832415e-06,
        0.08760318406457883
      ],
      [
        0.055578859229657614,
        0.04529740619013826,
        -0.004287613699645095,
        -0.02754111438914603,
        -0.00034618904444935186,
        -0.0002292762959339636,
        1.1800345666417568e-69,
        8.955666389023539e-241,
        1.2252467357127293e-208,
        1.6741457988498058e-08,
        5.905548326133908e-186,
        0.006392950799307265
      ],
      [
        0.10613482464945978,
        0.15687948738939822,
        -0.02758465982875316,
        -0.06629751195820337,
        -3.497189362567395e-05,
        0.00022925241223703606,
        2.2833650860071198e-09,
        -1.945682494147493e-84,
        5.788427887007627e-86,
        2.85730620876437e-05,
        9.691308688751843e-06,
        0.09962670574668066
      ]
    ],
    "weights": [
      [
        0.06264817109869605,
        0.05863718972445706,
        -0.023942966912798593,
        -0.010501562530966657,
        -6.953710748577126e-06,
        -5.025757211038729e-06,
        2.597985900030828e-80,
        -1.3e-322,
        -7.935545597422665e-275,
        4.21057387253504e-17,
        3.0775785999384008e-12,
        0.028962782881756053
      ],
      [
        0.14231596671224148,
        0.13261008535862154,
        -0.041581759955367226,
        0.0022961683590291384,
        -3.784472188892204e-05,
        0.00013178504878708647,
        -4.470993735484984e-06,
        1.656919620742123e-88,
        -4.33400312476813e-69,
        7.55294766015017e-06,
        -4.855414280705812e-06,
        0.08851948082375997
      ],
      [
        0.055578859229657614,
        0.04529740619013826,
        -0.004287613699645095,
        -0.02754111438914603,
        -5.702462527606262e-05,
        -3.776663377985877e-05,
        1.9437654095201144e-70,
        1.475186832511714e-241,
        2.018239372244472e-209,
        2.7576706532916232e-09,
        9.72768161635843e-187,
        0.006392950799307265
      ],
      [
        0.10636495539397973,
        0.15718802390272094,
        -0.027297508337598652,
        -0.06608876623585164,
        -0.00011597619998684633,
        0.0001298737547242467,
        1.3365522155343724e-05,
        -3.204948767556629e-85,
        9.534759591227117e-87,
        3.8678999093281256e-05,
        1.5963626095960315e-06,
        0.10014398798235516
      ]
    ]
  },
  "cues": [
    [
      2,
      3
    ],
    [
      0,
      9
    ],
    [
      7,
      2
    ],
    [
      1,
      5
    ],
    [
      1,
      3
    ]
  ],
  "env": {
    "delay": 1,
    "grid_size": 10,
    "max_steps": 200,
    "noise": 0.05,
    "num_cues": 5,
    "reward_sparse_prob": 0.65
  },
  "seed": 22
}