{
  "agent": {
    "action_size": 4,
    "cue_exploration_bias": 0.5666666666666667,
    "cue_regularization": 0.010833333333333334,
    "epsilon": 0.05,
    "state_size": 11,
    "target_weights": [
      [
        -0.025923568462559835,
        -0.03433507400233309,
        -0.04169867545694868,
        -0.03806165574783116,
        7.731114414695333e-06,
        -2.204083219339463e-05,
        4.909584909301998e-199,
        5.861961736115537e-19,
        1.1605238224769249e-189,
        2.27e-322,
        1.6568611445608363e-07,
        -0.07553594556934913
      ],
      [
        -0.013438897324941617,
        -0.012124779429113509,
        -0.04763099853578817,
        -0.03440326548353873,
        3.911294602016461e-05,
        1.61869591272451e-05,
        -5.003739161826344e-153,
        -2.555825041749517e-07,
        -5.382147702154843e-124,
        -2.27e-322,
        1.8433735910619513e-05,
        -0.030081438779773036
      ],
      [
        -0.004441859177969792,
        -0.034153150315259284,
        -0.04666922887500969,
        -0.059327172186654724,
        -1.381584076358383e-05,
        5.4277651561339694e-06,
        2.27e-322,
        2.27e-322,
        6.041952576787985e-149,
        2.27e-322,
        2.3762792482999693e-18,
        -0.04172976030446516
      ],
      [
        -0.01099972477156766,
        0.0008179099895791906,
        -0.04647459997860774,
        -0.08618126975952252,
        0.0001223395111119508,
        -0.00010789397843413221,
        -4.3989669379640386e-303,
        4.449192032361013e-107,
        1.4190682826663065e-183,
        1.70295e-319,
        -0.0001015890783968591,
        -0.029956423372397286
      ]
    ],
    "weights": [
      [
        -0.025560636827194654,
        -0.03385871959773177,
        -0.04147372369934344,
        -0.03795012675946207,
        -3.0896751017483835e-05,
        2.2277582213930547e-06,
        1.790459653901623e-200,
        2.1377786870218616e-20,
        4.232274458885029e-191,
        2.27e-322,
        6.042349987333653e-09,
        -0.07494806217637871
      ],
      [
        -0.01088729817536823,
        -0.009815387160065775,
        -0.04745095523579816,
        -0.0339810153030231,
        -0.0011888087712599313,
        0.00025511950556707393,
        -1.824796444791765e-154,
        -9.320750540465802e-09,
        -1.9627969553575968e-125,
        -2.27e-322,
        1.7980472489931777e-05,
        -0.027349796330209647
      ],
      [
        -0.004155884584780962,
        -0.033903746680766574,
        -0.04665051086527185,
        -0.059271883218220765,
        -2.4270437897802623e-05,
        8.777759349280355e-06,
        2.27e-322,
        2.27e-322,
        2.2034189283557635e-150,
        2.27e-322,
        8.665971154554606e-20,
        -0.04142506770153849
      ],
      [
        -0.012312648236267204,
        1.1072542092401155e-05,
        -0.046212490866853057,
        -0.08642524666498064,
        0.000371216191741051,
        -0.00011075294772172819,
        -1.6042441401408663e-304,
        1.62256055727031e-108,
        5.1751513685638867e-185,
        6.205e-321,
        -3.253801199322675e-05,
        -0.031007237725342154
      ]
    ]
  },
  "cues": [
    [
      6,
      0
    ],
    [
      3,
      4
    ],
    [
      7,
      0
    ],
    [
      4,
      0
    ],
    [
      4,
      9
    ]
  ],
  "env": {
    "delay": 3,
    "grid_size": 10,
    "max_steps": 200,
    "noise": 0.1,
    "num_cues": 5,
    "reward_sparse_prob": 0.3
  },
  "seed": 25
}