{
  "agent": {
    "action_size": 4,
    "cue_exploration_bias": 0.8177777777777777,
    "cue_regularization": 0.0045555555555555575,
    "epsilon": 0.05,
    "state_size": 11,
    "target_weights": [
      [
        -0.034854142214950895,
        -0.030939517151476668,
        -0.049887031425996646,
        -0.03166657792724466,
        -1.2857756339285654e-06,
        -4.315305817684628e-06,
        1.2228647763851676e-05,
        2.8665934697725177e-34,
        2.1762733462256335e-99,
        1.6408747189809763e-05,
        4.279895425409467e-189,
        -0.08047533735729588
      ],
      [
        -0.02061803061636902,
        -0.054015116163757114,
        -0.012816409455928542,
        -0.04407508627389426,
        -2.9451190062721137e-06,
        7.361150384192369e-05,
        -1.7093088221668608e-05,
        -5.916781981839551e-08,
        -8.830482621565673e-39,
        1.0177187525563472e-06,
        -1.1127909317947742e-236,
        -0.06644549043340695
      ],
      [
        -0.014537222980312013,
        -0.04519407376115729,
        -0.03236148962504483,
        -0.05962023787436014,
        -6.132694637684868e-06,
        1.2643409900077687e-05,
        1.4224997010932458e-06,
        5.79160371611176e-32,
        4.872393961865693e-35,
        1.1539366502060762e-05,
        3.895797481077658e-06,
        -0.07478748039051702
      ],
      [
        -0.03379363134908467,
        -0.03519314836249076,
        -0.03344910765890336,
        -0.07889691111601757,
        8.457457958722699e-05,
        -7.065539130956622e-05,
        -9.088925528260402e-06,
        1.3811005550547675e-13,
        4.239998421632374e-38,
        -0.00016273744183300756,
        -4.316906932790708e-05,
        -0.05662495731568832
      ]
    ],
    "weights": [
      [
        -0.03482639392274909,
        -0.030903840775788626,
        -0.04987910334251042,
        -0.03166657792724466,
        -4.974012117232608e-07,
        -5.189682517562875e-06,
        4.730641999251556e-06,
        1.1089392486201478e-34,
        8.418894952506188e-100,
        3.8030501061665304e-05,
        1.6556739095631232e-189,
        -0.08043966098160785
      ],
      [
        -0.020452744983491703,
        -0.053923299955121934,
        -0.012830721139271532,
        -0.04401592853299512,
        -1.4398553391224279e-05,
        6.19202677445665e-05,
        -3.9795733398500385e-05,
        -2.288902083388569e-08,
        -3.416064700687881e-39,
        3.9370363487782216e-07,
        -4.3048222665271613e-237,
        -0.06629451648387266
      ],
      [
        -0.014544225355899578,
        -0.04519909616828566,
        -0.03236148962504483,
        -0.05962221784281934,
        -1.8337618014712349e-06,
        4.313736354577116e-06,
        5.502928009592895e-07,
        2.240476977630279e-32,
        1.884881465065732e-35,
        4.463994128669814e-06,
        1.5070859460882545e-06,
        -0.07479448276610459
      ],
      [
        -0.0344391742369022,
        -0.03570149773451316,
        -0.033437973529187974,
        -0.07902297050209735,
        0.00013863007253845017,
        -8.026880923272973e-05,
        1.0609354367024438e-05,
        5.342775764827378e-14,
        1.64023978754432e-38,
        -0.0001702224236534431,
        -3.551608025800664e-05,
        -0.057259366073790466
      ]
    ]
  },
  "cues": [
    [
      2,
      6
    ],
    [
      6,
      4
    ],
    [
      7,
      3
    ],
    [
      7,
      8
    ],
    [
      2,
      8
    ]
  ],
  "env": {
    "delay": 5,
    "grid_size": 10,
    "max_steps": 200,
    "noise": 0.16,
    "num_cues": 5,
    "reward_sparse_prob": 0.18
  },
  "seed": 21
}