{
  "agent": {
    "action_size": 4,
    "cue_exploration_bias": 0.25555555555555554,
    "cue_regularization": 0.018611111111111113,
    "epsilon": 0.05,
    "state_size": 11,
    "target_weights": [
      [
        0.04711293125708112,
        0.05738874245081427,
        0.024887810276435014,
        -0.006458061798494872,
        1.340428751581745e-05,
        -5.997781998390399e-05,
        6.700125467967414e-05,
        1.3e-322,
        7.689671491195849e-06,
        1.9542106023269986e-253,
        5.358860652197695e-24,
        0.037609409038974716
      ],
      [
        0.14523026762425892,
        0.11936918735537223,
        -0.029436905495100345,
        0.00046912581602376785,
        -3.028078966301606e-05,
        3.3742747987749745e-05,
        -7.066865884690331e-05,
        -1.352048709341426e-05,
        -0.00016584022330207952,
        -4.616502472524212e-09,
        -9.163782510888926e-06,
        0.10231988723730538
      ],
      [
        0.05546550407978272,
        0.06497917908795585,
        -0.017321443990101448,
        0.002300078373672323,
        -1.4522500085446368e-05,
        4.251832350289239e-06,
        0.00023079960194132774,
        9.723856010363873e-16,
        1.4099775543344312e-05,
        7.346281307522924e-234,
        2.2876617613498556e-13,
        0.07161638294815131
      ],
      [
        0.12815784943292952,
        0.17010462028400847,
        0.0016178956639347163,
        -0.048391104395251384,
        6.377670110256613e-05,
        3.1371552051709794e-06,
        -6.356968601147643e-05,
        -1.2081174189263491e-06,
        0.0006392179875128993,
        1.319628077712257e-217,
        -1.4848449617384315e-05,
        0.07269425200186362
      ]
    ],
    "weights": [
      [
        0.04714178711336089,
        0.05746088209151369,
        0.024988805773414207,
        -0.006400350085935333,
        8.94892944251522e-06,
        -3.124409562817911e-05,
        1.4906437684058372e-05,
        1.3e-322,
        1.7107979461340537e-06,
        4.347727323075147e-254,
        1.1922392013618614e-24,
        0.03773926039223368
      ],
      [
        0.145688728786911,
        0.11972772740498994,
        -0.029403946072839804,
        0.0006020063513186371,
        -9.783506940722626e-05,
        2.2321185874812082e-05,
        -3.372387861566184e-05,
        -5.270780880158938e-06,
        -8.690615223850269e-05,
        -1.027079369692159e-09,
        -3.921738565884678e-06,
        0.10281130782221794
      ],
      [
        0.05723442195858271,
        0.06696921170160583,
        -0.01710032925525145,
        0.002300078373672323,
        -3.2309655031894613e-06,
        9.459475688277996e-07,
        5.134829042071027e-05,
        2.1633632737211668e-16,
        0.0004715485993670821,
        1.6344005055382037e-234,
        5.0895893891536135e-14,
        0.0736064155618013
      ],
      [
        0.1291715541415391,
        0.17099411039790507,
        0.0015577595064295187,
        -0.048327025958043744,
        -1.1834810730746823e-05,
        1.842308081279219e-05,
        -0.00012533412921359436,
        -2.687819370898182e-07,
        0.0004422581372621026,
        2.935908260314859e-218,
        -8.1518547649107e-06,
        0.07364782055296791
      ]
    ]
  },
  "cues": [
    [
      7,
      8
    ],
    [
      7,
      7
    ],
    [
      8,
      9
    ],
    [
      3,
      2
    ],
    [
      8,
      7
    ]
  ],
  "env": {
    "delay": 1,
    "grid_size": 10,
    "max_steps": 200,
    "noise": 0.05,
    "num_cues": 5,
    "reward_sparse_prob": 0.65
  },
  "seed": 11
}