{
  "agent": {
    "action_size": 4,
    "cue_exploration_bias": 0.8177777777777777,
    "cue_regularization": 0.0045555555555555575,
    "epsilon": 0.05,
    "state_size": 11,
    "target_weights": [
      [
        -0.01662534578858806,
        -0.05063832416907775,
        -0.04030989007441991,
        -0.04876320604873686,
        -5.630019259711257e-06,
        2.655346135595147e-05,
        3.256547530231264e-63,
        7.353188109776027e-89,
        4.658841927388327e-242,
        4.451444944588995e-113,
        -9.282450777924232e-72,
        -0.09379771945884845
      ],
      [
        -0.038262853260959705,
        -0.048234454284784095,
        -0.06663377912882129,
        -0.03552965236396268,
        -3.9056082416334825e-05,
        8.150020440636827e-05,
        -8.896476304351809e-06,
        -3.3135705691177997e-07,
        2.205421807980396e-05,
        9.911123776207095e-06,
        -1.5929424384907287e-07,
        -0.07499189100068376
      ],
      [
        -0.046250269233698287,
        -0.03397404436199864,
        -0.07059383242495046,
        -0.042550835940081744,
        -5.8953111944188695e-06,
        2.223608211155137e-06,
        4.9034783195752067e-70,
        3.3225223769011072e-192,
        1.1807103786913713e-50,
        1.915272233399688e-62,
        1.3282973178591531e-78,
        -0.07575117989545921
      ],
      [
        -0.026678624174685986,
        -0.019559569779806066,
        -0.04315620766595753,
        -0.0984422835902197,
        1.0318843970705549e-05,
        8.29874561253638e-05,
        8.76387983722899e-42,
        -2.646992401483837e-231,
        1.2590523938151485e-25,
        -1.4171063010042847e-05,
        7.128426741798571e-47,
        -0.08916751589779853
      ]
    ],
    "weights": [
      [
        -0.016623116850532672,
        -0.050688208395103906,
        -0.04040317305273298,
        -0.04880437586296837,
        -7.470846416953011e-06,
        2.7405043759543097e-05,
        7.554506682265536e-64,
        1.7057852893464024e-89,
        1.0807535325478463e-242,
        1.0326417860465427e-113,
        -2.153333730849913e-72,
        -0.09388877349910608
      ],
      [
        -0.038316670105389486,
        -0.04833899770428503,
        -0.06678100744785247,
        -0.035626154107922685,
        -1.3024096679451543e-05,
        7.212411571995822e-05,
        -1.0662248832443901e-05,
        -7.686788162671525e-08,
        2.2692925152791566e-05,
        2.299172669861209e-06,
        -3.695292079826638e-08,
        -0.07519293616414469
      ],
      [
        -0.04632567423731649,
        -0.03403251164585419,
        -0.07062658153226863,
        -0.04260052276716254,
        -8.57537504208893e-06,
        4.878790848944289e-06,
        1.1375040403277772e-70,
        7.707554477638378e-193,
        2.7390002334806416e-51,
        4.4430295431763904e-63,
        3.081370952104534e-79,
        -0.07585933400639558
      ],
      [
        -0.023640642871913913,
        -0.016899939011381197,
        -0.04321457303844238,
        -0.09812229842835724,
        -0.001572501865800329,
        4.149638069751185e-05,
        2.0330361580264415e-42,
        -6.1404667364077024e-232,
        2.920737263651577e-26,
        -5.167776023573426e-06,
        1.6536453699827722e-47,
        -0.08618789996751126
      ]
    ]
  },
  "cues": [
    [
      7,
      4
    ],
    [
      4,
      3
    ],
    [
      1,
      1
    ],
    [
      4,
      8
    ],
    [
      5,
      4
    ]
  ],
  "env": {
    "delay": 5,
    "grid_size": 10,
    "max_steps": 200,
    "noise": 0.16,
    "num_cues": 5,
    "reward_sparse_prob": 0.18
  },
  "seed": 27
}