{
  "agent": {
    "action_size": 4,
    "cue_exploration_bias": 0.85,
    "cue_regularization": 0.0037500000000000007,
    "epsilon": 0.05,
    "state_size": 11,
    "target_weights": [
      [
        -0.046770101130441034,
        -0.05401309414258322,
        -0.052126076941021046,
        -0.05381949364176956,
        -1.206800233389022e-06,
        -1.254883526727823e-05,
        -7.054505366620765e-140,
        2.1818529929592114e-05,
        8.770085707321327e-06,
        -6.356613231611968e-174,
        -4.382465157023155e-175,
        -0.0688192143621998
      ],
      [
        -0.008738861845737888,
        -0.049459730810017734,
        -0.058839457642046136,
        -0.05624594151447663,
        -0.00017810905682386072,
        0.00011162772410567564,
        7.39658853075002e-93,
        -0.0005272383174780435,
        -4.8642236795860284e-05,
        -1.8072072472044716e-172,
        2.8084983899751933e-183,
        -0.09003194970911928
      ],
      [
        -0.06445107166099284,
        -0.026049930619211032,
        -0.07132327783211516,
        -0.025656850520868874,
        -1.240275450376069e-05,
        -5.471492664865718e-06,
        -7.465333763558001e-143,
        6.389661558156877e-06,
        2.6854037507517864e-43,
        2.832003185698909e-10,
        5.297928862745789e-175,
        -0.08052177628080218
      ],
      [
        -0.03304677744802864,
        -0.05712962114323731,
        -0.0008955826911304957,
        -0.0412705841790642,
        -4.6491859396346905e-06,
        2.3464184461896432e-05,
        -4.683400466373847e-06,
        2.0340957799859788e-05,
        2.179312628450112e-05,
        -3.9136447164204656e-06,
        -3.999797194635799e-176,
        -0.10135783400264425
      ]
    ],
    "weights": [
      [
        -0.04671455485476351,
        -0.05397002432801219,
        -0.052114986430281375,
        -0.053795926669923395,
        -1.6157311449612502e-06,
        -1.0304339101238458e-05,
        -2.5389463625354454e-140,
        2.8441602011390073e-05,
        8.11921913644963e-06,
        -2.287772027052385e-174,
        -1.5772677730192496e-175,
        -0.06875257757578258
      ],
      [
        -0.008910951110413567,
        -0.049689212247767754,
        -0.058946726022551084,
        -0.05629581772190725,
        -0.00010392620519463847,
        0.00013130471759834614,
        2.6620635422827564e-93,
        -0.0004367674685894879,
        -5.5234076169331794e-05,
        -6.50421543138668e-173,
        1.0107904666362007e-183,
        -0.09031130735429982
      ],
      [
        -0.06436157230549845,
        -0.025956749258787524,
        -0.07129844694132094,
        -0.025635701635003755,
        -2.2560149338362698e-05,
        -3.0507099879478504e-06,
        -2.68680524275765e-143,
        2.9725297041682884e-05,
        9.664881845821448e-44,
        1.019249942177497e-10,
        1.9067470383800023e-175,
        -0.08040744603451354
      ],
      [
        -0.033048870512064045,
        -0.05718313976848449,
        -0.0009040621305544296,
        -0.04122763805727633,
        -7.725769333311322e-06,
        1.675302744693807e-05,
        -1.6855756655399163e-06,
        3.140200127850532e-05,
        2.1803952352139303e-05,
        -7.784459344630334e-06,
        -1.4395439524719804e-176,
        -0.1013684065061035
      ]
    ]
  },
  "cues": [
    [
      3,
      3
    ],
    [
      6,
      9
    ],
    [
      8,
      0
    ],
    [
      2,
      7
    ],
    [
      0,
      9
    ]
  ],
  "env": {
    "delay": 6,
    "grid_size": 10,
    "max_steps": 200,
    "noise": 0.2,
    "num_cues": 5,
    "reward_sparse_prob": 0.1
  },
  "seed": 26
}