{
  "agent": {
    "action_size": 4,
    "cue_exploration_bias": 0.0,
    "cue_regularization": 0.025,
    "epsilon": 0.05,
    "state_size": 11,
    "target_weights": [
      [
        0.09359753718132288,
        0.12234498679349814,
        0.025823757454863358,
        0.009338141817946307,
        -7.727755855783524e-06,
        -8.220279539274814e-06,
        9.4e-323,
        -9.4e-323,
        -9.4e-323,
        5.386583164479439e-06,
        6.568974396087517e-20,
        0.1214989869251485
      ],
      [
        0.2904558612356264,
        0.20780338347701305,
        -0.05401260896597414,
        -0.00040140265661309026,
        2.9336007618291924e-05,
        8.143292190429742e-05,
        9.4e-323,
        9.4e-323,
        -9.4e-323,
        -8.658033248402005e-05,
        -1.3314214738873103e-05,
        0.21685546994017874
      ],
      [
        0.08740163680414831,
        0.08793939835406711,
        0.0009147869437468442,
        0.02426710882284433,
        -5.554117575048648e-05,
        -7.06930102249377e-05,
        -9.4e-323,
        9.4e-323,
        -9.4e-323,
        1.3281629105471688e-05,
        4.5828314805254795e-117,
        0.10486739498152084
      ],
      [
        0.22464690904858994,
        0.2715237199613049,
        0.031310044826891634,
        -0.05981747108869489,
        -1.5484827135755443e-05,
        -0.0001452437732220301,
        -9.4e-323,
        -9.4e-323,
        -9.4e-323,
        -7.164581204389551e-05,
        2.4069862481068387e-19,
        0.2224910335574644
      ]
    ],
    "weights": [
      [
        0.09360310309509695,
        0.12235055270727221,
        0.025868284765055902,
        0.009382669128138852,
        -3.9903726778361845e-08,
        1.1379153500750235e-05,
        9.4e-323,
        -9.4e-323,
        -9.4e-323,
        2.781463944716172e-08,
        3.3920139870794833e-22,
        0.12154908014911511
      ],
      [
        0.29321125459875874,
        0.21008390667563656,
        -0.053880448632014855,
        0.00020562784185483118,
        -8.056160197268233e-05,
        9.724722767684858e-06,
        9.4e-323,
        9.4e-323,
        -9.4e-323,
        -2.9443728813295344e-05,
        -1.2246812762432835e-05,
        0.2197430236372701
      ],
      [
        0.08824570982151303,
        0.08885928155603805,
        0.001109392898610544,
        0.02438590459310181,
        -1.6841492752305793e-05,
        -2.833152592259646e-05,
        -9.4e-323,
        9.4e-323,
        -9.4e-323,
        6.858220017388806e-08,
        2.3664315835405348e-119,
        0.10590607395374925
      ],
      [
        0.2259468575861749,
        0.2733153144955373,
        0.031782208614859336,
        -0.05983695329737465,
        -2.214930205494107e-05,
        -0.00017137511662837875,
        -9.4e-323,
        -9.4e-323,
        -9.4e-323,
        -2.5952604883888964e-05,
        1.242892806089968e-21,
        0.22426314588301727
      ]
    ]
  },
  "cues": [
    [
      2,
      9
    ],
    [
      1,
      4
    ],
    [
      1,
      7
    ],
    [
      7,
      7
    ],
    [
      6,
      3
    ]
  ],
  "env": {
    "delay": 0,
    "grid_size": 10,
    "max_steps": 200,
    "noise": 0.0,
    "num_cues": 5,
    "reward_sparse_prob": 1.0
  },
  "seed": 1
}