{
  "agent": {
    "action_size": 4,
    "cue_exploration_bias": 0.85,
    "cue_regularization": 0.0037500000000000007,
    "epsilon": 0.05,
    "state_size": 11,
    "target_weights": [
      [
        -0.05368899327165303,
        -0.06584668464833242,
        -0.0505484870822133,
        -0.06926119224612205,
        1.6676527428476657e-05,
        -6.206302755081847e-06,
        1.911398675963521e-171,
        1.241637272648899e-79,
        -1.0443155553576962e-05,
        7.582410737231872e-253,
        -7.952059150723879e-05,
        -0.08603809955457484
      ],
      [
        -0.020869016059133425,
        -0.06847923229512344,
        -0.04415610231053388,
        -0.06908414825897158,
        3.05159525601028e-05,
        3.830204067152298e-06,
        1.0627836499582862e-180,
        -4.954937469348004e-06,
        -1.0567789058991798e-05,
        -4.0539148520015987e-13,
        2.036863487552816e-05,
        -0.10035793132257258
      ],
      [
        -0.042693439559091204,
        -0.056908512108422356,
        -0.03594613340711,
        -0.05665653743508031,
        -7.5108380116106575e-06,
        1.752157022364249e-05,
        -6.411324458192826e-180,
        -8.37723962707636e-310,
        7.38818024469479e-08,
        -1.796170003987275e-193,
        0.0002135993354584991,
        -0.11144504609893015
      ],
      [
        -0.06080781600896235,
        -0.05771412804245944,
        -0.04510799176120709,
        -0.054892586299947616,
        -1.4784281406834185e-05,
        3.08742187481314e-06,
        3.1445107441125187e-173,
        5.856825778539009e-77,
        6.510450648438481e-08,
        3.786961675097011e-293,
        1.5172621979092882e-05,
        -0.10514141463056616
      ]
    ],
    "weights": [
      [
        -0.05371201410893472,
        -0.06590350760454623,
        -0.050567706335915064,
        -0.0692466093808917,
        1.49057191546e-05,
        2.278074778537311e-06,
        1.0478154202913004e-171,
        6.80656891233915e-80,
        -1.4275954153800625e-05,
        4.15662467143276e-253,
        -5.865752954209714e-05,
        -0.08608033964555832
      ],
      [
        -0.02092373169405477,
        -0.06857414398579897,
        -0.04420550560417374,
        -0.0690933554968573,
        1.7922237435481723e-05,
        8.536043855068244e-06,
        5.826105829535568e-181,
        -5.619120708094139e-06,
        -1.4502741643295932e-06,
        -2.222327841853263e-13,
        1.739535755277254e-05,
        -0.10046205025113378
      ],
      [
        -0.042697876256143484,
        -0.05691802202919846,
        -0.036016789240297574,
        -0.05672212004454404,
        -1.4616657651194978e-05,
        1.3463325309473159e-05,
        -3.514643342733702e-180,
        -4.592344324138e-310,
        4.050148870371251e-08,
        -9.846478661464096e-194,
        9.5129019816871e-05,
        -0.11152013862917
      ],
      [
        -0.06080781600896235,
        -0.05771548227396412,
        -0.04515173745270299,
        -0.054934977759938844,
        -1.5106902870901734e-05,
        2.651753078731661e-06,
        1.723798853889992e-173,
        3.2106710347171433e-77,
        3.568983628724418e-08,
        2.0759859725332128e-293,
        8.317525525087086e-06,
        -0.10518516032206207
      ]
    ]
  },
  "cues": [
    [
      9,
      0
    ],
    [
      6,
      7
    ],
    [
      3,
      7
    ],
    [
      7,
      4
    ],
    [
      2,
      0
    ]
  ],
  "env": {
    "delay": 6,
    "grid_size": 10,
    "max_steps": 200,
    "noise": 0.2,
    "num_cues": 5,
    "reward_sparse_prob": 0.1
  },
  "seed": 10
}