{
  "agent": {
    "action_size": 4,
    "cue_exploration_bias": 0.8177777777777777,
    "cue_regularization": 0.0045555555555555575,
    "epsilon": 0.05,
    "state_size": 11,
    "target_weights": [
      [
        -0.02519059633812981,
        -0.017736090725560642,
        -0.037292735953014036,
        -0.05643519275127655,
        1.65471063400105e-05,
        2.1953349399204137e-05,
        -4.851457645415687e-158,
        -4.7535254675035515e-160,
        1.1408273479302798e-32,
        -9.209381316504357e-175,
        2.438325204710373e-165,
        -0.061070886002944025
      ],
      [
        -0.018970739121533173,
        -0.030645215078327823,
        -0.02197906896038798,
        -0.020628905186992442,
        -1.4100807842780623e-06,
        -8.255204970387149e-05,
        -1.9220935225408887e-156,
        -7.562171300143843e-07,
        1.1637736795164904e-10,
        -5.085268829725663e-07,
        -9.333747601376325e-160,
        -0.06690269014300994
      ],
      [
        -0.03212607362116857,
        -0.010326283933415368,
        -0.04394563161890239,
        -0.044890679600579866,
        1.2369828534192997e-05,
        1.1288281705217785e-05,
        -6.581438736437182e-162,
        -1.2802878086073751e-172,
        1.4055902882249483e-06,
        4.554920057591786e-35,
        7.230195715714138e-170,
        -0.06062243196669999
      ],
      [
        -0.02189164494538429,
        0.015344994623612803,
        -0.03569992245115184,
        -0.06228670551467433,
        0.00010305646818266414,
        1.935978017302644e-06,
        -5.460036565448354e-169,
        9.156638907235467e-42,
        -2.65908899755172e-05,
        4.23520623988397e-06,
        1.3990131502219488e-159,
        -0.08552554910856962
      ]
    ],
    "weights": [
      [
        -0.025404564787447056,
        -0.017910452586110317,
        -0.03729824576787368,
        -0.056480309154903756,
        2.8533453596743946e-05,
        3.5200245906295484e-05,
        -9.72446688055224e-159,
        -9.528167481433134e-161,
        2.286722583646442e-33,
        -1.845967339060417e-175,
        4.887482161083589e-166,
        -0.06129036426712092
      ],
      [
        -0.01899151357058855,
        -0.030770865704540584,
        -0.022090627039959326,
        -0.02063558708940641,
        -8.5401391603961e-06,
        -0.000101556480250948,
        -3.85272554506065e-157,
        -1.5157935970604645e-07,
        2.332717181115746e-11,
        -1.0193127906640657e-07,
        -1.8708958431655206e-160,
        -0.0670350226716367
      ],
      [
        -0.03224430599548881,
        -0.010454842933166224,
        -0.043990725307678204,
        -0.044925446663925075,
        4.496928595378659e-06,
        1.7964562241361273e-05,
        -1.3192114143126378e-162,
        -2.5662630290386563e-173,
        2.817424618430984e-07,
        9.130074398458266e-36,
        1.4492510069383173e-170,
        -0.060785758029796036
      ],
      [
        -0.02302166955881473,
        0.014197749185108488,
        -0.035910085454823375,
        -0.06247964769327195,
        0.00012208612012478488,
        0.00013886069529476857,
        -1.0944328205663885e-169,
        1.8353954274902823e-42,
        -3.274955131697212e-05,
        8.489226501024293e-07,
        2.8042411248598474e-160,
        -0.08686573672567159
      ]
    ]
  },
  "cues": [
    [
      9,
      1
    ],
    [
      7,
      4
    ],
    [
      2,
      9
    ],
    [
      7,
      5
    ],
    [
      5,
      0
    ]
  ],
  "env": {
    "delay": 5,
    "grid_size": 10,
    "max_steps": 200,
    "noise": 0.16,
    "num_cues": 5,
    "reward_sparse_prob": 0.18
  },
  "seed": 6
}