{
  "agent": {
    "action_size": 4,
    "cue_exploration_bias": 0.8177777777777777,
    "cue_regularization": 0.0045555555555555575,
    "epsilon": 0.05,
    "state_size": 11,
    "target_weights": [
      [
        -0.02704690851905584,
        -0.02035931976273343,
        -0.05520463094790578,
        -0.04127948453480572,
        -1.0037385518971709e-05,
        1.0057481868451532e-05,
        3.9742829689932153e-23,
        -2.2642412837828479e-07,
        1.561463070080127e-68,
        -1.6978338959754493e-05,
        -1.2100325385179428e-282,
        -0.06373472483582995
      ],
      [
        0.011113353061883834,
        -0.020816388525478357,
        -0.08295830615239604,
        -0.039602374610833366,
        -2.998672082109797e-05,
        3.364155101154867e-05,
        2.081327355009796e-05,
        -5.4359080142949005e-05,
        5.889720926435299e-63,
        -5.813028947280659e-05,
        6.563252839565492e-105,
        -0.08414373491876527
      ],
      [
        -0.03848917009393935,
        -0.03034068512163553,
        -0.07273688164438527,
        -0.017773167483937962,
        3.2877473906062444e-06,
        -7.198342858935827e-06,
        1.468332451486044e-07,
        3.116456974390084e-05,
        6.394093163576733e-91,
        3.560104681670408e-09,
        9.002662920692176e-98,
        -0.07640026710301134
      ],
      [
        -0.03405352732296281,
        -0.03669176144988267,
        -0.020061022413219838,
        -0.04233337076233033,
        3.5273462492611414e-05,
        5.793341599814741e-06,
        -3.0957227182802217e-06,
        -6.025972081195026e-07,
        -1.7996769794229696e-06,
        4.969235536631411e-06,
        -3.709191142257307e-94,
        -0.057561115546778806
      ]
    ],
    "weights": [
      [
        -0.027123593107225306,
        -0.020461408866242245,
        -0.05524119956678533,
        -0.04129064863834593,
        -1.182706884112744e-05,
        1.4971215039522877e-05,
        1.1478633005420689e-23,
        -3.6867993424969893e-06,
        4.5098604384246296e-69,
        -1.2381615969502534e-05,
        -3.494849144519676e-283,
        -0.06384797804287899
      ],
      [
        0.012354972381309764,
        -0.01981937705098563,
        -0.0829085287388522,
        -0.03930798935235634,
        -0.000401745292839082,
        -7.792625609039349e-05,
        6.0113467155441514e-06,
        -9.739121630877134e-05,
        1.701085341591152e-63,
        -4.9068998933802e-05,
        1.8956166748801584e-105,
        -0.08285233818579561
      ],
      [
        -0.038425023503271274,
        -0.030268520207133946,
        -0.07272886332055176,
        -0.017773167483937962,
        -2.808019910425257e-06,
        -9.594237361917009e-06,
        4.240878033107859e-08,
        9.001036454953201e-06,
        1.8467595135974825e-91,
        1.0282391923423342e-09,
        2.6001737808899032e-98,
        -0.07632810218850976
      ],
      [
        -0.034120357268893974,
        -0.03670218683393194,
        -0.020052001219451318,
        -0.042380754130443676,
        3.3562511826630674e-05,
        6.32419754814755e-07,
        2.1007312652749618e-05,
        -3.6742005746479464e-06,
        -6.739452556037467e-06,
        1.4352282282742559e-06,
        -1.0712987525323227e-94,
        -0.05761892429894143
      ]
    ]
  },
  "cues": [
    [
      2,
      1
    ],
    [
      7,
      5
    ],
    [
      3,
      3
    ],
    [
      7,
      7
    ],
    [
      2,
      7
    ]
  ],
  "env": {
    "delay": 5,
    "grid_size": 10,
    "max_steps": 200,
    "noise": 0.16,
    "num_cues": 5,
    "reward_sparse_prob": 0.18
  },
  "seed": 18
}