{
  "agent": {
    "action_size": 4,
    "cue_exploration_bias": 0.85,
    "cue_regularization": 0.0037500000000000007,
    "epsilon": 0.05,
    "state_size": 11,
    "target_weights": [
      [
        -0.031113999578793836,
        -0.04862410583427176,
        -0.04446466004672344,
        -0.07406308224228532,
        3.4028223926335444e-06,
        -5.667957795060057e-06,
        6.57e-322,
        -5.692480018437061e-07,
        5.683123740787402e-07,
        -4.518390683397147e-06,
        1.066583776862976e-278,
        -0.12731459783512483
      ],
      [
        -0.06795363717957159,
        -0.08916886187559665,
        -0.04717954026722947,
        -0.03962947876184698,
        1.710614679495605e-05,
        -5.764980733732669e-06,
        -7.475295711858802e-13,
        1.2160603564414966e-05,
        -1.99620854531237e-06,
        1.2018161379171702e-28,
        -1.75957379907079e-257,
        -0.09196020020258597
      ],
      [
        -0.032394788360927206,
        -0.06175180610755437,
        -0.038898728097740906,
        -0.06948444074568398,
        -8.107757104813276e-06,
        -4.3238725950565666e-06,
        6.57e-322,
        -0.00011446755891502671,
        -1.8891550759244485e-05,
        -2.686948319562141e-09,
        4.4793296e-317,
        -0.11827773329161638
      ],
      [
        -0.05971176718629365,
        -0.07223649474839665,
        -0.05933002927353073,
        -0.06573391279243178,
        3.984384448759809e-05,
        2.7120513718153704e-05,
        6.57e-322,
        -2.399793624510606e-05,
        -2.5813602658962783e-06,
        1.6777484335963185e-32,
        -6.57e-322,
        -0.08905711058011878
      ]
    ],
    "weights": [
      [
        -0.031115861501666096,
        -0.04862897453510108,
        -0.04446784734154296,
        -0.07406326275914779,
        9.26413482368147e-07,
        -1.289687230915153e-06,
        6.57e-322,
        -2.6056439496761317e-07,
        2.6013612595006114e-07,
        -2.0657117139353497e-06,
        4.8821208963484084e-279,
        -0.12731964705281665
      ],
      [
        -0.06797231518785438,
        -0.08918328681910018,
        -0.047152638414698224,
        -0.039606829974094995,
        2.4694410906223094e-05,
        -1.2172768073124031e-05,
        -3.421700028908093e-13,
        1.4671058495680775e-05,
        -9.13733329153272e-07,
        5.501125938509323e-29,
        -8.054174645686817e-258,
        -0.09195197635833746
      ],
      [
        -0.03183721079654564,
        -0.06160990983519761,
        -0.03904198349183053,
        -0.06921201484774883,
        -0.0002008906312119135,
        5.221159198414568e-05,
        6.57e-322,
        -0.00013221001018949043,
        -4.072338181004462e-05,
        -1.2299086881787291e-09,
        2.0503443e-317,
        -0.11786341112132447
      ],
      [
        -0.059386551379294605,
        -0.07210364721150575,
        -0.059349322986960405,
        -0.0655608382357533,
        -0.00010605631396104086,
        -4.3931337103020774e-05,
        6.57e-322,
        -1.8360468931276548e-05,
        -8.314048670198728e-06,
        7.679631796545398e-33,
        -6.57e-322,
        -0.08875118848654945
      ]
    ]
  },
  "cues": [
    [
      4,
      1
    ],
    [
      0,
      9
    ],
    [
      4,
      6
    ],
    [
      6,
      8
    ],
    [
      5,
      2
    ]
  ],
  "env": {
    "delay": 6,
    "grid_size": 10,
    "max_steps": 200,
    "noise": 0.2,
    "num_cues": 5,
    "reward_sparse_prob": 0.1
  },
  "seed": 23
}