{
  "agent": {
    "action_size": 4,
    "cue_exploration_bias": 0.85,
    "cue_regularization": 0.0037500000000000007,
    "epsilon": 0.05,
    "state_size": 11,
    "target_weights": [
      [
        -0.033020712838757134,
        -0.02144850393604193,
        -0.035380496656289784,
        -0.03802683448707625,
        -4.251152347318279e-06,
        -4.8563434779752115e-06,
        -1.9937430148715616e-08,
        1.7683917113691624e-64,
        -3.371515332698198e-101,
        1.2147664379307966e-94,
        5.991040065975242e-71,
        -0.07659270253426136
      ],
      [
        -0.02605025402904209,
        -0.04004930779952509,
        -0.015141636309648347,
        -0.01712315979829696,
        -8.097884965821751e-06,
        -1.4161182349197388e-05,
        1.1096138733409386e-05,
        -6.503256380867899e-06,
        -1.6624022165480478e-80,
        -1.402153697012939e-86,
        -2.0825363923201285e-05,
        -0.08537772583593334
      ],
      [
        -0.04811857635945187,
        -0.02405559639748238,
        -0.05718361792121768,
        -0.044343907392945595,
        -5.732491688417486e-06,
        -9.34262071754129e-06,
        1.3883242010432291e-05,
        -1.8110718496752526e-05,
        9.388429181359634e-90,
        3.0301853354551398e-86,
        -1.0144019027186893e-06,
        -0.05430219383497122
      ],
      [
        -0.024119477147205807,
        -0.011438644407913975,
        -0.04178005515206488,
        -0.07529585872954175,
        1.195673823446211e-05,
        -0.00023957163724959573,
        -0.00016927441350317044,
        7.043179366134185e-07,
        4.080251017417962e-66,
        1.5437507747691866e-91,
        4.465291681968441e-08,
        -0.0679155121028079
      ]
    ],
    "weights": [
      [
        -0.03300511688693348,
        -0.02142631555654624,
        -0.03537524282682082,
        -0.03802817308527931,
        -3.855906180596612e-06,
        -4.617998090538899e-06,
        -6.756931049728129e-09,
        5.9932001133064385e-65,
        -1.1426295398261482e-101,
        4.116926304642629e-95,
        2.0304043369682313e-71,
        -0.07657185275296874
      ],
      [
        -0.02606174879861224,
        -0.04010360882765247,
        -0.015141432659455887,
        -0.01708014988954726,
        2.298046147389933e-05,
        -1.2625242211271786e-05,
        3.7605570918925478e-06,
        -3.847808356164259e-06,
        -5.633994486924379e-81,
        -4.751994505394246e-87,
        -7.057857861567572e-06,
        -0.08538901695531102
      ],
      [
        -0.048040844411981615,
        -0.02393361255740376,
        -0.05712638836139257,
        -0.04433092972572885,
        -1.1579315868537374e-05,
        -1.0613225012274065e-05,
        2.8497294436702906e-05,
        -7.152495544374671e-06,
        3.1818026782047047e-90,
        1.026950475906078e-86,
        -3.437877230042494e-07,
        -0.05416723232767585
      ],
      [
        -0.02378492507176622,
        -0.011252264457742528,
        -0.042116379206399726,
        -0.07548401065860844,
        -0.00019206622781793323,
        -6.627321395153208e-05,
        -9.537464484396777e-05,
        2.386981521332246e-07,
        1.382824896921447e-66,
        5.231876658763746e-92,
        1.513317804096681e-08,
        -0.06791728408170317
      ]
    ]
  },
  "cues": [
    [
      5,
      7
    ],
    [
      7,
      4
    ],
    [
      6,
      3
    ],
    [
      7,
      0
    ],
    [
      6,
      4
    ]
  ],
  "env": {
    "delay": 6,
    "grid_size": 10,
    "max_steps": 200,
    "noise": 0.2,
    "num_cues": 5,
    "reward_sparse_prob": 0.1
  },
  "seed": 16
}