{
  "agent": {
    "action_size": 4,
    "cue_exploration_bias": 0.25555555555555554,
    "cue_regularization": 0.018611111111111113,
    "epsilon": 0.05,
    "state_size": 11,
    "target_weights": [
      [
        0.05589189501642122,
        0.03198645493366115,
        0.0019020624095062953,
        -0.01665879186254091,
        2.0657960943493307e-08,
        -1.2510444701012612e-08,
        5.345286688607394e-47,
        4.3391174251440825e-136,
        7.163562790216465e-18,
        6.287166308877361e-29,
        7.814160868898837e-248,
        0.020931473830087304
      ],
      [
        0.11777245154366701,
        0.10584976942686115,
        -0.046091531562138334,
        -0.01303632370429629,
        0.0003081869097711022,
        4.2569097570135536e-05,
        -1.701048624884148e-05,
        -5.201087647974814e-06,
        -1.4944285148666094e-05,
        5.744670600450251e-06,
        -3.413473993355057e-06,
        0.10158566137062718
      ],
      [
        0.040563608617179094,
        0.0625056691224741,
        -0.0315388587376947,
        -0.01316169788642096,
        -7.144610412400131e-05,
        -2.7125611015944806e-07,
        1.3499832030636226e-287,
        3.173303684293156e-205,
        3.616552547484618e-18,
        4.297631046682668e-197,
        5.767367318675187e-119,
        0.050117671642673924
      ],
      [
        0.11172668743259814,
        0.1345400359224495,
        -0.006127176880452454,
        -0.0771075468996841,
        8.803359854979667e-05,
        -8.7387727675201e-05,
        8.259570923103422e-30,
        4.3275100986473766e-14,
        8.722470225320222e-19,
        -9.386574944306055e-06,
        3.166489120084405e-08,
        0.08626682649499291
      ]
    ],
    "weights": [
      [
        0.05589189501642122,
        0.03198645493366115,
        0.0019020624095062953,
        -0.01665879186254091,
        2.0657960943493307e-08,
        -1.2510444701012612e-08,
        5.345286688607394e-47,
        4.3391174251440825e-136,
        7.163562790216465e-18,
        6.287166308877361e-29,
        7.814160868898837e-248,
        0.020931473830087304
      ],
      [
        0.11777245154366701,
        0.10584976942686115,
        -0.046091531562138334,
        -0.01303632370429629,
        0.0003081869097711022,
        4.2569097570135536e-05,
        -1.701048624884148e-05,
        -5.201087647974814e-06,
        -1.4944285148666094e-05,
        5.744670600450251e-06,
        -3.413473993355057e-06,
        0.10158566137062718
      ],
      [
        0.040563608617179094,
        0.0625056691224741,
        -0.0315388587376947,
        -0.01316169788642096,
        -7.144610412400131e-05,
        -2.7125611015944806e-07,
        1.3499832030636226e-287,
        3.173303684293156e-205,
        3.616552547484618e-18,
        4.297631046682668e-197,
        5.767367318675187e-119,
        0.050117671642673924
      ],
      [
        0.11172668743259814,
        0.1345400359224495,
        -0.006127176880452454,
        -0.0771075468996841,
        8.803359854979667e-05,
        -8.7387727675201e-05,
        8.259570923103422e-30,
        4.3275100986473766e-14,
        8.722470225320222e-19,
        -9.386574944306055e-06,
        3.166489120084405e-08,
        0.08626682649499291
      ]
    ]
  },
  "cues": [
    [
      7,
      4
    ],
    [
      4,
      3
    ],
    [
      1,
      1
    ],
    [
      4,
      8
    ],
    [
      5,
      4
    ]
  ],
  "env": {
    "delay": 1,
    "grid_size": 10,
    "max_steps": 200,
    "noise": 0.05,
    "num_cues": 5,
    "reward_sparse_prob": 0.65
  },
  "seed": 27
}