{
  "agent": {
    "action_size": 4,
    "cue_exploration_bias": 0.85,
    "cue_regularization": 0.0037500000000000007,
    "epsilon": 0.05,
    "state_size": 11,
    "target_weights": [
      [
        -0.06251420829159139,
        -0.036980976967882655,
        -0.0668886356857782,
        -0.0358330176665838,
        2.9524470949026296e-07,
        -1.40000876480568e-06,
        -6.413407056262351e-10,
        1.8202874947772746e-71,
        3.146059632069131e-133,
        2.647582138571124e-06,
        -1.0329990656681339e-05,
        -0.10714236952875593
      ],
      [
        -0.05777538383716688,
        -0.08091501671059309,
        -0.0371420665620616,
        -0.04087766660290724,
        2.6742386979809592e-05,
        -5.404076407987415e-06,
        5.173551272332711e-103,
        -4.437580750459567e-06,
        7.49127951564095e-06,
        0.00018805070829158024,
        -8.943319591916944e-06,
        -0.10504129581957207
      ],
      [
        -0.036054730478940665,
        -0.061251830019078676,
        -0.0406821327130197,
        -0.05790903240012373,
        4.707111255529469e-05,
        1.3863648808707385e-06,
        -3.160139913695305e-17,
        6.001867999141446e-16,
        6.57e-322,
        1.2939085758848956e-06,
        -1.7289194863302036e-06,
        -0.11113008477545627
      ],
      [
        -0.0423271895095693,
        -0.03640317127197587,
        -0.04144391016998698,
        -0.028961826406672705,
        -3.7455413187394035e-05,
        3.6993536691508774e-06,
        4.4514853843084e-103,
        9.25416515969374e-37,
        1.093899828015217e-223,
        -8.048417476044187e-06,
        -2.729712224566012e-05,
        -0.13424191831236057
      ]
    ],
    "weights": [
      [
        -0.06253560533913179,
        -0.03699526319421764,
        -0.06689930482342211,
        -0.03585079762543312,
        1.2767021649830225e-05,
        -5.563994263406363e-07,
        -4.748490326578051e-10,
        1.3477419232420085e-71,
        2.3293443872599343e-133,
        1.9602713602202925e-06,
        -8.721075126655214e-06,
        -0.10717443571394024
      ],
      [
        -0.057807301985308895,
        -0.08094762348800735,
        -0.037188365106236056,
        -0.04092327651780947,
        3.789955947220214e-05,
        -9.46185862671614e-06,
        3.830500380720339e-103,
        -3.285587376898327e-06,
        5.546547724423469e-06,
        0.00013296598713490542,
        -6.6216390441406e-06,
        -0.10511951251188854
      ],
      [
        -0.036072526575223855,
        -0.061256089380858005,
        -0.04068023630429681,
        -0.057920672725904704,
        4.615085284553193e-05,
        1.5011333524543578e-06,
        -2.3397694359915772e-17,
        4.443786568559215e-16,
        6.57e-322,
        3.7761760609415507e-06,
        -4.933079889856176e-07,
        -0.11114598446301657
      ],
      [
        -0.042347471678272554,
        -0.0364295403771737,
        -0.04147621936574018,
        -0.02898804866593134,
        -1.6863607867716802e-05,
        3.299730609831782e-06,
        3.2958823759131364e-103,
        6.851789283896005e-37,
        8.099240709356855e-224,
        -9.515321853521314e-06,
        -2.9230398712418157e-05,
        -0.13429450967681703
      ]
    ]
  },
  "cues": [
    [
      6,
      9
    ],
    [
      2,
      3
    ],
    [
      2,
      1
    ],
    [
      2,
      4
    ],
    [
      0,
      7
    ]
  ],
  "env": {
    "delay": 6,
    "grid_size": 10,
    "max_steps": 200,
    "noise": 0.2,
    "num_cues": 5,
    "reward_sparse_prob": 0.1
  },
  "seed": 24
}