{
  "agent": {
    "action_size": 4,
    "cue_exploration_bias": 0.0,
    "cue_regularization": 0.025,
    "epsilon": 0.05,
    "state_size": 11,
    "target_weights": [
      [
        0.11819172306368474,
        0.09223139013725838,
        0.02496794675217651,
        0.005839373041744322,
        -8.798493256072148e-05,
        -3.8218715885799445e-05,
        1.2130882908617085e-10,
        9.4e-323,
        4.9091799956711774e-272,
        4.4310801280552776e-225,
        5.207879823732344e-215,
        0.12011641634411212
      ],
      [
        0.2541545895177721,
        0.20177253650110244,
        -0.06440824171212363,
        0.01808000764375974,
        -0.0017451765320723302,
        0.00014387410724285,
        -8.371098540078655e-05,
        -1.589895646018216e-135,
        2.7514716037224918e-182,
        3.851279025720219e-218,
        -1.685961357427309e-204,
        0.2042236359680199
      ],
      [
        0.09362230908997492,
        0.08825980463682716,
        -6.635426186288738e-05,
        0.0341670515756264,
        1.0123466882749786e-05,
        -4.7520101045718444e-06,
        7.952230677529486e-06,
        2.4705989809702356e-222,
        1.0934941291262693e-259,
        -9.4e-323,
        1.1971012903674344e-254,
        0.10874926314970926
      ],
      [
        0.18165518631978533,
        0.24455429750649424,
        0.0146296750696183,
        -0.047153014579982694,
        -0.0004209078978777394,
        -9.722898098145957e-05,
        6.410355325485959e-06,
        6.703878553785532e-144,
        -7.715694146381971e-214,
        -1.2804267513146476e-198,
        2.2873093272121072e-198,
        0.2191202825102953
      ]
    ],
    "weights": [
      [
        0.11940405557546885,
        0.09344085353349588,
        0.025037741485815605,
        0.005912036890930025,
        -8.37775654335107e-05,
        -3.4669130669647506e-06,
        2.111693691738359e-12,
        9.4e-323,
        8.545696555279642e-274,
        7.713440171246559e-227,
        9.065660804701278e-217,
        0.12139854358953532
      ],
      [
        0.25706411081508646,
        0.20416876061961484,
        -0.0649493185741424,
        0.01805222796054272,
        -0.0004529150865199377,
        0.00013813231706636604,
        -3.108078504411461e-05,
        -2.7676242788841544e-137,
        4.789647441449403e-184,
        6.704146503599189e-220,
        -2.93485147768173e-206,
        0.20659208040331542
      ],
      [
        0.09437152942023413,
        0.08887230113268332,
        0.00026745833210501,
        0.03463758800399735,
        -7.729202532587247e-06,
        -1.950395944938478e-05,
        1.38429127405547e-07,
        4.300716050291858e-224,
        1.9035091442425882e-261,
        -9.4e-323,
        2.083864185553285e-256,
        0.10983229607393638
      ],
      [
        0.1858403231861579,
        0.24929899317543236,
        0.015382373341631915,
        -0.046959875110534496,
        -0.0008956684900670643,
        -0.0001513332941052873,
        4.2427957629068395e-05,
        1.1669833233781353e-145,
        -1.3431159775455127e-215,
        -2.2289136857165658e-200,
        3.981653036892382e-200,
        0.22405811764868142
      ]
    ]
  },
  "cues": [
    [
      5,
      2
    ],
    [
      6,
      0
    ],
    [
      1,
      8
    ],
    [
      1,
      5
    ],
    [
      9,
      0
    ]
  ],
  "env": {
    "delay": 0,
    "grid_size": 10,
    "max_steps": 200,
    "noise": 0.0,
    "num_cues": 5,
    "reward_sparse_prob": 1.0
  },
  "seed": 7
}