{
  "agent": {
    "action_size": 4,
    "cue_exploration_bias": 0.85,
    "cue_regularization": 0.0037500000000000007,
    "epsilon": 0.05,
    "state_size": 11,
    "target_weights": [
      [
        -0.05605505372000155,
        -0.03494410351611574,
        -0.056284172235576725,
        -0.039095501776349045,
        -1.111768639304125e-06,
        -6.395598402585255e-06,
        5.237913680313338e-06,
        5.158557140216041e-07,
        -1.435991961774611e-227,
        6.159886496252402e-76,
        2.2124136983227488e-09,
        -0.09569085591162216
      ],
      [
        -0.016114931029542694,
        -0.05462778607239554,
        -0.058766253378139476,
        -0.069415459065045,
        -0.00017290244103508736,
        -6.0577365296866594e-05,
        0.0001637432029183579,
        4.7176683643138166e-07,
        5.946361024641319e-110,
        2.1522338801468338e-78,
        -3.144564756290016e-05,
        -0.0858282170447751
      ],
      [
        -0.05307057467564268,
        -0.04687952073902425,
        -0.0627852156247426,
        -0.05451753001778868,
        -2.0712667248368873e-05,
        -1.957912787530034e-05,
        4.9025236884077735e-05,
        1.4490092529664025e-05,
        1.4255757391878616e-73,
        6.207025097649815e-73,
        1.864911384972659e-06,
        -0.07922613276571927
      ],
      [
        -0.0503255672041443,
        -0.07234337295432981,
        -0.03417504098969049,
        -0.05485854510911061,
        5.7254227336422634e-05,
        4.9044825643891174e-05,
        0.00010391234974325727,
        2.539573115315047e-05,
        2.1669239632264768e-05,
        -6.814804382079187e-29,
        2.6593036755341356e-06,
        -0.07627377667041473
      ]
    ],
    "weights": [
      [
        -0.05605505372000155,
        -0.03494410351611574,
        -0.056284172235576725,
        -0.039095501776349045,
        -1.0469061951694447e-06,
        -6.022468481997473e-06,
        4.93232502502958e-06,
        4.857598278368447e-07,
        -1.3522137860772335e-227,
        5.800508402992619e-76,
        2.083337778354291e-09,
        -0.09569085591162216
      ],
      [
        -0.016155293672879767,
        -0.05468280328527548,
        -0.0587855488436666,
        -0.06942009996102924,
        -0.0001679209963363458,
        -5.958583561337505e-05,
        0.00011514192542080516,
        4.4424316919448397e-07,
        5.599440364955461e-110,
        2.0266689515451714e-78,
        -2.9611055826615806e-05,
        -0.08588787515363927
      ],
      [
        -0.0530711137494313,
        -0.046881946571073044,
        -0.06278710238300277,
        -0.05451753001778868,
        -2.0804680141572334e-05,
        -1.843684876872983e-05,
        4.616502246880759e-05,
        1.3644716267027264e-05,
        1.3424052633587325e-73,
        5.844896859448327e-73,
        1.7561093318767645e-06,
        -0.07922855859776806
      ],
      [
        -0.050271645225244806,
        -0.07212790579544527,
        -0.03395053832184945,
        -0.05479558762125461,
        -5.997465808462454e-06,
        -1.8458577004411165e-05,
        9.784992925229609e-05,
        2.391410167112838e-05,
        2.040501990578597e-05,
        -6.417217282664282e-29,
        2.504155445953342e-06,
        -0.07599535202367419
      ]
    ]
  },
  "cues": [
    [
      7,
      9
    ],
    [
      5,
      4
    ],
    [
      2,
      2
    ],
    [
      0,
      5
    ],
    [
      8,
      7
    ]
  ],
  "env": {
    "delay": 6,
    "grid_size": 10,
    "max_steps": 200,
    "noise": 0.2,
    "num_cues": 5,
    "reward_sparse_prob": 0.1
  },
  "seed": 9
}