{
  "agent": {
    "action_size": 4,
    "cue_exploration_bias": 0.25555555555555554,
    "cue_regularization": 0.018611111111111113,
    "epsilon": 0.05,
    "state_size": 11,
    "target_weights": [
      [
        0.06934596024904338,
        0.026898684323356906,
        0.0020480934274125693,
        -0.047398611214426886,
        -1.5093782612879703e-05,
        -0.00010367102115649437,
        1.3703848517322714e-228,
        9.802674083500465e-279,
        6.044997750758093e-05,
        3.7185018185077703e-28,
        -1.0246421622553306e-291,
        0.019604693430918547
      ],
      [
        0.13118710169094336,
        0.08823599491190988,
        -0.04030267096158286,
        -0.025090594918982374,
        -4.5500886810070495e-05,
        -0.0008632057445696802,
        -8.551515029757184e-90,
        -6.460370347308154e-176,
        1.3390553958789328e-07,
        1.3151420834072502e-05,
        -2.0154735756531486e-08,
        0.08992612400281452
      ],
      [
        0.024183088222154377,
        0.02154780877297932,
        -0.02141122608869918,
        -0.05151453720257548,
        -0.00015786506918214562,
        -0.0001251428174127239,
        1.0744125381653085e-228,
        5.642810561203352e-162,
        1.1670558431918789e-20,
        1.7966861936826434e-07,
        -1.3e-322,
        0.03039933585294231
      ],
      [
        0.08360775266988846,
        0.15185427153660364,
        -0.033219209695412456,
        -0.04821942736896984,
        4.708329047858675e-05,
        0.00021100434090956378,
        6.867118553456078e-55,
        5.053437749153613e-149,
        1.6915978884252017e-05,
        -8.711508622816614e-06,
        1.0656089914586e-60,
        0.0717768394283536
      ]
    ],
    "weights": [
      [
        0.06934596024904338,
        0.026898684323356906,
        0.0020480934274125693,
        -0.047398611214426886,
        -6.125938758959255e-06,
        -4.207575681801134e-05,
        5.561822303412459e-229,
        3.97849781262379e-279,
        2.453413234373158e-05,
        1.5091852718098224e-28,
        -4.158596487581318e-292,
        0.019604693430918547
      ],
      [
        0.1318419728993508,
        0.08876462048813354,
        -0.040338097356138525,
        -0.024999775681354284,
        -3.014383308761745e-05,
        -0.0005633771095388604,
        -3.470704376244991e-90,
        -2.621995700006676e-176,
        -1.1634060899562298e-05,
        5.337614876875337e-06,
        -8.179969204151826e-09,
        0.0905455688166663
      ],
      [
        0.024183088222154377,
        0.02154780877297932,
        -0.02141122608869918,
        -0.05151453720257548,
        -6.407086750828628e-05,
        -5.0790266115254825e-05,
        4.360593748741511e-229,
        2.290182177186213e-162,
        4.736594402504788e-21,
        7.292002193125267e-08,
        -1.3e-322,
        0.03039933585294231
      ],
      [
        0.083404665409047,
        0.15163283556344867,
        -0.033267305360667174,
        -0.04824917432191116,
        4.864733867837327e-05,
        0.00019559398660651714,
        2.787077884180476e-55,
        2.0509802590579196e-149,
        1.7359347071240994e-05,
        -4.7299353149708135e-06,
        4.3248638131977746e-61,
        0.0715256565022574
      ]
    ]
  },
  "cues": [
    [
      3,
      0
    ],
    [
      8,
      0
    ],
    [
      2,
      3
    ],
    [
      2,
      5
    ],
    [
      3,
      1
    ]
  ],
  "env": {
    "delay": 1,
    "grid_size": 10,
    "max_steps": 200,
    "noise": 0.05,
    "num_cues": 5,
    "reward_sparse_prob": 0.65
  },
  "seed": 15
}