{
  "agent": {
    "action_size": 4,
    "cue_exploration_bias": 0.25555555555555554,
    "cue_regularization": 0.018611111111111113,
    "epsilon": 0.05,
    "state_size": 11,
    "target_weights": [
      [
        0.06329851579623708,
        0.0946062834872327,
        0.017014490547835173,
        0.021196947534212397,
        -3.8610230621618764e-06,
        -2.3509325356231934e-05,
        6.519513984495906e-05,
        1.8041404340044767e-16,
        1.2304785436925727e-169,
        8.963106590668426e-176,
        1.6675696062952231e-25,
        0.06656203358968175
      ],
      [
        0.16581559835856186,
        0.13236870634254158,
        -0.027539643667199902,
        0.00036740106881111696,
        -0.0008064094439655333,
        -5.249154430057711e-05,
        -3.2573078575441807e-06,
        -1.0891422513373007e-05,
        -4.794494583972653e-06,
        1.4112821974148972e-83,
        -1.293327230782367e-05,
        0.14502216800349452
      ],
      [
        0.1076932726933958,
        0.10686149388293098,
        0.00028754425844306614,
        0.02738001328822014,
        -2.7110672967172087e-05,
        -8.064151520562919e-07,
        2.6821200368851076e-149,
        7.326903630462722e-174,
        -2.1800439930935577e-116,
        1.1369144911029938e-182,
        6.939496164809049e-07,
        0.07266053639280648
      ],
      [
        0.14585950178498974,
        0.1901885826409176,
        0.011350610053459506,
        -0.05194708325375457,
        -0.00019115223624847991,
        -1.096314501379799e-05,
        4.5199869368857905e-18,
        1.6138708476976342e-05,
        6.709401820505879e-105,
        -9.002588709327249e-66,
        2.9082006826859295e-06,
        0.1102522201799119
      ]
    ],
    "weights": [
      [
        0.06340144214926505,
        0.09483565352784563,
        0.01729931631716813,
        0.021355329615960397,
        -7.756375440486043e-08,
        -5.2869976676672254e-05,
        1.3096994589028758e-06,
        3.624321929241419e-18,
        2.4718975780989416e-171,
        1.8005906390880927e-177,
        6.121681563931544e-05,
        0.0669497857120427
      ],
      [
        0.16872745290104976,
        0.1349681926671827,
        -0.027649867320954962,
        0.0005695456329026364,
        -0.0005291614280953067,
        -2.3921365208032927e-05,
        -3.2672861572696415e-05,
        -5.230179161102943e-06,
        -9.631618211533411e-08,
        2.8351124557890937e-85,
        -1.811701101156411e-05,
        0.1478237988922272
      ],
      [
        0.10820389368345229,
        0.10744596852869889,
        0.00037883449146640613,
        0.027397449865532063,
        -0.00027093685595854194,
        -3.926418161888926e-05,
        5.388087469978172e-151,
        1.4718952583077432e-175,
        -4.379471299438991e-118,
        2.283937571661733e-184,
        1.394069311565674e-08,
        0.07326244761588631
      ],
      [
        0.1471676915745117,
        0.19177748354068175,
        0.011358107489293962,
        -0.05222029692816215,
        -0.00038872850005746074,
        -2.1454017116376392e-05,
        9.080162201607898e-20,
        3.242091022421741e-07,
        1.3478458601017881e-106,
        -1.808522167353354e-67,
        4.0870079081652005e-06,
        0.11156790740526833
      ]
    ]
  },
  "cues": [
    [
      4,
      4
    ],
    [
      2,
      3
    ],
    [
      2,
      2
    ],
    [
      1,
      8
    ],
    [
      3,
      4
    ]
  ],
  "env": {
    "delay": 1,
    "grid_size": 10,
    "max_steps": 200,
    "noise": 0.05,
    "num_cues": 5,
    "reward_sparse_prob": 0.65
  },
  "seed": 13
}