{
  "agent": {
    "action_size": 4,
    "cue_exploration_bias": 0.5666666666666667,
    "cue_regularization": 0.010833333333333334,
    "epsilon": 0.05,
    "state_size": 11,
    "target_weights": [
      [
        0.010662525554267532,
        0.03276307657280333,
        -0.017117466818861306,
        -0.0037277931600241216,
        -5.836492748385386e-05,
        -1.609191488144149e-05,
        1.1697644657735782e-06,
        3.164132480218775e-09,
        2.1907711626260943e-105,
        1.4404362328455745e-69,
        1.2494928860088862e-121,
        -0.020205914018984476
      ],
      [
        0.07176013019047527,
        0.03592389811169164,
        -0.04292866341794878,
        -0.012632278619175309,
        -0.0013567956069485134,
        -1.0139799329513648e-05,
        1.28231434837927e-05,
        6.197274661646442e-05,
        2.7693140300727884e-05,
        2.3359466588636824e-59,
        7.600180039910998e-09,
        0.03557768008465904
      ],
      [
        0.05013555235023021,
        0.06077336704347623,
        -0.01762646104653952,
        -0.002003585520473219,
        -5.681536392683725e-05,
        -1.1774918760200487e-05,
        9.373231762952836e-07,
        1.9498107803493414e-08,
        -1.0330226895491142e-07,
        2.840257840758083e-60,
        3.407866996327384e-199,
        -0.0028111892553422313
      ],
      [
        0.062443971186310517,
        0.06670290962145532,
        -0.00349116818774282,
        -0.026718719074174287,
        0.0005676635994986833,
        9.025369597886097e-05,
        -2.016540243573173e-05,
        1.5543201523323238e-06,
        -1.368386275227849e-06,
        -1.3767806052600659e-90,
        -6.61431108300005e-06,
        0.011994911340030659
      ]
    ],
    "weights": [
      [
        0.010662525554267532,
        0.03276307657280333,
        -0.017117466818861306,
        -0.0037277931600241216,
        -1.2160629273680792e-05,
        -3.352832250686373e-06,
        2.437263716250308e-07,
        6.592630835598515e-10,
        4.564583060526647e-106,
        3.0012220994977155e-70,
        2.603381931907478e-122,
        -0.020205914018984476
      ],
      [
        0.07064479499576105,
        0.034848887357091844,
        -0.043024926229772345,
        -0.012768865871113234,
        5.5724493044938424e-05,
        4.2294751914689914e-05,
        -5.42938667964828e-06,
        1.4184109533970596e-05,
        1.661329317758944e-06,
        4.867063585300088e-60,
        1.5835361382767781e-09,
        0.03436608207812131
      ],
      [
        0.05026279793997246,
        0.06088643517826803,
        -0.017601892925768636,
        -0.001964839944751883,
        -4.6598858759207154e-05,
        -1.666056514358518e-05,
        1.0722953915280952e-06,
        4.062529857543984e-09,
        -2.152355275757456e-08,
        5.917821563760041e-61,
        7.100464087411719e-200,
        -0.002659375544829101
      ],
      [
        0.06364973913959393,
        0.06803437081624908,
        -0.003010379148543953,
        -0.026363623276485813,
        -0.0012338282880954559,
        -0.00014526927864837833,
        3.76939640472157e-05,
        -2.088551146783874e-06,
        2.2770077480903654e-06,
        -2.8685923642059136e-91,
        -1.4336300058525483e-05,
        0.013681468332512929
      ]
    ]
  },
  "cues": [
    [
      4,
      4
    ],
    [
      2,
      3
    ],
    [
      2,
      2
    ],
    [
      1,
      8
    ],
    [
      3,
      4
    ]
  ],
  "env": {
    "delay": 3,
    "grid_size": 10,
    "max_steps": 200,
    "noise": 0.1,
    "num_cues": 5,
    "reward_sparse_prob": 0.3
  },
  "seed": 13
}