{
  "agent": {
    "action_size": 4,
    "cue_exploration_bias": 0.8177777777777777,
    "cue_regularization": 0.0045555555555555575,
    "epsilon": 0.05,
    "state_size": 11,
    "target_weights": [
      [
        -0.05371323025358683,
        -0.06356978289837109,
        -0.05056847327099075,
        -0.06315000226510424,
        8.979027609930213e-06,
        -2.2912254340428933e-05,
        -2.3213431017290536e-06,
        -1.7987737797169026e-07,
        -4.636960797294034e-06,
        5.287880377264958e-07,
        -3.673452601256554e-06,
        -0.09560712485897845
      ],
      [
        -0.07996534194509083,
        -0.06422258545530704,
        -0.06805741393905865,
        -0.045004532709124176,
        6.546299562381056e-07,
        8.8799702795306e-06,
        -2.1984612659891768e-11,
        7.902442801145204e-09,
        1.4351738962867423e-20,
        -3.445532382232497e-05,
        2.0460341409551457e-07,
        -0.08996775211652627
      ],
      [
        -0.03784934764895466,
        -0.058993716574478036,
        -0.03640295705778752,
        -0.058907563688045256,
        3.6890944423434265e-06,
        2.2822657015271375e-06,
        -2.9420553498987726e-06,
        1.1607135644371727e-07,
        -3.899398750687886e-06,
        6.2857153260102165e-09,
        -6.252312777660626e-10,
        -0.11539171843720854
      ],
      [
        -0.03237995715544159,
        -0.04338458240294687,
        -0.03024123430396827,
        -0.04148320741950017,
        -6.998169197257685e-05,
        -1.8289271725776615e-05,
        -8.133254931934015e-06,
        -1.4557311340701722e-06,
        -1.4352747366611043e-05,
        3.736091315744883e-11,
        -8.026142561382151e-07,
        -0.13749813507268016
      ]
    ],
    "weights": [
      [
        -0.05376409495991926,
        -0.06362554214971108,
        -0.05067896344344262,
        -0.06325559789254852,
        -6.582287648164142e-07,
        -1.3093669063721523e-05,
        -4.652998286503317e-07,
        -3.6055382371505815e-08,
        -2.1086795645625923e-06,
        1.0599251061302235e-07,
        -5.838995474203316e-06,
        -0.0957684797377627
      ],
      [
        -0.07999340557552521,
        -0.06413584439368705,
        -0.0678346435979798,
        -0.04489656706009965,
        3.4661144615486563e-05,
        -3.8110989873965374e-05,
        3.3011360906922833e-06,
        1.5839990557850233e-09,
        2.876723253569223e-21,
        -6.447126024146571e-06,
        4.101157362261724e-08,
        -0.08977304540588178
      ],
      [
        -0.037661797659745505,
        -0.0589354257758325,
        -0.036377855528631826,
        -0.05875320296832593,
        8.467409640784042e-06,
        -4.132702732248972e-06,
        -1.0575378190867469e-05,
        -2.4056541561280335e-06,
        7.395698430350433e-05,
        1.259935363263972e-09,
        -1.2532400152079394e-10,
        -0.11517906691884366
      ],
      [
        -0.032629879845896874,
        -0.043480341521999276,
        -0.03029682245661188,
        -0.04169295914354669,
        2.996881321693182e-06,
        -6.298408990906125e-06,
        -1.446559666806156e-05,
        -2.83000204813228e-06,
        -1.6086361334474624e-05,
        7.488779438693202e-12,
        -1.836475554682514e-06,
        -0.13780364591577904
      ]
    ]
  },
  "cues": [
    [
      3,
      4
    ],
    [
      1,
      6
    ],
    [
      7,
      2
    ],
    [
      1,
      1
    ],
    [
      0,
      6
    ]
  ],
  "env": {
    "delay": 5,
    "grid_size": 10,
    "max_steps": 200,
    "noise": 0.16,
    "num_cues": 5,
    "reward_sparse_prob": 0.18
  },
  "seed": 4
}