{
  "agent": {
    "action_size": 4,
    "cue_exploration_bias": 0.5666666666666667,
    "cue_regularization": 0.010833333333333334,
    "epsilon": 0.05,
    "state_size": 11,
    "target_weights": [
      [
        0.02497436740481132,
        0.04243632093147558,
        -0.023514352725269565,
        -0.05266425743762754,
        -7.3826309260645e-05,
        -0.00011038196469280536,
        7.905591445757092e-273,
        6.569939498273081e-165,
        4.1688503581877344e-47,
        6.50007091146767e-150,
        5.100650928345637e-296,
        0.002872460967741375
      ],
      [
        0.07320523019494034,
        0.04664726684516651,
        -0.028671002222846863,
        -0.012437351056470959,
        0.00014261338246440985,
        9.241360401676443e-05,
        -8.356453491554184e-276,
        -6.470674956702979e-155,
        3.1268385428340664e-15,
        -1.6506445216403234e-06,
        -2.216726951136122e-281,
        0.01858134591100527
      ],
      [
        -0.0010847085076524786,
        0.03172392974185763,
        -0.027823963863411502,
        -0.03977786040684579,
        -7.608313540438569e-07,
        -4.500074393844067e-06,
        -1.5960387243241875e-278,
        2.377706450535387e-184,
        4.5889041382924804e-05,
        2.942910103782282e-157,
        -1.2831466750150225e-306,
        -0.013459399097693479
      ],
      [
        0.055987997233047475,
        0.08665527532561616,
        -0.027098965183095108,
        -0.04711638677018889,
        2.90845106657139e-05,
        -5.9280584722794673e-05,
        1.1422184548951658e-269,
        -2.9313728716625437e-161,
        -2.8186822016781273e-06,
        6.822284817314451e-09,
        3.391821036923762e-278,
        0.0009550503379190105
      ]
    ],
    "weights": [
      [
        0.025064887351124228,
        0.04253815587107759,
        -0.023503037731980453,
        -0.05266425743762754,
        -7.22771076543652e-05,
        -0.00013376133555900567,
        6.641190425694051e-273,
        5.519159394043522e-165,
        3.502094596579065e-47,
        5.460465418655016e-150,
        4.284865255504293e-296,
        0.002974295907343394
      ],
      [
        0.07315077214946128,
        0.046587490376466555,
        -0.028661174708286982,
        -0.012422205118690185,
        0.00013169892894944368,
        9.80461135905072e-05,
        -7.01994269519863e-276,
        -5.435770981220835e-155,
        2.62673961029263e-15,
        -1.3866444615254506e-06,
        -1.862189047495526e-281,
        0.01853671538008609
      ],
      [
        -0.0010847085076524786,
        0.03172392974185763,
        -0.027823963863411502,
        -0.03977786040684579,
        -6.391458423715711e-07,
        -3.7803434675779787e-06,
        -1.3407721822897278e-278,
        1.9974218782683839e-184,
        3.8549659992880226e-05,
        2.4722282373201328e-157,
        -1.0779233244394954e-306,
        -0.013459399097693479
      ],
      [
        0.05585611276025862,
        0.08653665394592035,
        -0.027096350614033548,
        -0.04712703529422034,
        5.2354849479588404e-05,
        -8.059566737687533e-06,
        9.595348202280355e-270,
        -2.4625362419750226e-161,
        -2.367869042980416e-06,
        5.731145218037208e-09,
        2.8493414503699476e-278,
        0.000825780434191714
      ]
    ]
  },
  "cues": [
    [
      9,
      1
    ],
    [
      7,
      4
    ],
    [
      2,
      9
    ],
    [
      7,
      5
    ],
    [
      5,
      0
    ]
  ],
  "env": {
    "delay": 3,
    "grid_size": 10,
    "max_steps": 200,
    "noise": 0.1,
    "num_cues": 5,
    "reward_sparse_prob": 0.3
  },
  "seed": 6
}