{
  "agent": {
    "action_size": 4,
    "cue_exploration_bias": 0.0,
    "cue_regularization": 0.025,
    "epsilon": 0.05,
    "state_size": 11,
    "target_weights": [
      [
        0.1019257844929426,
        0.07171419617945388,
        0.011939855473832604,
        0.03321503407443085,
        -9.658304279205642e-05,
        0.00011142281947084497,
        1.7230295895260562e-10,
        4.3121347481975876e-14,
        4.0641953971194076e-188,
        4.471107557309356e-222,
        1.2823982870310162e-223,
        0.1439426036760372
      ],
      [
        0.286111116303556,
        0.20358033035908546,
        -0.029286860060240158,
        0.01511657304751894,
        -6.656620655886307e-05,
        2.294300395229986e-05,
        -3.222814311241595e-05,
        1.5815110072748837e-10,
        -1.3666321070502083e-203,
        1.8477375447010446e-100,
        1.426244959141077e-207,
        0.2343706260219781
      ],
      [
        0.0908974475837758,
        0.11926545060486621,
        -0.004193277909667986,
        0.051506287422270584,
        -2.8921170517526836e-05,
        5.5737587049508755e-05,
        4.231184600369043e-19,
        2.736511694438736e-160,
        7.112832122033227e-189,
        1.368315098813526e-207,
        3.279313801214542e-206,
        0.1419567428864144
      ],
      [
        0.24075773294258468,
        0.2748953999088206,
        0.03879842322280934,
        -0.059797088926568744,
        0.00012818882857843113,
        -7.802186694775373e-05,
        1.0699467729606387e-06,
        -3.2103141089303894e-06,
        6.60929601657388e-215,
        -3.2479243168930226e-49,
        -7.072796488886318e-157,
        0.21214068230190947
      ]
    ],
    "weights": [
      [
        0.10255199446956974,
        0.072375518227499,
        0.012299348977304324,
        0.03353941550648457,
        -8.668360466141439e-05,
        0.0001173953948801599,
        0.00017652463015045133,
        1.9179621212970333e-14,
        1.8076830341359268e-188,
        1.9886704465227242e-222,
        5.703883302741792e-224,
        0.14492830715613605
      ],
      [
        0.2860229488936549,
        0.20354029309655952,
        -0.029212489719125115,
        0.015142813241258761,
        5.14921172437236e-06,
        -1.2978867777822342e-06,
        -1.4334514420077069e-05,
        7.034284370717805e-11,
        -6.0785406025780086e-204,
        8.218413448968136e-101,
        6.343688143017364e-208,
        0.234356828953192
      ],
      [
        0.09157305353216014,
        0.12002550729679859,
        -0.004108827166119944,
        0.051506287422270584,
        -0.00013439642347780017,
        2.4791103927848654e-05,
        1.881956911275839e-19,
        1.2171525429750701e-160,
        3.1636633319278242e-189,
        6.0860262556036865e-208,
        1.4585814270310188e-206,
        0.1427167995783468
      ],
      [
        0.24045009572702838,
        0.2746244312867758,
        0.03895292352407983,
        -0.05967925721880991,
        0.00014492659433180133,
        -6.179647849391287e-05,
        3.7505445897354455e-05,
        -2.816309279768751e-05,
        2.9396992785363734e-215,
        -1.4446199333738735e-49,
        -3.1458561824851934e-157,
        0.21198754538762363
      ]
    ]
  },
  "cues": [
    [
      3,
      3
    ],
    [
      6,
      9
    ],
    [
      8,
      0
    ],
    [
      2,
      7
    ],
    [
      0,
      9
    ]
  ],
  "env": {
    "delay": 0,
    "grid_size": 10,
    "max_steps": 200,
    "noise": 0.0,
    "num_cues": 5,
    "reward_sparse_prob": 1.0
  },
  "seed": 26
}